patient_id,emb_0,emb_1,emb_2,emb_3,emb_4,emb_5,emb_6,emb_7,emb_8,emb_9,emb_10,emb_11,emb_12,emb_13,emb_14,emb_15,emb_16,emb_17,emb_18,emb_19,emb_20,emb_21,emb_22,emb_23,emb_24,emb_25,emb_26,emb_27,emb_28,emb_29,emb_30,emb_31,emb_32,emb_33,emb_34,emb_35,emb_36,emb_37,emb_38,emb_39,emb_40,emb_41,emb_42,emb_43,emb_44,emb_45,emb_46,emb_47,emb_48,emb_49,emb_50,emb_51,emb_52,emb_53,emb_54,emb_55,emb_56,emb_57,emb_58,emb_59,emb_60,emb_61,emb_62,emb_63,emb_64,emb_65,emb_66,emb_67,emb_68,emb_69,emb_70,emb_71,emb_72,emb_73,emb_74,emb_75,emb_76,emb_77,emb_78,emb_79,emb_80,emb_81,emb_82,emb_83,emb_84,emb_85,emb_86,emb_87,emb_88,emb_89,emb_90,emb_91,emb_92,emb_93,emb_94,emb_95,emb_96,emb_97,emb_98,emb_99,emb_100,emb_101,emb_102,emb_103,emb_104,emb_105,emb_106,emb_107,emb_108,emb_109,emb_110,emb_111,emb_112,emb_113,emb_114,emb_115,emb_116,emb_117,emb_118,emb_119,emb_120,emb_121,emb_122,emb_123,emb_124,emb_125,emb_126,emb_127,emb_128,emb_129,emb_130,emb_131,emb_132,emb_133,emb_134,emb_135,emb_136,emb_137,emb_138,emb_139,emb_140,emb_141,emb_142,emb_143,emb_144,emb_145,emb_146,emb_147,emb_148,emb_149,emb_150,emb_151,emb_152,emb_153,emb_154,emb_155,emb_156,emb_157,emb_158,emb_159,emb_160,emb_161,emb_162,emb_163,emb_164,emb_165,emb_166,emb_167,emb_168,emb_169,emb_170,emb_171,emb_172,emb_173,emb_174,emb_175,emb_176,emb_177,emb_178,emb_179,emb_180,emb_181,emb_182,emb_183,emb_184,emb_185,emb_186,emb_187,emb_188,emb_189,emb_190,emb_191,emb_192,emb_193,emb_194,emb_195,emb_196,emb_197,emb_198,emb_199,emb_200,emb_201,emb_202,emb_203,emb_204,emb_205,emb_206,emb_207,emb_208,emb_209,emb_210,emb_211,emb_212,emb_213,emb_214,emb_215,emb_216,emb_217,emb_218,emb_219,emb_220,emb_221,emb_222,emb_223,emb_224,emb_225,emb_226,emb_227,emb_228,emb_229,emb_230,emb_231,emb_232,emb_233,emb_234,emb_235,emb_236,emb_237,emb_238,emb_239,emb_240,emb_241,emb_242,emb_243,emb_244,emb_245,emb_246,emb_247,emb_248,emb_249,emb_250,emb_251,emb_252,emb_253,emb_254,emb_255
C3L-03394,-4.920941,1.0554166,0.51591724,-0.5573337,-0.09559759,2.1858368,1.9581275,2.2667565,-2.4497607,-0.08329525,2.2196848,-4.235698,1.8823186,1.6960189,-1.1666038,0.810651,2.8014498,3.0934691,-1.1810906,-0.74954003,-0.6418745,-2.0783684,0.55677146,0.39915705,-0.028249457,-1.2343576,-3.0643969,3.6661146,-0.790308,2.8070114,1.2629701,-1.7252778,-2.1384218,2.301987,-0.3503163,-2.2438502,0.86122775,-1.1409352,0.7589069,0.6361014,0.013445503,-1.1004566,1.2567831,1.6079661,-0.4110322,-0.12135211,1.0364845,0.0071351742,0.6903962,1.4585459,-1.5468669,3.3506064,-1.4301916,0.9849538,-0.086927004,-0.5096308,-0.4373887,-1.3231844,-1.3059877,0.66458327,-0.83298194,-1.6213918,-0.5506232,-0.8201158,1.3004446,0.3924901,-0.5053958,-0.7951796,3.1753707,0.5109805,0.18199486,0.030349486,0.7610393,-1.0421463,0.95082444,2.4834836,0.90830237,2.807321,-0.29070327,0.5544695,2.7476506,2.3843277,-0.014617718,2.587018,0.52199894,-0.7931781,2.5719883,-2.7009163,0.94715184,2.989294,-1.8540889,1.9169719,2.710625,1.0853087,0.9861685,-0.2579664,0.30759075,-0.5394828,-3.678852,0.06841809,2.7332034,1.5221045,0.79032415,1.115461,2.0113442,1.5143131,0.4261034,-0.226154,-1.6758403,-1.6344889,-1.8179854,-0.3774375,-0.009995662,-0.99875265,-1.3631471,0.34932637,-1.9128959,1.9426407,-2.6434534,0.3912853,-2.601847,-1.1888758,-0.56752485,0.90444887,0.4609842,-0.08723997,-1.6102406,-0.2346618,-0.5403979,-1.1332397,1.5593343,2.581791,-1.596585,-0.7295056,-3.8336415,0.25898042,-2.4008627,-0.14823581,-1.8525523,1.15568,-2.23584,3.7737584,2.126212,-3.142539,-2.8122187,1.5009016,-0.8065911,0.3577065,4.0297,7.91789,1.250542,2.766051,-2.3773036,-0.6453769,1.8105285,-0.5218421,-1.6514492,0.16375235,1.4778693,4.8457727,2.4596581,-0.3951179,-2.0441828,0.21435247,0.9830783,2.745403,1.9233094,-0.8051476,1.9367186,1.0750242,1.5099919,3.8666656,-1.7082123,0.93869656,1.0605714,1.4402759,0.9587653,0.9552025,0.3812986,5.3017907,0.14336634,-0.12573431,1.4283236,-2.0912974,-0.37835407,-1.8484755,-0.85195714,2.0810254,-0.17155442,1.8003862,0.9884319,-0.22431856,0.46023175,0.3396968,-2.4326031,0.42610648,0.86529726,0.5268016,1.9826386,1.0023706,3.3835943,1.6957539,3.1540353,2.3613148,0.14692113,-2.1851726,0.14538851,-2.4075446,-1.6230596,1.5894144,-1.3578061,-0.07706556,-1.5146215,1.0423356,0.24732803,-3.2401388,-1.9668007,1.2152658,-2.4444618,-3.4992697,-1.8219333,2.3335772,-1.8380108,-1.6662396,-0.24803251,-1.2497495,1.0773289,0.4581795,2.1385152,-3.9158404,-1.0930108,5.1325974,-1.909608,-1.0772513,1.8418514,-2.8661613,2.234303,-3.277179,-1.7876121,-1.5436796,0.2733981,0.614934,-2.6877298,0.23955141,0.75115955,-1.6077083,-0.37432504,-4.466574,2.1399167,-2.8926601,-0.8583393,2.4176383,2.4993534,0.38834232,-1.2550155,1.0301821
C3N-03428,-4.960286,1.0761209,0.6728463,-0.4298695,-0.23222594,1.7356782,1.1452608,1.934167,-2.5995061,0.27520308,1.9324285,-3.8616965,2.0293477,1.7018136,-1.1185958,1.1275628,2.7946072,3.2332368,-0.42970562,-0.6463727,-0.5386206,-2.1182516,0.48800212,0.49459875,0.32423446,-1.43157,-2.7992697,3.110424,-1.0002649,2.8356488,1.497209,-1.8249187,-2.1446047,2.2316718,0.4421879,-2.5722992,0.97448516,-1.1880354,0.63803005,0.9369927,-0.41866305,-1.1634091,0.88509995,1.8341509,-1.3212763,-0.8057216,1.5920315,-0.28246242,0.04063886,1.5466629,-1.6767503,3.1882124,-1.8561724,0.91409063,0.3737563,-0.27770066,-0.52507967,-1.2190235,-1.5268043,0.72773975,-0.93890744,-1.8181012,-0.25905845,-0.7951832,1.128257,0.43953702,-0.7345823,-0.54093224,2.941319,0.47488424,0.4960171,-0.3764588,1.1386504,-1.2198652,0.6545965,2.0761638,1.3257302,2.6249173,-0.3746203,0.615177,1.9741222,2.5314844,-0.11144551,2.8289356,0.16576473,-1.2229414,2.7471383,-2.3607106,1.752135,3.2733684,-1.5561718,1.9812584,2.7935948,0.86004174,0.68798274,-0.5995926,1.1898049,-0.7847692,-3.6113868,0.31115693,2.3556983,1.3352231,1.0974834,1.2606778,1.7434462,1.9116385,0.38489842,-0.6168437,-2.1828249,-1.6001604,-1.9771034,-0.7014329,0.6283284,-0.43445075,-1.9206344,0.79354894,-2.5272238,1.5525624,-2.8057168,0.22528717,-2.449815,-0.96181595,-1.1450119,1.0309184,0.2661935,0.280691,-1.3772188,-0.41967225,-0.9115,-1.720517,0.7095209,2.3201027,-1.7118332,-0.42894384,-3.2040522,0.13794288,-3.154846,-0.07600914,-1.5576967,0.7720444,-2.2152967,2.9572685,1.94765,-3.4530764,-2.5335324,1.8220776,-0.6391488,0.14617826,3.8111022,8.220906,1.4354066,2.6317806,-2.3052456,-0.47302106,2.0610044,-0.7721961,-2.6728213,0.4226129,1.5681694,3.8847675,2.5165243,-0.62141776,-1.7666278,-0.063088186,1.0680584,3.1637473,1.8654865,-0.81066674,1.7829354,0.86022335,1.0825934,3.3498874,-1.3996123,1.3031212,1.3022729,0.88483596,0.120481215,0.8768629,0.5226175,5.3942666,-0.036801223,0.32991925,1.4760054,-1.9575312,-0.5896773,-2.0133605,-0.77188736,1.2388835,-0.04736412,1.9461052,1.2925472,-0.9443918,0.64678556,0.3774099,-2.5028107,0.65223503,0.29377294,1.0730069,1.845077,1.2555956,3.0895252,1.69364,2.6346989,1.9615824,0.09751164,-1.958802,-0.24502262,-2.553995,-1.5083047,1.5333858,-1.8038738,0.28754413,-1.6392643,1.7637811,0.21545793,-3.1804593,-1.3956463,1.37517,-2.8980978,-3.4520714,-1.9451675,2.5401864,-1.4346265,-1.5254972,0.19568178,-1.1673613,1.010564,0.7803313,2.368042,-4.2653265,-0.6769272,5.4802504,-1.3792567,-1.0304198,2.0802155,-2.3464115,2.7375143,-3.6184742,-1.1819253,-2.482308,0.2975241,0.8055871,-3.0307012,0.3096384,0.5326423,-1.3126106,0.0060237334,-4.117874,1.8475312,-2.4578831,-0.4285784,2.1767766,2.2993743,0.38717088,-1.8077816,1.383768
C3L-02112,-4.692855,1.0313805,0.4126004,-1.0871165,-0.29602623,1.7862347,1.6834129,2.018161,-2.3799121,0.18458675,2.0407264,-4.2418694,2.0112822,1.702766,-1.1119236,1.0218778,2.703703,3.2649207,-0.67560846,-0.72356623,-0.4437641,-2.3522956,0.582458,0.66284823,-0.004989627,-1.1972619,-2.7508779,3.8683872,-0.7373051,2.6677628,1.4102193,-1.6441305,-2.2767842,2.2094247,-0.20976642,-2.3834314,1.1650155,-1.5721089,0.8952531,0.87839836,-0.13130298,-1.3139782,1.2947499,1.5614272,-0.67484593,-0.30210915,0.982575,0.029901044,0.4560373,1.2722791,-1.8070687,3.1685245,-1.64244,0.85622746,0.050477706,-0.45015067,-0.31095284,-1.5488266,-1.2722718,1.147849,-1.1905553,-1.7334833,-0.4091117,-1.0017107,0.8915714,0.35731462,-0.8863332,-1.1699598,3.142258,0.14913581,0.60004383,0.35080275,0.5252629,-1.2826871,0.74937063,2.2862463,1.0470291,2.3880656,-0.11740715,0.3675885,2.344323,2.2318485,-0.019711625,2.7644558,0.24097046,-1.1805485,2.6166346,-2.8311467,1.2389343,3.0424054,-1.6638284,1.7085383,2.563693,0.9497958,0.7493557,-0.19637236,0.46394944,-0.5320433,-3.816779,0.12481684,2.7283092,1.8519264,0.9689922,1.4687831,2.1190372,1.8661224,0.3939098,-0.35618216,-1.9671065,-1.5467122,-2.337651,-0.4587719,-0.1451385,-0.85705423,-1.76023,0.6533917,-2.513036,1.4527608,-2.570761,0.76184076,-2.559367,-1.0225798,-0.8688818,0.77278745,0.040448524,0.31669384,-1.3342854,-0.14568652,-0.8589171,-1.006913,1.2287507,2.7861843,-1.8854378,-0.5391943,-3.5781167,0.13960074,-2.5830436,0.23946625,-2.184554,0.55149007,-2.162484,3.5128617,1.9887456,-3.4963114,-2.5701847,1.6826307,-0.80585307,0.2869122,3.8621705,8.147938,1.4712379,2.5415719,-1.9637908,-0.56991154,1.6885291,-0.12744999,-1.6210047,0.3919265,1.5958364,4.7958355,2.1349378,-0.16493563,-2.0709279,0.11124941,1.1252507,2.8174076,1.6717762,-0.57875884,2.0461059,0.8404341,1.3753698,3.4692214,-1.6478891,1.4713309,0.8901175,1.1984288,0.8669194,0.89059,0.4978545,5.4226313,0.4399819,0.20927107,1.1274731,-1.8856177,-0.31722584,-2.108848,-0.3572433,1.7074131,0.12615351,1.6632724,0.7665288,-0.59086233,0.80633837,-0.0732011,-2.4611504,0.40036884,0.76983744,0.81665504,1.9559846,1.1040711,3.3371243,1.4381526,3.2307315,2.3814435,0.08313554,-2.1607428,0.29745802,-2.6623862,-1.6568388,1.5579507,-1.730247,0.45879272,-1.3842543,1.4093851,0.55092746,-3.436066,-1.6494243,1.219646,-2.6198988,-3.5651639,-1.8438556,2.4363208,-1.7696896,-1.7962953,-0.0542007,-1.3407431,0.81645745,0.6290254,2.1731405,-4.297752,-1.0113977,5.2751207,-1.8627113,-1.5529909,1.7372289,-2.561334,2.4350064,-3.5600119,-1.3968736,-1.4978696,0.26564914,0.9880406,-3.084761,0.23326242,0.72611433,-1.7923541,-0.41285673,-4.1129413,2.2897606,-2.8223426,-1.0391176,2.1759126,2.4823275,0.31512427,-1.3566285,1.1952411
C3N-01719,-4.742836,0.98386276,0.7504553,-0.07257835,-0.07572432,2.090074,1.1964363,1.7069771,-2.5649242,0.29480103,2.2285833,-3.8911362,1.7600073,1.5999782,-1.4532243,1.0776994,2.5998814,2.8334177,-0.7744266,-1.0266708,-0.632862,-1.6653855,0.6927344,0.58176154,0.23828614,-1.1998736,-2.6884177,3.836342,-1.1444019,2.953084,1.6104553,-1.7737769,-1.806568,2.4083145,0.023973832,-3.0097375,0.8254408,-1.4948187,0.9861019,1.2664709,0.14910689,-0.9255193,1.3675431,1.849462,-0.77838236,-0.47926602,1.6985097,-0.21524177,0.2158789,1.4018388,-1.5219625,3.4040956,-2.0982502,0.9870097,0.091058366,-0.39328098,-0.3187851,-1.2765986,-1.668993,0.72707653,-1.0853139,-1.7350492,-0.06321825,-0.48463404,1.160701,0.734828,-0.7106464,-0.47569528,2.856726,0.8842181,0.6922018,-0.13086796,1.0190439,-1.225037,0.8177893,2.2788978,1.0409267,2.7360978,-0.4558838,0.4080249,2.3931265,2.7158928,-0.51148295,2.9536994,0.005312977,-0.8243063,2.860292,-2.698717,1.119954,2.4279928,-1.5875888,2.09081,2.9444375,0.94274056,0.65205944,-0.49209982,0.97386706,-1.1882424,-3.5780263,0.20692204,2.7316115,1.2698613,0.61887085,1.2683684,2.0988488,2.3595152,0.9528759,-0.2002888,-1.6662911,-1.7277629,-2.323402,-0.40038428,0.2915818,-1.1366104,-1.6633586,0.70655507,-2.5565262,1.3894311,-2.2468657,0.40152672,-2.3989947,-1.3449923,-1.1263376,1.0244786,-0.09125363,0.20623687,-1.6542989,-0.23854263,-0.8719022,-1.5645353,0.8589558,1.9908775,-1.8664702,-0.521689,-3.4372056,0.2040951,-2.901925,0.042387206,-1.7477443,1.1438009,-2.2752132,3.5078886,2.0024066,-3.2428641,-2.9496145,2.0561087,-0.96220815,0.019473722,3.6159232,8.12275,1.3301824,2.5570471,-2.5466826,-0.5710742,1.8195335,-0.2794605,-1.9302878,0.33624998,1.3478236,3.8937821,2.408009,-0.6207569,-2.2600625,0.1875137,1.0726216,2.927548,2.1328325,-0.9488117,1.603972,1.213737,1.3809085,3.7878952,-1.7234546,0.810374,0.9504095,1.4278238,0.4309509,1.4601109,0.5944176,5.489655,-0.11219574,-0.28449568,1.2363464,-1.6790966,-0.82928216,-2.1004372,-0.8896801,1.0777411,-0.4120303,1.4339015,1.0106376,-0.71131366,1.2008018,0.22387919,-2.27635,0.6213644,0.7831061,0.902367,2.0620763,1.009846,2.9508636,1.5514748,2.4860241,1.9291937,0.19214922,-2.2066398,-0.31331357,-2.5538232,-1.2110039,1.8001103,-1.7936907,0.30356175,-1.5246593,1.6822102,0.1406791,-3.4527297,-1.8459972,1.202317,-2.8043926,-2.9071007,-2.0380342,2.2384655,-0.9652172,-1.8558161,-0.4999062,-1.2737913,0.6277913,0.6808661,2.2751958,-4.2810907,-0.53323656,5.406039,-1.5755304,-1.5524857,1.9344501,-2.6108112,2.3142495,-3.4897456,-1.4448974,-1.8407418,0.267582,1.1517229,-2.812973,0.35065174,0.96093273,-1.574436,-0.044904996,-3.7175798,2.0004437,-3.0157144,-0.66501814,2.6139233,2.6319017,0.6103891,-1.2754953,1.5664506
C3N-03670,-4.900127,1.3709706,0.5938756,-0.8902234,-0.25705418,1.9396323,1.7623396,1.8247687,-2.3676224,0.23518372,2.1717474,-4.451451,2.1283448,2.0336885,-0.992858,1.0438979,2.6737833,3.1246026,-0.7255426,-0.79764736,-0.8392171,-1.8666753,0.6535849,0.4091456,-0.17861629,-1.1565044,-3.1442146,3.5506706,-0.693677,2.682907,1.2968689,-1.3211293,-2.2305474,2.392723,-0.06628899,-2.4162476,0.9652419,-1.2123319,0.7466695,0.96447515,0.088482894,-1.4152049,1.0634376,1.4480295,-0.7149792,-0.26680607,1.103432,0.14250334,0.38459054,1.3031358,-1.6138102,3.0795743,-1.7593234,0.8067637,0.025546333,-0.12334632,-0.7396544,-1.2983229,-1.3890932,0.78686714,-1.0786889,-1.6905662,-0.1533415,-0.67298055,1.0652326,0.54878104,-0.8275615,-0.8891827,3.2500074,0.04225529,0.26924425,0.32420382,0.8429849,-1.2308565,0.9209259,2.143731,0.68349785,2.7361238,-0.42380723,0.58392864,2.7319133,2.258644,-0.13609916,2.802703,0.08550171,-1.1505023,2.7344441,-2.8597853,1.0998348,2.9380562,-1.8712052,1.8699671,2.7463367,0.8925257,0.75020194,-0.31571412,0.37302122,-0.986584,-4.040811,0.21898662,2.40364,1.6548724,0.8517906,1.20166,1.9631023,1.6984994,0.3794782,0.21693945,-1.6160368,-1.7482123,-2.0452776,-0.49342096,0.13812777,-0.79426455,-1.659414,0.4677228,-2.450204,1.7852091,-2.7408867,0.58398104,-2.6554449,-1.3157676,-0.9308226,1.0649805,0.06981309,0.22893322,-1.3474559,-0.14809895,-0.8019574,-1.2939811,1.1954597,2.832124,-1.7901838,-0.68784,-3.4739244,0.21731432,-2.6158009,0.18995583,-2.188995,0.8529394,-2.403376,3.663059,1.7666324,-3.1832063,-2.7874498,1.6671244,-0.68735564,0.13803826,3.7187202,7.878309,1.3548161,2.9074383,-2.0890703,-0.5566613,1.8873506,-0.3540139,-1.7853445,0.3497092,1.3710939,4.5709996,2.1187825,-0.41265097,-1.7718912,0.06180066,0.9282264,2.8959339,1.551912,-0.8352477,1.7101167,0.9960886,1.2226905,3.4461102,-1.5613679,1.3307366,1.088174,1.1037151,0.99374956,1.1848395,0.7198602,5.301023,0.23488815,0.043124232,1.1017779,-1.6255835,-0.579767,-1.8547701,-0.5943453,1.8164934,0.051469404,1.5743036,0.8934577,-0.4087565,0.7721123,0.24972354,-2.5540063,0.51865363,1.1235929,0.9110358,2.122111,1.0453908,3.1474943,1.6021214,2.9324033,2.225433,0.36974558,-2.1245644,0.20552611,-2.5523484,-1.4731246,1.6627401,-2.043437,0.04233387,-1.2561381,1.3400131,0.53061014,-3.1403024,-1.7201176,1.3842666,-2.647403,-3.2560468,-1.9130278,2.520821,-1.5460713,-1.8921365,-0.11245534,-1.1615075,0.81513166,0.1711239,2.1036904,-4.308728,-0.9130588,5.0680647,-1.7282648,-1.3079723,1.9202739,-2.756469,2.3157506,-3.3694174,-1.7250036,-1.5231767,-0.00212736,0.8508482,-3.1196413,0.24043614,0.8019284,-1.8476175,-0.3651992,-4.2836947,2.3057623,-3.0036507,-0.78575927,2.4085915,2.3726323,0.66253644,-1.4576937,1.2275326
C3N-02998,-4.6745243,1.0941093,0.79880226,-0.3248603,-0.29387227,1.9685397,1.2748827,1.8769106,-2.702183,0.35058466,2.1738558,-4.111665,1.5784932,1.6673251,-1.1044586,0.81745744,2.459189,3.0898015,-0.7383969,-0.83023435,-0.8709093,-1.7608327,0.9442965,0.52673054,0.47146568,-1.3121865,-2.9493608,3.4995008,-0.90992093,2.8556488,1.5121837,-1.8883616,-1.761811,2.3299098,8.003663e-05,-2.585899,1.0548456,-1.2500186,0.88637173,0.9013222,-0.2658477,-1.4097981,1.151019,1.4819419,-0.90724945,-0.08838997,1.5196481,-0.3146772,0.5222854,1.4390087,-1.4364436,2.8334227,-1.9602284,0.88485515,0.028426107,-0.34199944,-0.690794,-1.1640791,-1.6510319,0.83966625,-0.99756825,-2.0344725,-0.22530949,-0.5882528,1.1184908,0.32238162,-0.7910265,-0.24165232,2.9596834,0.67437905,0.21394067,-0.10082009,1.2046487,-1.3261988,1.1519275,2.2506702,0.84782785,2.5386,-0.51423734,0.26973414,2.5722008,2.3271132,-0.13344304,2.6995823,-0.14588392,-0.90090275,2.5007155,-2.6288502,1.0730152,2.8811498,-1.6207799,1.8369843,2.8969529,1.2741039,0.8373708,-0.23677446,1.2092031,-0.7932735,-3.3796568,-0.078165114,2.3362882,1.1014029,0.6157589,1.2270334,1.788676,2.095443,0.41394475,-0.106320396,-1.8948417,-1.5048323,-1.9123948,-0.5230566,0.30697644,-0.51509815,-1.6439577,0.79865235,-2.4239047,1.0776749,-2.2110515,0.25146586,-2.344683,-1.1048671,-0.8506466,0.8387983,0.2681637,0.31843704,-1.4757402,-0.18371595,-0.688775,-1.6955646,1.0501299,2.542221,-1.7678485,-0.5883955,-3.4260051,-0.07610844,-2.9770014,0.14883368,-1.3461709,0.7653745,-2.2126734,3.4183435,1.8798691,-2.923379,-2.7870624,1.9177494,-0.9675718,-0.17327264,3.9564626,7.819257,1.3982294,2.5493376,-2.50738,-0.6132674,1.697801,-0.32204655,-1.9775199,0.35363835,1.5663981,4.225671,2.6418037,-0.5887363,-2.0873935,0.031228967,1.2685046,3.0360115,2.0241144,-1.0252658,1.7411915,0.82620037,1.6358913,3.5134885,-1.463134,0.8292004,0.8998028,1.5210097,0.1942854,0.95059085,0.565643,5.146691,-0.16311666,0.23465753,1.2830921,-1.6664009,-0.6174505,-2.0273926,-0.7477126,1.4097593,-0.3958106,1.7259572,1.008983,-0.23146081,0.8508064,0.13376051,-2.452001,0.7996796,0.48264834,0.5639865,1.9503337,1.4397854,3.0724754,1.4949551,2.559536,2.0717492,-0.07807715,-2.180269,-0.44043496,-2.6850638,-1.5174657,1.725333,-1.8331077,0.00046114388,-1.5196275,1.5090301,0.2788214,-3.2638767,-1.9810367,1.0416896,-2.5189428,-3.3176858,-2.240756,2.2047696,-1.1825047,-2.136732,-0.18779097,-1.2188231,0.4988115,0.7478605,2.3896306,-3.970705,-0.7701976,5.299961,-1.4370714,-1.492008,2.066979,-2.7214468,2.4260697,-3.2682002,-1.3144298,-2.1865432,0.008304908,0.72690874,-2.8239172,0.07264,0.90875405,-1.4884441,-0.47152236,-3.7515426,2.039464,-2.6886814,-0.84120196,2.3893518,2.4506738,0.6707568,-1.6529311,1.3150367
C3N-03211,-4.8402953,0.8045288,0.7672831,-0.7037029,-0.17528152,1.7749447,1.558428,2.341498,-2.2838712,0.4605628,1.9463915,-4.215196,2.2837927,1.9483019,-1.3076864,0.8682986,3.2728271,2.8084514,-0.666898,-0.8561988,-0.36751682,-2.2646315,0.6810385,0.5842637,-0.35012084,-1.2382821,-2.830299,3.4211996,-0.7796508,2.6449742,1.0001968,-1.464115,-2.2711492,2.801228,0.10569724,-1.8272504,0.62263143,-1.0977633,0.49495995,0.7856561,0.2356793,-1.6297995,1.5291862,1.6515493,-0.5702671,-0.35468227,1.157782,-0.36271363,0.1841052,1.1643836,-1.4996341,3.482716,-1.556905,0.9206466,0.35220778,-0.28817046,-0.46332848,-1.1416819,-1.5390987,0.6635789,-0.6834315,-1.9100294,-0.058848687,-0.7532055,1.0988449,0.7366497,-0.72747236,-0.80749744,3.2581003,0.35285777,0.27035013,0.48882395,0.60686916,-1.3048664,0.98471224,2.4996564,1.1707612,2.503735,-0.22149538,0.6667917,2.346004,2.2102256,-0.26591405,2.8923492,0.2768053,-1.2538762,2.4246,-2.7237365,1.1171486,2.8965702,-1.4289321,2.2584932,2.6138926,1.1723523,0.9574225,-0.17642781,0.4812938,-0.7857875,-4.205699,0.25850374,2.327818,1.62555,0.8569567,1.4918799,2.0791023,1.453086,0.14780189,0.28587535,-2.1423535,-1.4513339,-2.064742,-0.4156418,-0.0068052793,-0.64393294,-1.5612365,0.8556787,-2.5283544,1.8562723,-2.5495045,0.6704751,-2.4016387,-1.3676739,-1.0432792,1.2003181,0.26877373,0.32857293,-1.4704578,-0.16290346,-0.97309875,-1.3396268,1.0194952,2.6113765,-2.0090654,-0.95460963,-3.7655559,0.19612786,-3.2224417,0.35466737,-2.290023,1.3808316,-2.2829618,3.8713918,1.6828674,-3.498668,-2.7833467,1.6032591,-0.7998347,0.49274886,3.5766275,7.462452,1.511064,2.7677555,-2.3556266,-0.5755565,2.145021,-0.56105316,-1.945534,0.66706795,1.5760928,4.711074,2.2927032,-0.5598096,-2.2874498,0.19809245,1.0017544,2.5730593,1.9148905,-0.5564497,2.0380318,0.96054924,1.3726856,3.3104112,-1.7134521,1.1683272,0.82933,1.442495,0.9621441,1.0598106,0.9632472,5.453857,0.14932956,-0.35090384,1.7213467,-1.7148626,-0.5977915,-2.1117985,-0.53682953,1.7457912,-0.07208025,1.9733284,0.7243761,-0.13689451,1.2041082,0.2508004,-2.5618331,0.83268815,0.84866273,0.80342996,1.7900412,1.0312217,2.9912438,1.5857245,2.799124,1.900994,0.17829932,-2.12971,0.27048928,-2.4568105,-1.3672545,1.8252302,-1.6094203,0.44028085,-1.2395298,1.5035038,0.3926873,-3.4426334,-1.8809372,0.98509336,-2.6037514,-3.3028436,-1.9662391,2.4682796,-1.9592488,-1.5975182,-0.099121116,-1.5471455,0.82011384,0.84686446,1.9516352,-4.171087,-0.9443705,4.9511237,-1.9811203,-1.423456,2.1076164,-2.8559823,1.9218546,-3.280947,-1.7430575,-1.0866424,0.23364592,0.43898797,-3.372239,0.24250339,0.4577908,-1.8572421,-0.36750707,-4.035797,2.4721832,-2.9404428,-0.89856,2.3856344,2.3702097,0.15085185,-1.5213288,1.495123
C3L-01052,-4.9345345,1.3284242,0.5402248,-1.0283345,-0.23732269,1.7586733,2.0281327,1.9580585,-2.3131554,0.20221433,1.8772137,-4.225162,1.9846208,1.8123292,-1.17325,1.0926688,2.5091755,3.2566488,-0.8413329,-0.88354164,-0.39829227,-2.1418538,0.26942345,0.9103328,0.0975545,-1.1581874,-2.9176953,3.766529,-0.40277082,2.4330974,1.197357,-1.5772696,-2.4364974,2.020537,-0.3636704,-2.4873126,1.2863976,-1.2859495,1.0178885,0.53609115,0.12047825,-1.0109894,1.3197042,1.2953298,-0.30127385,-0.19870402,0.85505843,-0.19557558,0.5900994,1.3365971,-1.2490256,3.4919105,-1.7824669,0.83558494,0.0753089,-0.44404665,-0.34961787,-1.4503044,-1.4117113,0.81541294,-1.3918264,-1.6852909,-0.1341922,-0.91694367,0.91990364,0.72718674,-1.280763,-0.78808814,3.2966163,0.19496414,0.65657127,0.2923353,0.45762205,-1.2482384,0.89173555,2.1891875,1.0083839,2.7195938,-0.010336289,0.5187656,2.6290388,2.3032544,-0.20082952,2.6214156,0.022063011,-1.0481775,2.3655033,-2.8913102,0.9602764,3.0337477,-1.6174171,1.8392706,2.82353,0.97683096,0.91421264,-0.017547412,0.7960709,-0.8401788,-3.7626526,0.1304343,2.7452812,1.905501,1.2718248,1.2816961,2.2437444,1.6194537,0.19867067,-0.09495018,-1.8597486,-1.4357197,-1.9033228,-0.53082,-0.10637436,-1.0748178,-1.5440216,0.70372045,-2.1801236,1.6458156,-2.429349,0.7884374,-2.2955563,-0.88616633,-0.8321671,0.94424194,-0.018224824,0.38502908,-1.1296244,0.0022405246,-0.7174319,-1.3872457,1.196347,3.1455548,-2.0851133,-0.72953796,-3.8184614,-0.22033429,-2.7050636,0.26363212,-2.228791,0.7342658,-2.2784393,3.440443,1.981793,-3.3956292,-2.582095,1.8117068,-0.78500146,-0.09336843,3.5807343,7.934319,1.3194456,2.4217746,-2.2159042,-0.5339699,1.6358194,0.022280892,-1.4988102,0.035812147,1.5228323,4.888124,2.29259,-0.07050691,-1.9833233,0.014757672,1.1757431,2.7091413,1.8315628,-0.720784,1.7231059,1.3649619,1.5848733,3.2292743,-1.7204903,1.3899249,0.8547794,1.0294797,0.7280249,1.0450262,0.6719124,5.272899,0.3104891,0.07988448,1.1600916,-1.9560268,-0.47953057,-2.1334352,-0.6211095,1.7520622,-0.16624175,1.5142058,0.8029684,-0.4888651,0.5843115,-0.13240314,-2.4151921,0.40681392,0.745618,0.68545336,1.9829159,1.1170015,3.0589025,1.4565103,2.9773417,2.5279267,0.18253645,-2.2916899,0.41000935,-2.4487906,-1.6503373,1.943625,-1.6629204,0.44387257,-1.6780262,1.5218668,0.5404559,-3.3227499,-1.9889581,1.2418444,-2.666859,-3.4552743,-1.886877,2.4797337,-1.6163896,-1.6348406,-0.194748,-1.098601,0.9711338,0.52722645,2.0999796,-4.3540173,-0.6338065,5.4746575,-2.014915,-1.3080925,1.8218503,-2.8779218,2.089211,-3.422842,-1.4045118,-1.3306723,0.16980089,1.1967262,-2.9765651,0.5059081,1.1116027,-1.8116887,-0.4641749,-3.9979527,1.9608843,-2.7914386,-0.82955873,2.2954216,2.32433,0.20327964,-1.4926454,1.1582321
C3N-00512,-4.7580996,1.1354799,0.65292525,-0.70834243,-0.10440441,1.8343995,1.7400311,1.9097537,-2.1654835,0.3153524,2.0773778,-4.116807,2.0522764,1.8899804,-1.2048166,0.9523488,2.8053825,2.8894837,-0.60869116,-0.7271283,-0.8235207,-2.1282253,0.45159227,0.65383726,0.06341657,-1.1796945,-2.957037,3.479115,-0.84600073,2.7083213,1.473224,-1.6856446,-2.4623308,2.6698947,-0.074856624,-2.1955605,1.252032,-1.5097955,0.6498687,0.9816072,-0.09507325,-1.3572251,1.1239835,1.4108148,-0.8924521,-0.48514476,1.2867408,0.021888744,0.3515603,1.0293323,-1.6492388,3.4712505,-1.81924,0.88368934,0.35866892,-0.47434548,-0.5337938,-1.1162769,-1.4069474,0.8296536,-1.2670257,-1.8023027,-0.46740162,-0.65931255,0.90864444,0.5378163,-0.7406452,-1.0490298,3.4194825,0.27336866,0.40280187,0.52669173,0.7404099,-1.2276917,0.6403234,2.0947928,0.8086327,2.3506904,-0.4220947,0.4108228,2.524878,2.2205832,-0.17667255,2.8524458,0.17303479,-1.2080742,2.642597,-2.9088683,1.1731551,2.978598,-1.7242447,2.0681317,2.7963953,0.92456883,0.7827799,-0.23284419,0.5113405,-0.88241065,-3.9653907,0.42678475,2.6466916,1.6209667,0.8753847,1.2073822,2.153092,1.6789753,0.28168786,-0.015984183,-1.8346124,-1.6230279,-2.1171916,-0.35100287,-0.12349479,-0.4827998,-1.7567867,0.49401563,-2.3679056,1.6511492,-2.6708193,0.5384683,-2.513562,-1.150871,-0.91215974,0.9897024,0.13703158,0.65917,-1.3611366,-0.2782735,-0.90121865,-1.3876646,1.3696994,2.439007,-1.8057538,-0.49479863,-3.708755,0.14743918,-2.979983,0.119515665,-2.2453167,0.8213437,-2.2696939,3.602092,1.8647724,-3.6364884,-2.7678277,1.7730178,-0.75915974,0.27529126,3.6700864,8.018638,1.6489451,2.834856,-2.4620092,-0.6525376,1.8017428,-0.09753031,-1.9785315,0.38061193,1.5751711,4.5747256,2.450146,-0.20512137,-2.2245762,0.18413632,1.0496035,2.8552263,1.4384038,-0.5943382,2.0239058,1.1749059,1.234556,3.5892856,-1.8323954,1.7345688,0.9446273,1.0312079,0.81332594,1.1218098,0.7032423,5.552162,0.11633831,-0.077028416,1.3778739,-1.9130309,-0.5817399,-1.940343,-0.47403008,1.55185,-0.02342365,1.6978163,0.70760494,-0.46435758,1.0204022,-0.0012750016,-2.3442278,0.3821512,0.69490635,0.73061603,2.1903949,1.0730374,3.133877,1.5625435,3.1111522,2.372995,0.10942186,-2.2168984,0.21517548,-2.604804,-1.4131771,1.7246021,-1.6627126,0.21523067,-1.4163021,1.4296274,0.4022332,-3.350629,-1.4931266,1.1993536,-2.842158,-3.3263967,-1.6252708,2.6049283,-1.6561384,-1.857105,0.1058873,-1.303708,0.8190994,0.7101357,2.2538145,-4.264399,-1.1009046,5.2956867,-1.7723563,-1.2601514,1.7631302,-3.142702,2.233325,-3.4151726,-1.7200388,-1.5996127,0.21343245,1.1418484,-3.2268345,0.26736858,0.81377596,-1.6967515,-0.28126144,-4.3097615,2.3204224,-2.8757076,-0.76068074,2.5004652,2.472547,0.73287904,-1.4936625,1.1832947
C3N-02295,-4.7281737,1.3582107,0.72979796,-0.87422043,-0.21710083,2.140332,1.7600543,2.1741374,-2.4228084,0.13409398,1.8888521,-4.25367,1.817943,1.900443,-1.2469682,0.8284762,2.7748978,3.1378648,-0.9653582,-0.9390853,-0.551321,-2.1422434,0.78467596,0.3196305,-0.1478365,-1.1438298,-3.1588752,3.5805106,-0.54638094,2.5445416,1.3189875,-1.5374864,-1.9578273,2.3832917,-0.1701132,-2.5571687,0.9171744,-1.1993065,0.78965694,1.0829766,0.06811951,-1.2017747,1.2059535,1.3359483,-0.3346403,-0.35517344,1.1688932,-0.07876915,0.34902218,1.2523707,-1.4705207,3.6962488,-1.7546552,0.784588,0.3072379,-0.5127076,-0.45837885,-1.2389319,-1.3829143,0.97918785,-0.86200404,-1.8714851,-0.29087615,-0.51426405,1.0946267,0.46048528,-1.0710204,-0.9941767,3.0986989,0.30724466,0.66714346,-0.10299789,0.8493953,-1.2228005,0.9335322,2.3426707,1.1436714,2.5665743,-0.18478224,0.5199159,3.1010065,2.5767267,-0.328886,2.9796827,0.041173536,-0.8655319,2.4511762,-2.7367227,1.2538737,3.0785387,-1.6172539,2.1473176,2.7922142,0.98735046,0.8981685,-0.11530615,0.87538755,-0.8357074,-3.9759204,0.42612666,2.322479,1.6208841,0.77659535,1.107569,2.1234913,1.5003783,0.57113034,-0.16867305,-1.6618834,-1.6439487,-2.0355759,-0.17740472,0.05130824,-0.9229803,-1.5407258,0.4696858,-2.2799177,1.4433314,-2.5871832,0.80243754,-2.6275468,-1.0735537,-0.94891465,0.75333625,0.15621747,0.17959413,-1.2745626,-0.26817295,-0.79369277,-1.3103099,1.2638992,2.7516956,-1.6594468,-0.5338703,-3.7624967,0.012224144,-2.5464072,0.17085074,-1.9989675,1.0467736,-2.2392216,3.6583052,1.9611284,-3.4494228,-2.7763147,1.6428189,-0.9855193,0.08261225,3.8480675,7.9763565,1.4939533,2.838801,-2.2244136,-0.44238964,1.6620843,-0.4417477,-1.5340089,0.4712174,1.5082963,4.730987,2.4341578,-0.3460189,-2.2049384,-0.19349086,1.0986629,2.8734944,1.6987044,-0.74192876,1.6709974,1.4181774,1.2402622,3.557107,-1.759287,1.1473658,1.0536464,1.2468113,0.61836576,1.3320242,0.5596277,5.248246,0.17639072,-0.036276404,1.2447398,-1.7880466,-0.4676818,-1.8996494,-0.884842,1.8776386,0.031380795,1.8781878,0.82986486,-0.24937667,0.8354778,0.15026781,-2.3100433,0.44395712,1.0678008,0.87715346,1.9791671,0.9001833,3.4435174,1.4422321,3.052637,2.275376,0.25383565,-2.3772695,0.029167876,-2.629053,-1.4857486,1.3182596,-1.7494987,0.031927068,-1.4782231,1.3345331,0.14247996,-3.2685776,-1.8132335,1.5821966,-2.5836904,-3.2853966,-2.177429,2.396464,-1.3778737,-1.7500366,-0.11659747,-1.0092506,0.8320577,0.33070052,2.0030982,-4.255841,-0.9096257,5.3036995,-1.8041188,-1.4547188,1.7610197,-2.6312442,2.571378,-3.6275992,-1.6708766,-1.7158684,0.32375753,0.77338654,-2.9243305,0.36861864,1.0665551,-1.7038889,-0.25061792,-4.413388,2.1020908,-2.7486928,-0.936918,2.7451525,2.1846364,0.66058797,-1.2718936,1.4335355
C3N-01012,-4.674259,1.2698361,0.55319214,-0.6857613,-0.03980956,1.725989,1.1850053,2.1577764,-2.3167262,0.46228683,2.3236294,-4.4158573,2.0842404,1.8077636,-1.3568351,1.1887175,2.4409654,2.7782202,-0.36902252,-0.53452164,-0.48119542,-2.1623354,0.8361795,0.48207942,0.11973693,-1.1918672,-3.0990832,3.671154,-0.7471415,2.5551693,1.445966,-1.5077187,-1.9841508,2.2847135,0.15643968,-2.1425035,0.8397572,-1.5568627,0.8785895,0.89743906,-0.34844404,-1.4993112,1.125836,1.6510532,-0.6811799,-0.44988927,1.0943232,-0.25516012,0.38854367,1.3727716,-1.481433,3.2483015,-1.8331403,0.71535313,0.23933992,-0.278247,-0.1455707,-1.2695371,-1.186705,0.9853677,-1.4850998,-1.6669418,-0.06312816,-0.9857279,1.072657,0.2607763,-0.89191645,-0.9143706,3.1100044,0.18788962,0.48576733,0.091129735,0.87130857,-1.7512069,1.1117615,2.0558286,0.9298511,2.2901204,-0.22618201,0.4299807,2.607798,2.216448,-0.45047337,2.6915655,-0.04854947,-1.1056485,2.3781564,-2.6000686,1.0477414,3.047669,-1.6217911,2.2124128,3.1252978,0.94704944,0.8039757,-0.0023690895,0.56965625,-0.72206515,-3.6692367,0.0972444,2.5348358,1.7222817,0.9892129,1.311096,2.2190773,1.5418102,0.24007283,0.11179481,-1.6894265,-1.3535165,-1.9708157,-0.2922503,-0.19074342,-0.99302214,-1.576465,0.5987733,-2.5894182,1.338285,-2.2653894,0.69335586,-2.6700149,-1.007891,-0.81303996,0.92137355,-0.139826,0.6276184,-1.3113341,-0.33252606,-1.0213194,-1.1369022,1.0084982,2.9927716,-1.9053062,-0.68391174,-3.3884764,0.2678403,-2.7885697,0.14857662,-2.2314982,0.6900531,-2.065271,3.611473,1.4319642,-3.4609528,-2.7565823,1.6331376,-0.7195022,0.19008803,3.7275395,8.088676,1.4032711,2.7190406,-2.088533,-0.94778013,1.4448167,-0.409384,-1.8641418,0.5056742,1.7822766,4.795192,2.0752513,-0.4717642,-2.140972,-0.08114203,1.2569743,2.3918612,1.7066469,-0.79632777,1.884237,0.8210144,1.05416,3.2054865,-1.5273573,1.6053476,1.0376121,1.1749219,0.6698277,0.7607658,0.65489036,5.4115443,0.003721549,0.2688671,1.2479272,-1.6809825,-0.3795803,-1.9093082,-0.61498547,1.929889,0.058768366,1.5407882,1.0230191,-0.4035997,0.97336125,-0.14093359,-2.5372355,0.42879733,0.62191963,1.0830517,2.2326756,1.1057923,2.9642541,1.4969077,2.840591,2.070468,0.4216842,-2.0253332,0.5070329,-2.4854865,-1.3317469,1.5904068,-1.7733994,0.16458236,-1.3148543,1.5574018,0.24866104,-3.3295739,-1.5818729,1.2457985,-2.6312795,-3.8011007,-1.6980263,2.2803013,-1.6789682,-1.7053626,-0.20724334,-0.9824465,0.9482696,0.64397484,2.1898894,-4.4296527,-0.84845084,5.277744,-1.795415,-1.6366652,2.1788514,-2.7696013,2.3765376,-3.556653,-1.7894313,-1.5986488,-0.009159346,0.85341233,-3.2296593,-0.108898625,0.39680645,-1.9319988,-0.49790505,-3.8353083,2.479607,-2.4240873,-0.67942214,2.1610444,2.2631505,0.33790705,-1.6091255,1.3264403
C3N-01502,-4.4263597,1.191635,0.5316134,-0.4452921,-0.22450341,1.6400476,1.1321908,1.5011464,-2.5536892,0.32952788,2.1754148,-4.199253,1.976434,1.8333037,-1.1724801,0.96645296,2.737778,2.6721363,-0.9088783,-1.1586975,-0.777246,-2.0356321,0.6459344,0.82448006,0.26884887,-1.0574049,-2.9099412,3.41209,-0.47035724,2.905821,1.3774139,-1.7456571,-2.493016,2.1544797,-0.03446074,-2.3541157,1.0918028,-1.2479233,0.92309934,0.94042194,-0.04941545,-1.2329228,1.0102848,1.4970968,-0.8672789,-0.45320106,1.4567597,-0.027015552,0.34875628,1.0393907,-1.5646964,3.4269774,-2.0219693,0.896901,0.2604061,-0.3769673,-0.31474873,-1.454769,-1.3283166,1.0333883,-0.92134887,-2.1436434,-0.24087472,-0.91446877,0.83569145,0.029961225,-0.7315996,-0.79066706,3.103269,0.6810502,0.89398324,-0.20213185,0.503228,-1.2023723,1.0465229,2.220112,1.2144331,2.5318122,-0.2495427,0.29998454,2.7921124,2.4827745,-0.34922847,2.796849,0.20392446,-1.0171039,2.8013453,-2.905775,1.4088225,2.647812,-2.107951,2.1235368,2.624398,1.1015819,0.6361538,-0.5319768,0.4890488,-0.8952134,-3.6303318,0.3063767,2.5693493,1.140509,0.54548454,1.32231,1.9830518,1.8988966,0.5384466,-0.1691533,-2.298812,-1.619486,-2.2935088,-0.26501128,-0.10295282,-0.8678949,-1.8023618,0.8205615,-2.2111344,1.5565133,-2.5635095,0.57831806,-2.676178,-0.96762246,-0.962265,0.76758057,-0.026778061,0.06207622,-1.4425086,-0.30546343,-0.97362566,-1.7367698,1.2472965,2.6074314,-1.9916204,-0.6712401,-3.3859065,0.0687623,-2.7492242,0.33797312,-1.8799517,1.2260197,-2.638117,3.7655516,1.756016,-3.2707558,-2.8080368,1.5413299,-0.9032965,0.25445533,3.4271016,8.15757,1.50775,2.658078,-2.2506273,-0.43959293,1.9153147,-0.27146125,-1.7741727,0.40712565,1.3521821,4.3248153,2.2699862,-0.3813096,-2.2761264,0.19230382,1.2904963,2.8069282,2.1095543,-0.8576178,1.9244263,1.1058413,1.674661,3.7546115,-1.8251412,1.0010219,1.0552255,1.5698675,1.0652322,1.2428346,0.553986,5.2678876,0.12242673,-0.1694748,1.0849903,-1.8551857,-0.76605576,-2.0265553,-0.16172008,1.3951435,-0.18516324,1.5429511,0.78704304,-0.7602972,0.72759056,0.025845226,-2.19293,0.7803703,1.0435134,0.6461849,2.072027,0.8858427,3.0698988,1.6887935,2.627326,1.9761095,0.24003726,-2.3124647,-0.10413361,-2.8135438,-1.2994397,1.7422581,-1.7962177,0.074304484,-1.6893624,1.8712361,-0.055925142,-3.1949675,-1.8898731,1.2405602,-2.6533864,-3.024215,-1.9636397,2.801113,-1.2104712,-1.6174338,-0.2615932,-1.5350399,0.79035324,0.6623675,2.1084883,-4.3191547,-0.76897025,5.0964036,-1.7659597,-1.198473,1.4892977,-2.8442714,2.36995,-3.6253057,-1.6413785,-1.9148407,0.4624375,0.9401832,-3.12684,0.19536673,1.0677633,-1.5910566,-0.27149555,-4.087897,1.8858457,-2.9842556,-0.73301417,2.8805785,2.1971157,0.47033176,-1.5387677,1.2580935
C3L-01053,-4.742133,1.4968841,0.49575707,-1.0491804,-0.31299594,1.7961127,1.8797973,1.9943972,-2.1134324,0.39359376,1.8898238,-4.3426127,1.8869783,1.7847695,-0.9640952,0.9927758,2.526849,3.07232,-0.5808466,-0.5893064,-0.38152468,-1.838954,0.3495325,0.8864535,0.20852631,-1.0393728,-2.915289,3.7412176,-0.7841732,2.5165443,1.210507,-1.7617787,-2.56064,2.3537383,-0.47984058,-2.1844397,1.1324395,-1.2262883,1.0182921,0.54268974,0.09744484,-1.3035665,1.4053375,1.6595869,-0.24159098,-0.46606523,1.0263952,-0.14911604,0.6565202,1.178837,-1.2263218,3.1864934,-1.9548686,0.8803577,0.19828959,-0.38031116,-0.35593915,-1.2221603,-1.0467913,1.0487841,-1.4137511,-1.8876115,-0.42620358,-1.0425262,1.067232,0.5656673,-0.78832686,-0.92440987,3.3973691,0.35845733,0.7806765,0.2460566,0.83380383,-1.285777,0.7984033,2.3042128,0.62552536,2.771088,0.049006503,0.49170843,2.4869776,2.536357,-0.3434617,2.8492422,0.14292932,-0.8394651,2.5707624,-2.7521234,0.8345068,2.9325948,-1.5661861,1.573855,2.981786,1.0209601,0.95955116,0.08854194,0.8831801,-0.81807834,-3.735685,0.05936696,2.549623,1.6298355,1.0920843,1.4515909,2.46484,1.7831944,0.121553764,-0.008718435,-1.6942061,-1.1058048,-1.7382585,-0.80382985,0.046127442,-0.7605972,-1.3750038,0.6054249,-2.1432998,1.5596126,-2.729799,0.6231391,-2.4283946,-0.9443242,-0.92071223,1.076915,0.12994383,0.70597535,-1.3245453,0.045185562,-0.6841547,-1.1249589,1.1762173,2.8991897,-1.9090494,-0.76879877,-3.4796047,-0.06876498,-3.1661408,0.10550532,-2.4297688,1.1049386,-2.408776,3.3057747,1.9203557,-3.3194075,-2.6146536,1.9467583,-0.94818336,0.26664537,3.614409,7.9711356,1.4357215,2.624281,-2.3054066,-0.56206006,1.6332741,0.07530329,-1.7853345,0.24120459,1.6930577,4.7100124,2.1626816,-0.35844105,-2.1874702,0.14692014,1.111073,2.811368,1.7932525,-0.6134976,1.956132,1.1257405,1.5312716,3.4984167,-1.662073,1.3447357,0.84233713,1.2580969,0.903153,0.9707213,0.84847647,5.330269,0.19588561,-0.03576432,1.0685132,-1.9335741,-0.41283488,-1.6756815,-0.6559167,1.8808383,-0.23287125,1.7075249,0.75363344,-0.31774327,0.9940418,0.034733992,-2.3993862,0.5292291,0.6363086,0.7120133,2.0266623,1.0757827,3.2933118,1.4479713,3.1139655,2.4344435,0.30257776,-2.292019,-0.010686845,-2.4280295,-1.7548324,1.747933,-1.4103923,0.14243172,-1.5216974,1.7560225,0.33761638,-3.2804732,-1.9284167,0.97095406,-2.5698342,-3.4505165,-1.7852672,2.447831,-1.746071,-1.7892267,-0.18765396,-1.1403369,0.8463149,0.76199186,2.3582177,-4.258439,-0.918478,5.122611,-1.9806739,-1.4073658,1.7810092,-2.9978695,2.2540746,-3.304519,-1.384809,-1.275462,0.21819024,0.99605024,-2.8617551,0.37927473,0.9446096,-1.573865,-0.46047077,-3.8715177,2.2208238,-3.0876884,-0.83518374,2.5287619,2.3749065,0.4155457,-1.3315841,1.2876595
C3L-03632,-4.830738,1.3135587,0.46205196,-1.1141006,-0.12945068,1.8981099,1.5434827,1.9915587,-2.2237554,0.34117857,1.9667268,-4.454643,2.0274084,1.6278836,-1.3245721,1.1869615,2.6975636,3.0579913,-0.794805,-0.8189566,-0.3502045,-2.3795738,0.69774777,0.49094406,0.14276063,-1.1451119,-3.1947227,3.6422775,-0.63992983,2.5859249,1.4479898,-1.5527953,-2.3779366,2.4175153,-0.02682586,-2.170464,0.6875518,-1.5294527,0.72018117,0.9513104,0.06927418,-1.7230823,1.4039973,1.5567601,-0.5946154,-0.57357305,1.1595149,-0.11994236,0.4119079,1.4018209,-1.592299,3.166515,-1.8803623,0.7240838,0.22160697,-0.40894642,-0.42318878,-1.3681234,-1.3755798,0.7709233,-1.3067485,-1.7305497,-0.23068857,-0.8376378,1.2588227,0.56007254,-0.69094837,-0.8759231,2.8823955,0.027214196,0.38112974,0.3095487,0.81002396,-1.4740232,1.0127105,2.1069534,0.84714234,2.3806508,-0.2697991,0.730888,2.6562097,2.3823223,-0.16934882,2.7867851,0.26176623,-1.2687088,2.5950646,-2.896178,1.1252655,2.8919191,-1.7069596,1.8310032,3.0075533,0.9894185,0.8054816,-0.21861173,0.7255282,-0.5540475,-4.174801,0.2883436,2.4129477,1.7772356,1.1341614,0.95705974,2.0283828,1.524934,0.1777919,-0.058589883,-1.7801732,-1.4808958,-1.9618466,-0.45983982,-0.19441245,-0.9834404,-1.6057557,0.619065,-2.416311,1.4628322,-2.502691,0.58415645,-2.7442045,-1.195978,-1.1290916,0.9604487,-0.010745788,0.5907252,-1.5349233,-0.101541884,-1.0223466,-0.9746336,0.94828296,2.8776445,-1.9336036,-0.659737,-3.8166664,0.27977103,-2.7594643,0.13875048,-2.4847577,0.9589935,-2.2144382,3.6109047,1.5969121,-3.2918355,-2.5281918,1.5100095,-0.7525416,0.21135859,3.7143033,7.7463536,1.215822,2.5167274,-2.1341124,-0.6137864,1.4472775,-0.076301076,-1.9129215,0.22221485,1.463125,4.607379,2.2508497,-0.57691413,-2.041752,0.052513465,0.9261091,2.8905182,1.7024876,-0.50805455,1.8863078,0.8196806,1.0785818,3.3886774,-1.8973805,1.3851943,1.1722034,0.80901504,0.85605085,0.73442507,0.8934208,5.292841,0.15763985,-0.009215275,0.99425876,-1.6431442,-0.2995452,-1.8902129,-0.45153213,1.9318151,0.2977024,1.6678038,0.86551887,-0.40725663,0.99181247,-0.032649294,-2.4374535,0.68262994,0.8335325,0.92813015,2.2227778,1.1699398,3.2354522,1.5592797,2.7677846,2.3689704,-0.01798521,-1.9981539,0.28143305,-2.4594452,-1.1381242,2.0188985,-1.4257873,0.26551807,-1.1240932,1.3689353,0.46919543,-3.4584892,-1.7966802,1.4387461,-2.453764,-3.2951317,-2.0480337,2.5054286,-1.7530773,-1.7179314,0.010257628,-1.020771,0.75633895,0.5971451,2.0341907,-4.1906166,-1.1662558,5.2946033,-1.7712694,-1.8837333,1.9099807,-2.610905,2.4868577,-3.5731096,-1.6525296,-1.4629683,0.00959181,1.100976,-3.1671054,0.18279393,0.80380625,-1.8226584,-0.53890276,-4.19701,2.5192099,-2.9018114,-0.9459251,2.309919,2.4912922,0.5943907,-1.4988378,1.4119968
C3L-00401,-4.5675893,0.8756988,0.91369456,-1.0845634,-0.17971146,1.937054,1.4067545,2.0717885,-1.9705684,0.41539383,2.2605276,-3.9258392,2.1033766,1.7735233,-1.1466143,0.8853341,2.8279479,3.369743,-0.5198702,-0.5821116,-0.6362636,-2.3667502,0.7259219,0.7829292,0.2180868,-0.9064919,-2.7506633,3.6103446,-0.695879,2.8376288,1.665837,-1.4400818,-2.376459,2.5698378,-0.07032627,-2.1067839,1.1171619,-1.2994326,1.0256459,0.89537585,0.049404386,-1.5481002,1.4272532,1.7080475,-0.46101165,-0.29208225,1.2031626,-0.3074155,0.5620772,1.4270612,-1.4997094,3.4824867,-2.0118012,0.9508131,0.37028074,-0.37318024,-0.74636406,-0.90768594,-1.6523713,0.9076368,-1.2739855,-2.1845062,-0.16085574,-0.72452927,1.1117042,0.95173943,-0.979455,-0.9797173,3.0984364,-0.051150143,0.58636934,0.25827375,0.8539875,-1.6407826,0.96158427,2.0517762,0.6974917,2.6034582,0.009489361,0.70458543,2.7761397,2.509479,-0.35588425,2.9236789,0.24280335,-1.0659007,2.2067363,-2.6268468,1.0915071,3.2815063,-1.4020721,2.187516,2.7026405,1.0642911,0.69378316,-0.14390984,0.89335454,-0.90584403,-4.2150846,-0.04303673,2.2949,1.3445698,0.719974,1.011827,1.899022,1.7187097,0.11938917,0.16555984,-2.1355371,-1.6720349,-1.965494,-0.6774425,0.516327,-1.0940005,-1.5257478,0.7455196,-2.4863977,1.7171077,-2.1002383,0.8655064,-2.5585427,-0.94533473,-0.69795215,1.2190518,0.49662447,0.35600328,-1.3843449,0.3272292,-0.6770789,-1.8284388,0.9741134,2.7287333,-2.0241668,-0.5362623,-3.5974174,-0.01257654,-2.9163506,0.5571977,-2.2350874,1.0252564,-2.5030582,3.3031383,2.0090418,-3.662732,-3.0319955,2.1857874,-0.75675553,0.23326512,4.092599,7.92085,1.5208318,2.4517813,-2.374738,-0.5913907,1.6149231,-0.25802767,-2.2766347,0.3616951,1.5851436,4.337369,2.1098175,-0.24708503,-2.1337197,0.041632835,1.3412256,2.6575806,1.7128929,-0.33169076,2.266238,1.4380599,1.3764638,3.3000708,-1.7123339,1.2749677,1.0357134,1.2727333,0.23490433,1.1621331,0.75602925,5.7163506,-0.031968735,0.25267366,1.3894122,-1.8030559,-0.6733087,-2.1436296,-1.3458582,1.5339661,-0.047501482,1.7402178,0.84233296,-0.4872453,1.5764601,-0.013800001,-2.4493458,0.5323151,0.70553344,0.9000778,2.1898808,0.9383724,3.4412348,1.7657562,2.8795393,2.0440958,-0.12326235,-2.0204952,0.6901186,-2.9109058,-1.494016,1.6685731,-1.6067572,0.3265623,-1.438552,1.2633747,0.07814022,-3.3746312,-1.6843122,0.89419484,-2.5833871,-3.3772855,-1.5762296,2.3282025,-1.2620447,-1.6228662,-0.10631562,-1.1848618,0.83196235,0.43158534,2.2839522,-4.516299,-0.86895066,4.933207,-1.8516823,-1.2854425,1.9903665,-2.8303804,2.2704296,-3.512298,-1.3527664,-1.7595665,0.0863726,1.131974,-2.8178642,1.0573517,0.5972398,-1.7299373,-0.1641751,-4.0330567,2.1344812,-2.837644,-0.7176298,1.9789176,2.6761284,0.36826736,-1.5023843,1.5041343
C3L-01054,-4.726571,1.2394587,0.60737175,-0.7026173,-0.2711937,1.6668388,1.9145008,2.0436068,-2.336462,0.26829562,1.7486359,-4.5284715,2.0319846,1.598574,-1.0988318,0.8244689,2.604154,3.0675,-0.69343597,-0.5923611,-0.37280828,-1.939252,0.67508346,0.6002491,-0.00034696003,-1.1991192,-2.8918288,3.8041592,-0.49535716,2.4780054,1.4105449,-1.9613699,-2.4605255,2.0341187,-0.063629165,-2.1840665,1.2490097,-1.4085411,1.1171863,0.708747,0.16954178,-1.5488654,1.330516,1.590863,-0.36967295,-0.14770122,0.84310323,-0.29373726,0.5409073,1.3247181,-1.4166912,3.0830908,-1.8571173,0.9814849,0.091969974,-0.32374457,-0.433644,-1.2849941,-1.5092683,0.92889875,-1.396438,-1.6493231,-0.42343685,-0.79373777,1.0638565,0.675294,-0.9733286,-0.7688663,3.055262,0.29503593,0.6061832,0.35507426,0.66599977,-1.3447121,0.97523475,2.2617455,1.0944182,2.223719,0.07466251,0.5772987,2.5872145,2.4642816,-0.36671194,3.057266,0.27449772,-0.9320848,2.3874617,-2.7385232,1.0752939,3.234686,-1.4786353,1.889569,2.8806171,0.72120446,0.81076294,-0.18776844,0.5200472,-0.71095985,-3.7510688,-0.043268643,2.6367471,1.6075774,0.95609254,1.301588,2.034171,1.6956209,0.09111696,0.109289266,-1.9521577,-1.3801831,-1.9087205,-0.5070326,-0.06997117,-1.071544,-1.5697088,0.5590031,-2.3094044,1.4978107,-2.56063,0.8881198,-2.6088607,-0.7250254,-0.840188,1.0269245,0.15871823,0.48388365,-1.4698514,0.082338236,-0.40518495,-1.2768863,0.8517719,2.9553325,-1.9640704,-0.64106846,-3.7654176,-0.11261037,-2.8492036,0.2874742,-2.3116186,0.63565683,-2.1854882,3.3624873,1.5691185,-3.0671427,-2.9851737,1.9842063,-0.8256628,0.3236763,3.6216612,7.765519,1.411186,2.4289782,-2.0987732,-0.84722954,1.4280142,0.07182415,-1.9172422,0.243103,1.6846396,4.3686957,2.4366035,-0.115583636,-2.1921885,0.0923571,1.2990882,2.6918066,1.7349315,-0.89516014,1.5306308,1.1096618,1.4024104,3.4714236,-1.8095646,1.298162,0.9889494,1.127089,0.615992,0.851987,0.4487531,5.5655613,0.1741163,0.18616144,1.1407107,-1.8553667,-0.32402548,-1.8817219,-0.5523707,1.8541287,0.057162624,1.7686676,0.98300487,-0.45690998,0.8541697,-0.055363,-2.3636527,0.45961076,0.8014769,0.5988034,1.9138775,1.1691182,3.1244047,1.5897912,2.850257,2.0975409,0.4197345,-2.1704848,0.28198794,-2.3811467,-1.419904,1.699857,-1.5562989,0.30600062,-1.718875,1.708264,0.7828651,-3.3870664,-1.8618141,1.0876166,-2.2869985,-3.5950062,-1.5751402,2.4146936,-1.5968721,-1.6837834,-0.24977775,-1.1203948,0.86197585,0.74583715,2.402109,-4.419918,-0.8403716,5.2005506,-1.9092907,-1.5613757,1.7080456,-2.6475294,2.0915868,-3.280561,-1.4884262,-1.2863849,0.046541266,0.93256927,-3.105944,0.59366393,0.64395636,-1.5800635,-0.6238127,-3.802028,2.3520858,-2.7155912,-0.7590202,2.405503,2.4034636,0.2702662,-1.337996,1.2897694
C3N-00517,-4.760854,1.3551655,0.25591874,-1.05363,-0.30886936,1.799439,2.0643365,2.2359552,-2.3053424,-0.105877645,1.8815918,-4.378108,1.9786859,1.8338145,-1.6071129,0.99711984,2.539174,3.031477,-0.9641611,-0.66112065,-0.18637615,-2.160941,0.49566785,0.75206137,0.038911816,-0.9597038,-3.1972823,3.449449,-0.47247252,2.4816327,1.4183018,-1.6048743,-2.5355644,2.3471808,-0.20578094,-2.189897,1.4243219,-1.2604983,0.8171949,0.783172,0.14338046,-1.6696925,1.235909,1.7435374,-0.601871,-0.40974903,0.7570535,-0.24932145,0.66698354,1.4182446,-1.425997,3.4073372,-1.8014834,0.7494535,-0.08277354,-0.24473304,-0.39192566,-1.3430321,-1.6364697,0.72056156,-1.3531458,-1.7729203,-0.44325778,-1.0456724,0.92327553,0.5399761,-0.79997313,-0.93740696,3.339675,0.29881236,0.46821308,0.6019351,0.7866191,-1.1652546,0.72017336,2.1938643,0.88876337,2.2969334,0.09822397,0.79539573,2.623999,2.2608097,-0.36547887,2.7470164,0.2707915,-0.9990878,2.1035602,-2.7184763,1.1362345,2.7705474,-1.5352107,1.5262846,3.1633613,1.1863328,0.7669001,-0.2489502,0.9201905,-0.8294457,-3.5925343,-0.16583686,2.885691,1.9280486,1.1631826,1.1483269,2.2770326,1.685046,0.30277765,-0.2291541,-1.846367,-1.3659339,-1.6839787,-0.733022,-0.53341985,-1.1767895,-1.5004734,0.40605164,-2.0058522,1.4340091,-2.6645863,0.7207568,-2.505502,-1.0638899,-0.98565763,0.88955975,0.01464875,0.46461555,-1.316524,-0.20919026,-0.6136713,-1.2010118,1.1530458,2.911417,-2.154294,-0.61383164,-3.6917586,0.03273818,-2.7379463,0.08121343,-2.2277763,0.9105637,-2.2868993,3.4995167,2.0427868,-3.3831248,-2.4671838,1.9668816,-1.0548156,0.29857877,3.8553743,7.717152,1.741622,2.652765,-2.1376848,-0.6667375,1.3683717,-0.2842334,-1.3867431,0.1623768,1.7152783,4.8480005,2.2897894,-0.27372143,-2.1809454,0.18371017,1.1301355,2.6623313,1.8212979,-0.5425745,2.0067523,1.3108705,1.4258444,3.4940188,-1.7705307,1.5465641,0.89591503,1.2075258,0.7848315,1.0450879,0.6100928,5.124034,0.42010197,-0.06901295,1.0167472,-1.8350451,-0.39556724,-2.0402913,-1.0438348,1.9281738,-0.13416815,1.6956714,1.042499,-0.36896816,0.83102113,-0.2537307,-2.1897411,0.49861374,0.5968654,0.69663,2.003354,1.0502629,3.2325265,1.547191,2.9040334,2.4068584,0.28551057,-2.380059,0.29538602,-2.3828208,-1.6538023,1.8584996,-1.697105,0.22509773,-1.4297832,1.8233935,0.3468695,-3.4446638,-2.0043623,1.3170853,-2.8455594,-3.3753078,-1.5545888,2.3267415,-1.4399985,-1.8221714,-0.16515669,-0.98201066,0.70569605,0.55049145,2.1557221,-4.4637413,-0.64704895,5.3618345,-1.9057348,-1.6844946,1.818131,-2.9200118,2.3462493,-3.47369,-1.4636167,-1.4180653,0.12031463,1.0563272,-3.1787734,0.5009796,0.85513425,-1.8128321,-0.5029526,-4.251664,2.040443,-2.804742,-1.2073913,2.2139437,2.3647506,0.43297702,-1.3096576,1.235253
C3N-03440,-4.715376,1.5454754,0.6511519,-0.7676128,-0.19462365,1.6131163,1.5779862,2.0205112,-2.2569873,0.16230004,1.9074455,-4.343233,1.7912656,1.6264564,-1.4018205,1.0699793,2.522008,3.1226368,-0.6743903,-0.7616861,-0.43542126,-2.127698,0.56407136,0.6658877,0.04133703,-1.0659668,-2.915748,3.736334,-0.94395226,2.5539174,1.4642183,-1.6582028,-2.260027,2.4721262,0.08375748,-2.4200504,0.8219354,-1.4157723,0.9654445,0.71543974,0.15962467,-1.4225647,1.327537,1.8388383,-0.43025547,-0.04086908,1.0876746,-0.39563963,0.47069663,1.2425692,-1.2200619,3.1458313,-1.9769495,0.8335628,0.14473385,-0.39576524,-0.42788318,-1.3486841,-1.2332935,0.85376585,-1.430231,-1.6812491,-0.295925,-0.51444185,1.0749879,0.5123026,-0.8645949,-0.6381239,3.0388727,0.6137753,0.22397216,-0.0706419,0.7589189,-1.4734681,1.069019,2.1225042,0.8181079,2.3619523,-0.03589972,0.3359349,2.4665859,2.2114947,-0.21807906,2.9344254,-0.12125484,-0.9592238,2.633939,-2.5814378,0.8561982,3.1480882,-1.4721415,2.0695486,3.1256611,1.025695,1.0828664,-0.2444213,0.66907084,-0.7464135,-3.8550134,0.14016849,2.4203613,1.5689766,0.7321512,1.389145,2.1464405,1.8917006,0.5047132,-0.011537366,-1.8766996,-1.6153613,-1.9296137,-0.43308792,0.14091185,-1.0465944,-1.6733258,0.3643118,-2.4558496,1.3953636,-2.3542516,0.77370244,-2.4332511,-1.1662916,-0.87941504,1.2746605,-0.1404581,0.1968417,-1.5576594,-0.12155218,-0.7775777,-1.0110564,0.9815447,2.7449074,-1.922124,-0.60537654,-3.3982258,-0.044838447,-2.6988974,0.06763539,-2.1751888,0.73927003,-2.3572571,3.5121684,1.5654917,-3.304136,-2.8389332,1.7852756,-0.8884263,0.52132684,3.5747628,8.105701,1.1807033,2.723279,-2.164531,-0.8347756,1.5036802,-0.062370718,-1.8102342,-0.021761626,1.7319005,4.5029025,2.374932,-0.3770181,-2.2307832,0.06408572,1.2711843,2.649179,1.7717049,-0.6996173,1.8782221,1.088591,1.5303098,3.5533464,-1.7146554,1.335401,0.82535344,1.1035852,0.53545094,1.0143988,0.3800863,5.443961,0.037791073,0.3586904,1.253819,-1.593907,-0.43266457,-1.9026641,-0.73024005,1.8416634,-0.026081385,1.6018752,0.7723902,-0.4996467,1.0217704,-0.048903067,-2.6232276,0.34955233,0.7186321,0.5631933,1.9404099,1.2089568,3.1756256,1.4126842,2.9090703,2.3050036,0.36664394,-2.2027023,0.07105795,-2.632458,-1.4562163,1.8110269,-1.5409164,0.26643333,-1.3636979,1.4721022,0.14878401,-3.384263,-1.7538987,1.0477586,-2.5861928,-3.4143648,-1.7144376,2.5075684,-1.7733731,-1.8462061,-0.3597403,-0.96956605,0.7781854,0.16778797,2.0578513,-4.106084,-0.6902231,5.276659,-1.4379469,-1.5030233,2.1866841,-2.7932806,2.1097887,-3.1031091,-1.3834192,-1.5241827,0.07317181,0.887824,-3.124725,0.30725226,0.5650666,-1.7208228,-0.48850372,-3.8617747,2.3030212,-2.650675,-0.6367235,2.4277022,2.4574234,0.5811834,-1.339509,1.4350386
C3L-04495,-4.9676948,1.1092279,0.34243748,-0.639701,-0.46419612,1.8268483,1.7222133,2.162498,-2.220838,0.22267434,2.0854914,-4.200486,2.1834528,1.4764155,-1.6496239,1.2975327,2.5910995,3.153193,-0.74288195,-0.7437187,-0.3326977,-2.1976378,0.8359495,0.496176,-0.12592793,-0.88832873,-2.985304,3.7852056,-0.6865565,2.7124314,1.1836687,-1.566919,-2.2683847,2.465703,0.08246717,-2.2348604,1.1184874,-1.3556547,0.7167396,0.90629447,0.13220116,-1.4305569,1.453388,1.3697149,-0.53938204,-0.27536565,1.3101652,-0.2830275,0.48842335,1.4743191,-1.4837576,3.5468857,-1.7865969,0.7093718,0.29072455,-0.3026489,-0.58848006,-1.165176,-1.1363888,0.71882224,-1.2068555,-1.8251323,-0.0805172,-0.78063554,1.1963255,0.85574615,-0.36380714,-0.6309835,3.0268953,0.15161134,0.46278203,0.34315133,0.4561918,-1.3791327,0.9135507,2.3872163,1.1997712,2.443926,-0.16988161,0.6610831,2.722217,2.462929,-0.19136335,3.2124763,0.265005,-1.2252855,2.1577766,-2.5404766,1.057239,2.9853332,-1.6390389,2.1188302,2.9298427,0.8418143,0.93072814,-0.39709777,0.51096237,-0.64446676,-4.2909822,0.012366626,2.4596422,1.6238762,0.8892822,1.2606586,2.3572278,1.9336854,0.3606427,0.2705608,-1.7750837,-1.5460628,-2.136451,-0.45058602,0.14113691,-0.8961335,-1.3791723,0.58020866,-2.1822906,1.3342459,-2.207162,0.8948587,-2.613187,-1.0927099,-0.5312638,1.1955887,0.13736421,-0.012614308,-1.4857577,-0.26983654,-0.945992,-1.2339804,1.3049872,2.8228343,-1.7282135,-0.7324567,-3.8444812,0.044675585,-2.9484425,0.24534841,-2.6991541,0.8305817,-2.080525,3.3933325,1.7633302,-3.606336,-2.6186771,1.8446562,-0.893803,0.43850234,3.818807,8.013026,1.2001799,2.5086353,-2.239293,-0.532035,1.7489883,-0.08170948,-1.7077528,0.21977441,1.1936349,4.9220505,2.2464492,-0.31462395,-2.3579915,0.095634155,1.0932529,2.6949055,1.7713511,-0.9143411,1.6378736,0.7732499,1.3283564,3.3669956,-1.9527308,1.1268728,0.9332851,1.16912,0.8125061,1.1280652,0.45443657,5.3590937,-0.028110236,0.15580729,1.2272971,-1.7478957,-0.46356395,-1.9712156,-0.6162963,1.7447631,-0.15610756,1.5800129,0.8033263,-0.5830984,0.8461585,0.10029447,-2.6053336,0.45753452,0.8186103,0.88210875,2.0568311,0.8993211,3.3178046,1.8539735,2.7897456,2.439698,0.0846828,-2.2696273,0.061142165,-2.425974,-1.4353325,2.0132859,-1.4814805,0.40961456,-1.3061725,1.343624,0.5750982,-3.4793012,-1.7708669,1.0640411,-2.6528187,-3.2700422,-1.5980313,2.5279558,-1.6795454,-1.909977,0.028987681,-0.96211505,0.6403028,0.41332713,2.352758,-4.1693296,-0.84010667,5.1485753,-1.995567,-1.4652461,2.0652034,-2.6798823,2.297383,-3.5389876,-1.6760069,-1.4620469,0.04029623,1.0742637,-2.8729765,0.4107451,0.6863521,-1.6865852,-0.29756886,-4.20382,2.2202787,-3.0457234,-0.6997526,2.5662203,2.3999698,0.42614058,-1.2897929,1.0151546
C3N-04284,-4.920499,1.3505546,0.46394044,-1.0847642,-0.19410284,1.7139993,2.058729,2.3359818,-2.5821872,0.09057181,2.058558,-4.4420576,2.2566245,1.4961649,-1.3790286,1.2514403,2.1873484,2.9156814,-0.60353756,-0.8827207,-0.24445707,-2.1558266,0.52224475,0.40606186,0.27075765,-1.0070368,-3.3423755,3.4140449,-0.6599469,2.4953396,1.5054849,-1.7159939,-2.586072,2.2698483,-0.03985739,-2.369292,0.9566108,-1.2804811,0.712686,0.9714959,0.11009447,-1.9277773,1.0707083,1.6974968,-0.21278791,-0.18297704,0.7769743,-0.17771578,0.61312556,0.9760506,-1.1899422,2.761551,-1.8061067,0.53126,0.34549835,-0.25069237,-0.4513604,-1.1723845,-1.4265339,0.5822739,-1.3486847,-1.403936,0.038234904,-1.0381633,0.9851353,0.6101576,-0.6188469,-0.97126085,3.2665477,0.27484173,0.17141728,0.26868454,0.8918674,-1.5217443,0.68152153,1.9239374,0.7343067,2.712559,-0.2893469,0.71220005,2.590762,2.37269,-0.074172325,3.2283995,0.24522002,-0.8191736,2.1796083,-2.6263099,1.044738,2.8704925,-1.4135324,1.7478213,3.3143706,1.002509,0.56007844,-0.07309031,0.694063,-0.85395575,-3.4988348,0.110420085,2.5955658,1.6695017,1.5199316,1.2280666,2.185101,1.6169913,0.55841327,-0.21653053,-1.4288825,-1.3794547,-1.6061488,-0.47642982,-0.034219902,-0.8366851,-1.4590777,0.7272278,-2.3678887,1.5350766,-2.6922264,0.9159166,-2.278053,-1.0699964,-1.0577911,0.7083809,0.01327943,0.63906336,-1.2931962,0.13491929,-0.74163145,-0.9601038,0.8073972,2.8537312,-2.114576,-0.6332416,-4.073031,-0.14298183,-2.7175486,0.030961346,-2.5820005,0.8502201,-2.46523,3.2607343,1.8833791,-3.5905864,-2.842391,1.9778779,-0.9826886,0.1556186,3.742664,7.8190894,1.4826887,2.726388,-2.0367775,-0.42717075,1.0874975,-0.48151058,-1.7064257,-0.22762221,1.7704986,4.851074,2.636382,-0.5046767,-2.021924,-0.012958414,1.2554352,3.0344982,1.4726691,-0.5533602,2.1032536,1.3798424,1.3345698,3.4434488,-1.7844447,1.6804196,0.83833826,1.1559138,0.28140756,0.9413064,0.8551019,5.423843,0.021792265,-0.40019593,1.1124837,-1.8899666,-0.34279862,-1.6468407,-0.9688718,1.8595954,0.0039033354,1.5886728,0.8818673,-0.4942147,0.60013103,-0.09921899,-2.5287592,0.38009524,0.9591159,0.8107161,2.0298543,1.0414069,3.0567715,1.7075334,2.8278372,2.482237,0.3056195,-1.9999446,0.39253622,-2.4238954,-1.3205249,2.0330122,-1.6557022,0.04434115,-1.5879741,1.3147602,0.33662677,-3.3270602,-1.7308631,1.2277685,-2.4300175,-3.2014384,-1.4631926,2.596227,-1.6390381,-1.5556046,0.05327293,-1.1135396,0.82505727,0.4922785,2.3940935,-4.1746435,-0.7455982,5.668598,-1.9241784,-1.7289015,1.867096,-2.8511515,2.3115082,-3.8383331,-1.1875087,-1.456037,0.25917035,0.64470315,-3.1448312,0.38971362,1.1203996,-1.7477114,-0.6214934,-4.2151766,2.2250674,-2.7500198,-0.8072399,2.1809406,2.5595148,0.28632012,-1.6738544,0.8986745
C3N-00957,-4.7161922,1.02958,0.84284973,-0.3547225,0.065573804,1.5108899,1.2855892,1.854547,-2.5342507,0.38842815,2.2097743,-4.0369134,2.0799763,1.7293191,-1.5330435,0.9495673,2.9283612,2.8589246,-0.74248224,-0.8498824,-0.8057139,-2.0898156,0.7578343,0.6693465,0.39950842,-1.3054091,-2.92251,3.095442,-0.53484845,3.0176194,1.1451904,-1.5679581,-2.2654135,2.3068671,0.1918223,-2.3735363,1.1451391,-1.4768839,0.6474159,0.93540365,-0.13479324,-1.3012012,1.1214889,1.9442288,-1.314679,-0.18231948,1.5019506,-0.017676812,0.49189723,1.2447624,-1.7729986,2.944196,-1.7547264,1.0242412,0.42417103,-0.42765516,-0.5321405,-1.0973495,-1.2264352,1.1369158,-0.9010107,-2.2704792,-0.4050283,-0.8120076,0.6683044,-0.14063661,-0.38774493,-0.9128025,3.2322836,0.3629659,1.001062,0.24766046,0.8667757,-1.4590884,0.86185694,2.1513693,0.8234537,2.5892944,-0.36008957,0.4246323,2.590734,2.4557037,-0.3822798,2.7594426,-0.0073471884,-1.0344974,2.8451395,-2.7654126,1.5821965,2.7888231,-1.7580724,1.9709394,2.5695708,0.96885204,0.59117216,-0.2547633,0.4120047,-0.5557157,-3.567025,0.08819917,2.6868634,1.455299,0.7472643,1.3125849,1.9609061,2.0024529,0.26074144,-0.07327773,-1.8960937,-1.6723012,-2.1741493,-0.1288956,0.07982993,-0.22381036,-1.3879361,0.80292857,-2.5051963,1.4280227,-2.471352,0.7076631,-2.4270754,-1.2410516,-0.9865422,0.9545741,-0.063095994,0.1611963,-1.3204746,-0.53035754,-0.79653597,-1.8311353,0.9451959,2.3697739,-1.655008,-0.730383,-3.3948927,0.041566323,-2.7655427,0.120418556,-1.6510553,0.7618283,-2.3389604,3.4023902,2.1311364,-3.3734357,-2.6413565,1.8483019,-0.64843893,-0.04740224,3.8189793,8.182317,1.0846984,2.5389166,-2.3246157,-0.6038496,1.8405142,-0.8560935,-1.9694146,0.47658968,1.3727092,4.3253064,2.4165554,-0.6680217,-2.3554492,0.06299784,1.1918703,2.8158972,2.063601,-0.8965544,2.1225638,0.7044014,1.6197057,3.409077,-1.257288,1.3235573,0.97321546,1.3594291,0.59443104,0.7990847,0.4277877,5.4138694,0.2914683,-0.18362395,1.1854931,-1.8433136,-0.57519734,-2.0032387,-0.412179,1.6039138,-0.14335303,1.8475306,0.78455234,-0.8118688,1.1130596,-0.027921576,-2.158257,0.71907073,0.4245493,0.8933855,1.7851453,1.1789206,3.1294184,1.7656145,2.6366208,1.7690299,0.16201459,-2.2554638,-0.03398613,-2.5992692,-1.0802451,1.8135939,-1.7219592,0.1933467,-1.5204247,1.3654321,-0.20318049,-3.513682,-1.9263225,1.1365662,-2.3802645,-3.5110502,-2.0119882,2.6166697,-1.4819342,-1.6953603,0.009248061,-1.3046142,0.849325,0.78214055,2.3711817,-4.019711,-0.59188986,5.3754315,-1.3739129,-1.4705906,1.9100789,-2.5485983,2.2850008,-3.630233,-1.646546,-1.9265585,-0.0044929017,0.70928895,-3.009549,0.36293805,1.1365676,-1.6319672,-0.23280607,-4.2194257,2.1892288,-2.9756804,-0.9718054,2.1015818,2.3123953,0.57787585,-1.6704292,1.5045269
C3L-03395,-4.868768,1.3325626,0.34144473,-0.618188,-0.13026607,2.0934558,1.4965831,2.2656035,-2.1498904,0.40062457,2.161359,-4.0123253,2.1296372,1.7645268,-1.0862473,1.2824205,2.671736,3.0591135,-0.63506603,-0.9641471,-0.7033391,-2.3026721,0.7311223,0.47193354,-0.057741866,-0.91658825,-2.9759283,3.713438,-0.89712936,2.499869,1.3138913,-2.034333,-2.1364088,2.4133828,-0.04251487,-2.2016926,1.0777812,-1.2718723,0.9326447,1.0381168,0.011457791,-1.3726493,1.3409837,1.5221591,-0.43421268,-0.32361138,1.280092,-0.1209201,0.4342629,1.3394417,-1.6213502,3.2544224,-1.5952299,0.75646627,0.38111997,-0.19086045,-0.25491655,-1.1942195,-1.293432,0.88899606,-1.4162554,-2.1000278,-0.44602934,-0.75964516,1.0387295,0.5516811,-1.0892689,-0.9626892,2.908077,-0.06146491,0.6024659,0.06678893,0.9749948,-1.3816139,0.8685993,2.2652876,1.0401002,2.4537761,-0.14400415,0.5645139,2.891848,2.310851,-0.28455982,2.75067,0.34468603,-0.91885364,2.4682229,-2.8543806,1.0896827,2.8602808,-1.7184811,1.8848423,2.8999436,0.64828026,0.82932734,-0.17140986,0.58876246,-0.57033384,-3.7120416,0.22793451,2.5458853,2.0410728,1.1316297,1.1132455,2.0862563,1.7039235,0.2584664,0.14847006,-1.903186,-1.596154,-1.9519889,-0.58719444,-0.050263993,-0.93628436,-1.2553046,0.65651435,-2.1358862,1.3015968,-2.5243676,0.72151846,-2.3964615,-0.9753892,-0.8308885,1.0693649,0.0926238,0.3818103,-1.5393779,-0.23963544,-0.8709521,-1.2310599,1.1911123,2.756139,-1.6731073,-0.55924773,-3.6097827,-0.095551185,-3.0157042,-0.04977143,-2.3777685,0.96055925,-2.419066,3.369354,1.5134778,-3.7349849,-2.54744,1.8099734,-0.6684654,0.03488056,3.6209435,7.6327057,1.5702251,2.6468756,-2.4211018,-0.6999362,2.0080602,-0.06615076,-1.7208384,0.4001892,1.3513098,4.823238,2.2390664,-0.22611743,-2.122738,0.07652052,1.2759104,2.8064203,1.6667788,-0.7659021,1.7325938,0.88300866,1.4467835,3.4661999,-1.9836003,1.3310854,1.052107,1.050603,0.5803136,1.0734591,0.53340715,5.53771,-0.086875305,0.03518173,1.140672,-1.8126329,-0.51699585,-1.887493,-0.21187858,1.6102185,-0.1424064,1.6914573,0.76138526,-0.67270505,0.96753734,-0.16392821,-2.3164983,0.4577744,1.0111567,0.91961086,2.1095238,1.0688365,3.399582,1.5824982,2.8670878,2.0836675,0.24275775,-2.4390893,0.192681,-2.3558106,-1.376836,1.919918,-1.5560046,0.119872786,-1.2556003,1.2723563,0.18981874,-3.315638,-1.4547609,1.4184389,-2.5528545,-3.3996856,-1.6048776,2.8209624,-1.7877321,-1.8045725,-0.08787043,-1.1769794,0.6146711,0.60661054,2.0562305,-4.3494196,-0.8131853,5.54424,-1.7746572,-1.2918965,1.7517623,-2.7323089,2.4586325,-3.489686,-1.6277112,-1.4358916,0.104594335,1.2058543,-3.1746988,0.428127,0.8401979,-1.7297698,-0.24265462,-3.954054,1.914874,-3.10087,-0.8262134,2.5624979,2.3799934,0.5680273,-1.386738,1.0762866
C3N-00303,-4.7955875,1.1832151,0.7627458,-0.4284996,0.23773097,1.7791277,1.4560742,1.7494773,-2.483007,0.23022088,2.2363982,-4.0445185,1.661671,2.0840406,-1.031482,0.85772884,2.4890835,3.0102003,-0.94395363,-0.7413637,-0.8650499,-1.9476713,0.36272958,0.43866643,0.09575522,-1.6499753,-3.081114,3.372534,-0.78997684,3.3113093,1.2809774,-2.0070217,-2.398802,2.4631896,0.03421719,-2.5552037,1.2947389,-0.96095943,0.7868552,0.5854074,0.21169673,-1.1392677,0.8704011,1.8533815,-1.102054,-0.5071354,1.5208539,-0.16101174,0.545194,1.2629452,-1.7266579,3.1120877,-1.76469,1.0185747,0.41563207,-0.048006512,-0.630568,-0.99747497,-1.798046,0.94645035,-0.8797958,-2.0064886,-0.4269939,-0.8460063,0.9389866,0.2162723,-0.84130156,-0.63010126,3.182926,0.64768654,0.380824,-0.10350928,0.7178169,-1.10461,0.79090106,2.192435,0.8430166,2.6559653,-0.5627817,0.42507553,2.5345137,2.357628,-0.32519063,2.774932,0.0446012,-0.840094,2.9883099,-2.5161724,1.2006233,2.8888617,-1.7165475,2.0178688,2.896747,1.3580208,0.79294866,-0.08476806,0.8337569,-1.148259,-3.5018826,-0.0039624055,2.680052,1.4263229,1.1667185,1.4728506,2.0168726,1.9643478,0.6567359,-0.14336438,-1.9224261,-1.7526853,-2.1804204,-0.7038118,0.2684313,-0.85176325,-1.6207414,0.5846043,-2.4122784,1.6842601,-2.7724817,0.12525764,-2.3792458,-1.1681006,-0.7252752,1.0197265,0.17230628,0.26636457,-1.4225377,-0.361467,-0.65948427,-1.3635858,0.8054301,2.3430295,-1.7955118,-0.8004808,-3.0936809,0.020216174,-2.7869024,-0.10083215,-1.6270562,1.2732947,-2.2009606,3.5863576,2.2352335,-3.2723284,-2.5428233,1.8245244,-0.6856263,0.18913145,4.0652795,7.9422126,1.683764,3.0012276,-2.547963,-0.48746997,1.9191792,-0.23087586,-2.3858678,0.6858627,1.4124438,4.1232758,2.296316,-0.53017515,-2.2513797,-0.014592211,1.3040944,3.2875676,2.1387634,-1.0079501,1.592285,0.6013697,1.4095765,3.7696173,-1.5011187,0.67494696,1.3430381,1.7502989,0.47789448,1.4889559,0.20615678,5.337959,0.12574653,0.16644296,1.5052327,-2.3428233,-0.48865262,-2.1777692,-0.5853424,1.978412,-0.33930436,1.7524557,0.9984134,-0.5398814,0.5120424,0.23218253,-2.6760902,0.8057046,0.66815567,0.70799524,1.5841703,0.987607,3.1289907,1.4187329,3.0142992,2.0622504,0.2518857,-2.01587,-0.35602877,-2.7375538,-1.584441,1.5477117,-2.00137,-0.13133189,-1.73698,1.8737998,-0.0909837,-3.2781684,-1.8018546,1.2634789,-2.8625352,-3.1553679,-2.030242,2.24746,-1.4246569,-1.7825155,-0.030029723,-1.5187979,0.64614284,0.6426595,2.312012,-4.0946507,-0.6776764,4.838016,-1.3883493,-0.86694694,1.7038035,-2.589534,2.474757,-3.1799364,-1.3500348,-2.2047822,0.107882,0.55223227,-2.9748576,0.054815836,0.53403777,-1.5755697,0.060815584,-4.1183825,1.7952474,-2.7936118,-0.8043707,2.7013826,2.24295,0.43270305,-1.4667189,0.9771993
C3N-00513,-4.8279614,1.3764678,0.47948748,-0.73727,-0.061871823,1.6410067,1.609203,1.7911162,-2.3076193,0.21541494,2.044532,-4.157275,2.0528665,1.7313105,-1.3381237,1.2517518,2.6863918,3.0039678,-0.68497455,-0.83072174,-0.73152494,-2.0693078,0.4137827,0.7799299,-0.12598298,-0.9765068,-2.7980912,3.6951776,-0.8560407,2.542447,1.4510658,-1.67866,-2.4781888,2.1636324,-0.19403322,-2.3655648,0.95062804,-1.5568677,1.0275843,0.6489746,0.18605563,-1.2490461,1.243562,1.6971769,-0.6698162,-0.5970064,1.0813651,-0.07603369,0.46691647,1.3254969,-1.4179342,3.4417355,-1.9419401,0.7225995,0.48254472,-0.548056,-0.3783553,-1.4438894,-1.3392414,0.7701358,-1.3169063,-2.022025,-0.23575667,-0.65782845,0.7513513,0.4751408,-0.9801108,-0.73591125,3.183464,0.4226406,0.38290167,0.16562189,0.6895526,-1.1983851,1.0275277,2.0599222,1.0356203,2.4885354,0.0117878765,0.69173217,2.510856,2.445661,-0.44653744,2.9807127,0.037041686,-1.1199176,2.6291912,-2.6935058,0.89658743,2.8951929,-1.6119499,2.1341093,3.051004,1.2269597,0.8568588,-0.15587051,1.0144658,-0.75525635,-3.9592164,0.13051637,2.5502508,1.7657114,1.0005591,1.3274635,2.2391822,1.7444838,0.309872,0.26689538,-1.9491014,-1.3442545,-1.9006639,-0.68702644,-0.09769797,-0.6333969,-1.6658185,0.7302916,-2.345834,1.4104238,-2.543066,0.9330141,-2.5843694,-1.0989937,-0.94411856,1.1102011,0.0065354244,0.33867872,-1.5892956,-0.17337951,-0.9494095,-1.2777861,0.9803803,2.9443054,-1.7839047,-0.8034097,-3.235622,0.21147603,-2.9278781,0.01118606,-2.267013,0.92237324,-2.4082427,3.6387353,1.8386564,-3.4750638,-2.6545923,1.6690414,-0.7940378,0.25109723,3.6597183,7.9344487,1.3998728,2.6229703,-2.139321,-0.21400811,1.550107,0.026364177,-1.6626759,0.036788587,1.5128491,4.574601,2.3148422,-0.3095301,-2.026319,0.058037773,1.359639,2.983842,1.7814059,-0.81606066,1.8192271,1.0288732,1.3563056,3.5844665,-1.8807874,1.212538,1.0067033,1.1149824,0.82044345,1.0502098,0.6520025,5.3326173,0.45776498,-0.046549503,1.3074392,-1.8214774,-0.5812116,-2.2544956,-0.5325091,1.7161999,-0.116209485,1.6271006,0.53221506,-0.5896128,0.84751236,-0.23985313,-2.5228257,0.43380457,0.87850606,0.85450673,2.1222038,1.229112,2.89963,1.6282027,2.9960454,2.389603,0.27864096,-2.2199688,0.30071807,-2.5842104,-1.7790307,1.7544892,-1.5898275,0.14279214,-1.338586,1.7368064,0.16447328,-3.5924656,-1.8217492,1.1442642,-2.6486266,-3.428008,-1.8186902,2.4384634,-1.4918829,-1.9386044,-0.041049473,-1.2304184,0.63428587,0.64681506,2.1576655,-4.472226,-0.7667792,5.2691627,-1.5436634,-1.3196772,2.070425,-2.6767652,2.433472,-3.3867288,-1.5409992,-1.3741537,0.03264941,1.0345182,-3.118918,0.19463629,0.83312476,-1.771829,-0.445424,-4.024041,2.144782,-2.8415213,-0.99251294,2.631671,2.6383734,0.42265177,-1.4556124,1.0766897
C3N-01166,-4.6953826,1.154838,0.5788051,-1.0897408,-0.45419902,1.8111621,1.7257286,2.245077,-2.3776243,0.2469016,1.9243249,-4.4049654,2.0994048,1.7675309,-1.1421531,0.8475217,2.3597746,3.0700977,-0.70553404,-0.70521605,-0.45173758,-1.8598655,0.48332775,0.5462673,0.17383078,-1.1296927,-2.8344972,3.6632113,-0.7273006,2.5269089,1.3795042,-1.5710772,-2.1909578,2.4559608,0.008239601,-2.2678018,1.1572539,-1.31214,0.9208489,0.48009303,-0.029597363,-1.0370535,1.1754605,1.731345,-0.70000935,-0.33998978,1.1288836,-0.28838375,0.47338128,1.4963892,-1.4112165,3.3530552,-1.991298,0.9817968,0.18601578,-0.55318016,-0.4916504,-1.127549,-1.3499677,0.902104,-1.145608,-1.7821904,-0.47110325,-0.51139194,0.98374283,0.39198002,-0.7145429,-0.9653333,3.3813968,0.39034227,0.20664255,0.3890651,0.62367016,-1.4048486,0.8589616,2.0653522,0.9413968,2.407764,-0.1173764,0.38348284,2.3406518,2.41969,-0.27557072,2.8635848,0.27287105,-1.2052628,2.6901052,-2.564021,1.2759274,3.1644106,-1.7201732,2.0227904,2.7507246,0.9081477,0.9318818,-0.51595014,0.75029147,-0.7267518,-3.8437312,0.060042556,2.307386,1.5299532,0.96773565,1.0419322,2.1496613,1.675602,0.26791918,-0.3248235,-1.9102318,-1.5803951,-1.6864161,-0.50742424,-0.09418243,-0.91579044,-1.4593626,0.5632681,-2.2911491,1.5808128,-2.7306495,0.6343312,-2.585832,-1.0757663,-0.68143165,1.2431558,0.06088123,0.28773782,-1.136711,-0.44798738,-0.86619467,-1.5733008,1.0340271,2.5866416,-1.9161458,-0.6618444,-3.4510696,0.14676306,-2.6846888,0.16965935,-2.1157897,0.7693255,-2.3248458,3.3477588,1.9531032,-3.7302315,-2.7523983,1.9234573,-0.72805786,0.30348337,3.9012997,7.81509,1.7793258,2.5738711,-2.2072768,-0.54753166,1.7909403,-0.25048947,-1.822567,0.4402013,1.8484845,4.53623,2.039015,-0.25141424,-2.2617707,0.13525297,1.2502049,2.5732229,1.7225173,-0.69713205,2.0091817,0.95977676,1.1644555,3.6546366,-1.6810188,1.4808027,1.0677092,1.4226416,0.7873595,1.2040104,0.5644201,5.1007156,0.32133317,-0.07359655,1.2391536,-2.007891,-0.48132524,-2.0652094,-0.7751275,1.6574713,-0.07092577,1.8573706,0.9384161,-0.47258022,0.85527503,0.051088918,-2.3525863,0.52390593,0.81393135,0.7975661,2.238231,1.2505676,3.2144418,1.5442876,2.7659748,2.6138475,-0.09410225,-2.0638454,0.07865601,-2.470617,-1.4318302,1.8635582,-1.8013821,-0.065721564,-1.4035127,1.5330201,0.526694,-3.1200938,-1.6862096,1.0586073,-2.5720747,-3.4829671,-1.9042511,2.3867316,-1.6305927,-1.6111006,-0.15569688,-1.151142,0.8200012,0.49722487,2.0687642,-4.203619,-0.8792002,5.0300107,-2.0457458,-1.1499892,2.1678104,-2.6461768,2.3932214,-3.5936308,-1.4213724,-1.6511858,0.21007852,0.88660735,-3.0461698,0.4674705,0.7761941,-1.7387481,-0.38607007,-4.057269,2.0520992,-2.8881953,-0.8894469,2.3235202,2.321524,0.3971091,-1.4963093,1.3265394
C3N-01382,-4.5730796,0.95662427,0.6780699,-0.9812556,-0.51943654,1.7581381,1.7133439,2.0308654,-2.1471083,0.22256039,1.9047115,-4.52584,2.2700517,1.5711007,-1.3370326,0.90739006,2.3697162,3.0474982,-0.44741973,-0.55112195,-0.3232835,-2.255032,0.43700722,0.846986,0.2125159,-1.044286,-2.7348275,3.8208904,-0.6587834,2.713696,1.3250997,-2.0015507,-2.4293091,2.2592447,0.04337869,-2.2210171,1.0551506,-1.3947109,0.7627294,1.044816,-0.18777402,-1.421481,1.568035,1.7522079,-0.39242435,-0.016192934,1.1552469,-0.4222531,0.59012806,1.4154475,-1.5279509,3.2040288,-2.1038427,0.7561823,0.1791428,-0.36090064,-0.43143806,-1.2952586,-1.2629415,1.0101532,-1.5295483,-1.834525,-0.18874565,-0.5212297,1.0178777,0.7500795,-0.92908186,-0.8542229,3.5647078,0.32515553,0.65067625,0.24294265,0.5789479,-1.3400321,0.9308005,2.1232827,0.8286812,2.6229942,-0.37034437,0.67113465,2.39639,2.558119,-0.109759636,3.060476,-0.1804325,-1.1602647,2.5061615,-2.8457909,0.9760544,3.0765579,-1.4649085,1.7884282,2.692716,1.0929612,0.616913,-0.19840379,0.6226556,-0.5037793,-3.8973792,-0.18355243,2.6531463,1.7798958,1.1369959,1.4125724,2.3013685,1.7261193,0.23516557,0.12871839,-1.9005288,-1.4048216,-1.9376878,-0.5894541,0.33092815,-0.84855354,-1.3814156,0.51618224,-2.2951417,1.4162577,-2.232052,0.83175313,-2.393649,-0.94811827,-0.72947323,1.0720752,-0.18113862,0.2683898,-1.3342124,-0.089244425,-0.74868417,-0.9949365,1.0952429,3.0129921,-2.0835629,-0.5873415,-3.5445433,0.10650807,-2.6968513,0.22856762,-2.4659145,0.7013971,-2.4595208,3.3902557,1.5682968,-3.6377487,-2.8094459,1.942647,-0.78586835,0.20004995,3.703274,8.007513,1.6479201,2.3536954,-2.2375724,-0.77802294,1.7647415,-0.07661497,-1.9706355,0.15623058,1.6763196,4.468065,2.2950385,0.036744434,-2.296551,-0.05226903,1.3494148,2.490748,1.8373034,-0.80706644,1.9483302,0.9610561,1.1752867,3.5480049,-1.8027416,1.294679,0.7247308,0.9967091,0.5558672,1.0591974,0.5635725,5.611941,0.425381,0.10572494,1.2472947,-1.9534895,-0.22125007,-1.9574591,-0.79537493,1.5646737,-0.083915785,1.4449185,0.5954693,-0.8005975,1.2254275,-0.34432596,-2.5509896,0.38348266,0.76163644,0.8937162,2.0630972,1.1796564,3.3470373,1.374645,2.9409747,2.4797852,0.2712379,-2.1364958,0.17417388,-2.5176487,-1.5722823,1.850845,-1.5657989,0.29622948,-1.3424395,1.7439375,0.29986972,-3.531501,-1.763314,0.9985092,-2.4412346,-3.3714151,-1.5645497,2.5687182,-1.6526948,-1.6941452,-0.05585664,-1.1025507,0.66036266,0.6976478,2.3194852,-4.5171995,-0.9203104,5.1567416,-1.8983022,-1.346508,1.8395832,-2.667924,2.3342376,-3.511987,-1.5366335,-1.5074342,0.47240648,1.2763802,-2.8206677,0.51024187,0.9274715,-1.7862781,-0.3380803,-4.035904,2.011006,-2.9020817,-0.7090145,2.2797568,2.431761,0.37020335,-1.2733773,1.1064085
C3N-01011,-4.7963734,1.2477199,0.35467732,-0.59734726,-0.20589086,1.7630483,1.5816654,2.1567545,-2.2822828,0.42067814,1.8519002,-4.564426,2.03693,1.7736291,-1.2890552,1.0791644,2.74093,3.063111,-0.63293123,-0.67796886,-0.5881407,-1.9648482,0.34886914,0.49256238,0.0593731,-1.2949214,-2.9054036,3.8347092,-0.80019754,2.5233018,1.1536868,-1.5720915,-2.2298784,2.3468502,-0.0053303805,-1.9194897,1.2410764,-1.6974465,0.8193703,0.45319226,-0.058815543,-1.3752576,1.3384916,1.4513371,-0.58037454,-0.6169255,0.95302516,-0.39621648,0.16207823,1.4574794,-1.4982759,3.2484832,-1.6192682,0.75363857,0.22350268,-0.5908397,-0.49038196,-1.2211418,-1.2138933,1.0378103,-1.2485936,-1.8142741,-0.23945495,-0.7054168,1.2080036,0.53343487,-0.97037715,-0.7285796,2.9768398,0.18300611,0.44120607,0.588605,0.5346694,-1.5667946,0.75144416,2.2974718,1.1126117,2.503922,0.06920498,0.6376538,2.1851661,2.1512148,-0.22365019,3.0973768,0.21121134,-1.0229897,2.4612672,-2.6102128,0.9810444,3.2838457,-1.7884551,2.0099056,2.8611908,0.78389144,1.0188771,0.042306174,0.9187073,-0.71586,-3.8030517,0.18122005,2.6995378,1.6902198,0.99048996,1.4076767,2.3561223,1.531454,0.16291013,-0.08352473,-1.8853332,-1.3340153,-1.9474345,-0.38716945,0.020811059,-1.0119768,-1.3465734,0.73601556,-2.2381105,1.570044,-2.441524,0.9227314,-2.5989106,-0.8384829,-0.4764987,1.1942874,-0.052199084,0.4399063,-1.5361326,-0.12435611,-0.71564955,-1.1128525,1.0359616,2.8571293,-1.9940847,-0.9011292,-3.4093657,0.27563247,-3.184058,0.13894448,-2.5083647,0.8605157,-2.4201326,3.6031432,1.9840411,-3.3231626,-2.667579,1.6528827,-0.715065,0.41327497,3.679289,7.8049984,1.3794768,2.6378424,-1.9367551,-0.597087,1.5643263,0.45103168,-1.8679404,0.20259693,1.6871475,4.8321767,2.2533116,-0.631957,-2.1164396,0.1111428,1.184984,2.8585665,2.0719595,-0.71902883,2.0209455,0.93666005,1.5307025,3.482847,-1.7838458,1.2312542,1.0482148,1.1332511,0.81974757,1.1401602,0.47512016,5.364182,0.36442894,0.09539255,1.5317206,-1.8626314,-0.5877369,-2.2370312,-0.71292394,1.7458664,0.07710249,1.6760826,1.0272266,-0.49591595,0.7199659,-0.13210721,-2.6917515,0.36276984,0.8045879,0.5386129,2.0982864,1.1768662,3.331844,1.2368356,3.1630216,2.3108163,0.24427801,-2.30783,0.09301458,-2.6493142,-1.8333844,1.7407255,-1.396812,0.33270237,-1.483298,1.5268297,0.50955296,-3.546632,-1.759029,1.3893651,-2.795853,-3.445746,-2.071734,2.4688923,-1.7117298,-1.6519058,0.099050775,-0.9041908,0.63406235,0.94990224,2.0227895,-4.0246987,-0.97059757,5.154324,-1.8561494,-1.2467215,2.0389748,-2.7879493,2.027574,-3.6096978,-1.5116997,-1.5694684,0.022644663,1.1408931,-3.0647883,0.45871174,0.6937648,-1.7441598,-0.7016076,-3.992794,2.305953,-2.773671,-0.8676866,2.2362304,2.384892,0.15452158,-1.4458175,1.1966673
C3L-04473,-5.1192694,1.3822107,0.67507195,-0.83068204,-0.2736238,1.8787464,1.5719483,1.9019824,-2.0981174,0.2163761,1.5099111,-4.2714515,1.8695619,1.8034796,-1.418101,1.0536118,2.679154,3.3098576,-0.63494694,-0.8143047,-0.4800668,-2.1863358,0.50269014,0.71561205,0.13170622,-0.951436,-2.7393436,3.7501256,-0.8499981,2.7620645,1.3188009,-1.5579046,-2.2232237,2.4949574,0.017162971,-2.3552148,1.1004887,-1.3083427,0.98337114,0.7616898,0.39105624,-1.2400312,1.5736095,1.8968041,-0.47240037,-0.52346027,1.2197152,-0.43324393,0.2776261,1.3109989,-1.5938311,3.1766057,-1.9458439,0.6521642,-0.15417497,-0.53124833,-0.29505208,-1.286382,-1.3523823,0.7486793,-1.0140096,-1.7695678,-0.35726902,-1.1009662,1.2551799,0.7215498,-0.97865164,-0.61633015,2.988176,0.5077289,0.21654375,-0.16973987,0.96566254,-1.2725488,0.98795605,2.4840539,1.0509988,2.802712,0.02078982,0.7526329,2.6163554,2.2032092,-0.17883435,2.852446,0.25934756,-0.99240506,2.3945875,-2.4793031,0.9976826,3.0959058,-1.8141754,1.751898,2.9777226,0.78672796,0.76038086,-0.34423307,0.7247303,-0.82933676,-3.788784,0.1567106,2.442317,1.6483716,0.9756527,1.1710011,2.1707575,1.700365,0.5673758,-0.09745986,-1.7561826,-1.1701328,-1.6078787,-0.5137548,0.026011853,-1.2008213,-1.4734604,0.7693938,-2.2040696,1.39259,-2.4730446,0.4642259,-2.586382,-1.0667228,-0.81942236,0.84789634,0.10561966,0.33037376,-1.7685555,-0.21489368,-0.697222,-1.4276739,0.9930682,2.7181478,-2.1547854,-0.50471586,-3.333074,-0.12545994,-3.151062,0.1660335,-2.3542168,0.8582245,-2.3621814,3.4821255,1.5462992,-3.44293,-2.6909077,1.8990878,-0.79190487,0.30308542,4.1484604,7.598897,1.5468025,2.7136133,-2.2688296,-0.5257501,1.561251,0.07246948,-1.7773906,0.32768717,1.6932449,4.6243567,2.5382476,-0.43894333,-2.4694638,0.044728763,1.0115461,2.9275284,2.0189142,-0.8083713,1.5976143,1.0289412,1.4579097,3.6331637,-1.8484676,1.2263434,0.8038304,1.0794065,0.31667143,1.122,0.79018265,5.3575044,-0.04900908,0.22362034,1.3876579,-1.6137819,-0.6119682,-2.0423083,-0.6717986,1.6604778,-0.15039024,1.891287,0.9912828,-0.5829264,0.95628744,0.01531618,-2.439447,0.7633148,0.4958758,0.90907943,2.2528827,0.9479627,3.368355,1.4640268,2.9520032,2.1449423,0.1635927,-2.0581777,0.10121464,-2.4842744,-1.4225445,1.7621803,-1.4706154,0.08983825,-1.6276628,1.3870194,0.3351549,-3.508507,-1.8374145,1.3249046,-2.7139962,-3.4358537,-1.8071384,2.6528316,-1.5466117,-1.9339521,-0.09293489,-1.3250788,0.7161593,0.5600677,2.1213076,-4.2853084,-1.19754,5.097634,-1.6142612,-1.4087156,1.8597252,-2.6776447,2.3083932,-3.1806157,-1.3676956,-1.5520215,0.25418398,1.2015003,-2.8104098,0.46966848,0.553455,-1.6719003,-0.5229712,-3.8137867,2.252296,-3.1509573,-0.8880433,2.388741,2.493852,0.46534845,-1.5079446,1.0556421
C3N-01997,-4.610075,1.5060376,0.22585297,-0.98426586,-0.35918757,1.697655,1.5793152,2.0311556,-2.3208578,0.23980829,2.1460993,-4.5797763,1.8036116,1.6208863,-1.0944895,1.2211311,2.70482,3.2746825,-0.67436427,-0.6324784,-0.62184286,-2.2198703,0.6650548,0.4637531,-0.15231884,-1.3725392,-2.9319339,3.4562607,-0.34343734,2.527444,1.2512441,-1.6121714,-2.3550844,2.520844,0.021754568,-2.01958,1.0121601,-1.4913331,0.89633006,0.9004127,-0.30867386,-1.4338917,1.0877801,1.6796938,-0.87101436,-0.41654804,0.8472131,-0.3349642,0.46299288,1.4866898,-1.6004493,2.7776318,-1.4487064,0.79528135,0.028744748,-0.041856956,-0.35268915,-1.2885005,-1.6062815,1.2380446,-1.2366767,-2.0902588,-0.36211705,-0.84361243,1.1054573,0.56751496,-1.1364077,-0.87498325,3.364502,0.20205116,0.5622059,0.12800884,0.5747371,-1.1268522,0.9789485,1.995271,0.9103012,2.1539598,0.10927838,0.5231393,2.4856775,2.3421643,-0.4582093,2.865406,0.21708862,-0.89800215,2.5258021,-2.9048452,0.9546109,3.0018976,-1.7260864,1.9760096,2.823613,0.87043124,0.8558337,-0.16841038,0.47561932,-0.88466895,-3.372807,0.31141642,2.72772,1.9572783,0.90047675,1.3164163,1.8801591,1.6234003,0.51975226,-0.10018133,-2.2302637,-1.5664729,-1.8991596,-0.43320847,0.008971101,-1.0492446,-1.6215822,0.5285418,-2.1815581,1.3862474,-2.6723342,0.64632183,-2.6619825,-1.1106769,-0.95032614,1.1441096,0.15634966,0.38598713,-1.2956045,-0.15626672,-0.83524394,-1.2168987,0.9708253,2.944831,-2.0096996,-0.7405486,-3.4631023,0.0042393818,-2.960907,0.2787059,-2.3060338,0.8532388,-2.3481646,3.3970668,1.7807198,-3.4328902,-2.5711412,1.737151,-0.79051256,0.44510195,3.5979843,8.008466,1.3706177,2.4242,-2.0891778,-0.35156307,1.5545236,-0.17742744,-1.7306314,0.37056932,1.6147773,4.6240497,1.9926225,-0.5196905,-2.1156783,0.013722119,1.205244,3.0445251,1.9750842,-0.438472,1.8138356,0.72294056,1.5742491,3.2794614,-1.7251396,1.2631673,0.88714725,0.9231377,0.6832976,1.0890337,0.3798435,5.2370305,0.26296836,-0.07417352,1.1744471,-1.8262976,-0.5775679,-1.7907475,-0.88913894,1.8737222,-0.13226043,1.8155617,0.97881645,-0.4472118,0.7803195,-0.2300021,-2.405079,0.4468648,1.0621431,0.49483308,2.2139387,1.2364105,3.201026,1.4976788,2.770468,2.173263,0.4117668,-2.1710892,0.07046056,-2.5775557,-1.5940405,1.6212963,-1.8225573,0.32498682,-1.4506692,1.7674434,0.7109811,-3.256465,-1.7262547,1.4330585,-2.4091039,-3.3735962,-1.5646349,2.4729774,-1.4493763,-1.8095742,-0.123371296,-1.2944162,1.0057214,0.60541266,2.1834733,-4.2051115,-0.8013923,5.027649,-1.4917321,-1.3532573,1.7894843,-2.633166,2.294049,-3.6735659,-1.272041,-1.5443276,-0.18126017,1.2152773,-3.0163348,0.2903665,0.78091353,-1.678929,-0.57768136,-4.066588,2.1506498,-2.7452784,-0.8656031,2.4735863,2.7313066,0.33232555,-1.49175,1.3322134
C3L-00640,-4.580027,0.7539535,0.33823612,-0.48079497,-0.34331727,1.5169356,1.1665777,1.9801781,-2.3388877,0.56730974,2.068092,-4.1667175,2.0387259,1.5965432,-1.083129,1.1658704,2.6367965,2.8447561,-0.60364574,-0.5121742,-0.6115308,-2.1481652,0.6930225,0.59949934,0.21222986,-0.9770325,-2.4566498,3.612437,-0.69651175,2.7713351,1.3230778,-1.9600183,-2.4147568,2.5337799,0.0199227,-2.6117454,1.0874637,-1.2371937,0.9452104,0.69945824,0.033191916,-1.2947316,1.620355,1.8324362,-0.7753023,-0.19673486,1.6151602,-0.61118305,0.59588885,1.5463309,-1.4087276,3.4520535,-1.7310969,0.90455216,0.39192584,-0.15041892,-0.7685117,-1.2789075,-1.4693713,0.81986344,-0.96346205,-1.9285749,-0.22848873,-0.6459173,0.9904237,0.5049052,-0.7038186,-0.807915,3.0279055,0.52118963,0.41506562,0.26518473,0.5726227,-1.6028241,0.9261144,1.9109219,1.016403,2.1904318,-0.3198281,0.32258093,2.2886424,2.1948147,-0.4788843,2.8015902,-0.017102538,-1.1271582,2.7942724,-2.7625613,1.1648245,3.0976493,-1.54466,2.35371,2.5078654,1.1934488,0.6004427,-0.4513843,0.86565244,-0.94930255,-3.7840343,-0.11939214,2.6904616,1.2382519,0.79329765,1.1501045,2.121392,1.9440987,0.29116598,-0.04402245,-1.9459453,-1.7449142,-2.045608,-0.5427376,-0.010906055,-0.9622844,-1.6378992,0.6649308,-2.608729,1.2045724,-2.3307517,0.6604866,-2.2783334,-1.1184583,-0.86648387,1.0926844,0.12673397,0.47401622,-1.289753,-0.388727,-1.0087504,-1.8064253,0.8359871,2.285467,-2.3334057,-0.5733279,-3.3249495,-0.08219952,-2.6831648,0.097649164,-1.8769295,0.92712367,-2.65735,3.5919013,1.8723269,-3.5708554,-2.8591049,1.9627073,-0.34029743,0.37739152,3.5813081,7.9497824,1.6140509,2.6741858,-2.5546463,-0.9046855,1.8314782,-0.34829396,-2.12494,0.37384224,1.5364367,4.2572184,2.1489608,-0.34748992,-2.4212315,0.15881921,1.2693533,2.7724092,1.9544742,-0.91426474,1.8710116,0.79224646,1.2447798,3.7314,-1.4222491,1.1570851,0.95905006,1.2001706,0.32329506,1.251304,0.42746904,5.3012805,-0.019727739,0.010587705,1.617133,-1.8354849,-0.30181774,-1.7779185,-0.7293275,1.529674,-0.25173604,1.7094749,0.7337629,-0.58074886,1.0612161,-0.035393614,-2.4376976,0.30641004,0.37516913,0.62963706,2.0132484,1.1851288,2.962605,1.6755337,2.6393726,2.0119932,0.07062146,-2.3036098,0.010515708,-2.8460104,-1.3426702,1.616126,-1.3238144,0.6159632,-1.5408837,1.7242898,0.23234044,-3.3463342,-1.8787004,0.60249054,-2.7462595,-3.2054586,-1.916581,2.2144847,-1.2258329,-2.2191143,-0.3499796,-1.3331532,0.85647947,0.809441,2.326172,-3.8535123,-0.56639004,4.8131924,-1.624514,-1.4206717,2.273904,-2.678483,2.3401551,-3.332845,-1.3730731,-2.045431,0.16295362,1.1410851,-2.9735014,0.29505965,0.6919594,-1.5473244,0.1060694,-3.6652572,1.9452227,-2.7174785,-0.7802076,2.462238,2.627631,0.667682,-1.3308672,1.5012194
C3L-00189,-4.733881,1.0139652,0.45237753,-0.6158624,-0.33219582,1.9744909,1.567315,2.1690602,-2.23036,0.41229215,1.888129,-4.048401,2.0715399,1.7456354,-1.1683503,1.1853216,2.409195,2.9197323,-1.0134826,-0.7579639,-0.2787591,-2.2407675,0.6611586,0.25771934,-0.072929196,-0.97469515,-2.648259,3.7082584,-0.44305944,2.7700906,1.4280996,-1.7741028,-2.2096214,2.6363604,-0.26015496,-2.3894951,1.1009934,-1.1481501,0.9541501,0.8029258,0.22042976,-1.0291575,1.2910156,1.5929501,-0.3391322,-0.1793901,1.4241658,-0.36277428,0.5412236,1.72131,-1.2290316,3.5119665,-1.7729005,1.1074234,0.1723634,-0.41382182,-0.49712858,-1.1006845,-1.4450185,0.8746714,-1.122004,-1.8793347,-0.40755638,-0.5458709,1.2392696,0.38621762,-1.000464,-0.92600805,3.0339355,0.43992376,0.23980063,0.4683906,0.3393445,-1.3834599,0.9377306,2.4226558,0.85218084,2.6233804,-0.25518185,0.43179217,2.7451632,2.4297965,-0.28300816,3.2900841,-0.16959037,-1.2767665,2.8922982,-2.69463,1.202118,3.1803493,-1.4324297,2.0563886,2.6196856,1.0289866,0.85857373,-0.40613887,0.90019643,-1.2457452,-4.2637763,0.20342448,2.4629073,1.5299634,0.6725385,1.2243096,2.1563227,1.648717,0.4366359,0.07175165,-1.9191735,-1.5925894,-2.019944,-0.4440708,0.003805868,-0.94941646,-1.7890637,0.6704212,-2.1915834,1.5428782,-2.3374565,0.88486964,-2.4461787,-1.0960695,-0.85560185,1.0210996,0.3129098,0.4855937,-1.5665026,-0.37800604,-0.7845593,-1.156512,1.2818496,2.4146922,-1.9959221,-0.7621691,-3.7286367,-0.037347723,-2.8919418,-0.10469948,-2.0470521,1.1014115,-2.460321,3.5206554,1.8753929,-3.3718605,-2.6814353,1.8522369,-0.81709665,0.45129368,3.8548305,7.6845303,1.6711107,2.4148858,-2.4065099,-0.38427848,2.0600588,-0.012669429,-1.8100522,0.32416627,1.1644771,4.304901,1.8641927,-0.16882008,-2.3055675,0.24181294,1.3209708,2.6495874,2.0886283,-0.7825785,1.57119,1.0278721,1.5198138,3.8612175,-1.976885,1.2224046,0.973083,1.1777543,0.4460585,1.3032514,0.48071152,5.20978,-0.041533593,-0.05593561,1.1824363,-2.0019128,-0.5099624,-2.0142043,-0.30857927,1.6915032,-0.24587241,1.621453,0.67760324,-0.57761174,1.0204718,0.2498768,-2.4737747,0.603016,0.6946896,0.47156215,1.8788649,0.8407696,3.456305,1.5164299,2.6939642,2.2240593,-0.122777715,-2.3413727,0.0028258322,-2.7523232,-1.1919196,1.8942264,-1.8171848,0.14538947,-1.5214558,1.7691959,0.28188878,-3.254511,-1.7359515,0.87379897,-2.2016294,-3.287465,-1.8331261,2.466623,-1.2473456,-1.8799685,-0.122231126,-1.2998961,0.5638542,0.3772413,2.327995,-3.9543452,-0.6509353,4.979166,-1.8168927,-1.187268,2.0270557,-2.810925,2.4501116,-3.201486,-1.4264712,-1.9984242,0.19070931,1.072804,-2.9151342,0.4453138,0.3778323,-1.6455692,-0.37389058,-3.8896692,1.9285764,-3.1495602,-0.9225816,2.846451,2.467878,0.56102866,-1.0696127,1.2460873
C3N-01998,-4.8360443,1.3813806,0.43850896,-1.0103787,-0.10398707,1.6785393,1.7210166,1.7974879,-2.5586212,0.31344348,2.024217,-4.1079345,1.8773772,1.5145237,-1.0508235,1.0129203,2.8196654,2.9105778,-0.6651392,-0.6893859,-0.7658675,-2.2376873,0.89151305,0.81528234,0.02491318,-1.2670128,-2.9085202,3.7444997,-0.55517673,2.6091132,1.4783303,-1.6267434,-2.2552524,2.5502725,-0.12595832,-2.0787911,0.9461179,-1.3892711,0.80949473,1.0488741,0.020206304,-1.2336481,1.369664,1.4809363,-0.66159874,-0.15418878,1.0924835,-0.1573359,0.40520015,1.4630857,-1.6150094,3.0907383,-1.5753398,1.1158241,0.038482428,-0.21419671,-0.35166702,-1.2004324,-1.3483387,1.0283949,-1.5709229,-1.849187,-0.43478557,-0.82942843,1.1114944,0.32973486,-1.3956704,-0.8036995,3.4257877,0.2189651,0.53984594,0.2918538,0.38901314,-1.6212965,1.3339553,1.8026329,1.0825356,2.5524614,-0.19144624,0.41161686,2.6440716,2.216622,-0.083903916,2.7042387,0.034446962,-1.1319176,2.5870223,-2.9086673,0.96140605,3.1356812,-1.5080413,2.0321503,2.6609988,1.1196512,0.7652198,-0.16324519,0.5412141,-0.8660808,-3.3844717,0.05064159,2.4267044,1.6005449,0.9932596,1.3093798,1.93185,1.7118253,0.257096,0.14174986,-1.953915,-1.4631727,-2.1436043,-0.4127082,0.13624564,-0.8168398,-1.582953,0.5855573,-2.5216978,1.4584389,-2.2215905,0.6118481,-2.7295337,-0.9907301,-1.008261,1.052224,-0.011015532,0.54283285,-1.2611823,-0.08950868,-0.8036459,-1.4410837,1.3192066,2.9996874,-2.1949716,-0.77115464,-3.6778178,0.26201358,-2.904501,0.356876,-2.0719395,0.76763105,-2.278138,3.4258463,1.5528876,-3.7413108,-2.5566666,1.7431234,-0.8848112,0.27652857,3.8485088,8.104506,1.517792,2.4384851,-2.3225243,-0.74137324,1.6994271,0.05697753,-2.12463,0.029551182,1.5290921,4.2436233,2.2436056,-0.46960512,-2.2565095,-0.026635429,1.4240249,2.8269162,1.8709347,-0.7065519,1.8037057,0.89706826,1.4644156,3.337039,-1.8782138,1.030638,1.09746,1.2722819,0.45625326,1.1874357,0.583602,5.524754,0.14577927,0.13690627,1.0886333,-2.0234315,-0.45095652,-2.096545,-0.50109303,1.5654631,0.23095633,1.7507913,0.83118635,-0.5496416,0.9294288,-0.01874663,-2.3085003,0.5915857,0.89378846,0.87549734,2.0494921,1.4092888,3.0943875,1.4207125,2.839751,2.122244,0.2506113,-2.2927463,0.21675098,-2.5825987,-1.4458686,1.9453608,-1.7011123,0.36081913,-1.5274863,1.7159134,0.5526185,-3.2514129,-1.5031577,1.213611,-2.350362,-3.287446,-1.5663738,2.726444,-1.6210893,-1.6918201,-0.44509602,-1.2718799,0.57210404,0.6078572,2.3907602,-4.432924,-0.829698,5.0069156,-1.6152258,-1.148915,1.9662931,-2.9369934,2.2373006,-3.5100474,-1.4303416,-1.3935288,0.15295745,1.2356586,-3.1867042,0.47602814,0.7664829,-1.8456116,-0.5448166,-4.1275945,2.0060034,-2.6700559,-0.8654838,2.1898441,2.453901,0.46122906,-1.5969161,1.1518446
C3L-01036,-4.8368254,1.0425612,0.4578034,-0.74677265,-0.12940462,1.3688253,1.5839301,2.1266057,-2.5332077,0.37118065,2.2811413,-4.2821007,2.265918,1.5118276,-0.7906414,1.0070812,2.590692,2.981176,-1.1401606,-0.58631015,-0.44330075,-2.5285668,0.5770089,0.875173,-0.2462061,-1.6798563,-2.5464396,3.77983,-0.55576736,2.7881908,1.476586,-1.9189672,-2.6036406,2.2916548,0.073705904,-2.1759002,1.3489552,-1.0018677,0.48870388,0.9613678,-0.14816204,-1.6115844,1.3402374,1.6018288,-0.87391275,-0.4415629,0.80447716,-0.18517049,0.041271716,1.3639996,-1.9539717,3.492513,-1.8337712,1.0253129,0.23643197,-0.34865344,-0.22232644,-1.3302052,-1.4509335,1.0760267,-1.1420648,-1.6119945,-0.5897255,-0.84272903,0.73089814,0.36084595,-0.95128196,-1.3090327,3.059393,0.7520702,0.41756952,0.5548067,0.2282176,-1.8207164,0.9181867,1.920677,1.1153369,2.342167,-0.0148524735,0.5187771,2.2983663,1.9003532,-0.39401633,2.9323275,0.35744402,-0.7773226,2.5367317,-2.7540057,1.0717704,2.9541984,-1.7470104,2.2670786,2.9267428,0.8109347,0.8514689,0.032811813,0.815086,-1.0273126,-3.4030976,0.2653571,2.8141093,1.3487437,0.8853411,1.5187557,1.9155799,1.551775,0.055926073,-0.10409845,-2.3011866,-1.8469801,-2.0725799,-0.2793315,-0.2965584,-1.093977,-1.5923134,0.81087095,-2.504861,1.4263479,-2.3205607,0.6318016,-2.44074,-0.88583696,-0.5972345,1.0397578,0.10591175,0.36572382,-1.1550002,0.15138203,-1.2894453,-1.3707752,0.94203234,3.1635828,-2.1704395,-0.9035316,-3.609805,0.11371838,-2.671616,-0.031752117,-2.3451312,0.89228326,-2.1606233,3.563782,2.1440806,-3.687951,-2.577168,1.448539,-0.5606407,0.2929056,3.6986196,7.709377,1.7047944,2.8972244,-2.3433988,-0.35905802,1.8124957,-0.13468273,-2.0206401,0.4047934,1.8320773,4.5506105,2.4587982,-0.33477756,-2.1572597,-0.09409391,1.2118372,2.6938832,1.7871498,-0.7463752,2.0838573,0.82851213,1.0819685,3.4933796,-1.8265325,1.213855,1.3247883,1.5717865,0.82631063,0.73629266,0.90152603,5.2248735,0.16499837,0.19447842,1.5113956,-2.0256472,-0.12431467,-2.0350423,-0.6115717,1.6489681,-0.37792602,1.7616473,0.87415045,-0.6984406,0.5878968,-0.05718743,-2.5826516,0.5113819,0.891813,0.85807025,1.6105316,1.0519491,3.0208642,1.7483425,2.9720225,2.2714026,0.39013126,-2.201389,0.0753631,-2.5021167,-1.6466961,1.7139573,-1.4874866,0.5184723,-1.441029,1.5353932,0.3466138,-3.6110964,-2.0065646,1.4838039,-2.5641198,-3.6510324,-1.815189,2.4983478,-1.6476867,-1.7083852,0.113871336,-1.160612,1.058889,1.0486518,1.9834806,-4.0529366,-0.7015761,5.111143,-1.855071,-1.2273147,2.0363216,-2.6689246,2.2681007,-3.5355809,-1.5121739,-1.3073436,0.49639246,0.9001858,-3.173166,0.50156105,0.56982464,-1.6722475,-0.33926776,-3.643114,2.444873,-2.6336517,-0.76086736,2.6728559,2.2776191,0.16665997,-1.4688109,1.1465417
C3N-03069,-4.2843056,1.2888347,0.7454756,-0.26298282,-0.41900772,1.5958067,1.3350163,2.022746,-2.0997577,0.01820064,1.8670255,-4.2450953,2.0315435,1.4471648,-1.4677327,1.0379292,2.5080316,2.875493,-0.6358528,-0.41630852,-0.69269127,-2.3315837,0.5857559,0.46913597,-0.10568382,-0.6457287,-2.614666,3.672595,-0.995441,2.720618,1.3863678,-1.9421372,-1.9161555,2.7229526,0.28231555,-2.5839312,0.61523414,-1.290335,0.71681213,1.141662,0.032430593,-1.0561539,1.7282102,1.7771626,-0.44066575,-0.2883448,1.6386229,-0.6431709,0.14893083,1.2218391,-1.3414073,3.2257988,-1.8372719,0.6396461,0.17484868,-0.0735097,-0.2244148,-0.98843485,-1.222213,0.8055884,-0.9172572,-2.5593266,-0.30788454,-0.33771375,1.3147328,0.45685792,-0.9713513,-0.6884203,2.881881,0.5759632,0.5708074,-0.10079999,0.6920928,-1.7038645,0.98518115,2.3623097,0.89332217,2.297559,-0.34497496,0.7133515,2.672035,2.475692,-0.45910412,3.3363423,-0.123426266,-1.1985993,2.375016,-2.5923274,1.2326276,3.0887337,-1.2600662,2.4084554,2.874734,0.88970083,0.7477214,-0.48397082,1.0187279,-0.8035837,-3.7785392,-0.05227397,2.3745399,1.004024,0.6962308,1.0001059,2.18478,2.117275,0.4592762,0.31609583,-2.0026052,-1.1469764,-2.0424209,-0.44751236,0.15468545,-0.8690636,-1.2909898,0.8057895,-2.4551125,1.0709151,-2.0190408,0.608911,-2.1809273,-1.1897731,-1.0311775,1.1556741,0.011854192,0.5732237,-1.9111774,0.04125285,-1.142112,-1.2909987,0.7151266,2.6719747,-1.99924,-0.5028047,-3.2377818,0.15455435,-3.1087375,0.048441198,-2.2105956,0.8438517,-2.744455,3.698015,1.6116866,-3.4975367,-2.712519,2.2616508,-0.94072586,0.33043325,3.7830987,8.043869,1.1341218,2.9026866,-2.506301,-0.86452293,1.9945773,-0.046056952,-1.8728112,0.18807629,1.2261772,4.0518103,2.46174,-0.4374946,-2.9062002,-0.3912974,1.2609835,2.9343033,1.9564153,-0.8422047,1.6632804,0.80430394,1.4168102,3.550895,-1.9772763,1.274434,0.64320076,1.0202029,0.3652804,1.3227918,0.48248985,5.3285217,-0.48788637,0.1699696,1.3591099,-1.6997235,-0.28806856,-2.127325,-0.495978,1.2777507,-0.2586514,1.3670338,0.8413828,-0.6042134,1.0606105,0.33264005,-2.814788,0.44026798,0.7243154,0.53317934,1.8515258,0.95881265,2.770345,1.5210758,2.5282264,1.9803599,-0.09320041,-2.2502718,-0.047067348,-2.396124,-0.8990465,2.2007515,-1.7290441,0.48034233,-1.3682983,1.6999208,-0.10448671,-3.352753,-1.6690929,0.80098236,-2.474672,-2.8003395,-1.8342204,2.4464462,-0.98988295,-1.650364,-0.5518741,-1.1522827,0.11929968,0.87841713,2.2684278,-4.3465037,-0.8208463,5.253752,-1.2978121,-1.4963207,2.049983,-2.9106863,2.1725566,-3.6512027,-1.5207211,-1.8627932,0.1012835,1.3659228,-2.8151343,0.12327289,0.6083625,-1.7566411,-0.12962036,-3.5855527,2.028199,-3.1524608,-0.74783134,2.7554326,2.350528,0.6581859,-1.1614081,1.5755091
C3L-00881,-4.902285,1.2346159,0.5262591,-0.71478945,0.036328245,1.8086869,1.7431793,2.0520494,-2.3690577,0.43437794,2.0201514,-4.1630335,1.9018617,1.6872656,-1.2023953,1.0721197,2.8605227,2.9047997,-0.9010269,-0.49736863,-0.6447667,-2.2896008,0.55240226,0.80271727,0.12891407,-1.3772651,-2.758895,3.961233,-1.0800937,2.9520547,1.3770454,-1.6592035,-2.2499194,2.3536046,-0.06177647,-2.434591,1.2862893,-1.6774665,0.84898305,0.67636484,-0.11873096,-1.4298135,1.4119252,1.6435138,-0.61172456,-0.3023176,1.0503869,-0.1902597,0.35930425,1.3017673,-1.5647779,3.5691876,-1.7045716,0.9816791,-0.016701706,-0.50945306,-0.39232323,-1.301928,-1.3818533,0.7364659,-1.0889182,-1.8718019,-0.41170213,-0.9105574,1.0068005,0.48903006,-1.185259,-0.81594265,3.157936,0.21221784,0.36994505,0.19651897,0.77109504,-1.3196803,0.9248814,2.0029542,0.93897134,2.4772894,-0.10240452,0.42741564,2.462028,2.4349782,-0.2349933,2.7307146,0.20060782,-1.28177,2.6336298,-2.657106,1.1422205,3.117563,-1.8661578,1.6463606,2.9829586,1.0076615,0.917963,-0.22053364,0.5756173,-0.8246055,-3.9655268,0.015824405,2.558866,1.6523947,0.8339791,1.0037218,2.0700173,1.7237896,0.27301207,-0.028128708,-1.9749212,-1.8294843,-1.9833269,-0.67188203,-0.16317815,-0.978325,-1.4485518,0.7247904,-2.3349357,1.5877845,-2.6247232,0.85094213,-2.6071613,-0.954777,-0.75953484,1.0714468,0.06960055,0.11369366,-1.675665,-0.19263817,-1.0023549,-1.4910842,1.301401,2.9088185,-1.818853,-0.5420624,-3.726731,0.03579042,-2.908719,0.08847397,-2.0777147,0.9699858,-2.3346038,3.7768295,1.7263799,-3.3892734,-2.7822757,1.8198464,-0.9076825,0.27520472,3.704907,7.927993,1.3122472,2.6473267,-2.301885,-0.3339565,1.8469317,-0.27358195,-1.6627316,0.07782943,1.5126727,4.4059,2.1875536,-0.2852513,-2.1574926,0.06435844,1.0991182,2.7386887,1.8287609,-0.6638233,1.781725,1.0165176,1.2957832,3.3970673,-1.9288465,1.0817473,1.1708939,1.2829554,0.6347407,1.1318352,0.59392315,5.4893904,0.22787765,0.15133551,1.3177615,-1.803785,-0.3626095,-2.1563222,-0.5343147,1.7072755,0.09432815,1.5458479,0.93886805,-0.69131285,0.7199285,0.20304322,-2.466583,0.51046664,0.6322155,0.77939975,2.2046685,1.2397281,3.1326773,1.5355656,2.933741,2.4658592,0.19912435,-2.0293577,0.2061637,-2.609677,-1.7307545,1.7848303,-1.5586957,0.33888456,-1.409041,1.4419414,0.4662724,-3.123054,-1.8101315,1.2238703,-2.6353233,-3.5774887,-1.6410924,2.2867258,-1.791054,-1.6379249,0.10912054,-1.0101821,1.1554615,0.49994966,2.2064044,-4.0424876,-0.7410935,5.294842,-1.9213532,-1.1112126,1.7901694,-2.573865,2.312824,-3.35204,-1.4699568,-1.621394,-0.10707717,0.933921,-3.0072393,0.5899015,0.65692955,-1.5777878,-0.24413948,-3.9207716,2.392161,-2.8387396,-0.6619831,2.4042745,2.4702444,0.7589381,-1.4503082,1.3463855
C3N-01715,-4.7554455,0.8467981,0.41011214,0.14218804,0.14115132,1.8229122,1.7049311,1.5661939,-2.736757,0.6609351,2.1547039,-3.549233,2.065814,1.6972933,-1.2219472,1.0961264,2.222697,3.049788,-0.9020925,-0.5626057,-0.7004066,-1.8723614,0.8795,0.4529222,0.36168456,-1.7120345,-2.5553124,3.271279,-0.5301384,3.290288,1.2859766,-2.100576,-2.397351,1.7649709,-0.1417267,-2.9565096,0.9393469,-1.0399437,1.1319867,0.8159648,-0.029105106,-0.82015604,1.4651611,1.3924636,-1.4417602,0.002803584,1.4277153,-0.36676642,0.5595646,1.2363368,-1.5775052,3.1885657,-1.489588,0.5853423,-0.3928232,0.29358193,-0.58926827,-1.030559,-1.8309308,0.32110637,-1.1348375,-1.6932222,-0.01725196,-0.5155487,0.9999714,0.4349655,-0.7130584,-0.52434754,2.8571,1.040629,0.6066181,0.244424,0.78834206,-0.8333991,0.5827329,1.912722,1.0334686,2.8485823,-0.28340164,0.49320966,1.9273953,1.9953573,-0.5229937,2.7003398,0.08549453,-0.9548962,3.1724997,-2.7637734,1.0115043,2.6648226,-1.6184572,1.9884168,2.6476793,1.1641338,0.6748969,-0.7149835,0.7929523,-1.0356554,-3.1394405,-0.18186772,2.850102,1.3802034,0.29477537,1.4285915,2.0398366,1.9557366,0.4772552,-0.24192727,-2.3512094,-1.59816,-2.0278695,-0.56482685,-0.06627013,-0.9131631,-1.7609003,0.8242597,-2.0841503,1.8605293,-1.960578,0.15112604,-2.229398,-0.8090041,-0.6092963,0.7437498,-0.11043262,0.47932807,-1.5983918,-0.14702253,-0.7870083,-1.5346723,1.4929665,2.4018667,-1.8855022,-1.1446751,-3.8568723,-0.191246,-2.962508,-0.2654623,-0.9095262,0.8205763,-2.2727206,3.3735657,1.9092114,-2.9715765,-2.3310814,2.1381273,-0.6604791,0.22227532,3.3847954,8.022081,1.8402973,2.3795764,-2.2576962,-0.6565611,1.8046604,-0.11017064,-1.9960178,-0.23610575,1.9857675,4.769585,2.6167324,-0.6085832,-2.419133,0.16617991,1.6214013,2.9315143,2.4343297,-1.397525,1.4633659,1.2148374,1.4892203,3.6572032,-1.2443831,0.79766893,1.391016,2.0152943,0.22246973,1.307918,0.77139145,5.31885,-0.112497464,0.2529231,1.3653928,-1.3238463,-0.36351576,-2.449693,-0.4104049,1.0524983,-0.37544078,1.9254568,0.9176274,-0.8002604,0.68880314,0.94699085,-2.2771196,0.50904095,0.2692453,0.2973947,1.1612861,1.4284583,3.237694,1.4189178,2.7455413,2.1499813,0.26267773,-2.1834927,-0.43211147,-2.295193,-1.4654895,1.8072373,-1.8766844,0.2587665,-1.6746366,1.6417294,-0.17223574,-3.0382972,-1.7264739,0.93098867,-2.6721644,-2.744016,-1.7296854,2.5168767,-0.9996712,-1.8227476,-0.30368274,-1.5637399,0.054490346,0.9903439,2.2265356,-4.1193748,-0.27209723,5.571145,-1.4585851,-1.0942218,1.5960418,-2.4231946,2.1019206,-3.2947845,-1.0114363,-1.7752407,0.042424306,1.3461652,-2.9736404,0.25515968,0.81762946,-1.0672631,-0.22035989,-3.7771437,1.710882,-2.1251771,-0.8053794,2.208104,2.5610373,0.36898434,-1.7756404,1.1871579
