patient_id,emb_0,emb_1,emb_2,emb_3,emb_4,emb_5,emb_6,emb_7,emb_8,emb_9,emb_10,emb_11,emb_12,emb_13,emb_14,emb_15,emb_16,emb_17,emb_18,emb_19,emb_20,emb_21,emb_22,emb_23,emb_24,emb_25,emb_26,emb_27,emb_28,emb_29,emb_30,emb_31,emb_32,emb_33,emb_34,emb_35,emb_36,emb_37,emb_38,emb_39,emb_40,emb_41,emb_42,emb_43,emb_44,emb_45,emb_46,emb_47,emb_48,emb_49,emb_50,emb_51,emb_52,emb_53,emb_54,emb_55,emb_56,emb_57,emb_58,emb_59,emb_60,emb_61,emb_62,emb_63,emb_64,emb_65,emb_66,emb_67,emb_68,emb_69,emb_70,emb_71,emb_72,emb_73,emb_74,emb_75,emb_76,emb_77,emb_78,emb_79,emb_80,emb_81,emb_82,emb_83,emb_84,emb_85,emb_86,emb_87,emb_88,emb_89,emb_90,emb_91,emb_92,emb_93,emb_94,emb_95,emb_96,emb_97,emb_98,emb_99,emb_100,emb_101,emb_102,emb_103,emb_104,emb_105,emb_106,emb_107,emb_108,emb_109,emb_110,emb_111,emb_112,emb_113,emb_114,emb_115,emb_116,emb_117,emb_118,emb_119,emb_120,emb_121,emb_122,emb_123,emb_124,emb_125,emb_126,emb_127,emb_128,emb_129,emb_130,emb_131,emb_132,emb_133,emb_134,emb_135,emb_136,emb_137,emb_138,emb_139,emb_140,emb_141,emb_142,emb_143,emb_144,emb_145,emb_146,emb_147,emb_148,emb_149,emb_150,emb_151,emb_152,emb_153,emb_154,emb_155,emb_156,emb_157,emb_158,emb_159,emb_160,emb_161,emb_162,emb_163,emb_164,emb_165,emb_166,emb_167,emb_168,emb_169,emb_170,emb_171,emb_172,emb_173,emb_174,emb_175,emb_176,emb_177,emb_178,emb_179,emb_180,emb_181,emb_182,emb_183,emb_184,emb_185,emb_186,emb_187,emb_188,emb_189,emb_190,emb_191,emb_192,emb_193,emb_194,emb_195,emb_196,emb_197,emb_198,emb_199,emb_200,emb_201,emb_202,emb_203,emb_204,emb_205,emb_206,emb_207,emb_208,emb_209,emb_210,emb_211,emb_212,emb_213,emb_214,emb_215,emb_216,emb_217,emb_218,emb_219,emb_220,emb_221,emb_222,emb_223,emb_224,emb_225,emb_226,emb_227,emb_228,emb_229,emb_230,emb_231,emb_232,emb_233,emb_234,emb_235,emb_236,emb_237,emb_238,emb_239,emb_240,emb_241,emb_242,emb_243,emb_244,emb_245,emb_246,emb_247,emb_248,emb_249,emb_250,emb_251,emb_252,emb_253,emb_254,emb_255
C3L-03394,-1.7008364,-3.0716405,-0.87102497,0.95213777,1.7691607,2.009508,1.9339042,-0.6750248,3.6595204,-1.2294147,2.5070548,-2.579586,0.57454157,2.7948315,-4.836725,2.2975974,-1.3116485,-2.8726268,2.858987,-0.87635547,0.010586757,-0.30339316,0.5158005,-0.43629724,-0.02628589,-0.66115046,1.6880862,3.143226,-2.114277,-0.4533736,-2.2446408,1.1914065,3.046722,0.16514492,0.8681629,-3.007705,0.77932304,-1.0907078,-2.2260237,0.83007866,-2.1280477,2.9522288,-1.2818452,-1.059489,-1.0068096,3.365784,-3.3551621,0.9289496,-1.0577043,0.86700845,-2.7813108,0.22281308,0.94839543,3.5923288,-2.6323807,-0.06938936,-0.7152177,-0.51412725,2.421141,-0.9719237,-0.11702261,-1.2876211,-1.7397926,-2.991639,-1.1463006,-1.8240244,-0.27512708,2.6959815,-0.96761316,-4.5694723,-3.0985494,-0.77365506,0.7576218,-5.282979,-3.0892498,-3.6201878,-0.22508782,1.0140584,-1.7069486,-0.30424523,0.9834182,-0.056421876,0.119376,2.8522322,-0.81634825,5.2182474,3.4224477,-0.065962955,-0.56413627,-0.22607422,-0.98019767,3.112358,-1.2939029,-1.0541149,-1.2931532,-1.9118207,2.0272872,5.923905,0.38914055,1.4569292,-2.482548,-1.3962797,1.2306825,0.23750086,1.1966207,1.2787666,1.0274756,-2.669097,1.476802,-2.1421204,0.014954587,1.4810456,1.5172079,-1.1919389,0.40165874,3.380982,2.038484,-3.9623494,-2.3496997,-1.0295969,2.1842778,0.51283336,0.4870124,1.6074157,-0.35290837,-2.5865335,1.050927,0.8811597,-1.060136,-0.8804495,-1.5092666,-0.08112921,-2.6036696,0.16956724,-1.9024985,2.0933466,1.5251356,0.44536626,-0.063211,0.9262991,-1.7772104,0.8690681,-1.5847554,1.0512129,-1.2470812,1.8084724,0.96492773,1.0258803,-2.0926857,-3.1886342,-1.0576726,-2.5442367,3.2080157,-2.8642895,-2.2470183,-0.89757967,0.36123264,-0.99042976,-0.37296915,-3.360751,-3.1813512,1.3866129,2.4366052,1.8152181,0.061236177,0.5627246,-0.720196,0.6640799,1.793684,-2.2998657,4.0522423,1.1150002,0.1539393,1.6803484,-2.0507345,0.774943,-0.7491984,-3.9517891,1.757727,0.050407477,0.120722935,1.0474516,-1.0497459,-0.2979663,0.75825816,1.6294657,-0.8623556,-0.5636239,-3.6747026,-1.1415062,2.7846842,-1.1121762,-0.16349335,-3.256066,-2.5395005,1.2876184,-2.6261537,0.6943422,2.2556622,-0.046149995,-2.5532365,-1.1535072,-0.90877646,1.3425664,-0.8365428,-1.7155057,2.562768,2.3501651,0.51415783,1.4685155,-4.2577143,1.6098627,-2.2527282,2.1575801,-2.0084023,1.6860864,3.6142638,2.4774373,-2.1783147,-1.3367447,1.353217,-0.67765284,0.56076777,0.6311609,-0.9204595,0.6983035,0.9176673,-1.625314,0.5732147,0.35825318,-1.5687215,-1.5007386,1.29906,-0.76156074,-1.5362277,-0.9155829,-0.6417984,-3.3494544,2.0266285,-0.29150495,-1.0909392,-1.7663195,0.292207,-0.6981661,-1.5041964,1.8290768,0.95514256,-1.0929056,3.2007692,0.92448187,-0.8015347,1.3273549,-0.4915161,-2.7532659,0.116171844,-1.9181639
C3N-03428,-1.5611212,-3.0250566,-1.3558768,0.6365917,1.2916878,2.0283215,1.9922297,-0.6099975,3.4932802,-0.5948805,2.7481287,-2.7071617,0.077025294,2.7157314,-4.5712423,2.1568398,-1.2132971,-1.7956605,3.0151427,-0.38197827,0.19083449,-0.1385742,0.26732746,-0.653299,0.3845044,-0.88537616,1.5672454,3.2686646,-2.4135623,-0.601619,-1.9027045,1.1128495,2.8598213,0.29151097,0.65069455,-2.846274,0.7236954,-1.3576986,-2.1645763,1.3240684,-1.719354,3.3916855,-1.463195,-1.4125184,-1.1073475,2.969848,-3.5509734,1.149717,-1.0454156,1.1027954,-2.7709475,0.37424353,0.6184574,2.9656322,-2.5374305,0.22553381,-0.73935056,-0.29059386,2.076955,-0.99273264,0.16855411,-1.5970827,-2.1381476,-2.752886,-0.8741832,-1.8680199,-0.3018986,2.5141423,-0.73423105,-4.5626035,-3.1785898,-0.4073152,0.9046047,-4.982256,-3.3339827,-3.537212,0.42992115,0.78939897,-1.5210685,0.004536855,0.54224694,-0.68606776,0.126301,2.7161665,-1.4284655,4.4817815,3.6259687,-0.31691137,-0.60402936,-0.40975562,-1.0696526,2.3632138,-1.5475765,-0.8470634,-1.4794754,-1.7187302,1.5558498,5.226419,-0.09293315,0.9833691,-2.2931414,-1.2671047,0.6050295,0.18673538,1.5845248,1.1063199,1.145679,-2.559561,1.2764847,-2.06212,-0.20573291,1.6406603,1.3076806,-1.1003006,0.47126797,3.129558,1.8961293,-3.7381327,-2.208693,-1.5289629,1.826056,0.77567685,0.6486951,1.7881026,-0.018807314,-2.4139605,1.0248524,1.1419655,-0.91457874,-1.0280669,-1.2257171,-0.44149786,-2.6441066,0.11706208,-1.6380937,2.160575,1.1499871,0.40110728,0.0146172745,0.70466393,-1.8690034,0.72008955,-1.4045117,1.3691567,-1.1675076,2.1839175,0.84071374,0.87648225,-2.0174048,-2.6420615,-1.3914362,-2.3267198,3.395632,-3.1343277,-2.275251,-0.9087822,0.07970114,-1.0552943,0.46868792,-3.5883973,-2.7448108,1.0727011,2.2232056,1.607845,-0.25570774,0.08105686,-0.56439805,1.0363811,1.4848319,-2.2058065,4.091701,1.1429684,-0.026268404,1.1938024,-2.3204296,0.39968392,-0.34728065,-3.8676825,1.417644,0.24485183,0.7392339,0.7457107,-1.2501627,-0.32221907,1.1256295,1.4538437,-0.9973225,-0.54265714,-3.3833036,-1.1621662,2.244391,-1.194907,-0.16356798,-3.4253159,-2.6509385,1.1974466,-2.0936139,0.5078639,2.1202042,-0.11713761,-2.5796669,-0.8929906,-0.56008285,1.7146125,-1.2934082,-1.5342792,1.8976246,2.1979537,0.31752035,1.2894095,-3.7819366,1.8290601,-1.7810408,2.1134021,-2.2753558,1.7893964,2.8820877,1.8699781,-1.8888566,-0.8935908,0.69568664,-0.63065946,0.854933,0.9196941,-0.6703027,1.0438042,1.4149661,-1.1808687,0.068007976,-0.11014453,-1.7559512,-1.6583788,0.940004,-0.49962452,-1.202004,-1.1855772,-0.6803119,-3.895004,1.8852203,-0.5415884,-1.1761044,-1.6594012,0.64416546,-0.83520687,-1.7371929,1.946187,0.8829907,-0.7000905,3.203815,0.54042184,-0.75808823,0.7349322,0.06314465,-2.5890224,0.074361265,-1.9093112
C3L-02112,-2.0957618,-2.9070659,-0.67837465,1.0352603,1.5343611,1.4629626,1.5775136,-0.50282323,3.732936,-0.8669717,2.536196,-2.3981674,0.5568412,3.0956376,-5.0486827,2.497355,-1.2944952,-2.4603775,2.7311385,-0.6419551,0.1630784,-0.43125787,-0.0059010983,-0.7580717,0.17974098,-0.51634556,1.6461152,3.235097,-1.9624009,-0.28945607,-2.2215085,1.3069631,2.9070005,0.37670544,0.7590103,-3.2407298,0.47907403,-1.2531182,-2.2312236,0.8655861,-2.1272774,3.4558165,-1.4849135,-1.2778497,-0.86843264,2.7819242,-3.7055092,1.1491387,-0.97674817,1.143881,-3.0781648,0.008358943,0.88340104,3.1419225,-2.5233855,-0.331738,-0.6335781,-0.6620875,2.331817,-0.84343445,0.049201746,-1.6476032,-1.8374581,-3.0161974,-1.3636357,-1.7377739,-0.18186656,2.7218611,-1.2161808,-4.4794393,-2.8630626,-0.7043875,0.5762895,-5.343056,-3.0658329,-3.6960087,-0.3509677,0.6042175,-1.7158872,0.48587507,0.9718052,-0.2894205,0.118215136,3.091297,-1.0654532,4.7309165,3.384116,-0.17152007,-0.81338394,-0.38208875,-0.9400935,2.702258,-1.3378359,-0.6250956,-1.5936496,-1.9683766,1.6178464,5.8749843,0.07679865,1.0353645,-2.5396318,-0.9289795,1.2303418,0.41098166,1.3492509,1.1270045,1.1153744,-2.7949514,1.3515012,-2.3968413,-0.22428386,1.3910002,1.547075,-0.7899736,0.654109,3.3825092,2.01418,-3.7667632,-2.4550843,-0.851511,1.9811475,0.61224884,0.88375837,1.3791374,-0.034796678,-2.730669,0.7839715,1.2054669,-1.2783347,-1.1937851,-1.5451783,-0.15593785,-2.5838192,0.44850412,-1.642746,2.4357882,1.4302452,0.57430977,-0.11225091,0.7710329,-1.761093,0.8100949,-1.7927191,1.5798633,-1.15743,1.5436921,0.50863886,0.566388,-1.9583839,-2.59972,-0.80954826,-2.4016018,3.374267,-3.1724114,-1.9454615,-0.7453296,0.11437745,-0.8294903,0.036375813,-3.1762733,-3.2628813,1.103508,2.2145672,1.7143595,-0.10900587,0.5297422,-0.69693583,1.2115432,1.7850732,-2.0549567,4.2182307,1.5900328,0.120434016,2.2625048,-2.0194452,0.39283815,-0.64773244,-3.7612314,1.7857378,0.2945779,0.49057728,1.1034219,-1.085961,-0.30248865,0.8275437,2.143484,-0.7435096,-0.18377261,-3.3868766,-1.2409712,2.7313025,-1.4372193,-0.002299805,-3.0620718,-2.7190197,1.1375922,-2.421841,0.5816953,2.466037,-0.1602625,-2.2696824,-0.9801695,-1.1463883,1.6923736,-1.0244676,-2.2578397,2.298723,1.8566661,0.8008261,1.1609006,-4.3184996,1.1851866,-2.4346647,2.0756333,-2.589507,2.0587,3.6083891,2.430056,-1.8875513,-1.212683,1.4027382,-0.7394929,0.436658,0.43419686,-0.31392172,0.6804837,1.2363391,-1.4782852,0.41450307,0.020500561,-1.3497612,-1.8314439,1.4236088,-0.5397615,-1.526858,-0.9873526,-0.4892971,-3.1924868,2.0421822,-0.4602234,-1.1183233,-1.5911258,0.33838058,-0.75387555,-1.5785373,1.8728056,1.0577552,-1.0721023,3.3338542,0.49270675,-0.6419599,0.8455742,-0.23844409,-2.5223353,0.29101026,-1.5995419
C3N-01719,-1.551022,-2.6779447,-0.8754026,1.0380619,1.5580932,1.8451836,2.098688,-0.6248793,3.573865,-0.80150795,2.7977736,-2.6964273,0.12024884,2.7036777,-4.8195596,2.6430314,-1.2080934,-2.3477938,3.0159028,-0.63794494,0.068269126,-0.45452628,-0.045701224,-0.7970603,0.3131027,-1.0841906,1.5737435,3.3292387,-2.3333697,-0.91604793,-1.9146354,1.2569323,2.8902028,0.18535142,0.90463316,-2.972365,0.59108907,-1.28919,-2.7497447,0.98283285,-1.7762469,3.5179389,-1.085052,-1.1685468,-1.0188977,2.9281623,-3.38852,1.2197634,-0.8835032,1.2652054,-2.4875085,0.34119183,0.86976695,3.3193448,-2.3292382,-0.17638734,-0.576988,-0.1904491,2.1143966,-0.9361602,0.19600967,-1.6479928,-1.9961843,-2.6399872,-0.68034905,-1.9699667,-0.3483441,2.8872492,-0.9242493,-4.5736823,-2.9629226,-0.53751993,1.0088831,-5.527062,-3.2919064,-3.420506,-0.2664717,0.7826054,-1.5818894,0.27473772,0.6681137,-0.28279114,0.51950306,3.337517,-1.1088512,4.9834876,3.552359,-0.42454192,-0.69410366,-0.46753216,-0.70266545,2.6408648,-1.4041486,-0.9727922,-1.4480456,-1.836894,2.1438308,5.5644474,0.2893557,0.94315743,-2.2584496,-1.4866688,0.7209784,0.40312394,1.3513968,1.2882799,0.87859595,-2.6803415,1.0700377,-2.1375012,0.11094821,1.1951803,1.592154,-0.9342668,0.31686372,3.2380044,1.9670395,-4.0375814,-2.2803788,-1.295545,1.9259176,0.9758458,0.7570629,1.7769765,0.09366721,-2.2582567,0.743123,0.72876525,-0.67242676,-1.2387332,-1.6992456,-0.28302857,-2.508347,0.38690397,-1.5044802,2.3987067,1.6764421,0.7083542,-0.29711664,0.902013,-1.7075349,0.9240242,-1.3089933,1.3761612,-1.149549,1.9596666,0.7062997,0.6897129,-2.3855076,-2.7820213,-1.2847526,-2.2970562,3.0879474,-3.2288208,-2.2071438,-0.86914665,-0.02155338,-1.261367,-0.28747407,-3.3641167,-2.2504926,1.1535422,2.3230615,1.566082,-0.16505742,0.5922452,-0.88631576,0.7345484,1.5311997,-2.129895,3.7682157,1.0956763,0.22050478,1.6405038,-2.2246025,0.36612472,-0.59653836,-4.24999,1.6903604,0.36011705,0.7981683,0.98962945,-1.2626691,-0.28680906,1.399165,1.5612407,-0.95682824,-0.60888964,-3.3829381,-1.1000515,2.2179613,-1.432375,-0.36283636,-3.3282628,-2.5222476,1.184064,-2.3706946,0.39876294,2.0581515,0.03337124,-2.290569,-0.8494196,-1.136155,1.7692529,-0.80418414,-1.6346658,1.7524698,1.8903798,-0.09191104,1.3194541,-3.947749,1.8507261,-2.2374427,2.3705902,-2.141539,1.4271607,2.723877,2.3024964,-2.075322,-1.0446875,1.1311564,-0.40041816,0.69341767,0.60034716,-0.883595,1.1945122,1.7119213,-1.3766259,0.12543225,0.06849308,-1.4252979,-1.7794034,1.1386687,-0.43929628,-1.2639521,-0.87967956,-0.70366454,-3.2749438,1.9229403,-0.59987485,-0.70476,-1.9354901,0.22492498,-0.7222048,-1.657834,1.6553398,1.008487,-0.99385685,3.1257694,0.20003678,-0.93324953,1.210418,-0.022991287,-2.5149894,0.12551923,-1.6870742
C3N-03670,-1.8899285,-2.9848602,-0.8090694,0.9473105,1.571319,1.669288,1.7814358,-0.5727453,3.882452,-1.0923158,2.365054,-2.3686557,0.17417313,2.8448124,-4.6165357,2.3408878,-1.2024553,-2.6397297,2.8508499,-0.895874,-0.07783137,-0.5556769,0.09850671,-0.7326927,-0.3002967,-0.83403075,1.640958,3.228595,-2.127123,-0.35613865,-2.143488,1.1385131,2.9199538,0.4196103,0.54804564,-3.2180026,0.51394826,-1.2808397,-2.1359706,1.126227,-2.1133373,3.1846592,-1.5145291,-1.2171285,-0.94695336,2.892132,-3.4408345,0.9828904,-0.9737369,1.1656244,-2.7366357,0.43527845,1.037265,3.3987741,-2.613444,-0.07741926,-0.7540817,-0.35188773,2.4088995,-0.91862893,-0.073964916,-1.7234391,-1.9930092,-2.9720418,-1.3921417,-1.7921932,-0.22712657,2.6540232,-1.0626277,-4.446276,-2.697254,-0.74527407,0.5471326,-5.4933577,-2.8021183,-3.8509524,-0.105426386,0.6781285,-1.6126292,0.100694835,0.8050351,-0.52945185,-0.10835703,2.8018396,-0.8454213,4.824972,3.3870716,-0.3829259,-0.60259587,-0.40512943,-0.9811822,2.7892487,-1.3722056,-0.82985646,-1.478527,-2.0768974,1.9843023,5.8019333,0.098118015,1.1880838,-2.6720216,-1.1251643,1.261319,0.4815733,1.5377611,1.1166008,1.0544314,-2.5783808,1.4591643,-2.123213,0.17584515,1.3902287,1.5252593,-1.3456626,0.44850934,3.2799413,2.3547995,-3.7986321,-2.3947036,-1.0104982,1.862977,0.58173144,0.7640343,1.6656262,-0.059988495,-2.585409,1.0254664,1.2369597,-0.9505943,-0.9541066,-1.2322023,-0.21787244,-2.588461,0.4649941,-1.8862916,2.2249067,1.5338562,0.40919727,0.025391866,0.70495385,-1.9744157,0.93434393,-1.7624832,1.2754097,-1.4670157,1.6545385,1.0077906,0.70013523,-1.6914498,-2.7155983,-0.9201707,-2.3529334,3.3410664,-2.9820087,-2.075934,-0.8748567,0.23777203,-0.9279464,-0.34280494,-3.3830345,-3.1530812,1.0729091,2.3719707,1.5504024,-0.28611052,0.3855281,-0.8293194,0.94667214,1.6819087,-2.2467782,4.1748147,1.2840253,0.22220549,1.928053,-2.4477546,0.65779585,-0.590834,-3.9509697,2.0824485,0.011317087,0.37639025,1.0847744,-1.0509515,-0.5667511,1.1194478,1.9311203,-0.77681345,-0.12615432,-3.4794538,-1.2419734,2.7430792,-1.2774305,-0.0124033615,-3.18479,-2.428001,1.3500257,-2.6160793,0.3866901,2.2430456,-0.18987665,-2.312434,-1.1393055,-1.1554313,1.6662352,-0.9378565,-1.9305027,2.1572852,1.9653786,0.5614609,1.2027671,-3.9832704,1.4466742,-2.3446186,2.039985,-2.4370315,1.6935017,3.3923905,2.5585957,-1.9554862,-1.2152615,1.4539338,-0.8756475,0.6959995,0.44969124,-0.7459139,0.7736861,1.3696921,-1.5878443,0.46391535,-0.06426145,-1.3781745,-1.7268211,1.3855923,-0.51445884,-1.6714329,-1.0574077,-0.8719759,-3.0958602,2.09975,-0.3519799,-0.95619667,-1.7049798,0.36074525,-0.9206299,-1.7069285,1.744075,1.0423168,-0.9828063,3.2183309,0.5503113,-0.83619183,1.058528,-0.09519174,-2.4774542,0.21103911,-1.8634259
C3N-02998,-1.3699845,-2.8781474,-0.9848094,0.973394,1.4504249,1.8611747,2.0702221,-0.48880434,3.4705014,-0.6225719,2.574543,-2.5002,0.38021433,3.0290823,-4.578153,2.1852248,-1.1609935,-2.4471722,2.7761486,-0.7105094,0.2225105,-0.28529933,0.13020873,-0.8571262,0.4086463,-0.5498701,1.4638299,3.1427557,-2.587403,-0.66811144,-2.0298123,1.1761531,2.9516895,0.10890655,1.0610249,-2.857411,0.59333396,-1.1484431,-2.1542623,0.89622766,-1.9884537,3.9773746,-1.0199883,-1.1530918,-0.86788815,3.2462435,-3.6836848,1.1058488,-0.8499867,1.1018286,-2.618359,0.5737835,1.1099985,2.9268792,-2.5267274,0.1011064,-0.6401308,-0.13432287,2.2393954,-0.72678494,-0.15504439,-1.6248403,-1.7437222,-2.667585,-0.96113634,-1.8829379,-0.43244618,2.757395,-1.1468537,-4.423583,-2.874067,-0.14199877,0.8808715,-5.5190496,-3.562482,-3.5089633,-0.28026494,0.95943403,-1.6842846,0.24121653,0.6319251,-0.19645332,0.2039669,2.9153156,-1.3099921,4.5253706,3.5841935,-0.43386614,-0.55750644,-0.3498819,-0.7424299,2.8158615,-1.3389814,-0.8874228,-1.4125866,-2.1594474,2.0018299,5.6247153,0.60064054,1.0707011,-2.0389874,-1.3396417,0.7404065,0.454825,1.2707386,1.2759267,0.9958298,-2.7110324,1.1103859,-2.1874838,-0.18582258,1.2282765,1.2056233,-1.1688838,0.5276235,3.138567,1.8091261,-3.5134432,-2.2532847,-1.2132188,1.8316562,0.57421243,0.3999709,1.52209,-0.222609,-2.2711837,0.87657386,1.1828017,-1.0248741,-1.1629362,-1.5928316,-0.24534239,-2.6090462,0.4371874,-1.6580675,2.3338575,1.7438929,0.79844195,-0.043820944,0.30350477,-1.8146057,0.8361427,-1.5098078,1.5634135,-1.2060624,2.1157067,0.7280639,0.6928934,-2.204492,-2.773507,-0.8371789,-2.1452546,3.340542,-3.016374,-2.171847,-0.6893156,-0.21490607,-1.1525689,0.17866088,-3.2823815,-2.8542995,1.042246,2.2219906,1.5442911,-0.0642786,0.488784,-0.88404673,1.0049415,1.6992096,-2.1083548,3.8685834,1.304443,0.40845853,1.4199435,-1.9682028,0.48943576,-0.46518347,-4.055588,1.7421207,0.103020094,0.780476,1.0311044,-1.3225186,-0.29709342,1.1966559,1.4623946,-0.52161247,-0.4420501,-3.4059904,-1.2171899,2.291969,-1.2843891,-0.033421215,-3.4993215,-2.5619597,1.426204,-2.3085184,0.31821644,2.4714074,0.041291855,-2.1939223,-1.0759445,-0.79742414,1.5269592,-0.831351,-1.4725621,2.0750136,1.8573885,-0.14356592,1.1357841,-3.688656,1.6993988,-2.0196319,2.1063497,-2.2007427,1.7377161,3.3860636,2.1941974,-1.993563,-1.0874218,0.95456624,-0.6469062,0.6436071,0.61627835,-0.7936554,0.9893126,1.4914771,-1.1202502,0.22089455,0.05999368,-1.6491125,-1.5531764,1.0084162,-0.5140189,-1.1334591,-1.1652677,-0.28799966,-3.570703,1.9461375,-0.35962132,-0.9612265,-1.7455078,0.3582206,-0.38008988,-1.7674426,1.892366,1.0768394,-0.7016778,2.7658713,0.06578341,-0.6017967,0.6941199,-0.006688607,-2.4427955,0.044990204,-1.8774847
C3N-03211,-1.8316067,-2.945118,-1.0258266,0.88118607,1.633832,1.5549432,1.7692124,-0.5391689,3.816361,-1.0059551,2.6984441,-2.427615,0.72942936,3.1262708,-4.434908,2.1368325,-1.2623272,-2.5486786,3.04207,-0.6689825,0.018526748,-0.5762769,0.07238702,-0.6337493,0.25079152,-0.83604336,1.5023149,3.5317998,-2.032395,0.08941402,-2.1836772,0.9940685,3.3653116,0.24021825,1.0736681,-3.2126763,0.58504117,-0.9196709,-2.2791858,0.82828206,-2.017934,3.2090063,-1.3845117,-1.2409163,-0.92574096,3.0013285,-3.520004,1.059819,-1.0576136,1.1217316,-2.8783047,0.26529825,0.91643685,3.4862392,-2.9025986,-0.046199705,-0.34523004,-0.6578856,2.2707636,-1.0826154,-0.07617332,-1.392775,-2.0145895,-2.9227173,-1.0229541,-1.5403968,0.15821415,3.053104,-1.0169722,-4.2243576,-2.7929792,-0.6894417,0.8087089,-5.1155744,-2.999455,-3.607717,-0.23144878,0.8255351,-1.8732365,0.48764428,1.008771,-0.5864487,-0.26740482,2.9684556,-1.1542273,4.691851,3.3758173,-0.46342468,-1.0200502,-0.44839352,-1.0250815,2.9485142,-1.5329161,-0.7180197,-1.4101459,-2.2017245,2.1262646,5.4562297,-0.029525543,1.4887514,-2.3924794,-1.2324826,0.9951163,0.46569812,1.4323214,1.0701574,1.1666313,-2.4732122,1.2941828,-2.0915356,-0.2665507,1.3703483,1.4796824,-1.1680447,0.23168728,3.0540786,1.8264577,-3.269249,-2.5112262,-0.85551995,2.261798,0.6591768,0.7739693,1.6598009,0.059583616,-2.850648,1.0513828,1.0206232,-1.4062724,-1.3417389,-1.5786102,-0.23254988,-2.4925635,0.07516324,-1.7029188,2.0299566,1.0497493,0.30727112,-0.028983682,0.73191375,-1.7101805,0.67638737,-1.520602,0.86008143,-1.2340165,1.8651901,0.93112814,0.48057413,-1.5839888,-2.695101,-1.0156084,-2.288833,3.5583074,-2.9451706,-2.0216277,-0.6274794,0.19526964,-0.8613881,0.28101715,-3.250578,-3.1957996,1.1359926,2.3329294,1.6820232,-0.06385897,0.18219487,-0.8947776,1.12792,1.7677877,-2.2950253,4.0027037,1.3869154,0.17141761,2.080152,-2.3423402,0.4596274,-0.5015229,-3.7198033,1.9228745,0.055651356,0.428087,1.2252051,-0.94948924,-0.2843763,0.99932164,1.8715008,-0.6086297,-0.083382234,-3.6840298,-1.1521083,2.5663273,-0.96311533,-0.21042532,-2.9132226,-2.5740242,1.1610847,-2.5804963,0.29757154,2.4862022,-0.42880166,-2.5929332,-0.6598494,-0.8795308,1.8860966,-0.8028729,-2.1010451,2.2952652,1.6336397,0.6582691,1.2521889,-4.0248213,1.2284852,-2.2446177,2.1621542,-2.0234802,1.7555383,3.228866,2.019162,-2.1405697,-1.1492722,1.4646702,-0.61989355,1.0557126,0.17263274,-0.8345524,0.8366447,1.4422722,-1.3907733,0.06879908,0.31009704,-1.4389621,-1.8619477,1.2998226,-0.69739634,-1.5677046,-1.1507101,-0.7425021,-2.756277,2.0259902,-0.5039723,-1.0636686,-1.5029666,0.5167182,-0.73199534,-1.6969955,1.7958657,0.9439761,-1.4266217,3.3799617,0.6087355,-0.97479874,0.74893564,-0.49747878,-2.5444176,0.26103166,-2.1625497
C3L-01052,-1.7919108,-3.087096,-0.80164087,0.96671444,1.4612392,1.6398916,1.7307484,-0.6564574,3.900192,-1.3545666,2.3435657,-2.2312617,0.57348734,2.950818,-4.5938025,2.4165423,-1.2375784,-2.8675137,2.6493623,-0.5955641,0.076516904,-0.48841256,0.012376591,-0.82675433,0.08833623,-0.4770599,1.7805878,3.206219,-2.3037176,-0.23668988,-2.270196,1.232816,2.716368,0.4170058,0.5933101,-2.945775,1.0432554,-1.4552984,-2.10972,0.8677838,-2.2851996,3.401965,-1.4997689,-1.1017331,-0.79646474,3.0100167,-3.4576755,0.992385,-0.99132353,1.1901083,-2.8430119,0.16522247,1.0693785,3.530543,-2.3951828,-0.29165798,-0.8305816,-0.51703966,2.372417,-1.1017426,-0.16641189,-1.288921,-1.8284932,-3.0666966,-1.3369766,-1.7016758,-0.22654274,2.8161838,-1.0122691,-4.265911,-2.7846515,-0.64604616,0.58524376,-5.5582056,-3.0593755,-3.8672342,-0.052562363,0.8650978,-1.6323948,0.24285252,1.1538388,-0.05397104,0.008159928,2.7774289,-1.0981079,4.9855766,3.292754,-0.17272659,-0.7619512,-0.15635633,-0.8037844,2.8553267,-1.2493588,-0.9138138,-1.5234379,-1.9242587,1.733482,5.6704507,0.091647,1.1649468,-2.437103,-1.1725192,1.1051391,0.6238308,1.2630166,1.26613,1.1064098,-2.9191377,1.5240157,-2.191382,-0.113408975,1.1105556,1.3796767,-1.2259805,0.68372387,3.1252735,2.2431858,-3.8171582,-2.4243925,-0.9516471,2.0313158,0.45601767,0.6192749,1.3702168,0.026581341,-2.524157,0.8563992,1.088892,-1.1985372,-1.3073281,-1.6412891,-0.60321593,-2.56926,0.27959,-1.8974448,2.16353,1.8003154,0.6207511,-0.13249217,0.49014512,-1.6698856,0.6940129,-2.3031604,1.3374498,-0.9213793,1.8371704,0.7490716,0.5387721,-1.993429,-2.6417122,-0.60491896,-2.2969055,3.134835,-3.0450718,-2.1203227,-0.9034273,0.17655554,-1.1062217,-0.35394132,-3.3276803,-3.3034582,0.93716675,2.3825698,1.406703,-0.1468727,0.54520506,-0.7510469,1.1350355,1.9128221,-2.3111587,4.3593473,1.3354583,0.41641033,2.1762667,-2.072539,0.7584324,-0.79782385,-3.9364989,2.0282016,0.17810163,0.20951353,1.0365471,-1.1090922,-0.3690844,0.7993921,1.9280494,-0.40720585,-0.19455299,-3.4465826,-0.9646689,2.9180405,-1.3884578,-0.14061975,-3.056054,-2.3866885,1.1660748,-2.43452,0.33952665,2.6167645,-0.1597599,-2.057835,-1.2774358,-1.1038792,1.8376243,-0.8094056,-1.8361936,2.629386,2.3679383,0.65365076,1.0547626,-4.547745,1.3738623,-2.227407,2.192331,-2.291875,1.9559159,3.8614259,2.5179613,-1.7648283,-1.3682957,1.2824961,-0.70357263,0.36655653,0.37894943,-0.22219169,0.4223047,1.240702,-1.4462868,0.34455186,-0.17725891,-1.1546715,-1.7176107,1.2159313,-0.7702465,-1.4728314,-0.9558115,-0.44259962,-3.1983044,2.0034282,-0.5882219,-1.3142265,-1.679427,0.36284527,-0.7061238,-1.9953698,2.0121036,0.66086096,-0.94965065,3.1257422,0.48682508,-0.92950606,1.0118583,-0.08994551,-2.420754,0.3648543,-1.8324437
C3N-00512,-2.067308,-2.90534,-0.76104337,0.92451495,1.6261216,1.7442882,1.9278611,-0.6483869,3.813888,-1.0187138,2.371721,-2.2024372,0.70022357,2.7197835,-4.9693456,2.262752,-1.177584,-2.6773672,2.9509814,-0.74457943,0.119495556,-0.5504124,0.13530867,-0.70963246,0.0046941894,-0.69624895,1.3977091,3.2748907,-2.0898292,-0.2645266,-2.0235245,1.2169143,3.048221,0.34968126,0.625108,-3.0900884,0.7017588,-1.4048578,-2.269813,0.9489251,-1.893823,3.3431613,-1.7094978,-1.0353805,-1.0021261,2.8300967,-3.676714,1.1550026,-0.93455714,1.1178678,-2.7108338,0.40024278,0.9301234,3.3604136,-2.7279735,-0.022217935,-0.5040248,-0.6106054,1.848113,-1.0492797,-0.15012333,-1.6793369,-1.7389815,-2.972327,-1.1184994,-1.9357232,-0.08096287,2.8314314,-1.1269711,-4.438747,-2.6982412,-0.8172142,0.83620644,-5.5756893,-3.162617,-4.136743,-0.023597546,0.33082464,-1.5664171,0.37178686,0.88374716,-0.3077844,-0.052236773,2.8274508,-1.2630646,4.9872727,3.3987138,-0.30366328,-0.8843605,-0.22732174,-1.0499903,2.6279795,-1.5171927,-0.70035017,-1.5585561,-2.231428,1.7937679,5.682626,0.16492848,1.2337965,-2.304121,-1.2244139,0.92447644,0.6461814,1.4049617,1.1820862,0.8429424,-2.93348,1.5904346,-2.2849088,-0.28236967,1.1181017,1.5825919,-0.9001666,0.42745236,3.3466134,2.1451776,-3.5376756,-2.5048432,-1.0177038,2.128499,0.5686498,0.73916125,1.5926374,-0.04613964,-2.6960769,1.0800829,1.3425626,-1.1484646,-0.93252236,-1.5603212,-0.5830724,-2.580791,0.1294863,-1.7118604,2.3903472,1.2484221,0.37273428,0.05552502,0.5328077,-1.5985143,0.6932093,-1.6047361,1.330909,-1.1057254,1.8857429,0.7229007,0.50462174,-1.9016044,-2.6941676,-0.76227355,-2.3386962,3.457233,-2.9890628,-2.1073,-0.74548453,0.38130197,-0.811041,0.05252613,-3.3948898,-3.1744218,1.2342938,2.1694233,1.5830146,-0.27740014,0.22716567,-0.62687707,1.268755,1.953076,-2.2274761,4.02136,1.3449601,0.26147026,2.1920924,-2.2521656,0.54850924,-0.41277277,-3.8246772,1.9530917,-0.031604007,0.42434302,0.92239773,-0.9199366,-0.22613421,1.1190039,2.072599,-0.5940941,-0.21570499,-3.3598895,-1.2279484,2.77717,-1.1731696,-0.1711583,-2.9477508,-2.3906393,1.0884641,-2.6857557,0.20427898,2.476387,-0.3097493,-2.236555,-0.8169158,-1.1449026,1.7267659,-0.80213845,-2.0422654,1.9518896,1.8188195,0.7139888,1.1252004,-4.097149,1.7544484,-2.2062075,2.1601565,-2.4827304,1.8354032,3.49608,2.2212553,-2.2049816,-1.3543969,1.5242102,-0.53266937,0.46199718,0.21886139,-0.47750717,0.78971136,1.5891194,-1.4167198,0.29023206,0.05108373,-1.3794917,-2.0230315,1.0202606,-0.6427955,-1.45477,-0.6571988,-0.6714839,-3.1549811,1.7215939,-0.34214592,-1.0175089,-1.5018884,0.22607,-0.85825866,-1.634008,2.03319,0.9851359,-1.0488663,3.2593067,0.33603463,-0.8107247,0.81822515,-0.2371078,-2.4408898,0.25670603,-1.7858015
C3N-02295,-1.7398353,-2.635353,-0.7128782,1.2246263,1.8175943,1.7405736,2.1618311,-0.6004184,3.608757,-1.1394875,2.6468527,-2.2664368,0.4495243,3.0406601,-4.8824325,2.3331728,-1.2620088,-2.579345,3.0693684,-0.59299153,0.1254054,-0.22606121,0.31022817,-0.25511956,-0.1082646,-0.83543855,1.6899289,3.426119,-2.3111517,-0.42650798,-2.1380064,1.1695175,2.816854,0.5958142,0.6416071,-3.0090613,0.5307233,-0.92407304,-2.1649113,0.7264166,-1.6825033,3.1324205,-1.390742,-1.2642432,-0.8337261,3.0044916,-3.404579,1.0230336,-0.8729554,1.1392652,-2.972117,0.19807495,0.8053228,3.1944394,-2.5820587,0.16495395,-0.58280516,-0.2720634,2.190806,-0.9783442,0.093617745,-1.438139,-1.8771632,-2.8901982,-1.0276811,-1.8161223,-0.18275294,2.765917,-1.3039519,-4.4228787,-2.7095795,-0.7934441,0.8149871,-5.148992,-3.0560575,-3.9767625,0.061318535,0.94285667,-1.3111776,0.020166954,0.59864676,-0.59132135,0.10715357,2.981873,-0.9281417,4.8988733,3.5991046,-0.3926131,-1.0251404,-0.41759446,-1.0853611,2.7592642,-1.3644847,-1.1713395,-1.6024021,-2.070131,1.7583886,5.866344,0.18350984,1.097449,-2.4908307,-1.2283401,0.7433441,0.30492523,1.4604548,1.132186,0.94627637,-2.6949894,1.464106,-2.3168504,0.005815793,1.2867703,1.9950974,-1.1417565,0.3784739,3.302389,2.1124318,-3.971789,-2.5063555,-0.949104,1.7045788,0.63403034,0.81312203,1.6432883,0.026611315,-2.7600224,1.2416438,1.1948944,-0.9564814,-0.9242378,-1.5382442,-0.27382532,-2.459829,0.46790895,-1.7058518,2.180406,1.6346191,0.21372966,-0.060287867,0.6677582,-1.8969989,0.6474826,-1.546228,1.1784769,-1.1635813,1.699191,0.94055915,0.5073931,-1.8945267,-2.9119496,-0.82705814,-2.40802,2.843464,-2.812184,-2.2694259,-0.8575629,0.1373474,-1.130818,-0.29696575,-3.4244742,-3.317797,1.3445756,2.624943,1.6760768,0.035688885,0.30625448,-0.53602225,1.195521,1.8676181,-2.3579338,3.9470618,1.2500331,0.21587643,1.869094,-1.926356,0.77357024,-0.7112522,-4.1710796,1.769131,0.025563767,0.53127617,0.7839499,-1.0112504,-0.5024242,1.3046501,2.1541169,-0.65514594,-0.4586259,-3.3499765,-1.185978,2.6661937,-1.2453569,-0.27473983,-3.1581602,-2.4743617,1.2733432,-2.4108822,0.6117141,2.10826,-0.09468005,-2.208836,-0.86069983,-1.0229248,1.5615977,-1.0223706,-1.8872443,2.1749492,2.1203334,0.46796352,1.4113153,-4.2948895,1.6549604,-2.1201324,2.3501973,-2.1904702,1.601749,3.6535666,2.2133503,-2.0189147,-1.172618,1.495373,-0.8405014,0.50441873,0.54701555,-0.7753551,0.6416029,1.1848418,-1.475765,0.30947033,-0.08044581,-1.4839555,-1.510774,1.1931342,-0.50477517,-1.6605573,-1.1003436,-0.7168385,-3.0441053,2.3429606,-0.50504214,-0.89107007,-2.0052817,0.4534684,-0.6205612,-1.6519958,1.8822618,0.74099,-0.8501283,3.055593,0.37540233,-0.9434087,0.91674465,-0.06844329,-2.4586673,0.37587076,-1.7996864
C3N-01012,-1.7291497,-3.0884347,-0.8267346,0.8780605,1.8726673,1.8322529,1.5488117,-0.77614623,3.6344304,-0.82868755,2.8326871,-2.211859,0.76411,3.2803426,-4.9165425,2.1464095,-0.80337614,-2.567747,2.8524761,-0.8544561,0.14482549,-0.50952744,-0.18698193,-0.7253822,0.2709986,-0.710938,1.3900673,3.2225578,-2.361222,-0.24963476,-2.1124988,1.1682955,3.0583014,0.266672,0.53834105,-3.0313654,0.639338,-1.6544248,-2.0573967,0.88370615,-2.079689,3.170152,-1.6383946,-1.3036991,-0.5879164,2.7416897,-3.4605892,0.9907506,-1.011659,1.1057643,-2.6498957,0.30747923,1.0121584,3.241831,-2.7195907,0.16872212,-0.87701,-0.6795319,2.1235034,-0.95955795,-0.06757087,-1.3977127,-1.7040116,-3.0141761,-1.2002777,-1.4612185,0.033495523,2.8734992,-1.1267569,-4.275628,-2.5496774,-0.6080669,0.7119611,-5.485681,-2.9413595,-3.7594268,-0.3063699,0.36912376,-1.8761734,0.32714576,0.58704954,-0.3642275,-0.0055236774,2.6340542,-1.1864868,5.029884,3.45832,-0.6029039,-0.6636379,0.084734,-1.0751245,2.853625,-1.3419217,-1.2167449,-1.3664423,-2.1946487,1.555846,5.6681633,0.13999347,1.2065994,-2.634026,-1.019876,0.88012314,0.5914416,1.4413339,1.367756,0.94792724,-2.7288263,1.6844467,-2.0952864,-0.19942589,1.6855084,1.8494068,-0.94956636,0.49854848,3.3746905,1.9927702,-3.5940971,-2.4921598,-0.9053371,2.144098,0.454317,0.74427456,1.5208158,-0.08544486,-2.4316387,0.8966756,0.8988082,-1.4520521,-1.0427603,-1.283288,-0.20226964,-2.9351544,0.8345563,-1.8140645,2.247829,1.4789857,0.39569536,-0.23757814,0.6691897,-1.9543468,0.6729839,-2.0175135,1.2371728,-1.3855021,1.7004143,0.8845915,0.36187866,-1.8791753,-2.6779974,-0.85569185,-2.6997015,3.5444689,-3.0130668,-1.9778333,-0.857644,0.037036207,-0.91838175,0.19646999,-3.5827777,-3.392355,1.3339007,2.3344207,1.5333558,-0.0760159,-0.08209757,-0.68174523,1.2807528,1.7944431,-2.2155297,4.0046444,1.5832399,0.17831118,2.0611353,-2.3300033,0.17751202,-0.2970497,-4.151575,1.7014688,0.40518057,0.40383548,0.9522077,-0.976551,-0.64567965,0.9332479,2.060599,-0.6561141,-0.0036666798,-3.3709583,-1.2200255,2.4695487,-1.4068902,-0.016600998,-2.6810603,-2.1045203,1.4662565,-2.5880404,0.3508729,2.5393329,-0.17268005,-2.3918278,-1.0291045,-1.0706271,1.8639357,-0.9386325,-2.059866,2.1618981,1.5643026,0.88305944,1.146602,-4.088148,1.3400309,-2.4224625,2.0975282,-2.3294244,2.378291,3.3044875,2.4652243,-1.9169098,-1.3836182,1.2361449,-0.674574,0.7205681,0.39646775,-0.038263686,0.7270421,1.3173096,-1.1557411,0.49822292,-0.42350322,-1.1253116,-1.7121332,1.4901223,-0.5047985,-1.3840362,-0.90078014,-0.61586,-3.393234,1.6511734,-0.5730322,-0.99468803,-1.4668643,0.43229815,-0.9010732,-1.6424266,2.0083542,0.6438163,-0.918708,3.218649,0.3283041,-0.46965617,0.7217337,-0.41269568,-2.3395221,0.3968758,-1.8928086
C3N-01502,-1.9108425,-2.6773877,-0.85395724,0.9536241,1.2478257,1.6237955,1.7404367,-0.38672066,3.7274525,-0.96206135,2.4095602,-2.6238842,0.3438845,2.7340236,-4.9214053,2.5022614,-1.2036972,-2.6269145,3.1577675,-0.84038585,0.3565261,-0.5895211,-0.21964718,-0.34519428,0.3350147,-0.61190766,1.5814817,3.4254062,-2.1099353,-0.22273597,-2.1075957,1.195424,2.9236765,0.35886022,0.6122619,-2.840941,0.4838362,-1.2331382,-2.0514839,0.5791422,-1.5827192,3.3138251,-1.3125502,-1.5867935,-1.0853326,3.0737514,-3.6000555,0.9843901,-1.218128,1.0104625,-2.5904503,0.09032266,1.2353595,3.227329,-2.718793,-0.15100701,-0.5835213,-0.52976197,2.2657225,-0.7696124,0.20650652,-1.4672397,-1.8979715,-2.4988804,-1.0885161,-1.8960798,-0.46649778,2.7189138,-1.3486677,-4.309533,-2.9150221,-0.6495791,0.7228499,-5.298144,-3.0887458,-3.5817184,-0.17505851,0.7593663,-1.5351774,0.29167795,0.9315601,-0.21702383,0.44784543,3.22473,-0.85482895,4.839072,3.6423209,-0.25498888,-0.7458711,-0.3645101,-0.7877438,2.5584176,-1.5281155,-1.0680009,-1.2458377,-2.027808,1.9110663,5.183833,0.03193329,0.9783266,-2.080026,-1.2736146,1.1467178,0.39249417,1.7497878,1.6324161,0.8366796,-2.8990796,1.3102329,-2.359713,0.2603471,1.0633013,1.6050118,-0.8770365,0.540678,3.468923,2.435621,-3.6711385,-2.4658868,-1.265062,1.9750814,0.95636404,0.70613223,1.9089472,0.20259692,-2.5146272,0.81940854,1.093002,-0.83364826,-0.82756275,-1.7879559,-0.40797776,-2.5127025,0.0245512,-1.5401472,2.5129356,1.7188495,0.7487092,-0.01196995,0.7873736,-1.8546065,0.52452403,-1.4348222,1.3300428,-1.4167936,1.5204105,0.85017323,0.7210688,-1.7102252,-2.8251414,-1.0375645,-2.2185862,2.7752535,-3.07958,-2.2364614,-0.6218105,0.15293701,-0.7589667,-0.30072984,-3.1305838,-3.2088249,1.109761,2.305025,1.2833405,-0.041450836,0.3343554,-0.8166505,0.9954865,1.7168313,-2.3601909,4.034002,1.1112628,0.048574135,2.113294,-1.7485374,0.8629747,-0.69663334,-3.9527724,1.7545637,0.35326034,0.60918117,0.9766789,-1.20735,-0.34409675,1.1907123,1.7434093,-0.9819798,-0.52271754,-3.5363662,-1.0341473,2.2633011,-1.1858855,-0.43790323,-3.4317417,-2.4248767,1.2495824,-2.4466949,0.7436678,2.201409,-0.22758962,-2.0418,-0.8902032,-1.0538241,1.9676355,-0.9172875,-1.8034492,2.1052139,2.04104,0.7336486,1.4699014,-3.7732296,1.5506568,-2.228057,2.2976658,-1.8115468,1.3519512,3.2259881,2.359488,-2.2365386,-1.0405469,1.3406378,-0.82104135,0.58524233,0.052240565,-0.8457449,0.7915985,1.4772998,-1.2510773,0.2625256,0.10532748,-1.2301306,-1.921447,1.3531121,-0.6198698,-1.3114682,-0.91825116,-0.69313216,-3.0838735,2.2209315,-0.44423243,-1.1505922,-1.6604502,0.5026796,-0.8659023,-1.4208459,1.6215321,1.007612,-1.0242217,3.0717514,0.6534361,-0.9075733,0.9753096,-0.1730375,-2.652313,-0.11967806,-1.8948607
C3L-01053,-2.0597444,-2.9203293,-0.84728664,1.1583371,1.5244182,1.7561519,1.6581395,-0.67105997,3.8016405,-1.0446781,2.5428722,-2.2777877,0.87970763,2.9366918,-4.8990536,2.386304,-1.3424907,-2.6819685,2.815029,-0.46106473,0.29921138,-0.44505844,0.04607095,-0.9816309,0.17248045,-0.81625205,1.6254097,3.4750905,-2.2422256,-0.20002225,-2.1541533,1.146696,2.9699357,0.31806856,0.6889134,-2.9652858,0.68093324,-1.4414815,-1.9573408,0.86875296,-2.2884893,3.3333955,-1.6014398,-0.9940265,-0.7132562,2.644542,-3.591248,1.218909,-0.9113761,1.3449572,-2.8316448,0.19113326,1.1850775,3.5437298,-2.555644,-0.3154871,-0.63576365,-0.71408564,2.1430547,-0.959575,0.016767582,-1.3574489,-1.6709967,-3.2514317,-1.2981828,-1.7698402,-0.17153959,2.7964747,-0.7810983,-4.346619,-2.581533,-1.003052,0.40638536,-5.710117,-3.1262028,-3.9237072,-0.053959645,0.86515856,-1.6893046,0.32276604,0.62007445,-0.28976327,-0.33972415,2.835046,-1.0353159,4.92138,3.410465,-0.4457555,-0.71501637,-0.16391872,-0.73991317,3.0845547,-1.41793,-0.7302789,-1.7970115,-2.1841464,1.6509471,5.877197,0.15397906,0.98520386,-2.4526215,-1.1986741,0.9904656,0.41159767,1.4109722,1.3998288,1.2970082,-2.6968184,1.5995191,-2.4146261,-0.23475239,1.3908641,1.3098323,-0.9517053,0.3472828,3.0246277,2.2246442,-3.6832883,-2.5098414,-0.698445,1.843842,0.6189788,0.7145614,1.5684336,0.15170227,-2.7207823,0.83723223,1.2783349,-0.89083254,-1.3902328,-1.486961,-0.22467902,-2.6950154,0.5211187,-1.9766982,2.1242015,1.475899,0.625373,-0.30401176,0.7791036,-1.7284414,0.59953487,-2.0653665,1.2715988,-1.3781729,1.8001187,0.7085874,0.2889817,-1.9315109,-2.5202315,-0.7678068,-2.5777183,3.349994,-3.2438362,-2.1606975,-0.7337033,0.15224096,-1.2070696,0.13794577,-2.9668362,-3.2708845,1.2006079,2.539309,1.5651438,-0.100237995,0.31662697,-0.97718686,1.2579598,1.8334649,-2.1015155,4.036073,1.2419553,0.13136674,2.107045,-2.172774,0.59057474,-0.6542815,-3.7792816,1.672712,0.0982616,0.29937634,1.1697365,-1.0896916,-0.24807894,0.9036178,1.8825132,-0.60644263,-0.06111791,-3.544035,-0.95029974,2.7314272,-1.2162085,-0.18363242,-2.9293146,-2.4567947,1.0576589,-2.5221643,0.35016596,2.594077,-0.03549501,-2.3313346,-0.94065076,-0.9569326,1.680875,-0.8484518,-2.1913443,2.3451843,2.070972,0.69216645,1.1444408,-4.5249295,1.3333477,-2.6170492,2.234753,-2.2516444,2.2434318,3.8094332,2.3881743,-1.9083443,-1.2918559,1.378412,-0.9019624,0.413884,0.4621657,-0.46500567,0.7009925,1.2176955,-1.2819245,0.30146515,-0.2222767,-1.1633902,-1.5486343,1.3608459,-0.5770242,-1.8093565,-0.88779503,-0.56972784,-3.3678906,1.9806755,-0.5871155,-1.1672674,-1.7469119,0.34014294,-0.98785335,-1.7676731,1.9384408,0.9912245,-1.6156437,3.0597227,0.5703662,-0.81229883,0.977692,-0.25590697,-2.2934616,0.2535771,-1.9463458
C3L-03632,-1.777259,-2.9443228,-0.82042253,1.0037014,1.8181725,1.5516822,1.8115556,-0.69750834,3.8064406,-0.9516615,2.508356,-2.373978,0.56367457,3.139743,-4.926241,2.1830003,-1.1278651,-2.6639974,2.680916,-0.8197689,-0.10006892,-0.71944666,0.060240135,-0.621694,0.17745653,-0.8907133,1.561618,3.2818274,-2.0097537,-0.27789107,-2.3061075,1.0164703,3.0595188,0.33741894,0.76710546,-3.1720898,0.56576943,-1.2990675,-2.4524834,0.68106276,-2.130546,2.927163,-1.4536449,-1.0623945,-0.8882948,2.6538703,-3.2516558,1.0474977,-0.8515509,1.3474268,-2.5846496,0.26444674,0.6509246,3.1404212,-3.0298345,-0.022966208,-0.5297731,-0.52232605,2.334792,-1.1346247,0.13343969,-1.6747609,-2.1128955,-2.7921288,-1.2950606,-1.6473097,0.035738606,2.8577716,-1.2254542,-4.0567155,-2.3360288,-0.7332139,0.9320751,-5.5032554,-2.9325452,-3.7757704,-0.17282465,0.5746219,-1.7569354,0.17316227,0.7726293,-0.17485167,-0.1423303,2.9079762,-0.9892854,4.9615116,3.4031756,-0.806556,-1.0800251,-0.41496778,-1.0713058,2.7241688,-1.425226,-1.1599462,-1.5709319,-2.1977212,1.775228,5.767232,0.06513624,1.1403699,-2.668342,-1.0933481,1.0960125,0.46070334,1.3745443,1.2056863,0.83459055,-2.6343353,1.4442217,-1.7403866,-0.21929772,1.296121,1.535852,-1.1245279,0.4734851,3.1848643,2.1877658,-3.568581,-2.4862237,-0.90838724,2.24553,0.51949567,0.538024,1.5621963,0.011802282,-2.4787478,1.0974575,1.1770694,-1.3087707,-0.97543293,-1.2355894,-0.36349377,-2.5929682,0.72392446,-1.795212,2.0007122,1.0616432,0.33569035,-0.02884143,0.7581889,-1.6800143,0.8164306,-1.8181677,1.2913228,-1.1830769,1.6364018,0.92013353,0.5007361,-1.6153355,-2.7693536,-0.7406311,-2.2774541,3.3436036,-2.8762958,-2.0301692,-0.9793602,0.16187343,-0.9023899,0.14650694,-3.2508593,-2.9550257,1.4452755,2.5649474,1.6323631,-0.19227828,0.0414462,-0.87002504,1.22185,1.7639238,-2.1853244,4.062059,1.3556648,0.41075072,2.0119348,-2.1432664,0.17021981,-0.32511187,-4.101766,1.8073388,0.14523688,0.17213228,1.1407613,-0.68072003,-0.73273975,1.2080684,1.9190665,-0.6611147,0.1104473,-3.5014224,-1.0963916,2.4457707,-1.2832739,-0.087346345,-2.8893492,-2.4329731,1.0777028,-2.616827,0.28166413,2.360706,-0.19832335,-2.1908622,-0.84069943,-1.067574,1.8144501,-0.76868933,-2.0721998,2.0075061,1.7423817,0.6659944,1.25749,-4.1587124,1.159778,-2.2621832,2.2924128,-2.3465648,1.9572994,3.3205318,2.462893,-1.97263,-1.1267118,1.5825899,-0.40678012,0.6552804,0.6539784,-0.5450448,0.5123733,1.1734738,-1.2149178,0.34164736,-0.04873266,-1.1139342,-1.9930974,1.4911251,-0.72915417,-1.7245829,-1.0196266,-0.84590685,-2.8864603,1.9542704,-0.4449697,-1.0110973,-1.5227455,0.38586694,-0.7433148,-1.7171327,1.9647584,0.8267826,-0.99024093,3.191267,0.13750802,-0.7984441,0.88664573,-0.109258346,-2.294514,0.22540161,-1.9873044
C3L-00401,-2.3613234,-2.4443433,-0.9628427,1.1962357,1.4671761,1.5721865,1.5078102,-0.27808437,3.5507476,-1.0472366,2.2952607,-2.6955955,0.36065206,3.120271,-4.6628985,2.2831001,-1.3023865,-2.3093042,2.7467997,-0.51514035,-0.3364396,-0.638625,-0.28865162,-0.54136854,0.50511295,-0.89153945,1.5296783,3.1628768,-2.2921445,-0.19302438,-2.1709561,1.2844518,3.1498165,0.1587981,0.5107095,-2.9906313,0.78316367,-1.505045,-2.192667,1.1965376,-1.7808596,3.6938527,-1.2928814,-1.0858337,-0.74743694,2.915654,-3.1103475,1.0622665,-0.81046945,1.2567308,-2.821162,0.09617543,0.68548346,2.8025033,-2.4956057,-0.05285238,-0.5499077,-0.5361883,1.9042516,-1.0743095,-0.39373216,-1.638232,-2.038068,-2.7029889,-1.3343513,-1.9097902,-0.32215196,2.7206018,-0.63443625,-4.5261707,-3.1535666,-0.31608856,0.79666394,-5.2489104,-3.3312109,-3.306603,-0.23379143,0.36729673,-1.8361105,0.34731403,0.77513635,-0.23643541,0.010580945,2.881913,-1.0572224,5.153327,3.2887168,-0.5199384,-0.38321224,-0.3907947,-0.87848586,2.4965458,-1.1050473,-0.8732599,-1.3543752,-2.307028,2.4142017,5.462032,0.27263746,1.4333597,-2.3179197,-1.4375299,0.94928294,0.688435,1.4742612,1.3741915,1.0785791,-2.7461226,1.5508145,-2.5225217,-0.1720931,1.2633468,1.3224299,-0.7629096,0.5224837,3.5216033,2.101512,-3.7475126,-2.4415834,-1.3803939,2.246977,0.95388913,0.43361813,1.1104125,-0.011126487,-2.601091,0.89401317,0.97462344,-0.80870575,-1.0400796,-1.7755193,-0.37797502,-2.6452608,0.27460283,-1.6818907,1.987409,1.3602383,0.6755574,-0.42889333,0.8249082,-1.684703,0.95015144,-2.1399753,1.6140248,-1.0718489,1.7785038,0.9490893,0.8134479,-1.8977723,-2.8770869,-0.937907,-2.22153,3.5771956,-2.8987877,-2.3571653,-0.62445533,-0.45966566,-1.0584772,-0.08226422,-3.4482718,-3.1210792,1.0299557,2.331043,1.5468098,-0.19767536,-0.102849856,-0.41119102,1.0231766,1.8768927,-1.9498075,3.6339781,1.3198808,0.50549316,2.0687447,-2.3616822,0.66317147,-0.49712774,-3.7684584,1.6920983,0.5156164,0.40696034,1.1346194,-1.08478,-0.18712297,1.032124,1.9879429,-0.6913885,0.03333945,-3.223014,-1.1949242,2.5313692,-1.4929396,-0.16608876,-2.8747993,-2.4548042,1.1968842,-2.4606392,0.20054126,2.308711,-0.53936833,-1.9473459,-0.84470344,-1.0504318,1.9274424,-1.2921504,-1.805475,2.215766,1.8184329,0.712258,0.8422044,-4.1476297,1.7693671,-2.1331367,2.1859276,-1.846987,1.7238568,3.3052,2.0322204,-2.1574576,-1.6400784,1.1788743,-0.7877512,0.40093365,0.6430588,-0.47744662,1.0701483,1.612596,-1.3251948,0.72273904,-0.10845712,-1.3431529,-1.4741141,1.0686151,-0.362993,-1.3466382,-0.7851044,-0.32741648,-3.4075844,2.1118712,-0.7918506,-1.1918333,-1.1511842,0.04928427,-0.63692003,-1.4230319,1.8536631,0.9497593,-1.0176249,3.184872,0.43287206,-1.0959926,1.0403327,-0.15474503,-2.4227715,0.31732747,-1.8440746
C3L-01054,-2.2670429,-3.0674818,-0.77377224,0.995757,1.4416043,1.6178268,1.7445794,-0.76906,3.650437,-0.9586924,2.270088,-2.2118595,0.87433726,3.232927,-4.739869,2.297395,-1.1939124,-2.7804968,2.8513603,-0.9284145,0.100224674,-0.70915395,0.121459514,-0.63134193,0.06982465,-0.6086968,1.6575043,3.203818,-2.308728,-0.3600313,-2.1507356,1.3561205,2.8075147,0.19029725,0.7537974,-2.708321,0.580565,-1.5837508,-2.0845933,0.7078027,-2.1480246,3.281133,-1.4867717,-1.0855879,-0.74537677,3.0882552,-3.5540411,1.1745943,-0.94300354,1.6228188,-2.7660794,0.045155425,1.1436069,3.3149223,-2.709832,-0.11852651,-0.80306476,-0.6791732,2.2772424,-0.9545783,-0.18635206,-1.337817,-1.8255336,-3.1684873,-1.3207577,-1.7065277,-0.024888242,2.7205665,-1.0059485,-4.2153783,-2.8236482,-0.7659616,0.8978231,-5.252499,-2.9901354,-3.8571832,-0.20547387,0.83150774,-1.8246226,0.10484038,0.7651101,-0.23192772,0.032914445,2.8925118,-0.8864278,4.810496,3.2217453,-0.14835887,-0.9462834,0.1258674,-0.8889669,2.8648508,-1.315729,-0.7544179,-1.3676244,-2.072306,1.7701354,5.68681,0.0769423,1.2701696,-2.6152406,-1.1643212,1.0165461,0.53571606,1.1129502,1.2362165,1.3607963,-2.9562402,1.4737606,-2.2370524,-0.24178323,1.1366103,1.3957813,-0.8722948,0.6616024,3.0606072,2.2446365,-3.6274211,-2.5817223,-0.8084867,2.1024327,0.8004644,0.81246376,1.3568875,-0.2515631,-2.895297,0.77886015,1.2104942,-1.0555073,-0.9608914,-1.6012149,-0.46668872,-2.797981,0.3796203,-1.9261075,2.291306,1.303168,0.59971744,-0.2493201,0.84563,-1.7323588,0.49411288,-2.0380597,1.0295802,-1.2884877,1.5978916,0.60248864,0.82068276,-1.4894474,-2.5263786,-0.7752923,-2.3385334,3.3143437,-3.1775205,-1.8847656,-0.81058085,0.13069609,-1.0961837,-0.03910353,-3.4317622,-3.170507,1.2218314,2.4090242,1.3540398,0.094623454,0.32945883,-0.77838796,1.3205142,1.7363477,-2.0581007,4.4043036,1.2306378,0.07276575,2.2633028,-2.05481,0.59556085,-0.5142649,-3.6863594,1.7484577,0.121105164,0.55007315,1.2931238,-1.2962744,-0.057659112,1.0228707,2.1556425,-0.67197937,-0.10231733,-3.6332426,-0.95362395,2.5808437,-1.2174456,-0.021873588,-2.7986612,-2.5031147,0.96860904,-2.3148775,0.17632343,2.738888,-0.22708926,-2.1812215,-0.8759524,-0.8253076,1.7183692,-0.67555374,-2.0399547,2.3538196,2.0626395,0.74940574,1.1383283,-4.306255,1.3385639,-2.4429047,2.2077756,-2.116198,2.198908,3.7018232,2.3422222,-1.8621281,-1.2811787,1.326709,-0.9740334,0.3375051,0.47486803,-0.52207935,0.5179209,1.26863,-1.449212,0.4369564,0.018460188,-1.090643,-1.7300003,1.0566553,-0.3525644,-1.555626,-0.9862117,-0.6433222,-3.2654111,1.9605181,-0.4927302,-1.0738881,-1.6076549,0.20858069,-0.80287325,-1.6692369,2.0221555,0.6419463,-1.503816,3.032104,0.68623954,-0.9308439,1.0307585,-0.1310608,-2.3658352,0.24607909,-1.697252
C3N-00517,-2.2153716,-3.0734062,-1.0621829,1.1259912,1.4915031,1.5184851,1.7716515,-0.38672188,4.017047,-1.2188392,2.7122676,-2.276314,0.6375303,3.070848,-4.8389626,2.2147505,-1.159088,-2.657036,2.5930898,-0.62177277,-0.0073091383,-0.32665217,0.13249433,-0.9761015,-0.01757562,-0.7902699,1.4948841,2.9364827,-2.168043,-0.0478399,-2.2937398,1.0944061,3.1541297,0.34042937,0.83606845,-2.9224172,1.2633653,-1.4001149,-2.0692077,0.84896386,-2.1473067,3.194629,-1.6448634,-1.2453414,-0.80369943,2.9320328,-3.2423532,0.8188403,-1.0261158,0.92478627,-2.7694647,0.46715072,0.63137835,3.4094267,-2.5875208,-0.28633657,-0.7215709,-0.4807692,2.2915654,-0.95831966,0.06439827,-1.3256277,-1.9179523,-2.995908,-1.303608,-1.8170102,0.20350912,3.0674746,-1.159339,-4.4757986,-2.7121727,-0.6678641,0.7368753,-5.500959,-2.8805056,-3.7818074,-0.07802427,0.6612375,-1.6732503,0.38071463,1.0725389,-0.039152812,-0.3002767,2.7587352,-1.1981871,5.06029,3.3378804,-0.3086801,-0.7268991,-0.33057225,-0.7114039,2.9406335,-1.4332249,-0.89291734,-1.3855711,-2.0357075,1.4274937,6.044356,0.23256725,1.364332,-2.4667659,-0.93809706,0.8941506,0.37691903,1.5712609,1.0763099,0.9467838,-2.6445072,1.7904886,-2.22856,-0.1571513,1.4316411,1.1764761,-1.1270874,0.17394556,3.139786,2.3531587,-3.6768916,-2.5438716,-0.8004401,2.2314403,0.43276414,0.35593748,1.289301,0.086189434,-2.47713,0.99818105,1.1162473,-0.96182495,-1.2892139,-1.180229,-0.33882427,-2.6155796,0.52871245,-1.9984881,2.1048305,1.3645211,0.7211795,-0.27449885,0.28825814,-1.805265,0.8128768,-1.9525478,1.1439058,-1.2718961,1.826044,0.8566425,0.4608701,-1.7971419,-2.8529663,-0.63926685,-2.3804944,3.3292022,-2.9595842,-2.163823,-0.50177157,0.2687714,-1.073909,0.05105153,-3.3630908,-3.3230376,1.0862246,2.6117857,1.8462522,-0.5000246,0.44634745,-0.6604327,0.77955675,1.8107442,-2.210897,3.976787,1.4176362,0.12502086,1.8959408,-2.3450334,0.31606972,-0.58258486,-4.077873,1.8405484,-0.083607465,0.17989482,0.9813254,-0.9955745,-0.39878282,1.0862864,2.1118789,-0.48766991,-0.1878357,-3.3694482,-1.153882,2.8059626,-1.5946938,-0.29958916,-2.7169452,-2.5654433,1.1915452,-2.6813872,0.034627065,2.3773146,0.1558243,-2.3070402,-1.164346,-1.2284769,1.6945643,-0.9079532,-1.9875311,2.641465,2.1246288,0.7120597,0.9978188,-4.152012,1.2302442,-2.384951,2.047793,-2.2027173,2.3093119,3.6379943,2.2829795,-1.8028014,-1.6732054,1.4519317,-0.7088352,0.53774863,0.5758988,-0.34833512,0.64994794,1.1439495,-1.5907567,0.48552868,-0.22401293,-1.1575509,-1.6929255,1.1259189,-0.74178845,-1.4883105,-1.042399,-0.44460925,-3.2472456,2.1721597,-0.7826175,-1.2502141,-1.8895143,0.25153136,-0.81748277,-2.0233912,1.9319744,0.8569329,-1.3434743,2.874286,0.5396526,-0.74257916,0.9340961,-0.45124733,-2.2182593,0.28016555,-1.8906593
C3N-03440,-1.941354,-2.883257,-0.9011989,0.9701586,1.4628761,1.7094868,1.3935363,-0.7442336,3.9432418,-0.78292197,2.548033,-2.4670737,0.43781573,3.1893022,-4.7494226,2.3420649,-0.998973,-2.602937,2.670852,-0.6725085,0.23150086,-0.79842037,-0.12282275,-0.93939936,0.32636538,-0.7985996,1.6934297,3.3788881,-2.4647896,-0.31645077,-2.187172,1.0592049,3.0738556,0.12406852,0.73911375,-2.9455247,0.631313,-1.3582052,-2.141142,1.0004313,-2.0611432,3.430983,-1.6379758,-1.3546164,-0.68456614,2.7154167,-3.5526214,1.1383767,-0.9799716,1.2423159,-2.6373377,0.3882475,0.82659,3.107209,-2.3945932,-0.05511295,-0.55851895,-0.70036477,2.0946825,-0.66358614,0.07489733,-1.4070269,-1.8725253,-2.846618,-1.0913293,-1.8563468,-0.17178509,2.727969,-1.0741725,-4.4418197,-2.5673168,-0.39154828,0.72678757,-5.5917096,-3.4484575,-3.7751977,0.017730383,0.8586687,-1.9924809,0.54749036,1.1563903,-0.32143033,-0.27954546,2.9268806,-1.1346167,5.0004354,3.4811018,-0.3782813,-0.69321066,-0.28173268,-1.2294981,2.699334,-1.257205,-0.8149772,-1.3891554,-2.1120648,1.7569433,5.6849446,0.34206545,1.1048169,-2.6555638,-0.98214364,0.93223155,0.53542316,1.4143581,1.2977759,0.95579463,-2.5066912,1.3440118,-2.2919755,-0.17269555,1.5820239,1.3738588,-1.2235068,0.46381798,3.3809402,2.1569753,-3.758401,-2.6731818,-0.91033465,2.0196555,0.47043195,0.6328219,1.3665098,-0.37816435,-2.672449,0.92930675,0.95166874,-1.098774,-1.3128147,-1.3239944,-0.5652977,-2.735669,0.6429387,-1.7874182,2.0434773,1.5417,0.5117848,-0.40268248,0.31918827,-1.9786708,0.61464393,-1.9374207,1.5287714,-1.3690399,1.9337703,0.80606335,0.47531208,-2.0632136,-2.9485962,-0.7564503,-2.3498056,3.4353058,-3.163651,-1.9283139,-0.89439213,0.048536204,-1.0960635,0.20217882,-3.3555925,-2.9166744,1.1872458,2.4871252,1.711212,-0.18109211,0.08638087,-1.1576657,1.3591322,1.7894084,-2.3624876,3.9634032,1.1834768,0.11351111,2.0644295,-2.296232,0.39476776,-0.3271857,-3.9769728,1.7600675,0.37609288,0.34327304,1.1387101,-1.1438413,-0.45548368,0.78236276,1.9604208,-0.43313372,-0.054916445,-3.3788583,-1.5023856,2.479599,-1.7194598,-0.31832835,-2.8962195,-2.13326,1.0666656,-2.4170318,0.15089914,2.7368717,-0.06931307,-2.1777556,-1.151978,-1.2250758,1.9160429,-0.9183381,-1.8899078,2.1294205,1.836647,0.6093339,1.1781955,-4.4287324,1.4873953,-2.4761257,2.068741,-2.2092843,2.1680064,3.320807,2.1715822,-1.9257966,-1.5364821,1.1431336,-0.8711086,0.45417178,0.37844005,-0.743714,0.8652834,1.1837426,-0.83259356,0.49076667,-0.1330272,-1.184825,-1.6994824,1.3316717,-0.4624701,-1.2255185,-1.0553526,-0.38163435,-3.2162056,1.9981852,-0.4407814,-0.9574691,-1.710105,0.5746892,-0.7840852,-1.6509701,1.9409145,0.9029115,-0.90600276,2.999917,0.019596534,-0.6444226,0.7265752,-0.3830003,-2.3777597,0.42941132,-1.6979623
C3L-04495,-1.8327875,-2.6728678,-0.9325147,0.80668336,1.5341885,1.671452,1.6231625,-0.49359128,4.0461392,-1.0841575,2.5947304,-2.4617982,0.42778298,2.8740907,-4.8219237,2.4710493,-1.1346834,-2.5314722,2.6680453,-0.8697052,-0.17420913,-0.7102577,-0.11049536,-0.5844143,-0.09488904,-0.99333936,1.4600226,3.568784,-2.3450246,0.08792754,-2.216283,1.1869785,2.9632432,0.03471765,0.590821,-3.2165024,0.731143,-1.1091758,-2.1440768,0.8741351,-2.140403,3.229377,-1.601315,-1.0195869,-0.81888294,3.0782256,-3.1790984,0.93094295,-0.84103376,1.4426786,-2.632885,0.2888677,0.93745357,3.2266939,-2.5904937,0.12109582,-0.5548706,-0.55367225,2.4016123,-0.705646,0.07133385,-1.2489581,-1.9914129,-3.2486613,-1.061208,-1.926111,-0.0024297745,3.1291876,-1.1856062,-4.547654,-2.7576659,-0.5870657,1.144358,-5.35319,-3.1560857,-3.6649826,0.04179712,0.5005534,-2.0378082,0.22671215,1.1257433,-0.25652286,-0.04202576,2.7855203,-1.0662432,5.216508,3.6334007,-0.37354696,-0.9515222,-0.29047987,-1.1575607,2.752753,-1.282323,-0.89464957,-1.4214549,-1.9231584,1.7224935,5.7834496,0.24769288,1.1035274,-2.6061664,-1.1112039,0.9115683,0.4867866,1.6523232,1.2354333,0.90277135,-2.5234907,1.5605282,-2.155081,-0.23792379,1.5447074,1.4001122,-1.117852,0.1936952,3.31833,2.1755674,-3.8725343,-2.4518392,-0.7603382,2.0541508,0.6283941,0.55395246,1.6508516,0.0058188015,-2.3673282,1.216828,0.8868047,-1.2003577,-0.96867764,-1.5965815,-0.30999616,-2.6474543,0.3699593,-1.7603579,2.3381426,1.4914883,0.109614484,-0.22734259,0.5208946,-1.712404,0.78714824,-1.6945578,1.3707067,-1.2205554,1.6365393,0.79366446,0.36446822,-1.9698145,-2.6601188,-0.6308076,-2.6867204,3.4551997,-2.982922,-1.8352407,-0.65550876,0.15580909,-0.97815096,-0.055417337,-3.2171698,-3.0701876,0.9097827,2.6716115,1.693421,-0.16050097,0.26999965,-0.74163586,0.8968819,1.9539218,-2.1505957,4.021265,1.2354666,0.36052665,1.8885245,-2.3465872,0.25850135,-0.65683293,-4.159678,2.023289,0.10333293,0.4202538,1.015832,-1.0863471,-0.63928926,0.90378904,2.0557437,-0.687882,-0.17525479,-3.3803203,-1.2245473,2.4747248,-1.3233073,-0.21882936,-2.9673939,-2.3015435,1.3489146,-2.6629303,0.2923016,2.5443406,-0.16105342,-2.2653325,-1.1632003,-1.1232995,1.7397009,-0.7138016,-2.0794983,2.2063534,1.9378755,0.5785901,1.080269,-4.4632387,1.4710261,-2.2855396,1.9667085,-2.1328497,2.082996,3.3586774,2.2555888,-2.0997398,-1.5321373,1.3913244,-0.58838063,0.276564,0.27011037,-0.58312964,0.7331228,1.4222761,-1.3993824,0.2958182,0.24469191,-1.1004187,-1.8614968,1.143675,-0.6614378,-1.8749617,-1.2766173,-0.87626296,-3.2224798,2.1304345,-0.71646196,-1.1244779,-1.8606455,0.3456749,-0.67566466,-1.6735259,1.8824275,0.7818942,-0.98193944,3.1157756,0.4655322,-0.6365105,1.2263912,-0.16857374,-2.3024085,0.32641265,-1.8408902
C3N-04284,-1.7646954,-3.0959854,-0.6341265,0.7172598,1.6358716,1.7167062,1.7351012,-0.7307941,3.5406344,-1.3492558,2.7976763,-2.2727787,0.72292984,3.2813575,-4.7532425,2.2001035,-1.1609664,-2.8818424,2.6555943,-0.5260555,0.06387481,-0.5904824,-0.17876448,-0.68161625,-0.009212484,-0.6353888,1.5930363,2.9995313,-2.3906505,0.23220596,-1.9152997,0.9289774,3.3582242,-0.336383,0.3206633,-3.2174551,0.7531657,-1.2531093,-1.6847327,0.88917094,-1.9887629,3.0858877,-1.6261345,-1.5735556,-0.93427086,2.787712,-3.2623568,1.3467199,-1.1122854,1.2284458,-2.561749,0.48826957,0.7582466,3.494269,-2.9524677,-0.03002331,-0.60331345,-0.31189424,2.2560594,-0.7239721,-0.230366,-1.2415735,-1.7398816,-3.1617997,-1.2009811,-1.8365747,-0.015005852,3.2716606,-0.90897495,-4.4103756,-2.3440893,-0.5611451,0.5649229,-5.622739,-3.192913,-3.5067282,-0.10617547,0.5739205,-1.7974731,0.55588394,1.2576908,-0.1926519,0.027280375,2.358309,-1.0760062,5.450549,3.1424348,-0.17611732,-0.79100496,-0.2842332,-1.3355021,2.7343175,-1.4186088,-0.8396295,-1.1796852,-1.9764285,1.3907964,5.7989945,0.030709079,0.9880188,-2.2538264,-1.3698635,0.6502509,0.531933,1.4815627,1.4511571,0.8397865,-2.3646348,1.7274262,-2.1283033,-0.28979552,1.7417235,1.5925038,-1.1153058,0.12431754,2.9489496,2.4340925,-3.7141986,-2.3224475,-0.90473586,2.2786322,0.39547807,0.9166165,1.6173835,-0.1321871,-1.8936232,1.0151881,0.91429156,-1.2037724,-1.0003916,-1.7592463,-0.27265477,-2.975921,0.9661982,-2.2627833,2.254948,1.5519413,0.6544016,0.3858973,0.5610607,-1.7736359,0.74452096,-1.8385559,1.684357,-1.0573872,1.993141,0.97793746,0.8079431,-2.0395544,-2.6684957,-0.37028688,-2.3608887,3.2347019,-3.064503,-2.082745,-1.038415,0.38401774,-0.94392484,0.5117957,-3.6948748,-3.357634,1.2993017,2.6077998,1.5534633,-0.41043752,0.11189977,-0.8486634,0.6191356,1.2621285,-2.2704618,4.144612,1.3560554,0.58843076,1.7253808,-2.0731642,0.22671773,-0.33223403,-4.1236186,1.7387987,0.23280331,0.36903292,1.4808865,-1.1096634,-0.28032073,0.8795735,2.139753,-0.60277313,0.047119558,-3.0591023,-1.2111251,3.0988688,-1.7297632,-0.16192918,-2.7526884,-2.518082,0.9383481,-2.8059456,0.050076183,2.7465825,-0.34791747,-2.4011183,-1.4695351,-1.431008,1.3398321,-0.5625751,-2.1847875,2.015362,1.8417153,0.6394671,1.1233711,-4.375707,0.7206519,-2.2804868,1.8280095,-2.2201326,2.1779432,3.2481828,2.0414813,-1.8553343,-1.3117123,1.4451056,-0.6201814,0.79587984,0.36337915,-0.17907625,0.59505457,0.95430464,-1.7621088,0.5774842,0.045785893,-1.0870746,-1.9506234,1.2879678,-0.9213265,-1.745809,-0.90347004,-0.7632945,-3.4110734,2.222085,-0.70943093,-1.476817,-1.4166062,0.3633351,-0.8893101,-1.9118761,1.7711112,0.99722785,-1.0149313,3.234703,0.69250685,-0.8199083,0.8393623,-0.2916773,-2.2944427,0.5830885,-2.000896
C3N-00957,-1.7870532,-2.919853,-0.7837079,1.0612713,1.5265498,1.7209572,1.850556,-0.38328603,3.5418417,-0.5514525,2.5278213,-2.4909968,0.4021119,3.2601676,-4.793505,2.4162755,-1.1209273,-2.088005,3.2035465,-0.535651,0.08007054,-0.18111742,0.37263757,-0.5223907,0.43838778,-0.5828612,1.6046574,3.2488925,-2.3688369,-0.34290203,-1.9105772,1.12172,2.8243878,0.44675675,0.697842,-2.7456527,0.32450965,-1.158605,-2.1146822,0.7584643,-1.6269419,3.7076015,-1.339045,-1.3365778,-0.5505956,3.402587,-3.6450155,1.1401517,-1.0537516,0.99960065,-2.4471908,0.20142396,0.6695681,3.2094839,-2.4558406,-0.3109388,-0.6974771,-0.42097443,2.202723,-0.7631551,0.15978193,-1.5071725,-1.674188,-2.431231,-0.96693075,-1.8356053,-0.3038915,2.849237,-1.0397447,-4.666567,-2.667399,-0.29894873,0.9219757,-5.2604604,-3.4874282,-3.596493,-0.19891699,0.7100757,-1.3697528,0.01925092,0.6718327,-0.24462321,0.41961586,2.8927453,-1.2371159,4.8145,3.4070213,-0.3049463,-0.8069669,-0.24980234,-1.1062382,2.5507996,-1.5936542,-0.46882033,-1.2869389,-1.7170968,1.9979731,5.39162,0.25375858,0.837036,-2.1346812,-1.0419998,1.1233064,0.60585356,1.3982327,1.2744815,0.96330255,-3.056524,1.2264609,-2.1003313,-0.0044133365,1.1050436,1.5897468,-1.0120311,0.5221659,3.1847763,2.2662547,-3.4217443,-2.4497993,-1.1854799,1.6147012,0.84938496,0.6818918,1.8334488,-0.24876589,-2.430546,1.1595887,1.0428753,-1.0464796,-1.2296197,-1.7207108,-0.26500493,-2.7767289,0.12514916,-1.7318778,2.4530742,1.5022111,0.9270355,0.116169445,0.7025613,-1.8274267,1.0873188,-1.4715557,1.2927927,-1.3607695,1.8003628,0.87199116,0.5521286,-1.8248957,-2.6176112,-1.4707602,-2.3005214,3.1124928,-2.8305795,-2.202084,-0.8505891,0.22297192,-1.1963568,0.41722676,-3.2733772,-2.9134338,1.0317769,2.111402,1.6453404,-0.098485954,0.3487797,-0.528106,1.1541977,1.5370241,-2.1160386,4.044159,1.1558787,0.23554567,1.8111626,-2.4847152,0.37176448,-0.5777291,-4.0498805,1.8590131,0.23932877,0.6385501,0.88296896,-1.144024,-0.33901322,1.4599501,1.5936025,-0.87553024,-0.27087414,-3.2812657,-1.224276,2.4240682,-1.3439711,-0.19336265,-3.2667015,-2.6536827,1.273632,-2.3645577,0.30332327,2.452577,-0.117943175,-2.1742725,-0.8783725,-1.0229843,1.5109764,-1.2298869,-1.9247667,1.8354436,1.5241731,0.40084824,1.2591887,-3.9044042,1.7671288,-2.1771507,2.2738326,-2.0694962,1.5967271,3.078866,2.0569987,-2.2817984,-1.1400688,1.1244099,-0.6480443,0.7978413,0.5412593,-0.5790322,0.90194577,1.4683332,-1.3035266,0.30518985,-0.1357086,-1.5012323,-1.690648,1.132332,-0.69494385,-1.0442187,-0.7955258,-0.6419671,-3.3023813,2.3199852,-0.67460525,-0.86809236,-1.2809833,0.1140092,-0.7596722,-1.8022584,1.7755034,1.1838685,-0.8829572,3.0628757,0.70791835,-0.9331842,0.9064571,-0.21642287,-2.2524993,0.016460964,-2.0483751
C3L-03395,-1.8670565,-2.9651752,-0.708903,1.0007554,1.4948356,1.75234,1.6086137,-0.8252978,3.5508504,-0.85808593,2.560328,-2.198574,0.45449436,2.967486,-4.6026826,2.3738816,-1.1046048,-2.6759713,2.9225204,-0.68080354,-0.041430064,-0.25424054,-0.27313107,-0.6330583,0.015676439,-0.751684,1.447435,3.2010498,-2.0819416,-0.323087,-2.2891047,1.1334872,2.9688702,0.16913638,0.48883575,-2.873897,0.53175324,-1.2186184,-2.2487926,0.7371425,-1.9911585,3.0476446,-1.8884081,-1.1883426,-0.89347667,3.0236018,-3.5408876,0.79803354,-1.2186601,1.1558284,-2.8286986,0.14466375,0.95824033,3.25436,-2.6869407,0.084057555,-0.6635907,-0.47117516,2.4848015,-0.8057961,0.15046234,-1.536253,-1.983431,-2.8960288,-1.2658497,-1.694071,-0.14028475,2.6999042,-1.3374413,-4.301643,-2.3653884,-0.88739914,0.45719767,-5.573179,-2.968929,-3.7272298,-0.01206438,0.7695812,-1.7972742,0.43348843,0.83780426,-0.37333733,-0.06308567,2.9252326,-1.0362375,5.080485,3.5099876,-0.6320956,-0.4268389,-0.51313317,-1.1683898,2.4658365,-1.2523218,-1.098767,-1.5587741,-2.0894449,1.8267465,5.762639,0.017157197,1.4028654,-2.5831144,-1.087612,1.3191589,0.29178542,1.2739598,1.3979329,0.9045178,-2.5494647,1.3503532,-2.1559663,-0.10745114,1.2968211,1.4050845,-1.1840609,0.53189063,3.2691598,2.1519275,-3.9210887,-2.5395277,-0.90960956,2.181319,0.7733515,0.7683163,1.4972185,-0.12584575,-2.3624437,0.69835657,1.1763256,-0.879739,-1.0661131,-1.4222791,-0.47120965,-2.5093853,0.4444661,-1.7094939,2.2062676,1.7157614,0.43749985,-0.1263997,1.1053424,-1.8702661,0.7637855,-1.9736137,1.0392462,-1.3578358,1.4737706,1.1922116,0.621273,-1.7928559,-2.4761252,-0.86601865,-2.3282635,3.2084227,-2.9729166,-2.1067355,-0.7746391,-0.048617933,-1.0481123,-0.13630971,-3.3509135,-3.2971497,1.2244506,2.4760144,1.5187905,-0.077751845,0.14229847,-0.88699895,1.0192112,1.7158184,-2.2139714,4.1213307,1.38633,0.32948357,2.0603354,-2.1147676,0.5434522,-0.6500273,-3.962313,1.7752576,0.13229033,0.20584138,1.1239929,-0.7867856,-0.3559248,0.8361079,1.9352318,-0.8365045,-0.15297043,-3.5160654,-1.1849161,2.51115,-1.2845793,-0.27985382,-2.8971426,-2.5201263,0.99576396,-2.3363333,0.24396726,2.4198127,-0.3550428,-2.1815467,-0.91907424,-0.9912174,1.8190827,-0.8715955,-2.007804,2.3945591,2.1566653,0.5946645,1.1137158,-3.9620724,1.2131915,-2.4349144,2.1472492,-2.1382184,1.8834856,3.507355,2.5018244,-1.8198402,-1.423953,1.3647721,-0.67639834,0.59122247,0.27822107,-0.44977948,0.7015929,1.4796553,-1.3441203,0.401999,0.043895666,-1.1796724,-1.6566427,1.4161788,-0.60759383,-1.4437118,-1.0681401,-0.5618114,-3.0930765,2.034855,-0.6568836,-1.1130245,-1.632158,0.47725898,-0.9485277,-1.593992,2.0463257,0.97587955,-1.1116356,3.2799854,0.24405552,-0.69402313,0.8820183,-0.15969689,-2.3158917,0.1499542,-1.9658968
C3N-00303,-1.877937,-2.9989064,-0.96290463,0.8922628,1.5344373,2.1063087,2.138717,-0.7129421,3.2414,-0.758924,2.5580454,-2.4031115,0.17382988,2.369597,-5.0440254,2.2059414,-1.6028632,-2.4701436,3.0187485,-0.38399687,0.59610987,-0.25114366,0.3445335,-0.3779657,0.05440409,-1.0458009,1.3652467,3.4131894,-2.1343272,-0.48526537,-2.2734854,1.0932993,2.699482,0.40663466,0.77402145,-2.7428322,0.62906045,-1.0167998,-2.2048228,1.2454468,-1.8150218,3.4965174,-1.5115243,-1.1489712,-1.1018548,3.1454468,-3.8538804,1.4869072,-0.90874404,0.9987612,-2.4512544,0.66714144,0.7700105,3.2907336,-2.3149602,-0.12748148,-0.6970967,-0.60769075,2.347375,-0.61914164,0.104696326,-1.4750421,-1.6035227,-2.604844,-0.9426491,-1.9980446,-0.29111874,2.320592,-0.9966448,-4.197082,-2.8716307,-0.4096015,0.44881365,-5.359697,-3.439218,-3.305722,-0.06987756,0.6981253,-1.5627654,-0.026652047,0.2642436,-0.43255475,0.2544111,2.7210479,-1.0050972,4.4034758,3.5997713,0.09928226,-0.5224518,-0.58370525,-0.8569526,2.9062085,-1.6247599,-0.56406283,-1.8446362,-1.5898954,1.6144662,5.4460382,0.17140576,1.0245987,-2.0616388,-1.3944468,1.091816,0.37203133,1.4905432,1.2898833,1.235421,-2.9035847,0.9308137,-2.034684,-0.32736686,1.5088365,1.3476554,-1.3172718,0.39678508,2.9291785,2.2501643,-3.9362984,-2.0165768,-1.1184006,1.7105283,0.7461434,0.87933296,1.9800283,0.30655214,-2.4516556,0.89274263,1.3479995,-0.77135307,-1.149481,-1.8152459,-0.22637516,-2.4092846,-0.033651188,-1.3426044,2.2625363,1.4417269,0.50323725,0.16367318,1.0993251,-1.7022787,0.7083089,-1.3936739,1.5060056,-1.3952205,2.0606346,0.8635776,0.7845902,-1.8896859,-2.6653497,-1.3137684,-2.4905794,3.2962747,-3.0119534,-2.3835297,-1.0438737,0.22398984,-0.9914428,-0.056164995,-3.0674446,-3.0114563,1.0011069,1.949847,1.2728845,0.2383577,0.64256155,-0.63289464,0.9232367,1.5258207,-2.2269602,3.9645548,0.88249636,0.1512653,1.6088805,-2.206058,0.5392879,-0.6521481,-3.7151349,1.9863131,0.15573724,0.5622927,0.7313337,-1.1347882,-0.23363616,1.2578484,1.4835992,-1.1985486,-0.51142025,-3.4699783,-1.4527229,2.5723307,-1.2576078,-0.1421245,-3.6716845,-2.620579,1.3293953,-2.4292994,0.2981732,1.9541028,-0.13111112,-2.1549911,-0.5866791,-0.90500146,1.671422,-1.1535933,-1.9507421,1.8979511,2.3062022,0.6289783,1.3662448,-3.6599557,1.785271,-1.817156,2.2048976,-2.5191247,1.286628,3.2817671,2.6127462,-2.207641,-0.9106114,0.84894395,-0.66770387,0.629741,0.7553295,-0.8046544,0.9358107,1.3786641,-1.6025628,0.21925105,0.29603732,-1.6620944,-1.4909033,1.1325465,-0.61822164,-1.1384128,-0.8438642,-0.49036926,-3.9776058,1.6934572,-0.3123137,-1.2246445,-1.8307651,0.5712125,-0.8024458,-1.5529659,2.036388,1.3286673,-0.4217415,3.2979019,0.5100254,-0.8489551,1.1442312,-0.201896,-2.2393188,-0.054399624,-1.5136417
C3N-00513,-2.1045494,-2.9793382,-0.7631328,1.1411741,1.6272042,1.4255437,1.5006804,-0.8845615,3.850213,-1.1195853,2.445684,-2.3595424,0.45392898,3.0534248,-4.8852577,2.147766,-1.2738004,-2.6563826,2.9227512,-0.8005647,0.029509868,-0.5763246,-0.013420043,-0.8067815,0.04082941,-1.2021277,1.5471408,3.2343733,-2.0888593,-0.22771789,-2.0168028,0.8559051,3.131127,0.36875176,0.5514207,-2.9473963,0.5822125,-1.2526236,-2.2810202,0.77119356,-2.1712716,3.13874,-1.8307787,-1.0878357,-0.9755192,2.5503302,-3.4725194,0.996142,-1.0845727,1.0955476,-2.775759,0.3036378,0.792874,3.3356438,-2.7534633,-0.033249844,-0.52352184,-0.5914545,2.3301413,-0.6059242,0.32646784,-1.4193069,-1.8135599,-2.8868878,-1.3156446,-1.7772995,-0.058837097,2.8406255,-1.0408196,-4.430686,-2.5474951,-0.66249275,0.53049976,-5.4627285,-3.035929,-3.7083466,-0.029798036,0.4592361,-1.9873623,0.41835672,1.239119,-0.3953297,-0.25772807,2.7180326,-1.1889191,4.9777093,3.4838512,-0.5001527,-0.81896764,-0.41969857,-0.87663186,2.6645708,-1.2546849,-0.98489416,-1.7531512,-2.05419,1.4357799,5.778682,-0.05662233,1.2242337,-2.480962,-1.0952852,1.079841,0.54715866,1.5593256,1.5732967,0.8743222,-2.5469916,1.5025141,-2.2216804,-0.34655786,1.4730705,1.5220569,-0.93708116,0.404025,3.2119303,2.146548,-3.8647277,-2.4265804,-0.93026745,1.9799303,0.42890742,0.6716511,1.4750392,0.076098815,-2.5716536,0.8471144,1.1128426,-1.200498,-1.2784587,-1.3624641,-0.48565543,-2.6093676,0.6316374,-2.0672884,2.1393967,1.4665557,0.347756,-0.14646411,0.613567,-1.6144532,0.855349,-1.7568859,1.3615195,-1.364464,1.82213,0.94330436,0.42519322,-1.7032,-2.6126583,-0.8183162,-2.464985,3.2025824,-3.121852,-2.105904,-1.0536665,0.273852,-0.91009027,0.15376186,-3.2050574,-3.082687,1.0137211,2.3234026,1.5919691,-0.17408802,0.2591593,-0.78760386,1.056254,1.8684444,-2.0233245,4.177828,1.2460921,0.04491356,1.8821968,-2.2167304,0.5171786,-0.31499916,-3.911248,1.9287585,0.339374,0.22084513,0.9894182,-0.7740304,-0.7136783,0.9543867,2.1173544,-0.6767988,0.050522804,-3.5294325,-1.1087427,2.6291661,-1.6216655,-0.22607411,-2.8901303,-2.4502473,1.105851,-2.4664938,0.11201439,2.7683983,-0.20219108,-2.4972968,-1.0555053,-1.2742095,1.9266932,-0.9727917,-2.0990818,2.2723703,1.9622921,0.5887381,1.114585,-4.1769533,1.2075354,-2.1924589,1.9914701,-2.245696,2.10602,3.3147511,2.669581,-2.069225,-1.086292,1.4267098,-0.63155293,0.8031926,0.1971627,-0.4370269,0.639848,1.5006312,-1.0161754,0.34531987,-0.08452837,-1.206263,-1.7978525,1.1647927,-0.7477617,-1.4877105,-0.8302851,-0.76045096,-3.3243756,1.9328064,-0.55327886,-1.1763611,-1.4176435,0.37077537,-1.0074633,-1.877584,1.6476932,0.95574117,-1.112341,3.298509,0.21908301,-0.57447976,1.0984225,-0.2571171,-2.0623653,0.18751876,-1.6842076
C3N-01166,-1.8235099,-2.7225351,-0.8384927,0.90571547,1.5320743,1.6054099,1.7006297,-0.7019928,3.8037076,-0.91197383,2.5904725,-2.33341,0.6853531,3.1282432,-4.801488,2.1436024,-1.2217299,-2.5698607,2.9624462,-0.4264355,-0.019437112,-0.443317,0.052502275,-0.6516608,0.17218032,-0.82580304,1.6776061,3.1593738,-2.276775,-0.25815144,-2.1519578,1.1281478,3.0955467,0.087665625,0.7023951,-3.035597,0.60861313,-1.3502752,-2.0548413,0.97555375,-2.0924845,3.518144,-1.5510685,-1.2848314,-0.9555092,2.9542553,-3.3465753,1.0766243,-1.0962789,1.2903855,-2.7549403,0.2479852,0.91885525,3.1369731,-2.7410831,-0.08571738,-0.74438155,-0.5072339,2.1499937,-0.58065283,0.09471479,-1.566983,-1.9082187,-2.9456878,-1.0672002,-1.9761837,-0.26638934,3.1914601,-1.1268264,-4.6249814,-2.7655652,-0.92280763,0.6546365,-5.3040743,-3.0939026,-3.6907258,-0.34426454,0.6898605,-1.7525494,0.52374774,0.80844194,-0.42699674,-0.085099936,3.083472,-0.9096919,4.7138343,3.4226513,-0.34438875,-0.7616947,-0.21582188,-0.840404,2.7887707,-1.3415207,-0.7824364,-1.4354444,-2.0959754,1.9171842,5.6370625,-0.035822112,1.3558925,-2.4224648,-1.0727694,1.0196006,0.34309027,1.5317847,1.2714748,1.0778368,-2.732813,1.4050765,-2.3040922,-0.2480994,1.4189968,1.3994901,-0.8739227,0.36581343,3.3267941,2.2144654,-3.7041626,-2.312537,-0.87292576,1.9159935,0.5992063,0.60486525,1.1811236,-0.12148585,-2.587208,0.96481156,1.0026853,-1.1151725,-1.2438831,-1.4802886,-0.43924326,-2.4028678,0.4946549,-1.6903878,2.2220848,1.6023474,0.556134,-0.15027629,0.7321876,-1.7722979,0.61631984,-1.7288383,1.4583584,-1.2789396,1.5587686,0.6703099,0.5207034,-2.01024,-2.9962313,-0.76642406,-2.330491,3.3400419,-3.0329902,-2.09175,-0.54999155,0.106670655,-1.1848116,0.27137733,-3.4660578,-3.2555227,1.176057,2.3131359,1.6090311,-0.13674313,0.28995413,-0.8427354,0.8912603,1.8720161,-2.2540727,3.7078888,1.4086494,0.24058919,2.0096364,-2.2944179,0.29782635,-0.6143101,-4.1718087,1.806469,0.33838612,0.535712,1.0936768,-1.185304,-0.4625359,1.1073015,1.8216287,-0.7640556,-0.19777308,-3.3195014,-1.1740828,2.656692,-1.5595945,-0.2437303,-2.940343,-2.4508822,1.2882131,-2.5438902,0.27971718,2.6800296,-0.14298002,-2.2045794,-1.0132804,-0.97566545,1.6699011,-1.0327587,-2.0397327,2.051959,2.0296524,0.33185893,0.9039627,-4.0478926,1.5056365,-2.577204,2.0858178,-2.291469,1.9616076,3.4404967,2.1271603,-2.0475059,-1.2958795,1.2098695,-0.6373019,0.35449833,0.37208423,-0.53871983,0.89941317,1.4154956,-1.2834063,0.4397308,-0.10657031,-1.3134016,-1.7057014,1.357027,-0.5473729,-1.2209548,-1.0406404,-0.6765594,-3.4006164,2.006276,-0.64637977,-0.9948667,-1.7638048,-0.016580096,-0.7500159,-1.5546881,1.8310329,1.0885751,-1.1030376,2.8981636,0.5093462,-0.7621318,0.9171376,-0.33230034,-2.2829218,0.5326335,-2.0329792
C3N-01382,-1.8732105,-3.085574,-0.98314893,0.97808486,1.5090189,1.6475344,1.7006075,-0.5189447,3.6466944,-0.74081045,2.4831715,-2.462048,0.28981504,3.126813,-4.740329,2.5605412,-1.0244638,-2.5980585,2.781603,-0.5852667,0.21248637,-0.59379435,-0.09845923,-0.74646115,-0.10239466,-0.73332185,1.6345387,3.3192182,-2.0902367,-0.21760958,-2.1005578,1.2318221,3.0458844,0.32661584,0.85130304,-3.118279,0.62190956,-1.1905138,-2.272209,0.79467285,-2.1114364,3.523056,-1.542235,-1.04227,-0.8291722,2.892191,-3.3376951,0.96899086,-0.9627519,1.2632596,-2.842373,0.16246574,1.0143352,3.359994,-2.8801837,-0.1575111,-0.6368153,-0.49245477,2.3761594,-0.96090937,0.06522796,-1.4084626,-2.1034963,-2.9085019,-1.1425068,-2.1479506,-0.3522261,3.0740588,-1.0659691,-4.564925,-2.7328157,-0.6483269,0.55826086,-5.3645034,-3.1403944,-3.681591,-0.13488136,0.48020908,-1.8960727,0.24617697,0.87718225,-0.20480624,-0.101117566,2.8287187,-1.1313486,4.883885,3.3944876,-0.578251,-0.9099483,-0.27016592,-1.149566,2.6025064,-1.2750704,-0.5507866,-1.2937872,-1.9459149,1.7872554,5.6447797,0.13138723,0.9713022,-2.3563273,-1.014836,1.0885553,0.38179693,1.4111084,1.2641163,1.106355,-2.7668076,1.635828,-2.242362,-0.32013828,1.3091117,1.3101153,-1.093721,0.48195308,3.163381,2.195292,-3.5213127,-2.4614575,-0.61517197,1.9508586,0.5056438,0.83457744,1.4371535,-0.08004108,-2.5415285,0.8265177,1.3512806,-0.9587478,-1.0044475,-1.5803542,-0.4122799,-2.7741969,0.7709927,-1.84271,2.3250933,1.3642883,0.71326184,0.020284977,0.6744832,-1.550907,0.77697444,-1.8293096,1.4864392,-1.2959316,1.6953354,0.9301698,0.39394447,-1.8173763,-2.418034,-0.7202013,-2.4127269,3.600259,-3.1780963,-1.9193861,-0.91284144,0.27229646,-1.2895823,0.19405466,-3.3677382,-3.0365596,1.2080027,2.4233432,1.715596,-0.24931157,0.09551097,-0.849953,0.9853347,1.7184235,-2.2399743,4.0194697,1.5542406,-0.023612648,2.1528177,-2.4817755,0.46333984,-0.47501275,-4.15731,1.8011633,0.31775633,0.22563595,0.96460116,-0.972213,-0.33979195,0.90411675,2.0157309,-0.77035856,-0.3025628,-3.418845,-1.2648294,2.8761542,-1.5356786,-0.26926377,-2.9228165,-2.4991734,1.1716946,-2.4202743,0.071334936,2.4238672,-0.17186148,-2.2490764,-0.90923613,-1.395738,1.8942579,-1.0467786,-2.102551,2.079859,2.018105,0.68805295,1.2334634,-4.4367285,1.3968213,-2.3574038,2.14533,-2.1674395,2.0537872,3.1540697,2.1701899,-1.9572535,-1.5798703,1.2620367,-0.7184339,0.4127438,0.37072828,-0.4109857,0.73500055,1.4492197,-1.12608,0.82075864,-0.13288589,-0.9696994,-1.7318338,1.317661,-0.88634104,-1.5758389,-1.0520555,-0.5128512,-3.091889,1.8972625,-0.778421,-1.1434103,-1.6208143,0.018577654,-0.8897236,-1.5361489,1.8318841,0.6358776,-1.1621511,3.0080664,0.4099179,-0.78607595,0.94348747,-0.19144002,-2.3815427,0.3907489,-1.7713097
C3N-01011,-1.9182196,-2.8975894,-0.8600007,1.0445241,1.634383,1.8456733,1.5540261,-0.674591,3.765146,-1.3626347,2.6369677,-2.5955596,0.52857715,3.0273345,-4.9715567,2.4329422,-1.2775863,-2.658802,2.6103363,-0.49584156,0.25126222,-0.4872162,0.07485523,-0.65025365,0.3268054,-0.8329632,1.6605041,3.3823721,-2.0713074,-0.25306424,-2.1045814,1.4904065,2.8160424,0.16660796,0.76788986,-3.0611665,0.8070449,-1.3382835,-2.2114186,0.67508775,-2.1248043,3.3038309,-1.5691696,-1.1829022,-0.69568014,2.613234,-3.4172692,1.1121266,-1.3315839,1.195667,-2.9241238,0.43363914,0.8464104,3.0678494,-2.7356226,-0.31367987,-0.7244429,-0.7087199,2.2924027,-0.9539792,0.092809506,-1.3063782,-1.8447286,-3.0022528,-1.1215501,-1.6478891,-0.15324622,2.8552144,-0.9040157,-4.522454,-2.7060988,-0.6961709,0.7560885,-5.6245055,-2.9805577,-3.8194969,-0.2720238,0.6382672,-1.8375762,0.3778318,0.796198,-0.17961581,-0.14698596,2.8304029,-1.2045542,4.7324214,3.3804755,-0.36024356,-0.835194,-0.4811279,-1.111151,2.8661513,-1.1487666,-0.8957018,-1.6963137,-2.091846,1.6466699,5.828406,0.25176013,0.99175626,-2.3699675,-1.1494948,0.80219245,0.25844187,1.5602376,1.3079555,1.1392188,-2.7040708,1.4175063,-2.3901277,-0.4451023,1.5718355,1.4355744,-0.7996745,0.07558257,3.2487566,2.3488486,-3.5519488,-2.6188536,-0.6705949,1.9586804,0.5233859,0.5408068,1.0950718,0.06853172,-2.532091,0.8798008,1.0690191,-1.3131063,-1.2548509,-1.4650397,-0.27748123,-2.860363,0.51247877,-1.7831647,2.2055042,1.3289107,0.55338687,-0.09535783,0.7783065,-1.7617383,0.6012957,-1.733169,1.2373098,-1.1436231,1.7255485,0.7357332,0.4659587,-2.073489,-2.7030249,-0.714296,-2.4739385,3.5937052,-3.2551494,-2.199761,-0.917762,0.36736602,-1.0015991,0.29659882,-3.2662644,-3.1281266,1.102909,2.176265,1.3768911,-0.31787634,0.12108906,-0.9215092,1.2010224,1.8258418,-2.2110167,4.0647907,1.4299309,0.22187041,2.1329463,-2.051359,0.3551913,-0.5485103,-3.8919828,1.7280616,0.2963392,0.42043275,1.1380771,-0.906623,-0.38757727,0.66992664,1.6432326,-0.42472422,-0.3163127,-3.4214096,-1.1399071,2.3672209,-1.3310494,-0.16955496,-3.1181,-2.5449843,1.4093876,-2.4190023,0.31489873,2.6675265,-0.08521929,-2.076046,-0.66712415,-1.0648531,1.7972004,-1.1588886,-2.2875762,2.4963555,1.7894932,0.605795,0.9372426,-4.1454906,1.3813246,-2.3248622,2.2095034,-2.2280653,2.0253181,3.50049,2.3017704,-1.7453269,-1.2744126,1.3854259,-0.5883815,0.73096615,0.5712572,-0.4213702,0.80259013,1.4485776,-1.3114755,0.2146847,-0.083112754,-1.1756479,-1.7931262,1.448747,-0.5754434,-1.5748817,-1.1420813,-0.4907021,-3.099281,1.981257,-0.4101776,-0.93439454,-1.8365874,0.46291655,-0.8123149,-2.0217834,1.8408307,0.88486296,-1.1681758,2.6924467,0.5315176,-0.57042223,0.84511966,-0.3133837,-2.500965,0.043786734,-1.6566315
C3L-04473,-1.8996279,-2.8913586,-1.0528908,1.1287677,1.5134587,1.5955977,1.5564778,-0.83580333,3.8580315,-1.0765449,2.775253,-2.854349,0.24624236,2.8929126,-4.8364167,2.2426157,-1.1686815,-2.5456553,2.6702912,-0.5219812,0.099495284,-0.67453307,-0.06731062,-0.69402164,0.07644957,-0.8013202,1.619011,3.2548025,-2.5263813,-0.19630024,-1.8027781,1.3661038,3.1853123,0.13559194,0.89114064,-3.0806637,0.58736813,-0.846533,-2.0367813,1.1064562,-2.3044071,3.1988971,-1.4805005,-0.93048185,-0.8283463,2.6468675,-3.4032893,1.1288979,-0.93259084,1.282593,-2.6469467,0.1724756,0.78905565,3.3752406,-2.6424816,0.08122456,-0.50026923,-0.6128471,2.1499214,-0.92821354,0.17321177,-1.429,-2.0506783,-2.9864724,-1.0480744,-1.9107852,-0.21608216,2.7871974,-0.98874074,-4.4846654,-2.8495262,-0.72137094,0.5437997,-5.633559,-3.037659,-3.6348429,-0.3099084,0.7223812,-1.87375,0.32403618,1.1864978,-0.43531495,-0.19275954,3.026906,-1.3212273,5.162264,3.5134819,-0.3457811,-0.8058017,-0.5590675,-0.9871114,2.610178,-1.1546367,-0.95640093,-1.7465584,-2.017003,1.8434329,5.770603,0.357525,1.1295683,-2.5913086,-1.1285968,0.87011546,0.31807524,1.3290769,1.389603,0.86991155,-2.4599628,1.3690566,-2.3827097,-0.2167834,1.5610507,1.5807358,-1.0423669,0.3365433,3.576245,2.1478934,-4.0164948,-2.3121696,-0.88311595,1.8035254,0.5916684,0.53382456,0.96947,-0.29112482,-2.6312027,0.9855755,0.972722,-1.031515,-1.1263477,-1.3299634,-0.18514659,-2.476615,0.34791613,-1.6465325,2.1870086,1.4586293,0.42021346,-0.24599811,0.9443359,-1.9325339,0.68455064,-1.7328187,1.2667278,-1.1716936,1.8086032,1.1123055,0.42670396,-2.0495858,-2.7397432,-0.8306486,-2.4552634,3.206316,-3.0892043,-2.1968899,-0.86800563,-0.025807459,-1.1862303,-0.12398376,-3.0811405,-2.9237885,1.2851458,2.6260922,1.8210145,-0.38488623,0.023876665,-0.9854007,0.7254977,1.9282987,-2.091004,3.8261135,1.2402478,0.21235493,2.0092897,-2.071564,0.2784218,-0.38600472,-4.152885,1.762758,0.19200674,0.28484246,1.0849497,-1.0288155,-0.352506,0.93825185,2.0249977,-0.7219165,-0.20220949,-3.2012336,-1.5974295,2.638999,-1.5023481,-0.21776183,-3.0611541,-2.6028986,1.2188351,-2.436486,0.5194017,2.7137768,-0.1474387,-2.2721236,-1.0974689,-0.9937982,1.7963213,-1.1906132,-2.2068799,2.1339717,1.9818628,0.6031152,0.9946388,-4.0649886,1.2704548,-2.1746473,1.7994171,-2.016625,1.9921826,3.2605002,2.3240256,-1.9525228,-1.0994146,1.2782918,-0.5741485,0.67963165,0.4655418,-0.61463547,1.0086417,1.3041172,-1.1895691,0.5028185,0.010593391,-1.1591185,-1.7170156,1.1707283,-0.38327438,-1.5140216,-1.052851,-0.3813822,-3.1423478,1.9854586,-0.5138058,-0.8195305,-1.8186656,0.5131126,-0.864305,-1.9405246,1.943291,0.8154576,-1.0731428,2.9563868,0.29510668,-0.82172287,0.9012067,-0.27655315,-2.5400877,-0.09366224,-1.8017662
C3N-01997,-1.7511584,-3.0765078,-0.784045,0.96390384,1.5804851,1.6456851,1.6400273,-0.97154236,4.178661,-1.0822465,2.7410805,-2.2137759,0.5520497,2.9751728,-4.9392204,2.1044865,-1.272924,-2.4851081,3.1252282,-0.597126,0.14373629,-0.5302846,-0.1514893,-0.9195937,0.0956801,-0.5694049,1.722411,3.3169155,-2.2275062,-0.2525501,-2.0924757,1.1256782,2.973665,0.36878413,0.6372967,-3.0155265,0.3939618,-1.3821545,-1.9315536,0.78607315,-2.0998793,3.4014947,-1.744676,-1.2150174,-0.8492547,2.9824622,-3.6705713,0.9722984,-1.0905608,1.0996767,-2.6776552,0.21977697,0.82818043,3.1633308,-2.745417,0.03538754,-0.584386,-0.8721746,2.1654065,-0.89612645,-0.012937715,-1.4907118,-1.7976418,-2.7156532,-1.4352655,-1.5086008,-0.29069406,2.8315604,-1.3729604,-4.1490126,-2.563017,-0.6963872,0.50590485,-5.2377696,-3.0235732,-3.6971223,0.007942658,0.6542701,-1.9354209,0.33213544,0.78837395,-0.4175102,0.02594187,2.9666276,-1.1339198,4.7264223,3.534545,-0.40915993,-0.8736116,-0.36873445,-0.91653425,2.727542,-1.5488074,-1.0757611,-1.5941138,-1.8504498,1.6474137,5.5621204,0.0042888774,0.93632853,-2.2623653,-0.76692826,0.99545866,0.43008503,1.5908595,1.4462967,1.1156868,-2.7904704,1.6897174,-2.3723254,-0.2132114,1.4345956,1.6388375,-0.9597745,0.7001386,3.4006412,2.1876009,-3.6909041,-2.2566607,-0.89683986,1.9272453,0.48711687,0.6467909,1.4824661,0.09934224,-2.5355322,1.0738177,1.0951877,-1.0848433,-0.98648226,-1.5338743,-0.35019138,-2.5072694,0.6115876,-1.7771981,2.5070844,1.4813544,0.5472809,-0.102684334,0.37088707,-1.8899332,0.62429875,-1.8531647,1.2628292,-1.4078976,1.663929,0.90894186,0.7334806,-1.5864605,-2.2407293,-0.6528435,-2.4380274,3.2690802,-3.2559469,-2.020584,-0.7470524,0.2039405,-1.0693371,0.025831439,-3.37755,-3.4234815,1.3246217,2.639693,1.6178755,-0.2875728,0.15398388,-0.8076378,1.1911986,1.9173572,-2.122251,4.049399,1.4685125,-0.03545028,2.008891,-2.2730782,0.7337867,-0.5384947,-4.04427,1.8633132,0.1308065,0.35074523,0.7818216,-0.8136451,-0.31437647,1.095319,2.1582355,-0.71694607,-0.36039534,-3.5336592,-1.3128673,2.6949227,-1.4596713,-0.1028061,-2.9167447,-2.3747737,1.1816665,-2.6221669,0.20661736,2.4941196,0.005725974,-2.2604165,-0.99881244,-1.0179613,1.7854072,-1.1350077,-2.1902843,2.1713395,2.093383,0.79411006,1.1359547,-4.1031,1.5276679,-2.3553948,1.7161591,-1.9503164,2.1443918,3.213562,2.521581,-2.103672,-1.1233811,1.2537446,-0.7222456,0.38486904,0.46215916,-0.18756966,0.6721924,1.4937876,-1.280517,0.48986158,-0.2357795,-1.012861,-1.7308273,1.2008046,-0.4698213,-1.7854702,-0.9170236,-0.7225848,-3.376423,1.9433628,-0.7746803,-1.0205704,-1.5197294,0.4022944,-0.70161,-1.8542876,1.7793152,1.0517747,-0.98939633,3.0817723,0.40322205,-0.62327796,0.9467432,-0.23063143,-2.5581064,0.26515108,-1.5340091
C3L-00640,-1.6295034,-2.6644943,-1.1197575,1.153096,1.5222359,1.6152077,2.017771,-0.5188844,3.7128584,-0.8668435,2.514998,-2.4467788,0.36954618,2.7760758,-5.0081067,2.2400851,-1.466756,-2.4756808,2.8444471,-0.4604834,0.34862703,-0.3702709,0.16239364,-0.7914052,0.3815353,-0.876973,1.5699093,3.3519742,-1.9892663,-0.36362195,-2.2681272,1.2653385,2.8964987,-0.055004634,0.77083904,-3.146118,0.7429939,-1.3989763,-2.2107346,1.1453983,-1.5354842,3.3786967,-1.2228376,-1.2794288,-1.1619374,3.2110617,-3.780197,1.0329645,-1.2308627,1.0395641,-2.8011858,0.3387713,0.6499009,3.3126674,-2.6835802,-0.20893712,-0.7893158,-0.5043193,2.1375282,-1.1146344,0.12804754,-1.314773,-2.1962757,-2.712783,-0.6352042,-1.9870533,-0.3529739,3.096195,-1.1531839,-4.557698,-2.6660564,-0.39619687,0.7364006,-5.5038905,-3.4443278,-3.4131901,-0.03613958,0.66616064,-1.7729777,0.49042827,0.8392472,-0.14758019,0.15179682,3.02081,-1.1303746,4.7644315,3.6427898,-0.42496198,-0.86643624,-0.437475,-0.8196532,2.273,-1.1401846,-0.75879467,-1.3946253,-1.8766143,1.9649649,5.0898213,-0.065229006,0.76245433,-1.9234846,-1.0843542,1.0280936,0.4049665,1.5007256,1.3897938,0.94825834,-3.0910275,1.1307753,-2.2653763,-0.23243706,1.3997762,1.0613889,-1.0513154,0.47715923,2.7659755,2.1885378,-3.7452662,-2.254518,-1.0975966,1.9263245,1.1002244,0.85913825,1.7088008,-0.05980605,-2.6818395,0.7799663,1.124533,-0.85433763,-0.9831609,-1.7387581,-0.60061103,-2.3312976,0.3340372,-1.6676431,2.1970499,1.5311974,0.92917496,0.050251067,1.0415877,-1.5235014,0.9910171,-1.4443796,1.2425374,-1.2444482,1.4601822,0.41877696,0.6584874,-2.144749,-2.480343,-1.1837003,-2.177724,2.9166393,-3.204753,-1.9843241,-0.9862105,0.15121166,-1.0918038,0.23790254,-3.2161632,-2.718226,1.0197299,2.2770627,1.590405,-0.434296,0.24250595,-0.92329526,0.85837126,1.9121544,-1.9106597,4.137251,1.0157224,0.43546948,2.0474484,-2.5653732,0.7977106,-0.66896766,-4.206036,1.9971309,0.4244796,0.6365008,1.3013681,-1.2650845,-0.014471818,0.87886083,1.4149536,-0.5886773,-0.2520334,-3.2296655,-1.219814,2.5545228,-1.4814379,-0.15856852,-3.2745464,-2.1604476,1.3506697,-2.0983949,0.25060934,2.2276652,-0.4153395,-2.0835207,-0.75625587,-1.0623033,1.9168301,-0.9005277,-1.9450403,2.0033355,1.9635859,0.53577524,1.2031914,-3.6746924,1.6063943,-2.2674592,2.1686661,-2.299788,1.4795827,3.2620046,1.9845159,-2.0244439,-1.3170166,1.1699853,-0.33805493,0.678978,0.40339807,-0.4731793,0.8767734,1.5309315,-1.3588568,0.1131536,-0.032783903,-1.4795533,-1.9680538,1.2188114,-0.41695237,-1.3656646,-0.76920366,-0.37622488,-3.3957403,1.9026072,-0.59977484,-0.94709647,-1.5416596,0.08576873,-0.91376805,-1.764304,2.2106783,1.0568429,-0.7161192,3.087889,0.38580924,-0.86703455,1.0864272,-0.17300348,-2.5205798,0.038946185,-1.6622773
C3L-00189,-2.0352964,-2.6201417,-0.9456332,1.0373317,1.2789063,1.6465676,1.7684445,-0.52925336,3.704464,-0.9481539,2.4521003,-2.493977,0.37309295,2.762889,-4.9432106,2.5897963,-1.2845213,-2.4548101,2.8359578,-0.7811291,0.15306932,-0.512973,0.033626508,-0.7280179,0.11633508,-0.6932252,1.621384,3.5319579,-2.1740005,-0.46497124,-2.1015623,1.4441122,2.8308468,0.5362054,0.8902759,-2.959676,0.6985498,-1.0497332,-2.1230018,1.2273003,-2.0243342,3.529851,-1.7082398,-1.2624505,-0.6876204,3.1742265,-3.6583226,1.2072456,-1.135112,1.1478897,-3.0622478,0.44357955,1.1183093,3.2701516,-2.6381986,-0.22382383,-0.7347556,-0.58249587,2.1061528,-0.8594111,0.15160704,-1.5440505,-1.8440477,-2.552063,-1.0592122,-1.931087,-0.3870504,2.7731378,-1.353765,-4.6511407,-3.0889285,-0.72696614,0.85229397,-5.5593176,-3.2770422,-3.6609044,-0.2638901,0.9415384,-1.5886132,0.2568805,0.78380704,-0.51844925,-0.0022154187,3.1730154,-1.0091659,4.8449965,3.5161724,-0.46976906,-0.61706245,-0.7520973,-0.77635145,2.738041,-1.3068941,-0.95620894,-1.5416503,-1.9942149,2.0836787,5.6429996,0.35793155,1.001606,-2.471411,-1.0766832,1.1166513,0.4313234,1.3646969,1.2279689,0.9990936,-2.9865377,1.040777,-2.5704653,-0.25925726,1.0974827,1.4395542,-0.9124068,0.5441333,3.4594014,2.1165857,-3.4337196,-2.2299879,-1.2361047,2.0903494,0.8254546,0.5591801,1.4980366,0.15622483,-2.925039,1.0096624,1.1818562,-0.7905226,-0.94036007,-1.5921632,-0.33711818,-2.4979167,0.104364514,-1.3838937,2.3153567,1.5005709,0.4920376,-0.4521257,0.97532386,-1.7909329,0.77352965,-1.6209064,1.1644651,-1.3107859,1.7663203,0.8285094,0.46162596,-1.9479524,-2.7138178,-1.0459061,-2.2580884,3.1020024,-3.14949,-2.1007679,-0.6585139,0.214874,-0.95710367,-0.32850397,-3.1440792,-3.0039499,1.1857636,2.486384,1.4514129,-0.00089221273,0.50033003,-0.82465446,1.1401244,1.9241123,-2.207876,4.0463977,0.96582085,0.13946827,2.2366056,-2.2203743,0.57712996,-0.50997555,-4.208749,1.6585176,-0.1509848,0.4077119,1.0076327,-1.3065423,-0.439545,0.9261758,1.8270307,-0.73221016,-0.11138036,-3.5712624,-1.0920149,2.3714988,-1.476379,-0.59080124,-3.504638,-2.6199753,1.1826962,-2.384329,0.36317214,2.162816,-0.09837026,-2.083265,-0.81660426,-1.1755378,1.8603404,-1.0022078,-1.7437288,2.09295,2.131759,0.21617383,1.4171696,-3.9140046,1.8409696,-2.1758416,2.270333,-2.152764,1.2987245,3.7734396,2.1767619,-2.264231,-1.5185895,1.395637,-0.60697144,0.4045012,0.14213224,-0.89753926,1.0743493,1.2239504,-1.4585197,0.30675095,0.25628707,-1.54666,-1.4449836,1.3295953,-0.39451167,-1.5763655,-1.0267063,-0.3200404,-3.3043284,2.1376338,-0.4635263,-1.0413617,-1.6388412,0.2646432,-0.6151225,-1.3545974,1.9467592,0.8166761,-1.182854,2.8894668,0.3509724,-0.93672687,1.4053638,-0.09014707,-2.5172346,0.24435245,-1.8891652
C3N-01998,-1.765573,-2.7869732,-1.0214967,0.8657197,1.6161914,1.6010133,1.6468923,-0.5768495,3.8744833,-0.94114184,2.451765,-2.4218185,0.7841029,3.0662959,-5.042955,2.270447,-1.0456755,-2.40737,2.792448,-0.68809867,0.08798758,-0.6663435,-0.22756319,-0.8945155,0.1736405,-0.76926196,1.894929,3.3184175,-2.1842606,-0.16875896,-2.0540726,1.2769746,2.9963238,0.44144323,0.75067955,-3.1196117,0.46462676,-1.2966353,-2.1885185,0.2842688,-2.095415,3.2563086,-1.8006645,-1.0942074,-0.8895562,2.8202457,-3.8421116,0.63003016,-0.8981107,1.3276412,-2.712703,0.13325328,1.0920106,3.3855462,-2.589129,-0.18558453,-0.5927524,-0.64354455,2.0671425,-1.2773119,0.05188385,-1.4744924,-1.9141378,-2.7420433,-1.0860813,-1.8595613,-0.34715387,2.4398685,-1.3004578,-4.1757374,-2.541582,-0.57294995,0.68727136,-5.220024,-3.0309818,-3.5782003,-0.26671728,0.70945334,-1.8723361,0.10940236,0.6330772,-0.54664594,0.18715158,2.8181758,-1.343674,4.916665,3.588556,-0.37435013,-0.8085481,-0.39354038,-1.0430586,2.6015718,-1.3790903,-0.95272505,-1.6204163,-1.7908822,1.770637,5.729995,0.24095298,1.1308582,-2.2964447,-1.2074556,1.1236423,0.24431506,1.3570085,1.2079959,1.21861,-2.7835116,1.4336311,-2.316258,-0.3299799,1.3097847,1.4347897,-1.1387545,0.3853013,3.146917,1.9388567,-3.5336673,-2.4202104,-0.62614924,2.1425445,0.5614622,0.7988494,1.6207721,0.11099344,-2.5519989,0.8921382,1.620637,-1.0192323,-1.0937641,-1.4183376,-0.309699,-2.5481794,0.41469648,-1.8973097,2.241443,1.1154677,0.7784675,-0.012651089,0.83169967,-1.7147411,0.64046097,-1.9572676,1.2767634,-1.4243047,1.7797431,0.572217,0.62006193,-1.6323911,-2.2990992,-0.70569694,-2.3295689,3.1309984,-3.2382672,-2.0361605,-0.58672214,0.14725043,-0.8728718,0.26768708,-3.227137,-3.2823398,1.1510726,2.3633728,1.5484995,0.12087328,-0.10065533,-0.58472216,1.4153311,1.741967,-2.1502628,3.8888814,1.5656695,-0.013805878,2.1988742,-2.252058,0.49036294,-0.5489297,-3.8134794,1.4884872,0.1956889,0.6315835,1.0851692,-0.7491983,-0.36956155,1.1376166,1.9863383,-0.9964465,-0.4388,-3.3303797,-1.2672251,2.587704,-1.2442242,-0.31708857,-3.0042183,-2.3625748,1.2112565,-2.5795336,0.18734956,2.4556723,-0.34583172,-2.1160989,-0.9369268,-1.3370228,1.7840358,-0.9244759,-2.2439241,2.0935416,1.7816579,0.8534081,1.2269238,-4.3858547,1.3688633,-2.4285731,1.9949713,-2.1788397,2.0260553,3.2631676,2.1883054,-1.9154463,-1.4654062,1.2863165,-0.68387806,0.37835863,0.5483721,-0.34375334,0.7306955,1.5724275,-1.259102,0.56148726,-0.20990342,-0.92217195,-1.5355532,1.427852,-0.49253514,-1.3703935,-1.1151009,-0.56969494,-2.9802163,1.9960543,-0.6747364,-0.9442798,-1.4792932,0.40138882,-0.6685933,-1.551644,1.7345688,0.97829586,-1.3042195,2.8893442,0.2896074,-0.74559164,0.8148924,-0.14918537,-2.3604968,0.051111646,-1.6210653
C3L-01036,-1.989289,-3.2116988,-0.9656922,0.830557,1.5382725,1.7107911,1.2183836,-0.47102925,3.7803507,-1.1741468,2.1167994,-2.2155542,0.75322664,2.6109207,-4.8925166,2.1633985,-1.146404,-2.9830422,2.9599597,-0.28467092,0.8291187,-0.45003873,-0.013810196,-0.5170894,0.38580984,-0.8561401,1.6160942,3.5540226,-2.0490956,0.08921955,-2.0996644,1.3505119,2.8911839,0.14550453,0.30447042,-3.146187,0.8126468,-1.1317494,-2.0487163,0.58234733,-2.1184266,3.221659,-1.7585633,-1.3348713,-0.7055291,2.3989372,-3.6832433,1.1206744,-1.3638402,0.9100298,-2.3462734,0.44803697,0.6306622,3.2158165,-2.4930792,-0.13031875,-0.7809546,-0.81131643,2.487767,-0.99276304,-0.33822647,-1.2248706,-1.4913037,-2.9836602,-1.1791155,-1.6786675,-0.2871559,2.861296,-1.0589541,-4.3485336,-2.2169368,-1.0748644,0.6946601,-5.694627,-2.9787087,-3.8293958,0.0014223187,0.3283016,-2.0597558,0.15485957,0.5519179,-0.6986353,-0.3413104,2.906365,-1.113887,4.797329,3.421516,-0.20617028,-1.0934433,0.12684506,-0.9584627,2.7600536,-1.7370442,-0.92092264,-1.7678692,-2.2375,1.6000476,5.501141,0.17036992,0.84415597,-2.1823497,-0.973837,0.8194339,0.49460793,1.648661,1.3617984,0.64973193,-2.8561602,1.46954,-1.8767303,-0.3887971,1.5085665,1.6180089,-1.1509342,0.095487505,2.7348444,2.1276007,-3.4659193,-2.4432175,-1.0683589,1.8068519,0.7850726,1.1209549,1.5085272,-0.0097153885,-2.648284,1.1055965,1.2588046,-1.1871163,-1.4138186,-1.7440047,-0.35946688,-2.3277962,0.45884645,-1.714578,1.9335474,1.2450265,0.39095053,-0.07907391,0.5458818,-1.4758229,0.68302155,-1.6111964,1.1471672,-1.1200433,1.6605083,0.7046058,0.4242579,-1.5249968,-2.5566273,-0.8858609,-2.3364255,3.3152344,-3.311362,-2.1805797,-1.087295,0.44816303,-0.6378022,0.24999507,-3.402349,-3.3012335,0.9941429,2.1095273,1.4337518,-0.049107194,0.0762394,-0.83238614,1.1759738,1.7941998,-2.4250884,4.3074627,1.0909024,0.18593228,2.1591978,-2.29115,0.52805007,-0.64446664,-3.6990106,1.7143583,0.62058395,0.27314687,1.2018867,-1.2229822,0.06977591,0.6764863,1.7586652,-0.4129016,-0.18472676,-3.3446176,-1.3236841,2.4750824,-1.2910979,0.27512562,-3.0288851,-2.3526142,1.2137783,-1.9710753,0.15764096,2.5904572,-0.2394711,-2.207553,-0.6681626,-0.90121216,1.7637392,-0.89905435,-2.2238576,1.9819068,1.5429033,1.2714307,1.3884349,-4.050192,1.3597112,-2.0679412,1.8857104,-2.3367388,1.5341173,3.2518919,2.4685013,-1.7793534,-1.5282049,1.3148358,-0.7539875,0.9118117,0.5141029,-0.31956586,0.6143169,1.4601074,-1.2182902,0.05978144,-0.069300696,-0.925139,-1.9017272,1.1004378,-0.91372764,-1.6358838,-0.99275744,-0.21359155,-3.3740935,1.6038324,-0.14020403,-1.0497609,-1.8338759,0.42633006,-0.7579402,-2.023033,2.1094632,1.2005028,-0.9949551,3.0120807,0.49753195,-1.0514127,1.0698189,0.2334378,-2.4024155,0.3819145,-1.5377837
C3N-03069,-1.4820706,-2.6711738,-1.3840736,0.6033737,1.1785184,1.6934732,1.6334625,-0.46841758,3.3525383,-0.76565695,2.7651627,-2.5543609,0.6190354,2.9849513,-4.5984907,2.2865682,-1.318424,-2.4326239,3.0247424,-0.90853506,0.1724316,-0.60728484,-0.044675894,-0.7630313,0.43190545,-1.139779,1.0592055,3.3175752,-2.3881772,-0.23744343,-2.0442228,1.3477403,2.7582815,0.097905375,0.7663794,-2.843592,0.30751413,-0.9476909,-2.2183466,0.973418,-1.5841473,3.522753,-1.3062953,-1.4944137,-0.87587047,2.7742708,-3.4968264,1.0627389,-1.2805662,0.6111787,-2.4833403,-0.0036492255,0.48890564,3.250769,-2.9243913,0.047166817,-0.81124085,-0.38716844,1.6805502,-1.2033983,0.070434615,-1.3290815,-1.7845463,-2.6836116,-0.78169507,-1.7199858,-0.41148844,2.8396738,-0.9855129,-3.9157913,-2.588621,-0.6481174,0.9360278,-5.8122754,-3.4388757,-3.6369095,-0.40311334,0.5799267,-2.0163336,0.4043775,0.37134486,-0.064359464,0.24127236,2.92024,-1.5428404,5.0680933,3.4935224,-0.7685907,-1.2660142,-0.27882433,-1.0059547,2.525149,-1.4466953,-1.0192713,-1.5207639,-1.6524018,2.1458435,5.1492314,0.045477428,1.0879623,-2.3587267,-1.0662837,0.53875107,0.41899574,1.0547835,1.3901908,0.78693557,-2.5339534,1.1507969,-2.0242047,0.41461128,1.1454095,1.3270749,-1.0674906,0.5288262,2.7142081,1.9654301,-3.624892,-2.257758,-1.1899123,1.9066103,0.85425603,0.9994696,1.6794252,0.0696554,-2.2850432,0.9655166,0.9922843,-0.6686464,-1.3620068,-2.1772146,-0.6910164,-2.8566842,0.4650048,-1.8687155,2.0185885,1.5061759,0.7765243,-0.17252193,1.1146016,-1.5109411,0.6881805,-1.4147828,1.2669663,-1.1459639,2.140329,1.0203635,0.41204384,-1.5865389,-2.6745746,-0.9394702,-2.3837962,3.275888,-3.0409129,-2.0079162,-1.0968729,-0.080825485,-1.321027,0.119262375,-3.114571,-2.7648897,1.3435411,2.5487094,1.8328073,-0.4461646,0.13776316,-0.7495059,0.8303282,1.894001,-2.1017816,3.929164,1.2088956,0.26660258,1.8296766,-2.2595723,0.05335977,-0.42108908,-4.1894617,1.4073417,-0.0369403,0.4184347,1.0377642,-1.5764118,-0.31856617,1.4264834,1.5378124,-0.76874506,-0.47172815,-3.4958766,-1.3735551,2.012035,-1.483522,-0.33730847,-2.8804755,-2.5950513,1.3201694,-2.2227333,-0.0669178,2.751267,-0.23979217,-2.1163511,-0.7464783,-1.385638,1.7270018,-0.8419701,-1.5816795,1.8774369,1.8058821,0.19218475,1.2165486,-4.0694366,1.3484904,-2.5170245,1.856932,-1.8164579,1.7362725,3.0340848,1.8434625,-2.1990092,-1.2106054,1.089968,-0.44700933,0.5936837,0.18652312,-0.73079884,0.8896137,1.539468,-1.1224165,0.13442372,0.16676281,-1.220069,-1.8160483,0.98776704,-0.69292307,-1.218974,-0.7959217,-0.32590413,-3.3914955,2.207423,-0.60412157,-0.95835376,-1.8417715,0.35786286,-0.72825366,-1.7897345,1.8939184,0.70356005,-0.9018676,2.8223817,0.27753422,-0.7283237,1.1180302,-0.02702753,-2.2303169,0.3417969,-2.3654003
C3L-00881,-1.9879068,-2.9826663,-0.6548209,0.8387383,1.499766,1.7767639,1.671903,-0.6717421,3.6355147,-0.83375853,2.652491,-2.3564115,0.4691837,2.716,-4.863344,2.3719058,-1.2349979,-2.4110527,3.1553533,-0.7845123,0.42353037,-0.81357414,0.07929014,-0.553582,0.00733059,-0.81246847,1.4035932,3.1303036,-1.9615626,-0.18827534,-2.160282,0.97243875,2.7929993,0.31181073,0.48684943,-3.208117,0.219405,-1.0346795,-2.219515,0.9582844,-2.224284,3.2231095,-1.7052166,-1.007332,-0.8397862,2.7740626,-3.6825297,1.2478284,-0.96320784,1.2222319,-2.925483,0.05156384,0.6964031,3.1936429,-2.8496077,0.093807645,-0.5333778,-0.71663415,2.3927107,-1.0871739,0.298615,-1.5486526,-1.5266218,-2.7988257,-1.0270259,-1.5214142,-0.09042588,2.768596,-1.1210603,-4.409268,-2.9155147,-0.7255364,0.71450967,-5.218258,-2.9964356,-3.4968593,-0.26218462,0.44516072,-1.9587449,0.2792944,0.8805377,-0.3109295,0.014564523,2.8073034,-1.0062746,5.0039926,3.527864,-0.35337645,-0.95267165,-0.19679353,-1.1957649,2.6564398,-1.169359,-1.0049744,-1.6009187,-2.201592,1.7782065,5.609521,0.26837426,1.0251851,-2.5495124,-1.2063131,1.0329005,0.3041875,1.1742355,1.2938902,1.1441803,-2.6809294,1.3645697,-2.3596869,-0.33545986,1.4845501,1.4312922,-1.153411,0.3518615,3.3452857,1.990551,-3.6877203,-2.552536,-1.0715508,1.7482163,0.73148537,0.81531954,1.4241734,-0.19809884,-2.7485085,0.9053078,1.0154806,-1.0700531,-0.91468865,-1.4664837,-0.53218305,-2.46886,0.54206747,-1.775906,2.3255317,1.5987968,0.3179549,0.19640444,0.6260362,-1.874666,0.8445996,-1.8671736,1.2047154,-1.4097422,1.6327778,0.7252587,0.64551246,-1.9114684,-2.618996,-0.9441219,-2.650244,3.4607687,-3.1646662,-1.8988692,-0.80900866,-0.101529405,-0.9603379,0.060174674,-3.5286965,-3.0320227,0.9423717,2.1968746,1.7882776,0.012670612,0.2873951,-0.84341085,0.8529385,1.8825566,-2.2329285,4.082426,0.9188193,-0.20930763,1.9148493,-2.2512894,0.30811104,-0.44904405,-4.013614,2.006753,0.19329034,0.38704517,0.8342754,-0.88475096,-0.35778996,1.0355604,2.0478764,-0.80096346,-0.44043198,-3.4196093,-1.1335738,2.486496,-1.4849051,-0.22902891,-3.1320808,-2.4316163,1.1540169,-2.4182847,0.22255495,2.4080293,-0.28694612,-2.4973242,-1.0019157,-1.0904391,1.542088,-0.9193813,-2.2880144,2.192146,2.1554995,0.61212856,1.1486489,-4.2441015,1.60141,-2.1681938,2.0875974,-2.4430928,1.789484,3.4869332,2.5229392,-1.8702313,-1.2662789,1.0574739,-0.5753056,0.5051591,0.13935938,-0.62090486,0.8859373,1.403918,-1.3613224,0.30666307,0.18814506,-1.5003915,-1.7752573,1.2190902,-0.6234685,-1.6910591,-1.0919281,-0.51548076,-3.341407,1.6716204,-0.3647808,-1.0408345,-1.4636418,0.41482547,-0.80652034,-1.7532889,2.1924005,0.93177366,-0.853622,3.0991046,0.583521,-0.6471137,0.8942945,-0.24592029,-2.4367907,0.16201761,-1.3872912
