patient_id,emb_0,emb_1,emb_2,emb_3,emb_4,emb_5,emb_6,emb_7,emb_8,emb_9,emb_10,emb_11,emb_12,emb_13,emb_14,emb_15,emb_16,emb_17,emb_18,emb_19,emb_20,emb_21,emb_22,emb_23,emb_24,emb_25,emb_26,emb_27,emb_28,emb_29,emb_30,emb_31,emb_32,emb_33,emb_34,emb_35,emb_36,emb_37,emb_38,emb_39,emb_40,emb_41,emb_42,emb_43,emb_44,emb_45,emb_46,emb_47,emb_48,emb_49,emb_50,emb_51,emb_52,emb_53,emb_54,emb_55,emb_56,emb_57,emb_58,emb_59,emb_60,emb_61,emb_62,emb_63,emb_64,emb_65,emb_66,emb_67,emb_68,emb_69,emb_70,emb_71,emb_72,emb_73,emb_74,emb_75,emb_76,emb_77,emb_78,emb_79,emb_80,emb_81,emb_82,emb_83,emb_84,emb_85,emb_86,emb_87,emb_88,emb_89,emb_90,emb_91,emb_92,emb_93,emb_94,emb_95,emb_96,emb_97,emb_98,emb_99,emb_100,emb_101,emb_102,emb_103,emb_104,emb_105,emb_106,emb_107,emb_108,emb_109,emb_110,emb_111,emb_112,emb_113,emb_114,emb_115,emb_116,emb_117,emb_118,emb_119,emb_120,emb_121,emb_122,emb_123,emb_124,emb_125,emb_126,emb_127,emb_128,emb_129,emb_130,emb_131,emb_132,emb_133,emb_134,emb_135,emb_136,emb_137,emb_138,emb_139,emb_140,emb_141,emb_142,emb_143,emb_144,emb_145,emb_146,emb_147,emb_148,emb_149,emb_150,emb_151,emb_152,emb_153,emb_154,emb_155,emb_156,emb_157,emb_158,emb_159,emb_160,emb_161,emb_162,emb_163,emb_164,emb_165,emb_166,emb_167,emb_168,emb_169,emb_170,emb_171,emb_172,emb_173,emb_174,emb_175,emb_176,emb_177,emb_178,emb_179,emb_180,emb_181,emb_182,emb_183,emb_184,emb_185,emb_186,emb_187,emb_188,emb_189,emb_190,emb_191,emb_192,emb_193,emb_194,emb_195,emb_196,emb_197,emb_198,emb_199,emb_200,emb_201,emb_202,emb_203,emb_204,emb_205,emb_206,emb_207,emb_208,emb_209,emb_210,emb_211,emb_212,emb_213,emb_214,emb_215,emb_216,emb_217,emb_218,emb_219,emb_220,emb_221,emb_222,emb_223,emb_224,emb_225,emb_226,emb_227,emb_228,emb_229,emb_230,emb_231,emb_232,emb_233,emb_234,emb_235,emb_236,emb_237,emb_238,emb_239,emb_240,emb_241,emb_242,emb_243,emb_244,emb_245,emb_246,emb_247,emb_248,emb_249,emb_250,emb_251,emb_252,emb_253,emb_254,emb_255
C3L-03394,2.5630713,-1.3269405,1.9832219,2.448562,-3.783615,1.4904065,0.48492506,-2.600367,1.1320258,0.39724314,-1.1321288,-0.9386228,0.028122736,1.5813289,-0.3776858,3.67051,1.1815974,1.7526762,-0.076809056,1.7085781,-2.4099567,-0.60187095,-0.28497624,-0.33445343,1.4691541,-2.8804414,-1.3914744,-0.8908622,1.5597253,-1.3929348,-1.7895079,2.0699031,-0.6887645,-3.5694566,-0.059410304,2.083496,-0.41642937,2.852174,-2.8309827,-0.5186167,0.16460949,3.0225902,-1.3759671,-0.12852518,-1.5800292,3.2992213,-5.008541,0.42630234,-0.68473876,-0.78257614,-1.3292289,2.2664895,-1.624503,-0.98714375,-2.171609,2.810318,-3.491727,-1.1245577,-1.5463146,1.7328035,1.1279215,0.9856331,0.04262337,0.3645948,0.28735718,-1.811201,-1.6726708,0.8529036,-0.57645935,-3.3077083,0.32316658,-0.6188601,0.78887534,-1.1572763,-1.8201286,-1.0725656,2.156646,-0.9669529,0.25871447,-1.3270116,2.4120855,-0.9000173,-2.5491812,-0.6941145,1.2694267,-0.9696332,-2.060584,0.029235005,-2.7797968,0.10663749,2.9293644,0.7089844,-0.8641228,1.715219,0.20033704,0.4406339,-0.5729058,2.1394522,-1.3980535,-2.0226138,0.8251308,-3.379333,2.1270359,1.0357331,0.5456082,1.7098056,-0.24237156,-0.38421002,-3.9964306,-0.081304185,1.7995442,2.384947,-4.4297395,-3.7650468,2.464693,-1.0086138,-2.8946307,-0.3071976,0.8624746,-2.4366882,-1.6268054,-1.716805,-2.9350846,1.2084852,-1.1680076,2.4806168,-3.7011206,1.7466439,-4.2323446,-0.72293866,-1.1791734,1.0217967,1.2470624,1.4732915,-0.28589034,0.72932845,-0.18598758,-0.7486064,3.2700083,2.0444572,0.9828484,-0.7774691,0.20574622,2.1161444,-1.544876,-3.1558416,1.953645,1.5987355,1.4552432,-0.763072,-0.94959116,-0.2401876,-3.2487786,0.37340498,-0.60155505,2.5908775,5.142226,0.5180773,0.6001887,3.204216,0.779424,1.1124732,1.1824414,-0.036207974,-2.980859,-0.4127499,-0.872987,-3.795347,-1.6575029,-1.3275224,-2.665814,1.1797208,-2.4518046,-2.5906284,-0.8697091,-0.56963307,0.9119447,2.0168757,-2.7253938,-1.4535999,1.0017904,0.15064058,-1.952078,-1.4171829,-0.76996136,0.87648636,1.9453318,-2.2095068,1.2654947,-3.0931041,-1.964282,-0.5202421,1.9170674,-2.6621401,-0.17495902,-0.9862752,-2.98335,2.4456275,1.9450542,-1.5380273,1.5739633,-1.329826,0.17626071,1.7780068,-0.9247782,2.680265,0.766096,2.4516737,-0.5922189,-3.720484,-4.7624593,4.604053,-2.9458385,-1.2871562,0.9724224,1.387307,-0.22585674,-0.9650558,1.6812154,-1.0060352,1.8310673,-1.8064314,1.3800654,0.14792892,-0.5112948,-0.8607071,0.5067606,1.9937365,2.3880947,0.89253736,1.7927934,-3.4984624,-1.1445907,0.115468435,1.987537,0.4388287,-1.3306196,0.24431123,-3.9672484,-1.879823,-0.36876234,1.8567741,0.7158245,0.7720428,0.44782144,-3.006995,4.557693,-1.0153337,1.081757,0.032424342,-3.7192233,-1.1896998,0.5562629,1.0461727,-0.2564695,2.7113278
C3N-03428,2.6841779,-0.7871609,1.5777954,2.50808,-3.5164359,1.1956747,0.53527766,-2.7183213,1.3319292,0.08219646,-1.0450073,-0.5416643,0.14941199,1.6342198,-0.3234592,4.1229334,0.7183619,1.6646223,-0.20187604,1.8261112,-2.3201451,-0.71338975,0.104666986,-0.27625713,1.4248308,-2.7493718,-1.3007514,-0.67855334,1.8233854,-1.3159324,-1.3537067,1.7510638,-0.6139134,-3.584855,-0.2186927,1.74172,-0.6803932,2.889698,-2.4303787,-0.61874187,0.31887093,2.8423016,-2.0379798,0.4508406,-0.8708585,2.9775345,-4.7223206,0.15065666,-0.48727742,-1.1920197,-1.335324,1.6757139,-1.8714134,-0.8399353,-2.0038598,2.563442,-3.736601,-1.3541317,-1.695249,1.3564698,1.3025191,0.7274004,-0.080409564,0.2266097,0.6525942,-1.6321561,-0.9795353,0.26183006,-0.75625575,-3.2953906,0.6312085,-0.42718637,0.41712952,-0.5169614,-1.9793702,-1.0598243,2.0377743,-1.1807688,0.003754018,-1.3712157,2.1929128,-1.0127592,-2.3637297,-0.5205845,1.6382537,-0.74983287,-1.6948415,0.07334193,-2.9043088,0.03382958,2.4068,0.83858097,-0.6106624,1.4480796,-0.22850043,0.47847864,-0.18390574,2.3456933,-1.0297089,-1.732545,0.77253443,-3.6573617,1.6251875,0.8644361,0.9963278,1.5433315,-0.5049874,-0.6366152,-4.094082,0.055507172,1.4768119,1.7012653,-4.0704317,-4.1389346,2.9727669,-0.6901975,-2.7040868,0.22902018,1.3238393,-2.6326048,-1.5210947,-1.7308712,-3.0571342,0.9454671,-1.5882019,2.4269762,-3.325744,1.3251828,-4.216287,-0.906032,-1.1095687,0.79133874,1.8914915,1.100261,-0.015009209,0.66714525,0.0062491153,-0.8126778,2.9611952,2.5506942,0.86957306,-0.8709861,0.15127179,1.5970001,-1.4576542,-3.0583413,1.9896415,1.6865213,1.2432245,-0.5696854,-0.12933809,-0.0707921,-3.1169608,0.55517435,-0.7555026,2.4619339,4.990465,-0.24335049,0.63687295,3.3070831,0.599015,1.4680057,1.3841398,-0.63240725,-2.9506302,-0.22660005,-0.88893163,-3.6478655,-1.5693136,-1.7114688,-2.6672723,0.5224992,-2.5321326,-2.8548076,-0.808416,-0.4001115,1.2480704,1.6864012,-2.753069,-1.0973761,0.9281139,0.06301374,-1.9704602,-1.2656411,-0.49334672,0.7403487,1.9625657,-2.2126155,1.1156012,-2.8468342,-1.7985102,-0.5237998,1.8179336,-2.4786847,-0.19636346,-0.6132822,-2.9027648,2.2989175,1.5883052,-0.6993977,1.6309454,-1.5711529,0.13868271,1.8674763,-0.6728828,2.6437287,0.85890037,2.3702395,-0.49002516,-3.447689,-4.862862,4.880046,-3.317492,-1.1801914,0.26681414,1.6280081,-0.32489917,-1.0328228,1.4493953,-1.0462345,1.4776179,-1.5337515,1.0613838,-0.2291999,0.052456673,-0.96587306,0.3714204,1.953559,2.3997202,1.1115304,1.5142587,-3.3078158,-0.79883546,0.14777908,1.8780534,-0.020680156,-1.0558525,0.21226345,-3.804455,-2.174574,0.004267682,1.8387687,1.0174158,0.7496174,0.32753372,-3.0550845,4.338319,-0.9726158,1.5667539,-0.05626122,-3.598799,-0.77182823,0.6101432,1.3137884,-0.3817653,2.7956746
C3L-02112,2.7073584,-1.2157423,1.9154706,2.5348818,-4.2518983,1.6035739,0.39968947,-2.430078,1.1451445,0.049877353,-0.5900929,-0.29599068,0.12999742,2.2316089,-0.40845004,3.5587234,0.79930973,1.5704764,-0.057229772,1.487617,-2.4808755,-0.44372138,-0.14798173,-0.5096106,1.2314545,-2.761563,-1.0896639,-0.82846797,2.024516,-1.470451,-1.7579854,1.8837948,-1.2558162,-3.793134,-0.45889103,2.3155775,-0.6930715,2.668275,-2.5649796,-0.8780907,0.0961823,2.8580596,-1.1696296,0.30994913,-1.4003338,3.0842369,-4.93975,0.5880746,-0.6340872,-1.1833212,-1.2341615,2.285572,-1.9228835,-0.36203918,-2.2518663,2.2365217,-3.6687195,-1.4721823,-1.507762,1.5568044,1.2002039,1.2508171,-0.44069138,0.0070730736,0.22006932,-1.8244869,-1.1170346,0.7130667,-0.74107605,-3.0008438,0.5630928,-0.5561751,0.7348261,-1.3475287,-1.4907182,-1.2856513,2.2056284,-0.94739753,0.034117743,-1.1245825,2.4865623,-0.9163814,-2.4892046,-0.7373146,0.9846174,-0.86388487,-2.0429816,-0.37072346,-3.0559556,-0.18808582,3.0858297,0.67185265,-0.342277,1.7378439,0.029944906,0.5596653,-0.6064873,2.35524,-1.4005182,-1.9936485,1.0204984,-3.6877239,1.875302,0.61737525,0.63485336,1.683804,-0.38680607,-0.8350685,-4.3439064,0.24356002,1.4813355,2.1027205,-4.198616,-4.234574,2.7765117,-1.4246057,-3.1856534,-0.43905362,1.0699533,-2.4417663,-1.7743758,-1.9680517,-2.9534812,1.3835229,-1.0260051,2.5496042,-3.8873289,1.4416945,-4.0614605,-0.86508745,-0.8416048,0.9116915,1.3107481,1.642977,-0.11636215,0.9487838,-0.30101717,-0.74604356,2.8451276,2.4177916,1.0273829,-0.9813644,0.5798527,2.2083375,-1.3567246,-3.0252333,1.8955235,1.8623836,0.99419826,-0.75820667,-0.41900134,-0.08973913,-3.1119235,0.39612722,-0.7776756,2.3436038,4.839214,0.4315137,0.41816944,3.2484772,0.80300814,1.0031017,1.2954016,-0.52010363,-2.868394,-0.38105246,-1.0820156,-4.1198554,-1.7811874,-1.5123534,-3.1953602,0.8695839,-2.5894473,-2.655566,-1.0268276,-0.33358598,1.2111115,2.1236358,-2.8937955,-1.3002144,0.88705534,0.47285172,-2.3875663,-1.2273915,-0.5873823,1.0070206,1.3926148,-1.9950122,1.0748729,-3.2404234,-1.9024777,-0.17737623,1.7228425,-2.7718847,-0.5959019,-0.81890464,-2.915437,2.1263824,1.8425521,-1.5987808,1.3356136,-0.9367236,0.09305802,2.0171561,-0.7262723,3.2273352,0.5308753,2.1115532,-0.8966359,-3.9133546,-4.669076,4.775705,-2.725589,-0.9336334,0.4182644,1.4077985,-0.31915188,-0.54295075,1.6572331,-0.6290224,1.8596758,-1.8894606,0.932015,0.08215014,-0.23749018,-0.9195093,0.21916293,1.7387751,2.3523433,0.7002397,1.5267923,-3.269999,-0.94615257,-0.31041464,1.75343,0.5517163,-1.2390797,0.48128325,-4.1872587,-2.156367,-0.1282998,2.1002545,0.90345997,1.1992959,0.45883825,-3.3038833,4.1280556,-0.7466477,0.96267736,-0.10101543,-3.9033127,-1.5300207,0.68367517,1.3818115,-0.53172106,2.7650483
C3N-01719,2.5479195,-1.2464257,2.0430574,2.629188,-3.2151837,1.3354387,0.4831961,-2.6419282,1.1505994,0.30396983,-0.8760231,-0.812331,-0.0073205954,1.424741,-0.45798498,3.835726,0.7465007,1.3496256,-0.11948223,1.7786748,-2.507927,-0.6898526,0.3356136,-0.2043019,1.3937874,-2.94987,-1.3645573,-0.75100106,1.5291713,-1.351015,-1.664125,1.8020202,-0.8223991,-3.5229132,-0.44394743,2.1947656,-0.6800561,2.996296,-2.621913,-0.56852895,-0.28006276,2.9362218,-1.4121436,0.20522076,-1.4877048,3.0173712,-4.842005,0.5677016,-0.6370052,-0.65527475,-0.976713,2.1084654,-1.4883882,-0.84673506,-2.0425377,2.5854475,-3.7700753,-1.5899942,-1.6271839,1.8165054,1.0372392,1.1703238,0.04822215,0.08779272,0.9618769,-1.8461258,-1.4259018,0.4161383,-0.93260777,-3.5609493,0.6208491,-0.6338587,0.26735848,-1.0580525,-1.8496081,-0.9805867,2.1361468,-0.30101854,0.04912489,-1.3902313,2.3907185,-1.3339216,-2.0867095,-0.58026713,1.5527911,-1.2024022,-1.8064857,-0.2510554,-2.8396788,-0.120526455,2.5702748,0.7795295,-0.762617,1.361712,0.2239712,0.6349422,-0.59491587,1.8888198,-1.05032,-1.7797116,1.024659,-3.5482433,2.2625968,1.096404,0.83212316,1.7169626,-0.6346231,-0.6504768,-4.332928,0.12065504,1.3342491,1.6140078,-4.473439,-3.8122885,2.6623309,-0.7919102,-3.173501,0.1377207,1.4306977,-2.4912293,-1.5787053,-2.064146,-2.926399,0.7988106,-1.5858788,2.3825328,-3.507198,1.753587,-4.031921,-0.9015437,-1.1144392,1.0796442,1.6740338,0.9684944,-0.023758246,0.9592606,-0.09868155,-0.68407875,2.6511023,2.5286212,0.8332303,-0.72746336,0.30397466,1.9776704,-1.0736071,-3.139871,1.8076869,1.6475694,1.0334109,-0.6530326,-0.28077054,0.3356853,-3.6497517,0.34405154,-0.7297886,2.4112346,5.1298556,0.03911758,0.20823179,3.0990384,0.69603604,1.7793703,1.4773363,-0.08262736,-3.055011,-0.27815682,-1.4201849,-3.6790133,-1.7150874,-1.5755529,-2.5840287,0.6110219,-2.1633122,-2.653609,-0.8629764,-0.3737818,1.17979,1.9402704,-2.5519369,-1.1429919,1.1891302,0.21015479,-1.8527408,-1.0356858,-0.6463079,0.6710709,2.141403,-2.014059,1.4722712,-3.4241452,-1.9307904,-0.10093736,1.3947352,-3.147855,0.17885688,-0.60593456,-2.5077777,2.2998817,1.2142072,-0.93224,1.6002038,-1.0861051,0.40468562,1.5392672,-0.38830444,2.8821433,0.7878502,2.6091654,-0.8433652,-3.5528662,-4.8122663,4.6178412,-3.0304503,-1.7448387,0.7670075,1.4598957,-0.3508208,-1.1823503,1.7318172,-0.7581672,1.6324657,-1.8650928,0.9313641,-0.090838,-0.05711114,-1.1772479,0.6558134,1.8048352,2.4637856,0.8639899,1.7483569,-3.2078261,-1.1936891,0.15868308,1.7534071,0.55641234,-0.9579599,0.307247,-3.4184592,-2.458978,0.03465119,2.2428815,1.3033404,1.1735874,0.44742742,-3.103375,4.805837,-0.66325384,1.1733382,0.20548092,-3.7551095,-1.3947462,0.6565091,1.3492684,-0.36523148,2.5893848
C3N-03670,2.977939,-1.1789714,2.0135624,2.6547503,-3.9244006,1.4929658,0.5506528,-2.4594953,1.3752475,0.22877344,-0.95704263,-0.43793508,0.11094224,1.9079643,-0.2553048,3.484189,0.55296814,1.5128715,-0.50497144,1.8016496,-2.4387047,-0.36162373,-0.34956327,-0.37944576,1.527016,-3.1437397,-1.2101588,-0.8803253,1.8378096,-1.5511726,-1.6258138,2.0452797,-1.0202394,-3.5090938,-0.78777266,2.340421,-0.7915426,2.659869,-2.521786,-0.9547052,0.24598558,3.0111322,-1.5748595,-0.087166846,-1.4722351,2.8182049,-5.094028,0.3339921,-0.7057959,-1.1086832,-1.4273167,2.0901222,-1.7988062,-0.4507032,-1.8440406,2.6523998,-3.6951678,-1.507531,-1.4435806,1.6071719,0.95341897,1.1857791,-0.13670337,0.10430687,0.5725852,-2.163119,-1.4774005,1.0100226,-0.7040171,-3.181706,0.53875744,-0.5061266,0.9204272,-1.2486967,-1.8040456,-1.257516,1.8688855,-1.0527695,0.12940313,-1.1677049,2.6220758,-0.78124064,-2.324949,-0.59010565,1.2135835,-1.3487751,-1.8079624,-0.39452088,-2.8338714,-0.22048506,2.5917196,0.7321609,-0.45199886,1.6670129,-0.10581458,0.52671283,-0.7130398,2.1937113,-1.1566392,-1.8995178,1.1102923,-3.0516198,2.1800776,0.62584287,0.7484292,1.8228531,-0.77188253,-0.501923,-4.4190326,0.21802668,1.5937648,2.1041753,-4.193521,-4.0075436,2.5964375,-1.2776839,-2.9604504,-0.20769922,1.2316377,-2.5033464,-1.9025813,-1.7861642,-3.0133982,1.148897,-1.311519,2.770363,-4.081112,1.4376433,-4.003629,-0.7087093,-0.98141056,0.69221836,1.1749634,1.7578279,-0.336597,0.9309114,-0.260692,-0.8457245,3.1759546,2.215496,0.9461997,-0.7034575,0.4689708,2.168774,-1.4080638,-2.9836798,2.1443605,1.7806877,1.0009389,-0.62594575,-0.2013492,7.832129e-05,-3.1073995,0.61503786,-0.57162535,2.3328788,5.107729,0.120032035,0.6041641,2.8570395,0.8317896,1.0130562,1.1767443,-0.26814675,-2.9441617,-0.3834408,-0.91306776,-4.1286254,-1.7978702,-1.6251247,-2.9825644,0.6021439,-2.361575,-2.5355773,-0.78085345,-0.6358946,1.0434098,1.9851247,-2.9437613,-1.294096,0.80775094,0.3991225,-2.2058952,-1.4171128,-0.746882,0.7843857,1.7318556,-1.9947656,1.2739567,-3.1692781,-1.8507317,-0.37119144,1.8806288,-2.830883,-0.36448053,-0.77207965,-3.0437434,2.29308,1.9654663,-1.5671587,1.5846173,-1.2750103,0.3315674,2.0249803,-0.79914993,3.0366871,0.48945653,2.3059802,-0.5672282,-3.789198,-4.685314,4.8861065,-2.8316984,-1.5449177,0.4713295,1.2689157,-0.30298495,-0.7910035,1.7527796,-0.6737777,1.7795223,-1.9091194,0.9729093,-0.07577284,-0.26851025,-1.1978606,0.47174567,1.9245709,2.3807125,0.5458389,1.7161916,-3.482273,-1.1680094,0.113950595,1.431037,0.2853895,-1.1020529,0.38872394,-3.9834301,-2.3978608,-0.30511624,1.8773435,0.93448526,1.0055592,0.42171687,-3.5056095,4.394393,-0.731228,1.0027093,0.15779479,-3.9089382,-1.4073733,0.63093215,1.3703814,-0.37904105,2.7985375
C3N-02998,2.7950616,-0.95873696,1.8879862,2.3316982,-3.247866,1.4077903,0.87532115,-2.4673238,1.2250253,0.14155994,-0.8157883,-0.72837114,0.2692087,1.6409062,-0.29224402,3.783448,0.50837266,1.7477548,-0.27769858,1.5812787,-2.1011062,-0.6681602,0.26325747,-0.5136894,1.3552247,-2.9272587,-1.39891,-0.6910024,1.7961053,-1.4480538,-1.7419901,1.6008673,-0.32396692,-3.339585,-0.4335193,1.798337,-0.94641405,2.8523324,-2.6148727,-0.49477375,0.35070926,3.2188256,-1.741234,0.4847325,-1.5267178,3.3138406,-4.7889676,0.4611676,-0.6424105,-0.9813396,-1.2854654,2.0084834,-1.4293363,-0.84430104,-2.2624567,2.5171359,-3.857992,-1.5353862,-1.6382089,1.500429,1.2618923,1.0842655,-0.4063049,0.4824107,0.7473548,-1.8840853,-1.2418253,0.5883047,-0.90057665,-3.200391,0.4052941,-0.7893723,0.31721437,-0.73920274,-2.0318444,-0.96121174,1.9980212,-0.96854424,0.15542775,-1.386376,2.2675965,-1.1313484,-2.3933966,-0.5606188,1.4418596,-1.1600964,-1.8610709,-0.21165971,-2.7364824,-0.053810693,2.9049342,0.6009097,-0.75844973,1.4727792,0.06878185,0.81290907,-0.4381796,1.7295423,-0.8131186,-2.0172875,0.9455916,-3.4911098,1.56082,1.0253397,0.9040949,1.6574358,-0.327319,-0.7724376,-4.3816237,0.03548025,1.3187088,1.5768983,-4.011119,-4.164687,2.8584876,-0.59491926,-2.8283744,-0.16517787,1.6007173,-2.661176,-1.7060268,-1.9877417,-2.9951916,1.0911335,-1.4823594,2.2416706,-3.097689,1.4798459,-4.048244,-0.7555563,-1.304956,0.7292585,1.8419156,1.1247858,-0.08350449,0.6755366,-0.13923936,-0.9164672,2.8167799,2.1407795,0.80836165,-0.661733,0.38330445,2.081804,-1.0516859,-3.0211928,1.6272405,1.7402477,0.9587558,-0.4703582,-0.41184074,0.32122853,-3.5701663,0.11101951,-0.7232956,2.305792,4.9456134,-0.28520155,0.578973,3.549278,1.1941571,1.5419122,1.2797961,-0.45068818,-3.056366,-0.4371205,-1.3584183,-3.7966979,-1.5778868,-1.4257839,-2.7934816,0.82685107,-2.172314,-2.5420263,-1.1078619,-0.8850726,1.7065234,2.124519,-2.6110744,-0.7428469,1.1196516,0.52374524,-2.3011398,-1.1824294,-0.4292435,0.6856229,2.0499449,-2.0650637,1.4519284,-2.7946703,-1.67821,-0.2458803,1.8296102,-2.6551113,0.27807668,-0.6483949,-2.924631,2.345598,1.4980514,-1.0105349,1.3128356,-1.0871743,0.21872444,1.7437737,-0.64452523,2.7116098,1.0284606,2.5301478,-0.2407474,-3.8480384,-4.8830605,4.550805,-3.145942,-1.1650572,0.48648307,1.1618251,-0.36447775,-1.0433809,1.2998735,-1.1309239,1.9295778,-1.7548223,0.848176,0.11613662,0.11838365,-1.0631465,0.6954556,1.4145383,2.2524319,0.55877393,2.0172331,-3.0031946,-1.0462815,0.2181873,1.864476,0.27553293,-1.3157287,0.21097897,-3.4912164,-2.2448313,0.19365996,2.520907,1.1729116,1.0587271,0.363643,-2.8841615,4.594061,-0.4707467,1.6458296,0.17081001,-3.7545958,-1.1497797,0.6725811,1.0896914,-0.33264136,2.8301206
C3N-03211,2.7482119,-0.9015277,2.1895423,2.545653,-3.7441018,1.965694,0.35886255,-2.687423,1.1322595,0.3447849,-1.122263,-0.14315848,-0.054492593,1.9900558,-0.29790395,3.7105048,0.62201416,1.7439655,-0.25781366,1.4934554,-2.4773672,-0.29497677,0.28503245,-0.4593588,1.5665293,-2.872234,-0.9537082,-1.033926,1.8417931,-1.5001911,-1.4867611,1.9713302,-0.913307,-3.4854348,-0.44013926,2.332956,-0.662969,2.7442763,-2.7682896,-0.89338064,0.025336022,2.9384701,-1.4735982,0.3615144,-1.6163902,3.061466,-5.263064,0.5284068,-0.5694752,-1.202333,-1.0082463,1.8779974,-1.4790686,-0.5877776,-1.7636336,2.4869716,-3.4200473,-1.8374852,-1.319805,1.7052566,1.2268243,1.087098,-0.44907606,0.30034983,0.31934908,-1.7331058,-1.426184,0.8058506,-0.7458197,-3.0900047,0.7256391,-0.4869151,0.69182235,-1.1230576,-1.4620233,-1.3709574,2.1696706,-1.2256948,0.21758462,-1.3341112,2.6331975,-0.6869499,-2.6076555,-0.50928396,1.4314945,-1.4036878,-1.8100585,-0.357217,-2.8329828,-0.29642677,2.6033528,0.66403055,-0.41006985,1.6061195,-0.1922387,0.95102245,-0.613241,1.8993651,-1.1370926,-1.9779925,1.192164,-3.4464917,1.6439971,0.6799071,0.64654267,1.8272793,-0.37351653,-0.74994016,-4.391613,-0.23072545,1.5949568,2.2174015,-4.3090053,-4.2799306,2.9628837,-1.036034,-2.8566544,-0.27634996,1.1515099,-2.7346115,-1.6783549,-1.8656899,-2.993233,1.1115671,-1.1756586,2.4847949,-3.451562,1.4213321,-3.9717364,-0.8133809,-1.004489,0.8807905,1.3276927,1.4664744,-0.3796997,0.875041,0.12758473,-0.90089715,3.337006,2.3360279,0.46623424,-0.8520405,0.3387339,2.2298532,-1.6450219,-3.0080247,1.8118377,2.01806,0.65593106,-0.6012537,-0.59688866,0.111187175,-2.9476738,0.7683341,-0.46383208,2.6909125,5.3349223,0.15985912,0.29495576,3.1560955,0.72898215,1.0962362,1.0926683,-0.077472575,-3.0609872,-0.6799593,-0.85411954,-3.933878,-1.8862027,-1.5390579,-2.8711882,0.8304599,-2.5112298,-2.5727434,-1.1559219,-0.3204538,1.6642103,2.014135,-2.9225981,-1.3998338,1.0067034,0.51086783,-1.8382306,-1.0293126,-0.549979,0.92445946,1.9468815,-1.9177301,1.303647,-3.2245824,-2.0839033,-0.6038673,1.5895084,-2.50945,-0.33247682,-0.7940409,-2.7249942,2.2890508,1.8312863,-1.1631179,1.6454494,-1.2482793,0.32474518,2.231628,-0.67208815,3.174539,0.8893352,2.013042,-0.8519653,-4.0463753,-4.403423,4.685362,-2.721484,-1.1439493,0.70479023,1.364807,-0.2884614,-0.833828,1.7036673,-0.7237418,1.6759719,-2.033082,0.9278108,0.34074423,-0.29876,-1.1554439,0.44977698,1.5896803,2.5496986,0.82867754,1.7503179,-3.0993886,-0.88051695,-0.23087835,1.7219927,0.48930618,-1.1791258,0.15496054,-3.9551487,-2.039165,-0.53355306,2.2047682,0.7739628,0.8252044,0.2033497,-2.919773,4.4420114,-0.66076523,1.2090843,0.13961612,-3.8520293,-1.5438932,0.6599011,1.0455799,-0.6255562,2.946851
C3L-01052,2.7263722,-0.9019326,1.6286169,2.4593613,-3.8896804,1.4655349,1.0207833,-2.4362228,1.1839314,0.16758406,-0.83839864,-0.54782987,-0.11455485,1.879535,-0.42166945,3.6155837,0.7535532,1.4332174,-0.08635927,1.5207976,-2.1926312,-0.5952572,-0.42293647,-0.019301008,1.5520464,-2.998325,-1.0721904,-1.0460631,1.8717769,-1.774126,-1.5567762,2.0792246,-0.91440165,-3.5895839,-0.4485257,2.5007586,-0.7319081,2.6024413,-2.5606058,-0.67996764,-0.027047476,2.996677,-1.4606767,0.32397038,-1.3036687,3.1765037,-4.748136,-0.030708414,-0.6657818,-1.3830365,-1.3841546,2.3432772,-2.131125,-0.52197576,-2.1220205,2.4023755,-3.3878436,-1.5172408,-1.522822,1.7664067,1.1602362,1.1017668,-0.13935901,0.13975403,0.50051624,-1.9476225,-1.5919064,0.86244106,-0.48870054,-3.101959,0.7890271,-0.5834419,0.73828965,-0.9832276,-1.725234,-0.93879277,2.2921588,-1.0861256,0.23231126,-1.2111117,2.5423079,-0.805342,-2.522381,-0.8176851,0.6767668,-0.6940512,-2.1099176,-0.47607702,-3.0593581,-0.06952072,2.7726107,0.5924334,-0.38452446,1.7916292,0.19940595,0.82278526,-0.34812188,2.514791,-1.3101141,-2.214971,1.0585407,-3.4540503,1.9953849,0.8370643,0.6097032,1.5563116,-0.6263795,-0.80233544,-4.2311997,-0.024235306,1.6836449,2.0024192,-4.262266,-3.9825137,2.8589883,-1.4663867,-2.9600484,-0.24155127,0.97610813,-2.3002968,-2.0519216,-1.98596,-2.859503,1.265755,-0.74485457,2.449095,-3.9854183,1.6078624,-4.016666,-0.9415994,-0.8000059,1.0695384,0.80682874,1.7210832,-0.1683287,0.88296133,-0.13169234,-0.72542226,3.0979757,2.1802983,1.2185884,-0.75350153,0.5383137,2.0420604,-1.442791,-3.1466846,1.8665389,1.9764705,1.3281277,-0.6245296,-0.24514747,-0.21447767,-3.2303092,0.77199525,-0.730659,2.5121608,4.7881,0.28487682,0.26565683,2.995909,0.8578691,0.851463,1.2213721,-0.23309089,-3.0330744,-0.17783616,-1.0201114,-3.8859339,-1.801073,-1.6906664,-2.7464776,0.88377553,-2.2129338,-2.4643264,-1.0271249,-0.41039616,1.2247077,2.016609,-2.8455904,-1.1653545,0.96496344,0.36373296,-2.3050034,-1.4067765,-0.7000391,1.0062629,1.4456933,-1.9043949,0.9118972,-3.1211221,-1.603164,-0.28845763,1.7844576,-2.6805732,-0.3281515,-0.82152086,-3.0401666,2.1877134,1.6913701,-1.6304482,1.6616273,-1.1975323,-0.056181606,2.2066438,-0.6112078,3.0767148,0.37162715,2.0921903,-0.8591421,-3.8498087,-4.5236754,4.6477046,-2.7168872,-1.2787956,0.6897361,1.3615317,-0.26377404,-0.86924756,1.5309777,-1.1085273,2.011528,-1.836437,0.86638725,0.43364054,-0.3089474,-0.95295376,0.64328545,2.04072,2.3952286,0.8716323,1.602394,-3.0885007,-1.0599974,0.032038648,2.0399907,0.28611073,-1.1402147,0.37958935,-3.8436353,-2.1539824,-0.39757863,1.6166838,0.96346533,0.64695966,0.49615267,-3.2694216,4.2706294,-0.89379394,0.96030664,-0.03761421,-3.936804,-1.4751469,0.77226037,1.1961436,-0.43078676,2.6843102
C3N-00512,2.9200149,-1.3374496,1.8856134,2.6797845,-3.7553847,1.5500114,0.59896374,-2.3335097,1.15122,0.2808723,-0.7176291,-0.37952814,0.09730072,1.9172854,-0.4330287,3.399457,0.7922137,1.5722692,-0.33705118,1.8897607,-2.5045006,-0.47869343,-0.14782256,-0.49361753,1.2681053,-3.0247388,-1.0411295,-0.87687284,1.8237005,-1.4256903,-1.4855152,2.107227,-1.0195528,-3.5387332,-0.69553,2.4013176,-0.8689971,2.5752516,-2.2536912,-0.7288889,0.11756397,2.985523,-1.5500754,0.30303422,-1.41449,3.0692358,-5.1078644,0.31999817,-0.5964573,-1.2231598,-1.203889,2.0638354,-1.7297039,-0.24273378,-1.9893578,2.5281084,-3.6766381,-1.5362307,-1.4526739,1.7204921,1.5205324,1.1677378,-0.44152296,0.10718985,0.41673347,-1.9311342,-1.3628007,0.6404767,-0.5824887,-2.9794211,0.5169757,-0.48747277,0.3879442,-1.4716979,-1.8026775,-1.270556,2.0848355,-1.1331319,0.012244,-1.1042187,2.7770917,-0.88213176,-2.3803375,-0.5620783,0.997991,-1.057348,-2.2100844,-0.43931016,-3.1362429,-0.22817548,2.8250647,0.7405017,-0.4067271,1.5911654,0.06105229,0.6409798,-0.65379506,2.1095946,-1.115508,-2.0682125,1.0053964,-3.4615574,2.0780568,0.72849816,0.7394297,1.8075868,-0.32504126,-0.8067364,-4.4088707,-0.03569663,1.5531079,1.9648846,-4.2444944,-4.1948833,2.8367505,-1.3939993,-2.9293869,-0.40733466,1.1618986,-2.5714025,-1.5571642,-1.8070134,-2.916522,1.3074384,-1.1428127,2.5394902,-3.7921512,1.5364227,-4.040432,-0.7973878,-0.88687986,0.89350265,1.3046943,1.6269945,-0.26148522,1.115323,-0.16380265,-0.77015424,2.8896887,2.2312334,0.78293496,-0.8910245,0.5875454,1.911369,-1.5105757,-3.3577056,1.8461022,1.8788903,0.9453798,-0.5013351,-0.51705205,0.24062581,-3.0955358,0.49683875,-0.66439366,2.3541143,5.059487,0.3524661,0.5236665,2.7482216,0.7636723,1.4136683,1.0692586,-0.22470897,-2.9762816,-0.2874292,-1.1237786,-3.9346695,-1.7617011,-1.6393181,-2.983427,0.706961,-2.3279295,-2.4257739,-1.1251925,-0.39967072,1.065067,2.0908396,-3.040921,-1.2004296,0.99452204,0.35784346,-2.4666336,-1.2120978,-0.40825528,0.8516921,1.6480354,-1.9957258,1.0820221,-3.053712,-1.929591,-0.3812038,1.675982,-2.9292839,-0.40500453,-1.0306101,-2.9058716,2.3325467,2.054346,-1.5458413,1.5513703,-1.1877055,0.2458638,1.9224399,-0.4675588,3.117254,0.877589,2.2270944,-0.51103014,-3.876925,-4.725514,4.5900664,-2.9380844,-1.4560106,0.778574,1.5800738,-0.33939573,-0.52547926,1.3152518,-0.8562593,1.634433,-1.9792644,0.9210607,0.08606905,-0.42705268,-1.1755038,0.69468105,1.974771,2.1616511,0.67528784,1.4887986,-3.2642343,-1.0033363,-0.07373913,1.6342944,0.3051487,-1.0417392,0.39112914,-3.8730226,-1.8027669,-0.08509037,1.7936066,0.87253726,1.1232046,0.4138822,-3.0855594,4.3831983,-0.8531376,1.0435036,0.1950982,-4.005271,-1.2556331,0.8332275,1.127409,-0.5517061,2.7373316
C3N-02295,2.7234755,-1.1425551,1.8377938,2.4838517,-3.8618426,1.3223349,0.7160951,-2.794146,0.97190535,0.46144488,-0.86935866,-0.63443387,-0.0040308647,1.7534338,-0.3854854,3.5140858,1.0048218,1.3576958,-0.31534824,1.3775518,-2.6132586,-0.75145483,-0.07205429,-0.5731923,1.4371659,-3.1938467,-1.2944303,-1.0498626,1.9234395,-1.2626632,-1.5624151,1.9958416,-0.8397344,-3.6191955,-0.48764974,2.1532342,-0.47601187,2.5286944,-2.8046834,-0.7118076,0.1476859,2.982157,-1.7453068,0.18702354,-1.4803067,3.1481328,-4.935893,0.5631869,-0.6610331,-0.876409,-1.3096857,2.0920012,-1.7317346,-0.861375,-1.9316744,2.7110648,-3.4724324,-1.6145186,-1.3258923,1.7395945,1.115333,0.9975702,-0.14806056,0.021455852,0.6120829,-1.9337307,-1.4877875,0.62875146,-0.8888623,-3.1419132,0.46154457,-0.3113996,0.9192655,-0.7434069,-1.8027655,-1.2442205,1.6322054,-0.9951306,0.08042534,-1.0171719,2.414115,-0.9076522,-2.322812,-0.6073628,1.310527,-0.8369681,-1.9967887,-0.3155197,-3.0662925,0.06573476,2.6352003,0.7463816,-0.4952497,1.6231456,0.10076443,0.6881307,-0.40016064,2.037375,-1.3687828,-2.0156922,1.3722854,-3.39565,2.3025959,0.9720092,0.7054133,1.7112503,-0.6984711,-0.53248245,-4.0102196,0.34272644,1.7368975,2.095254,-4.4260635,-4.159476,2.7683969,-1.2126229,-2.9167733,-0.17048424,1.4968591,-2.1192908,-1.6594986,-1.892942,-2.9748423,1.2845161,-1.1545035,2.583325,-3.6445377,1.5452409,-4.2515,-0.7074673,-1.0519098,0.9111064,0.94600976,1.5438763,-0.1340866,0.8463501,0.040106017,-0.7343542,2.611881,2.3527985,0.817595,-0.64291716,0.4936608,1.9406772,-1.5924376,-3.0411932,1.8955257,1.497527,1.3245982,-0.52576554,-0.3127354,0.14763792,-3.4610062,0.4895942,-0.23760052,2.3765054,5.1528563,0.2639323,0.5184569,3.0499032,0.92639196,1.0543231,1.3869452,-0.41335005,-2.8993802,-0.38942096,-1.1068007,-3.7693052,-1.7097335,-1.2114431,-2.8496418,0.7918075,-2.0766363,-2.6087532,-0.99054754,-0.13239993,0.9068436,2.0761964,-2.7503448,-1.2638386,0.7232925,0.417785,-1.9953542,-1.3096234,-0.67303985,0.8601663,1.7549584,-2.1729465,1.00861,-3.3647346,-2.0843983,-0.21804179,1.9290963,-2.646732,-0.23521756,-0.71442795,-2.7491522,2.3335834,1.8546481,-1.3402513,1.847082,-1.2074473,0.26407823,2.0069497,-0.519312,2.9248405,0.29279664,2.2793171,-0.74613965,-3.5180705,-4.6448655,4.675647,-2.908909,-1.1468542,0.45807087,1.2817472,-0.28722495,-0.94829464,1.9425085,-0.81148905,1.7263715,-1.9862295,1.4239024,0.17548348,-0.0970201,-1.0317233,0.39326403,1.8906852,2.1827621,0.59042794,1.7827244,-3.4341202,-0.9535322,-0.010710198,1.634787,0.51171464,-1.123664,-0.045553528,-4.145092,-2.2839112,-0.082275465,1.858473,0.9236354,0.8480037,0.2120232,-3.1909816,4.313005,-0.69730455,0.94504863,0.0919544,-3.9344869,-1.1910422,0.7414993,1.4472562,-0.82520354,2.8577373
C3N-01012,2.676405,-1.4442021,1.9882565,2.3703375,-3.8194838,1.4826676,0.7393529,-2.649561,1.1565304,0.20763034,-1.0472417,-0.6329626,0.32054585,1.9927013,-0.22762802,3.699132,0.6483438,1.5626307,-0.13622385,1.4272972,-2.3332326,-0.31021476,-0.19580995,-0.5571776,1.1677486,-2.7075548,-1.1117805,-0.6419824,2.0589685,-1.5727063,-1.5663557,1.7845438,-0.8757926,-3.2902393,-0.6878565,2.350667,-0.8077219,2.6321876,-2.578643,-0.79122865,0.11690123,2.9506695,-1.625645,0.24457867,-1.3915937,3.0412138,-5.0348864,0.18886183,-0.7518388,-0.9794205,-1.3617233,2.0061698,-1.8422418,-0.32300395,-1.9695004,2.503712,-3.8620138,-1.459674,-1.5602283,1.591923,1.032389,1.4888381,-0.31275645,-0.045086756,0.6244971,-2.1543465,-1.3429332,0.57379365,-0.8141824,-3.024692,0.4600509,-0.6058166,0.6673242,-1.3116142,-1.6969595,-1.1060783,1.6811962,-0.9962796,-0.025172273,-1.4405521,2.604278,-0.82954174,-2.4637556,-0.6702572,0.837475,-0.90456957,-1.8867362,-0.3142489,-3.1028948,-0.16795182,2.744055,0.6364268,-0.5213796,1.5986732,0.048620608,0.43941095,-0.4198625,2.2607458,-1.2402235,-2.1907868,0.84281564,-3.385091,1.9859632,0.9385953,0.8749111,1.4567753,-0.76522976,-0.7222596,-4.4455256,0.15520337,1.5845011,1.8987793,-4.0815234,-3.8789613,2.8371544,-1.2444866,-2.8738513,-0.35774314,1.0439701,-2.5646858,-1.7022424,-2.0054133,-2.8698456,1.4978597,-1.1150911,2.6821284,-3.801536,1.4539163,-3.8982952,-0.98062795,-0.8274641,0.7904526,1.2503812,1.0715672,-0.12527722,0.9865698,-0.2904673,-0.69157845,2.6249816,2.0622253,0.9171757,-0.8579225,0.4325072,1.9493662,-1.4347295,-2.7810457,2.2387495,1.5608773,1.0580145,-0.46200424,-0.10071766,-0.14753574,-2.8004491,0.79248756,-0.567852,2.3479073,5.2330894,-0.009259366,0.52079356,2.961308,0.7727513,0.8749991,1.18016,-0.4381775,-2.9679427,-0.26140028,-1.1183553,-3.9532425,-1.8431617,-1.557036,-2.8178463,0.400056,-2.2987194,-2.3891904,-1.0800397,-0.47857064,1.4276694,1.8612642,-3.0325162,-1.2009602,0.89545727,0.5246022,-2.4186542,-1.2049948,-0.7055508,0.9626842,1.4526017,-1.9307944,0.9597661,-2.963893,-1.7318034,-0.22460367,1.4756244,-2.4356349,-0.5450791,-0.86188656,-2.7861428,1.9933132,1.5572191,-1.4281576,1.6985781,-0.9562499,0.17287484,2.0695813,-0.37198767,2.881719,0.56840307,2.3839002,-0.3263528,-3.9342148,-4.700712,4.4556375,-2.81706,-1.3796703,0.6062909,1.410777,-0.48180732,-0.56711954,1.6296622,-1.040179,1.9035947,-1.7991171,0.8499128,0.26506284,0.20758292,-0.9962298,0.8027395,1.5806172,2.126925,0.48093918,1.6329056,-3.028119,-1.0424622,-0.082839906,1.9479948,0.021165824,-1.2139032,0.48872304,-3.9737077,-2.2278302,-0.34123164,1.8407985,0.9142213,0.8211491,0.73067474,-3.329088,4.2777705,-0.7089611,0.8850348,0.098701395,-3.9989116,-1.7130629,0.6245738,1.362295,-0.34502587,2.9204566
C3N-01502,2.869115,-1.2527233,1.8863729,2.6621215,-3.5969405,1.4743704,0.7426219,-2.643016,1.0626092,0.61511785,-0.84716725,-0.6457726,0.1143908,1.5069944,-0.48187098,3.6149845,0.79196817,1.7203808,-0.00030769673,1.8266398,-2.7643857,-0.523903,0.06389583,-0.54246545,1.490157,-2.846278,-1.2257949,-0.75344855,1.8449726,-1.400439,-1.5495079,1.9817021,-0.8149259,-3.684705,-0.39359814,2.3303547,-0.6848226,3.041885,-2.7162454,-0.6257348,-0.23980775,3.338844,-1.2583991,0.43601078,-1.378013,2.9980361,-4.9957175,0.2626985,-0.47408056,-0.8172172,-1.0714359,2.2476618,-1.6837841,-0.9674762,-2.205793,2.8537188,-3.739071,-1.5242201,-1.6311532,1.7212809,1.2024493,1.2833408,-0.179232,0.17148907,0.7390674,-1.8251038,-1.2161005,1.0590006,-0.93475926,-3.33112,0.56759506,-0.45780805,0.5244567,-0.9865248,-1.6113517,-1.1398808,2.1270905,-0.5670422,0.2408317,-1.2121964,2.397371,-1.006973,-2.2047334,-0.7140752,1.2924964,-0.84857106,-1.6722318,-0.381653,-2.665128,0.15637611,2.7159286,0.87318695,-0.9892699,1.1455213,-0.07828115,0.6849131,-0.49421784,2.0382612,-1.2083478,-2.0644052,1.3182478,-3.13431,1.8691565,0.7674849,0.95902145,1.6864516,-0.28994164,-0.41168743,-4.269931,-0.1283328,1.4880528,1.9393067,-4.5461135,-4.214349,2.6548004,-0.8430116,-3.240405,-0.17950669,0.9521434,-2.688405,-1.7159665,-2.003861,-2.9203813,1.1109693,-1.1013029,2.0832522,-3.729837,1.4577205,-4.2638526,-0.90916103,-1.3405844,0.842496,1.5182841,1.161197,-0.1370258,0.9100309,-0.24535984,-0.93578166,2.800042,2.335952,0.93690115,-1.0480667,0.30176273,1.9537399,-1.7131283,-3.326677,1.691018,1.5811805,1.0559525,-0.6646436,-0.3216066,-0.07739122,-3.549028,0.41249588,-0.47782245,2.1802025,5.200898,0.21747904,0.16189207,3.1624484,0.91429365,1.4337542,1.1713734,0.114375114,-3.1685288,-0.41815588,-1.3771412,-4.021218,-1.4597348,-1.3055478,-2.8714123,0.9913171,-2.1762216,-2.8938107,-1.1290642,-0.3393578,0.9927479,2.139291,-2.7955031,-1.6316816,1.0498036,0.46390665,-2.1448753,-1.1161416,-0.7296372,0.5914766,1.9006935,-2.1472151,1.474626,-3.3892355,-2.1182432,-0.5342294,1.40998,-2.7853909,0.06449717,-1.0055596,-2.8147013,2.3617852,1.8270762,-1.5324565,1.55827,-1.0928091,0.21805875,1.9261601,-0.80868375,2.688026,0.5705965,2.4862504,-0.98063284,-3.6159112,-4.649633,4.9071665,-2.6599164,-1.6870097,0.48073307,1.2833905,-0.24984024,-1.0398915,1.7579235,-0.71780884,1.3545196,-1.8312646,1.1990268,0.19524021,-0.4075528,-1.1055087,0.8474943,1.6559358,2.4255788,0.66413367,1.8243873,-3.4330733,-0.8913743,0.4375638,1.6085039,0.8464166,-1.0657141,0.111523226,-3.9217174,-2.073724,0.1674012,2.3582158,1.2598305,0.7608276,0.5258925,-2.7960336,4.250261,-0.7144376,1.0872321,-0.073989406,-3.6917474,-1.3126756,0.7636333,1.0618358,-0.4603531,2.7883794
C3L-01053,2.6507025,-1.1365912,1.5941396,2.3170798,-4.2139816,1.4423262,0.58276474,-2.1801608,1.2791697,-0.058014322,-0.81495744,-0.6410885,0.1307954,1.9482771,-0.15249819,3.6885297,0.7005882,1.2766188,-0.1290296,1.4148424,-2.3867037,-0.10688293,-0.2510587,-0.30235395,1.3711568,-3.0167274,-1.1393397,-0.99128455,1.9226683,-1.6846069,-1.5770868,2.0407693,-0.90370977,-3.4225428,-0.38760367,2.4814901,-0.8549926,2.8184562,-2.3856149,-0.9023316,0.25106493,3.0255437,-1.2865404,0.49779466,-1.7750196,3.2227144,-4.881916,0.3732369,-0.7514401,-1.1745548,-1.2367008,2.2401812,-1.6858813,-0.7375374,-1.9630295,2.38147,-3.5300078,-1.495268,-1.447462,1.5252483,1.2019726,0.9285345,-0.39118668,0.23746689,0.3551936,-2.0593247,-1.4094508,0.609636,-0.829013,-3.0870998,0.61807156,-0.6713568,0.62348545,-1.3329836,-1.879598,-0.8466826,2.0833752,-0.8246682,0.1513201,-1.2931488,2.4134853,-0.83028334,-2.4159992,-1.0055239,0.8574869,-0.9171529,-2.207135,-0.28575763,-2.77603,-0.10975721,2.6130505,0.95295817,-0.48947304,1.8547895,-0.014635259,0.6259202,-0.66463876,2.2438722,-1.4176036,-2.217709,1.0088255,-3.5344276,1.7301186,1.0126963,0.6871919,1.7161977,-0.63503945,-0.58416593,-4.285838,0.12717271,1.5455687,2.2477386,-4.1117435,-4.067546,2.8512638,-1.2728492,-3.0949006,-0.23197271,0.86493796,-2.4412742,-1.7116377,-2.0780742,-2.8678598,1.0326974,-0.8427723,2.2659693,-4.0467415,1.7698439,-3.7781448,-0.78673023,-0.9713481,1.1297618,1.1127982,1.8319095,-0.28939968,0.75286776,-0.18093301,-0.8865406,2.7948127,2.0980213,1.2311281,-0.8322584,0.4370437,1.9813848,-1.3419605,-2.7728047,2.183416,1.7229971,1.2478769,-0.8962641,-0.3436304,-0.068276025,-3.2028127,0.51214486,-0.63548344,2.566331,4.7835517,0.51198035,0.50439656,3.154644,0.76144433,0.9558914,1.1548083,-0.0806356,-3.1592045,-0.40673694,-0.9132829,-4.137561,-1.9300408,-1.3464609,-3.0982056,0.66360146,-2.1834655,-2.4842007,-1.0024701,-0.35483393,1.0971116,1.9533399,-2.8828425,-1.5251232,0.9932837,0.4437128,-2.3348756,-1.4168469,-0.5080678,0.8156523,1.4073642,-2.0008564,1.0927869,-3.2708158,-2.0963593,-0.13767524,1.7678589,-2.7060792,-0.50514615,-0.61693275,-2.6613,2.3482523,1.5920392,-1.6436775,1.5138623,-1.1523671,0.09612198,2.1168652,-0.65612257,3.2409444,0.38482097,2.492895,-0.91356236,-3.706734,-4.7036285,4.38615,-2.5903962,-1.3011613,0.7190909,1.3501775,-0.03345855,-0.5598882,1.7339721,-1.1068234,1.6955298,-1.9863505,1.0938594,0.20260611,-0.37750906,-0.9963383,0.5235931,1.9775735,2.5066369,0.88417715,1.6030163,-3.4155354,-1.3774183,0.08636477,1.7974607,0.6233475,-1.1293688,0.5046778,-3.9483733,-2.4060607,-0.48016784,1.9465783,1.0870652,0.8242871,0.54317445,-3.2685223,4.3092833,-0.75380474,0.95036036,0.17989147,-3.8623955,-1.5644213,0.62684095,1.2178168,-0.6633058,2.6588833
C3L-03632,2.3195136,-1.0857248,1.8587891,2.4223442,-3.8667822,1.7352722,0.38517982,-2.7907538,1.0130144,0.24891607,-1.0363209,-0.34019253,0.09433029,2.046809,-0.3111162,3.6478484,0.805542,1.3717878,-0.19496243,1.6128743,-2.5415273,-0.46174693,-0.13961844,-0.7168424,1.4468899,-2.8964295,-0.99302256,-0.5724633,2.2394044,-1.686515,-1.4737859,2.1087859,-0.7587981,-3.7193956,-0.5965493,2.572259,-0.6479644,2.5344968,-2.5593925,-0.84046143,0.11601695,3.0837092,-1.3829886,0.59688663,-1.6791322,3.0663588,-4.616137,0.56016684,-0.77280337,-1.0124437,-1.5030754,2.1184473,-1.7788794,-0.49631628,-1.8794148,2.5501647,-3.8748288,-1.4602733,-1.4261816,1.8069618,1.0453167,1.267067,-0.449564,-0.1245045,0.29507193,-1.7704538,-1.1135712,0.69610655,-0.88689095,-3.235487,0.49770075,-0.58677167,0.62373334,-1.4060612,-1.5392933,-1.0859548,1.6320299,-1.2020532,-0.21708517,-1.2280532,2.6035058,-0.69423366,-2.5096908,-0.7802275,1.2077103,-1.017819,-1.9842774,-0.52116555,-2.9602892,-0.19957116,2.4939373,0.7767072,-0.4691351,1.8459357,-0.13353713,0.8170031,-0.5370657,2.2665582,-1.1306323,-1.8903883,1.0259176,-3.4053845,1.8491259,0.6496447,0.8204047,1.6353225,-0.7226876,-0.7305408,-4.321374,0.047637064,1.5939319,1.9592907,-4.105866,-3.9516425,2.8418427,-1.170386,-2.940869,-0.23828924,1.0870602,-2.34209,-1.6995572,-1.7189847,-2.9254987,1.2803367,-1.2153578,2.7955737,-3.8254666,1.6903826,-3.6805644,-0.9351392,-0.9007759,0.74754333,1.1810149,1.3995,-0.103438355,0.94844127,-0.37062493,-0.7832533,3.0689871,2.3020172,0.73160714,-0.82387125,0.39569393,1.9320285,-1.4536043,-2.8720176,2.1836395,1.9524642,0.9954366,-0.50642365,-0.40674037,0.3435228,-3.084361,0.6815738,-0.35869327,2.4576466,5.2550516,0.35722938,0.46300828,2.8986104,0.8051183,1.0052401,1.1514802,-0.40073055,-3.0101187,-0.37564984,-0.97318405,-3.9999545,-1.9358174,-1.3339651,-3.0066977,0.7378491,-2.2474186,-2.5834394,-1.0232118,-0.5321611,1.2708014,1.8269172,-2.9407988,-1.154346,0.87412626,0.62726,-2.3875203,-1.25817,-0.68991077,0.7539233,1.5381052,-1.7984121,0.76828873,-3.0904584,-1.8343599,-0.19920935,1.6499854,-2.5446677,-0.40573022,-0.94295114,-2.7201836,2.2753983,1.6603135,-1.3248585,1.4803345,-1.1388171,0.27033234,2.284983,-0.37819645,3.3532102,0.402745,2.562992,-0.49848136,-3.8431745,-4.6861324,4.343243,-2.8967643,-1.3899503,0.56926686,1.4650424,-0.3772974,-0.3928681,1.7778035,-0.894311,1.5443106,-1.9772826,0.8472062,0.22414356,0.023383167,-1.057141,0.7987349,1.8259275,2.3324058,0.6173928,1.5527757,-3.2416828,-1.0949361,-0.14583205,1.6876303,0.13406424,-1.2241155,0.31754455,-3.7767506,-2.1103368,-0.09646218,1.9559203,0.91818726,0.6981443,0.5543704,-3.1538877,4.354292,-0.57424,0.9193106,0.16088255,-3.994305,-1.556964,0.7467568,1.0045973,-0.57598037,2.632677
C3L-00401,2.4879057,-1.1657517,2.0857942,2.3893204,-3.7509599,1.500911,0.58954984,-2.654781,1.3977323,0.18074594,-1.2136246,-0.6311584,0.03316278,1.8845611,-0.2819417,3.9989758,0.699232,1.4166732,-0.31946713,1.5369109,-2.3907452,-0.62580514,0.02640863,-0.28661537,1.2649441,-2.9980397,-1.3769264,-0.8485208,1.8112723,-1.4662434,-1.3848174,1.627283,-0.69977355,-3.4987404,-0.57116127,2.1259155,-0.8830138,2.4614935,-2.0563898,-0.7328835,0.39658928,2.6249454,-1.6438713,0.32409266,-1.4419627,2.9572716,-5.202533,0.69595146,-1.2978852,-1.1024985,-1.3208255,2.353387,-1.598939,-0.7479455,-1.9958737,2.5089161,-3.7832131,-1.3964069,-1.2847961,1.7298205,1.2172891,1.2578766,-0.23423545,-0.25904995,0.80842733,-2.3583527,-1.5797578,0.34245476,-0.797993,-2.7791708,1.1280967,-0.30089092,0.54348284,-1.1078224,-1.4176911,-1.2223219,2.1440353,-0.5114154,-0.06130893,-1.3285902,2.7650354,-1.0719974,-2.3360076,-0.7036584,1.0275722,-1.3842379,-2.078896,-0.26041025,-2.642191,0.063909054,2.6588144,0.7387786,-0.49248287,1.7929436,-0.043622013,0.29901546,-0.46153668,1.7918662,-1.0343403,-1.8588427,1.1498808,-3.1336288,1.9170319,0.9901328,0.6964463,1.3627857,-0.8808393,-0.56154346,-4.3319383,-0.15219024,1.5908748,2.3801396,-4.3416815,-3.6082535,2.9082105,-0.7634833,-3.0461886,-0.29266042,1.0526094,-2.5814564,-1.8007369,-1.8997865,-2.8363116,1.0863408,-0.911104,2.3757114,-3.4645422,1.7114418,-4.0470347,-1.0164744,-1.0047374,0.69066155,1.3778135,1.206634,-0.18201146,0.5839514,-0.06591094,-0.91076434,2.859885,2.2250402,0.9189987,-0.9635602,0.25194144,2.002075,-1.3499568,-3.0751247,2.2977843,1.6828667,0.7577922,-0.8851813,-0.36683112,0.24731368,-3.4465876,0.5236729,-1.0614182,2.4775207,4.756792,0.2551371,0.51305103,2.9232018,0.93894374,1.3894167,1.7006154,-0.080333196,-2.944027,-0.28388745,-1.4355279,-3.9845877,-1.7645656,-1.6068898,-2.4521997,0.47436395,-2.5618792,-2.5332813,-0.66454583,-0.30189508,0.8966754,1.7745833,-3.025524,-1.0312693,1.1721971,0.63232344,-2.1573715,-1.4976134,-0.5467647,0.49887976,1.9372112,-2.0706897,1.1897826,-3.3592975,-1.9765074,-0.007385051,1.3767098,-3.0476782,-0.2716212,-0.8994485,-2.7835186,1.9421824,1.4737653,-1.2534447,1.8012419,-1.7079158,0.19428007,1.9141833,-0.62754714,2.8097823,0.707346,2.3362741,-0.9317677,-3.8809674,-4.7837415,4.4853773,-2.867539,-1.2865167,0.8085554,1.2284255,-0.22605093,-0.9451084,1.3949035,-0.87051755,1.7053725,-1.9607973,0.81439507,0.1880116,0.18318966,-1.2306633,0.61841786,1.9704856,2.3013914,0.35583714,1.4290372,-3.4318762,-1.1283796,0.16199274,1.7809505,0.35518637,-1.0139426,0.301247,-4.1833463,-1.9317834,-0.33205044,2.1072876,1.109084,1.1813124,0.28247032,-3.0307045,4.7185774,-0.6895414,1.007435,0.1666931,-3.5162988,-1.843019,0.825663,1.4733053,-0.20393607,2.856224
C3L-01054,2.6925225,-1.088523,1.8087138,2.2696724,-4.1797104,1.5247637,0.50791115,-2.4411101,1.2038366,-0.12838198,-0.7621798,-0.60426253,0.007727677,2.197124,-0.40918046,3.7442262,0.62936,1.3276577,0.06046738,1.540506,-2.4608023,-0.3318312,-0.37606597,-0.42275262,1.5214635,-2.6973987,-0.93717873,-1.1445166,1.9285914,-1.734462,-1.5964729,2.0765567,-0.93763363,-3.5994117,-0.5040206,2.4886677,-0.8503232,2.7278557,-2.5752141,-0.9034269,0.1361677,3.1210046,-1.1366256,0.5136554,-1.6659471,3.1338882,-4.97439,0.46330383,-0.7979935,-1.0661702,-1.3113316,2.2275913,-1.5429395,-0.62376255,-2.259017,2.4555578,-3.6970863,-1.5742855,-1.5233384,1.7791828,1.0343045,1.2953281,-0.1408438,-0.18535942,0.33106902,-1.9782606,-1.1170195,0.52258986,-0.56215435,-3.0985436,0.44993708,-0.7740175,0.6656501,-1.3956101,-1.6998132,-1.0148413,2.2817283,-0.7710976,0.09890414,-1.2480693,2.6145465,-0.8718128,-2.732056,-1.0397085,0.849154,-1.0705733,-2.1601202,-0.3323962,-2.4999878,-0.13827625,2.791251,0.7203367,-0.5279298,1.9775004,0.19899175,0.88625056,-0.3266737,2.1197755,-1.3061433,-2.1844187,1.0983711,-3.6403463,1.7546358,0.87534505,0.54141027,1.809672,-0.43820524,-0.7100419,-4.33508,-0.023108626,1.5240613,1.997646,-4.313918,-4.2942915,2.9084716,-1.1779085,-3.1374958,-0.24283293,0.7993028,-2.568891,-1.8078603,-2.0943737,-2.829175,1.1067106,-0.7783916,2.5367968,-3.9873648,1.7868156,-3.7234333,-0.89496374,-0.9219507,1.1845874,1.0406741,1.5229738,-0.38452166,0.5531533,-0.2005703,-0.93819356,2.887967,2.3146465,0.94800943,-0.6541328,0.47420496,1.9633536,-1.4475543,-2.9574194,1.7863396,1.8178015,1.1979165,-0.83626986,-0.32621154,0.19257644,-3.1041372,0.7681401,-0.6556611,2.500263,5.082923,0.42264143,0.48800066,3.227115,0.8515722,1.0323721,1.207096,-0.16989785,-2.980189,-0.43963504,-1.0289977,-3.9037845,-1.8813368,-1.5396732,-2.9392204,0.678497,-2.3985171,-2.5044386,-0.94093007,-0.3805562,1.372066,1.8149008,-2.9421172,-1.1964033,0.9670189,0.4966892,-2.4808083,-1.329256,-0.6327138,1.0154513,1.5911478,-1.8815414,0.9865282,-2.9236548,-2.0797207,-0.29837838,1.7093184,-2.5627117,-0.5718101,-0.9151736,-2.7964528,2.3303103,1.5155917,-1.5657136,1.454606,-1.0949407,0.27326566,2.0624235,-0.63411295,3.4327595,0.32353055,2.4490871,-0.76595235,-3.9488945,-4.694565,4.562711,-2.6254802,-1.1593673,0.48753548,1.4078519,-0.19709939,-0.4389545,1.6310043,-0.95578504,1.9869945,-2.082069,0.74814725,0.16219516,-0.39495862,-1.0235529,0.7581352,1.8874811,2.2295573,0.76371044,1.4621516,-3.2381449,-1.0839849,-0.0049790624,1.8889455,0.4741609,-0.857787,0.5714,-4.140909,-2.2555625,-0.32527068,1.9832793,0.9358879,0.8200842,0.51308334,-3.038083,4.1410027,-0.7932485,0.8897061,0.04728242,-3.8324938,-1.4521955,0.8412488,1.1509702,-0.5822721,2.7407632
C3N-00517,2.6617007,-1.027453,1.7138141,2.6375968,-4.075838,1.4075012,0.45963964,-2.452384,1.2726923,0.36882377,-0.95113575,-0.31325442,-0.03755511,2.3647552,-0.36131197,3.512487,0.54528296,1.412176,-0.2230784,1.4694982,-2.4156168,-0.19838646,-0.36427185,-0.39319518,1.5303292,-2.89866,-0.846964,-1.031398,1.7366022,-1.5844842,-1.4177016,1.8777562,-1.0593582,-3.4022822,-0.4388789,2.334216,-0.6234647,2.7972834,-2.389801,-0.60915697,0.38082463,2.8961234,-1.516466,0.26522958,-1.6082597,3.1550097,-4.998526,0.3010815,-0.82824564,-1.1899664,-1.5318618,2.2247968,-1.8523691,-0.3075384,-2.079448,2.374426,-3.5802538,-1.1983397,-1.7603191,1.76914,0.8393402,1.3098322,-0.3670948,0.15045059,0.48001805,-2.0728688,-1.5811332,0.3745228,-0.57215923,-3.0170414,0.4097698,-0.77156216,0.97018415,-1.3148568,-1.4507743,-1.110637,2.2618065,-1.0462549,0.30873296,-1.0735823,2.5810733,-0.89279354,-2.5803523,-0.6722522,0.66693854,-1.033615,-2.0705023,-0.35272357,-2.9377308,-0.2036385,2.9063447,0.71804655,-0.35447177,1.6863358,0.058954034,0.9173355,-0.44907263,2.183153,-1.3283184,-2.2405252,0.94842845,-3.4072742,2.1506574,0.73111403,0.68991005,1.8600155,-0.5128742,-0.4301856,-3.980639,0.06374154,1.5188494,2.0480266,-4.4374676,-4.02418,2.77621,-1.3640625,-2.7273328,-0.47783688,1.070894,-2.3295822,-1.8953917,-2.1224637,-2.6510816,1.2386492,-0.8061121,2.374938,-3.9062197,1.7356532,-3.722203,-0.8894168,-0.75711364,1.0327522,0.79249406,1.65137,-0.21874788,0.8376733,-0.14163071,-0.554137,2.9847496,2.2049575,0.9149936,-0.7741065,0.61541724,1.9987323,-1.2276101,-2.745008,2.143436,1.6984725,0.9978158,-0.94744825,-0.23094524,-0.028530877,-2.9857945,0.8258661,-0.69162434,2.4126487,5.185544,0.25477585,0.50742865,2.5695093,0.63210326,0.948649,1.0445123,-0.42309752,-2.6849923,-0.44636032,-1.0295262,-3.8875496,-1.7549002,-1.6520691,-2.9652998,0.66346705,-2.3233101,-2.2671328,-0.8178315,-0.11923916,1.2079976,1.779921,-2.8976128,-1.2875041,0.99128777,0.251873,-2.429027,-1.4053489,-0.8454633,0.8823062,1.5964001,-2.1344426,1.0605361,-2.9544756,-2.1138375,-0.03395205,1.9157848,-2.382919,-0.4944134,-0.5664477,-2.9508326,2.106131,1.6683481,-1.7947376,1.6834905,-1.3469505,0.11100349,2.1506631,-0.70908445,3.305618,0.66032183,2.35717,-0.7067584,-3.9150736,-4.3232193,4.6625514,-2.7128632,-1.05746,0.7282124,1.336313,-0.14197946,-0.57515377,1.7206326,-0.9750426,1.7930543,-2.0679824,1.1297683,0.11623329,0.1349023,-1.182167,0.3989371,1.9436861,2.2202344,0.5548114,1.5815768,-3.2846503,-1.1446667,-0.20250797,1.5862231,0.043958966,-1.3605757,0.37641934,-4.250628,-2.1232135,-0.5421687,1.8508534,0.8119623,0.8084109,0.8057144,-3.3991742,4.367558,-0.88876516,0.9616479,0.39221197,-4.0127625,-1.4303119,0.6252639,1.1526369,-0.61867565,2.7326555
C3N-03440,2.6679559,-1.1612136,1.68172,2.5501995,-3.723514,1.4351193,0.8725629,-2.3625822,1.4619308,0.16001353,-1.0508598,-0.5722889,0.22778781,2.206349,-0.17659326,3.5236387,0.4583551,1.3879794,-0.13575533,1.2431469,-2.542897,-0.36138526,-0.31077427,-0.24690893,1.3096203,-2.9844792,-1.0999682,-0.61926687,1.629704,-1.5851914,-1.6399263,1.9674226,-0.7108311,-3.5754888,-0.7961606,2.502884,-0.96174514,2.5539234,-2.454258,-0.7611644,0.17126298,3.0425835,-1.4482565,0.28407192,-1.5936539,3.0489051,-4.91789,0.3340811,-0.42791587,-1.1721153,-1.7515757,2.3123353,-2.0306003,-0.25054282,-2.1878989,2.4077117,-3.6632578,-1.4646431,-1.5272259,1.56906,1.1639798,0.86649543,-0.26320845,-0.09064319,0.60058385,-2.1920962,-1.2622128,0.42646173,-0.8265911,-3.3149323,0.41428235,-0.653243,0.5881542,-1.3140433,-1.6317885,-1.1220475,1.5955389,-0.8208309,0.1569437,-1.491253,2.5751781,-0.7277536,-2.5298615,-0.85769284,0.9820791,-1.1865098,-1.8449125,-0.5372534,-2.6261382,-0.15510231,2.4978232,0.6227358,-0.5229145,1.7669472,0.06138404,0.51749724,-0.40027758,2.116349,-1.1467391,-2.0854747,0.95946985,-3.57539,1.9312611,1.0220839,0.7820617,1.5145253,-0.7416092,-0.721767,-4.2258654,0.05083217,1.5483979,2.1529005,-4.165911,-3.9333825,2.642943,-1.4083134,-2.9753687,-0.16589732,1.1095779,-2.3159366,-1.7787125,-2.1385467,-2.842497,1.1328645,-1.0429509,2.5547554,-3.635309,1.7450036,-3.7459908,-0.9883013,-0.9835232,0.9006128,1.178611,1.2799643,-0.0019869674,0.825199,-0.27194616,-0.6217129,3.1070457,2.3699615,0.8894467,-0.4866159,0.3987762,2.0634222,-1.1054808,-2.7564716,2.0657961,1.8736731,1.1451687,-0.6804745,-0.1397439,-0.04100696,-3.1765614,0.78451943,-0.5384271,2.481986,4.943979,0.14568143,0.5287819,3.048773,1.000208,0.9509449,1.4105264,-0.2996022,-2.9482403,-0.4351825,-0.9630305,-3.7277026,-2.0944734,-1.4037652,-2.9949296,0.59232396,-2.149745,-2.195957,-0.7148629,-0.37483743,1.0991292,1.8400394,-2.9253495,-1.2715853,0.88090956,0.55935854,-2.4191287,-1.1665777,-0.5618771,0.67682844,1.7987753,-1.7325821,0.8972244,-3.2397113,-2.018557,-0.17835456,1.6102028,-2.4275415,-0.30196598,-0.72301066,-3.0510068,2.18075,1.5901166,-1.4234365,1.5259213,-1.4507976,0.22634564,2.0473716,-0.35795593,3.3048792,0.46153244,2.2256062,-0.67153156,-3.697277,-4.507143,4.660402,-2.903362,-1.3184938,0.6122731,1.2607747,-0.1003696,-0.69900954,1.7798316,-0.93432933,1.786766,-1.9032136,0.9425415,-0.17803273,-0.009703885,-1.2573024,0.70473415,1.918188,2.3498147,0.4939749,1.6145484,-3.2108002,-1.1802157,0.17459711,1.6217773,0.2972453,-0.9470998,0.44422358,-3.8620875,-2.0619895,-0.4158942,1.8848214,0.99674,0.8567526,0.54342085,-3.4360776,4.3950114,-1.0272074,1.0681486,0.13607703,-3.8797755,-1.6374556,0.5421444,1.3444626,-0.44969422,2.8604836
C3L-04495,2.4498096,-1.1945689,1.964396,2.508103,-3.9418488,1.567305,0.36425957,-2.4124992,1.3821263,0.27162164,-1.268822,-0.66137,-0.013566287,2.1243188,-0.29437357,3.42655,0.90132004,1.2353845,-0.23420154,1.5546669,-2.502496,-0.325282,-0.39893898,-0.37583846,1.5537047,-2.9341938,-0.93126893,-0.7518031,1.7393318,-1.4356598,-1.520676,1.9401674,-0.66734266,-3.3228781,-0.7189661,2.292932,-0.63731337,2.5391989,-2.4651358,-0.8785753,0.10916963,2.9080713,-1.2021918,0.10826021,-1.8057622,3.1914253,-4.80198,0.4030189,-0.7998019,-1.0279168,-1.4651017,2.3358622,-1.645715,-0.6857104,-2.0679593,2.2615104,-3.5864491,-1.3235778,-1.229087,1.3906211,1.1117179,1.1766168,0.12841097,-0.115062065,0.32977384,-2.0474775,-1.4777904,0.30867672,-0.6073347,-3.246447,0.61529714,-0.6856742,0.56969124,-1.1697838,-1.5272841,-0.9577083,1.8287866,-1.0717329,-0.1742208,-1.1859564,2.4394462,-0.7065968,-2.4594238,-0.73959637,1.0601419,-0.8505261,-2.0521243,-0.20098563,-2.8401499,-0.3365354,2.4859712,0.6130628,-0.5398274,2.0925922,0.11905774,0.5320212,-0.43791556,2.0291123,-1.3876342,-2.0540464,1.1672679,-3.4208045,1.7986095,1.1101166,0.88947624,1.7079718,-0.80928385,-0.80115443,-4.2645235,0.11086556,1.6629258,2.32323,-4.245646,-3.977019,2.6215,-1.3619206,-2.722831,-0.21711616,1.0406367,-2.353708,-1.8263538,-1.9449757,-2.692272,1.2356066,-0.999049,2.596466,-3.8921208,1.758433,-3.6345901,-1.0944315,-1.0431333,1.0443202,0.94216394,1.5237842,-0.37153545,0.876024,-0.42686412,-0.5791684,2.923892,2.1530144,1.1076679,-0.5752506,0.4833148,1.9904656,-0.99134666,-2.7686834,1.9747819,1.6380321,0.9836269,-0.8732073,-0.029456701,0.008222636,-3.2187705,0.6523923,-0.53983426,2.3916528,5.406295,0.3205591,0.5675141,3.2792654,0.8481761,1.047286,1.128204,0.101520285,-2.7266412,-0.62532884,-1.1323103,-3.7119021,-2.1271062,-1.6003381,-3.2033167,0.8558718,-2.1495347,-2.3938735,-0.9110589,-0.20967709,1.0204668,1.9668716,-3.211028,-1.2938032,0.8384425,0.36496487,-2.2472801,-1.4836985,-0.7772262,0.88108844,1.9421595,-1.9058734,0.8796821,-3.251062,-2.207533,-0.41767067,1.496851,-2.6914082,-0.2670045,-0.79135484,-3.0310209,2.4210203,1.451639,-1.5438483,1.759148,-1.2862006,0.35326177,1.9320205,-0.7548445,3.0980446,0.46287936,2.1951082,-0.8050434,-3.7207108,-4.8837986,4.6157513,-2.744991,-1.1997631,0.5973236,1.2682157,-0.25679034,-0.49644953,2.0376134,-0.9012939,1.6681352,-1.9877943,0.9577126,0.19994289,-0.005166648,-1.2351643,0.9336532,2.082905,2.3285112,0.7037897,1.7251048,-3.1707163,-1.1146815,-0.09903794,1.7136259,0.2953628,-1.3258966,0.32703936,-4.044324,-2.2667108,-0.2666084,2.2302847,1.0184019,0.96599936,0.30376706,-3.261123,4.501978,-1.0249004,1.0483425,0.16447707,-3.925301,-1.7350732,0.5623951,1.2371458,-0.47484276,2.5639322
C3N-04284,2.453945,-0.98132354,1.6979173,2.5280993,-3.6874092,1.4976339,0.7701424,-2.9405284,1.3404425,0.32126516,-1.3143986,-0.35376596,0.33491245,2.22228,-0.42048088,3.7599404,0.45997834,1.1893446,-0.036473174,1.3731525,-2.1962454,-0.39252025,-0.33695117,-0.29523844,1.3496497,-2.9125156,-0.87188935,-0.90570295,1.8541054,-1.7189451,-1.5833277,2.0729527,-0.86408085,-3.499831,-0.68250304,2.4001212,-0.8357898,2.8338506,-2.3885665,-0.8107566,0.40845165,2.8099012,-1.2304928,0.19066322,-1.684835,3.2850015,-4.6689324,0.06477309,-0.80767214,-1.1697745,-1.6598566,2.2600288,-1.8316143,-0.31153673,-2.1597931,2.4677815,-3.309379,-1.3301492,-1.4727855,2.1698463,1.2472334,1.4760399,0.04277475,0.017902134,0.4104899,-1.699727,-1.6054524,0.840181,-0.5470436,-3.2833538,0.587609,-0.7685083,0.8862355,-1.0395155,-1.9278142,-0.95486736,2.1496618,-1.3692249,0.112041414,-1.3696884,2.5698328,-0.9721341,-2.8536153,-0.5759223,0.6906081,-0.7613684,-1.677267,-0.30043086,-3.3075783,-0.733383,2.700772,0.21039717,-0.6223238,1.9911356,0.2714628,0.72935987,-0.5006332,2.232801,-1.2873738,-2.125309,0.80444473,-3.4490957,1.8743435,0.6209399,0.7400104,1.3445003,-0.7144074,-0.4401303,-3.889013,0.008884314,1.8430052,2.315253,-4.4334064,-3.8468788,2.6252081,-1.8255358,-2.8443646,-0.41231114,1.0098332,-2.3120203,-1.7309111,-1.8297703,-2.554908,1.6995875,-0.8977628,2.3773398,-4.002049,1.5343766,-3.7675424,-1.1230563,-0.75696176,0.7634281,0.9039761,1.270102,-0.23492585,0.88334846,-0.3560468,-0.3898923,3.1593206,1.8321931,0.84291506,-0.41120908,0.42179173,1.8606808,-1.0444237,-3.0698264,2.0688424,1.8871237,1.3998818,-0.88401335,-0.44941267,-0.25177473,-2.6676128,0.95173305,-0.6583745,2.5393238,4.709188,0.032773145,0.58277714,2.9794624,0.77918357,0.87804043,1.1037812,-0.7344881,-2.7034137,-0.31561846,-0.94076467,-3.900072,-2.0338695,-1.560765,-2.8820894,0.45876953,-2.3650403,-1.8947133,-0.7851327,-0.18585311,1.3109312,1.705192,-2.6220286,-1.6065699,0.7153665,0.44108307,-2.6107612,-1.6823272,-1.2444874,1.0903286,1.4239933,-1.8489026,1.0597696,-2.7747567,-1.5583242,-0.529341,1.8750113,-2.5258121,-0.4773011,-0.88751924,-2.9568632,2.1299374,1.583371,-1.584697,1.5407152,-1.3932332,0.19085114,1.8776033,-0.62336075,3.2032359,0.6395046,2.4981532,-0.5287223,-3.9020002,-4.1286726,4.263006,-2.9448874,-1.0095692,0.8691808,1.5935763,0.0073175402,-0.45779762,1.8466882,-1.2617444,1.8073704,-2.3631191,0.5600358,0.12828153,0.24038975,-1.3027385,0.8828949,2.0239882,2.1839538,0.7418041,1.7156807,-3.1072578,-1.2028471,-0.13307494,1.779075,-0.011730356,-1.1803523,-0.00073583546,-3.6233082,-2.3254564,-1.0438982,2.0562665,1.0294917,0.89966226,0.4774693,-3.3084617,4.7282925,-1.1922867,1.1139623,0.41958788,-4.4747267,-1.4207629,0.4422222,0.9811895,-0.46667638,2.8454967
C3N-00957,2.710142,-1.4714568,2.143265,2.6843293,-3.5269244,1.3580177,0.5947049,-2.6218736,1.149065,0.58988535,-0.80612105,-0.54637355,0.5338642,1.8906056,-0.5025458,3.611452,0.76313007,1.8315519,-0.046827238,1.8568332,-2.5136447,-0.8421202,0.12379148,-0.30192187,1.2978708,-3.0247762,-1.1451163,-0.84202623,1.699689,-1.2155217,-1.6692177,1.4472189,-0.89282835,-3.5140026,-0.7357334,2.30909,-0.6727539,2.9983022,-2.6260357,-0.9281497,-0.043871988,2.7287118,-1.8894019,0.21590865,-1.2455064,3.3850372,-5.1816316,0.38851425,-0.8389791,-1.1365343,-1.3654753,1.7798082,-1.7058644,-0.5856505,-1.986035,2.7162704,-3.73448,-1.6404715,-1.6175399,1.6427714,1.2305768,1.376241,-0.106667295,0.008721241,0.6010775,-2.0057573,-1.1313156,0.670879,-0.8391099,-3.3443081,0.67668813,-0.55233586,0.35601228,-0.87390363,-1.8938686,-1.3380073,2.387854,-0.54777145,-0.21732505,-1.3705611,2.368653,-1.0921311,-2.4918034,-0.6440909,1.2670891,-1.1640631,-1.9418446,-0.2466759,-3.114647,-0.26361164,2.672256,0.5180231,-0.4522485,1.357488,0.12287841,0.839164,-0.74165076,2.0936606,-1.0103455,-1.7142811,0.6647336,-3.6343489,1.7787559,1.166545,0.5348216,1.8369085,-0.6259909,-0.84170634,-4.211435,-0.13003471,1.2119792,1.8104053,-4.444618,-4.0803957,3.249071,-0.7937654,-3.0518703,-0.015590084,1.2407074,-2.6773446,-1.6393303,-1.9513747,-3.1942298,0.9728243,-1.4178123,2.3414109,-3.6292717,1.1383213,-4.1513653,-1.1395109,-1.2430127,0.69555336,1.8951268,0.960602,-0.060591046,0.7401658,-0.39252234,-0.8879757,2.449111,2.2795136,0.9566056,-0.718039,0.061492503,1.9007884,-1.3799413,-3.183452,1.863934,1.6936572,1.0684963,-0.49801064,-0.20718965,0.063945726,-3.2503843,0.5986048,-0.8606765,2.6730697,4.8634095,-0.009346815,0.1839621,3.047686,0.81656766,1.2605304,1.2684354,-0.18289202,-2.9293432,-0.41394532,-1.0683382,-3.6625633,-1.557753,-1.5443536,-2.7130709,0.6780321,-2.2702563,-2.8487828,-0.903477,-0.34639418,1.5285044,1.925206,-2.691353,-1.3170552,1.1808178,0.51270336,-2.1252074,-1.0275635,-0.51710427,0.8289128,2.1491904,-2.1697505,1.4246871,-2.9262714,-1.9773805,-0.5725911,1.4352959,-2.7762115,-0.13560683,-0.880932,-2.694194,2.2939675,1.6409081,-1.0875535,1.5795356,-0.747274,0.2938052,1.7887377,-0.49555272,3.0016043,0.6817493,2.210498,-0.5901926,-3.9770534,-4.879657,4.6107926,-3.293048,-1.3086661,0.61404204,1.4069259,-0.59983224,-0.88899195,1.8400621,-0.84449637,1.6244694,-1.8835074,0.93967867,0.3458893,0.012581132,-1.1734858,0.8321618,1.6216028,2.2362154,0.9467349,1.8343709,-3.3160853,-0.88529325,0.1271011,1.7023273,0.40300378,-1.154341,0.28221133,-3.9480267,-2.0181153,-0.18655328,2.294592,1.0878704,0.9875677,0.5057821,-3.0746274,4.5117865,-0.5820526,1.3721782,-0.34279957,-3.6942809,-1.4208531,0.44082156,1.3494152,-0.73189443,2.9805818
C3L-03395,2.5787337,-1.1301343,1.8634366,2.3358564,-3.909635,1.3579136,0.5965988,-2.670347,1.3824811,-0.0068480857,-1.0787722,-0.5263379,0.33841085,1.8289955,-0.31066817,3.3977766,0.7346555,1.3129147,-0.2193586,1.349891,-2.6259956,-0.38113415,-0.11805658,-0.4753453,1.6648141,-2.8686688,-1.3194436,-0.9106348,1.8422226,-1.8965329,-1.6235725,2.2328908,-0.8125149,-3.9472797,-0.6008069,2.4020977,-0.9938286,2.6856892,-2.4642122,-0.7917785,0.07985368,2.9961774,-1.2872779,0.1467713,-1.8171164,3.054194,-4.9008074,0.36709702,-0.60475516,-1.0430614,-1.2847883,2.0893548,-1.748858,-0.6952706,-2.0416617,2.6771667,-3.5960739,-1.6085733,-1.2757467,1.8729115,1.1368138,1.1061856,-0.35633123,-0.25943217,0.35870367,-2.1239045,-1.3390542,0.75871956,-0.5250997,-3.156518,0.5639331,-0.42278326,0.7787053,-1.0713284,-1.8180768,-1.2463648,1.9733198,-0.91353434,-0.22528535,-1.3611852,2.5553293,-1.038801,-2.3785255,-0.5228124,1.1540196,-1.0501025,-2.2626185,-0.36758327,-2.8116252,-0.0003280693,2.7512484,0.8230378,-0.5407051,1.7689115,-0.029992286,0.49815837,-0.6393216,2.070257,-1.3568985,-2.0412729,1.3900445,-3.4633741,2.0082824,1.0144157,0.91642714,1.7115501,-0.60361105,-0.8468746,-4.3130274,-0.029132131,1.7424254,2.1951275,-4.160798,-3.8915422,2.7626379,-1.2086455,-3.0084906,-0.19302925,0.9798217,-2.3962212,-1.9571328,-1.8969312,-2.8706307,1.363408,-1.0884383,2.7992857,-3.8448915,1.493347,-3.9370992,-0.9136083,-0.8088675,0.82666844,0.91570836,1.5060638,-0.13940911,0.8185855,-0.039443765,-0.7575737,2.8837879,2.1025178,0.98783225,-0.6677236,0.4886896,2.12692,-1.3221842,-2.9157367,2.2776203,1.784914,1.0254776,-0.67651975,-0.13073093,-0.21878543,-3.1408274,0.6651994,-0.41025576,2.484363,5.074673,0.29839534,0.5605639,2.9177268,0.6535662,0.9531446,1.0608823,-0.26314273,-2.9781265,-0.32423648,-1.1828818,-4.0727744,-1.9035102,-1.3713444,-2.811353,0.41794237,-2.2245698,-2.713078,-0.9960295,-0.19979317,0.8078443,1.8834585,-2.7978508,-1.447537,0.83129835,0.25598556,-2.2864974,-1.349269,-0.64880925,1.0489633,1.5599326,-1.9936287,1.103208,-3.2150085,-1.8563017,-0.19796899,1.6933982,-2.7477868,-0.62950134,-1.056276,-2.6187487,2.3670979,1.690878,-1.5089332,1.6286664,-1.0869344,0.1558173,1.8794311,-0.49059892,3.181847,0.6083483,2.4172275,-0.7580815,-3.697431,-4.7560105,4.5670233,-2.6190073,-1.4669496,0.7420688,1.3885472,-0.44591302,-0.75412685,1.9130154,-1.1351663,1.6416348,-1.8779879,1.1021059,0.006064418,-0.01864433,-0.9724885,0.59740376,1.7368301,2.4015298,0.49446258,1.4162728,-3.52659,-1.0246862,0.21084344,1.6289184,0.35636586,-1.1688622,0.6013082,-4.1235294,-2.2513041,-0.41349998,2.2131732,0.9701699,1.0960382,0.5671354,-3.248459,4.198731,-0.7785023,0.8105545,0.047822732,-3.9028041,-1.4511523,0.51714313,1.3606956,-0.4502739,2.9402595
C3N-00303,2.978996,-0.9441275,1.8189855,2.3914752,-3.6905074,1.1176579,0.62118185,-2.3132925,1.306559,0.43537554,-0.6790213,-0.592526,0.45499718,1.5753151,-0.08007676,3.5821204,0.9558586,1.8408457,-0.17579594,1.7108498,-2.4425573,-0.65205926,0.30500153,-0.32553613,1.4151437,-2.7536216,-1.40539,-0.8144574,1.4798026,-1.4416827,-1.6327957,1.7356613,-0.9410955,-3.7963114,-0.40284428,1.9166845,-0.83614284,3.285262,-2.7937176,-0.58657026,-0.1682557,2.8259978,-1.5804257,0.3003112,-0.96909195,2.7274294,-5.201787,0.2806837,-0.34892973,-0.7156659,-1.0966088,1.7622739,-1.6611303,-1.0743256,-1.8248727,2.628178,-3.8497996,-1.8698095,-1.850604,1.3550411,1.2306509,0.77853215,-0.32414442,0.31528994,0.53585017,-1.5700177,-0.9951496,0.7693963,-0.55373573,-3.436871,0.77000386,-0.47509703,0.23717245,-0.67182124,-2.1111867,-1.3224049,2.0815384,-0.39584866,0.15600745,-1.0178204,2.5067074,-0.9718802,-1.8493705,-0.7070982,1.5783072,-1.0068115,-1.4836955,-0.40044433,-2.922139,0.025490671,2.6415658,0.99810296,-0.38015717,1.3126936,-0.15067482,0.62489223,-0.25881574,1.8338912,-0.9952227,-1.7369621,0.69478863,-3.3706198,1.6620343,0.6824136,0.90260273,2.0472324,-0.25177747,-0.6372044,-4.261697,-0.11315197,1.2580047,1.5649312,-4.229961,-4.288097,2.7968,-0.716952,-2.9102855,0.05141732,1.4803723,-2.4722643,-1.7700292,-1.8510448,-3.239067,1.1427214,-1.6417289,2.5766633,-3.6907885,1.1878368,-4.23563,-0.4998549,-1.3624201,0.720212,1.74211,1.3834089,-0.25119948,0.846517,-0.05363974,-0.5614091,3.0015297,2.4681559,1.1050448,-0.5759298,0.044727243,2.1227558,-1.41606,-3.5222938,1.9752195,1.822594,1.0903306,-0.49202067,-0.3390366,-0.0811512,-3.3173895,0.300808,-0.9728208,2.2580354,5.0505614,0.097631596,0.58047664,3.2564218,0.57556504,1.364305,0.95095724,-0.43609846,-3.1253479,-0.49983504,-1.223519,-3.8548486,-1.0351222,-1.3542749,-2.7222626,0.62144977,-2.2165606,-2.7294583,-0.6921532,-0.5230238,1.208058,2.216688,-2.4489913,-1.0590806,0.6075488,0.06718858,-2.3690562,-0.88389075,-0.67084527,0.7160429,2.2445414,-2.2404382,1.4802804,-3.298487,-1.9223533,-0.27090392,1.7611287,-2.9038668,0.27258667,-0.77498704,-2.5889933,2.410559,1.8821201,-1.4808797,1.6387324,-1.1930326,-0.07174259,1.6642386,-0.73456097,2.6115482,0.8911535,2.1379242,-0.36618796,-3.6090493,-4.8116426,4.782119,-2.8589334,-1.5003834,0.36522305,1.4124681,-0.2226627,-1.2830844,1.3892325,-0.79088616,1.660352,-1.5072094,1.1871705,0.053412627,-0.584511,-1.076623,0.47491303,2.1866362,2.2611942,1.2156949,1.7128052,-3.3172984,-1.0552661,0.021678483,1.677199,0.7333248,-1.021485,0.25180086,-3.8890126,-1.9766744,-0.13023712,2.0337234,0.9488312,0.7176443,0.30884832,-2.854139,4.4508224,-0.9493217,1.4198823,0.0839686,-3.5193315,-0.915847,0.45788807,1.3248185,-0.636518,2.7830245
C3N-00513,2.721283,-1.1216106,1.9113307,2.5942726,-3.808103,1.5863677,0.5727165,-2.729234,1.1072273,0.23562393,-0.84432346,-0.4189525,0.20131369,1.9691125,-0.29102302,3.488889,0.45962867,1.3717488,-0.13752867,1.5720307,-2.498284,-0.30565122,-0.25694188,-0.687539,1.4529039,-3.086043,-1.0191003,-0.91524595,1.787466,-1.8209321,-1.5131416,2.0129728,-0.8651183,-3.7145798,-0.647105,2.5457742,-0.84648347,2.5637279,-2.655861,-0.62355083,0.33764392,3.0604773,-1.6010317,0.526267,-1.4470171,3.1990335,-4.9579105,0.45245996,-0.6181807,-0.9637675,-1.6982725,2.2822256,-1.9308114,-0.16869736,-2.0676749,2.436823,-3.628058,-1.698535,-1.4837039,1.7945826,1.1923605,0.96334887,-0.53169376,-0.075837836,0.3192622,-1.9882596,-1.6278006,0.21570416,-0.6679331,-3.3097863,0.6979997,-0.47936124,0.8563783,-1.3402437,-1.6618185,-1.213624,1.9015567,-1.0177214,0.022463383,-1.236758,2.4234564,-0.8466339,-2.3667562,-0.6518021,0.9747728,-0.8865767,-1.8493013,-0.41623124,-2.9918773,-0.29931444,2.623588,0.7125271,-0.2565632,1.844913,-0.020887999,0.486746,-0.35964566,2.2410438,-1.0278486,-1.9890996,1.0362275,-3.5293677,1.9652599,0.9172659,0.9387368,1.8106933,-0.8088667,-0.81402177,-4.29287,0.10386188,1.5499579,2.318656,-4.219477,-3.9867864,2.639455,-1.4781498,-2.871209,-0.20670395,1.0892531,-2.5989263,-1.6426032,-2.101035,-2.8674915,1.4041702,-1.1298052,2.5357623,-3.7720478,1.5589919,-3.9694266,-1.0050296,-0.7484515,0.7898985,1.2255124,1.4702824,0.08428649,1.017809,-0.36438045,-0.63648224,2.9816477,2.2088895,1.3017328,-0.6500089,0.36997625,1.9702266,-1.3143411,-2.8168938,2.0638025,1.6995131,1.2532735,-0.5188893,-0.13882166,-0.021870526,-2.8913364,0.9000394,-0.62649983,2.4696066,4.8085527,0.094986185,0.7536745,2.7381296,0.9218698,1.042252,1.3025224,-0.41155344,-2.8901465,-0.40068695,-1.0065365,-3.9436002,-1.7173203,-1.4997603,-2.913047,0.5157186,-2.3056998,-2.415343,-0.8577077,-0.4914874,1.1587783,1.9769875,-3.0188599,-1.4039954,0.84290504,0.31941405,-2.1736164,-1.1754628,-0.6615185,1.0274,1.5883086,-1.8169453,1.0612607,-3.1281168,-1.8771605,-0.18679634,1.6009285,-2.6608708,-0.14448902,-0.7357704,-2.9486685,2.3501961,1.6097437,-1.5698898,1.6036462,-1.2838488,0.3354879,2.0747383,-0.56362176,3.457053,0.9060371,2.065505,-0.7810833,-3.8599594,-4.870992,4.594444,-2.9200323,-1.3268391,0.7190698,1.4544108,-0.29419565,-0.7055718,1.7064382,-0.7771454,1.7827064,-1.9036872,1.1850652,-0.14241621,-0.098676525,-1.1716486,0.58221436,1.8383104,2.3585732,0.6285761,1.4628938,-3.277333,-1.1644142,0.15838693,1.6977152,0.13023522,-1.0784788,0.4625231,-4.033013,-1.9885345,-0.38671297,1.8231952,0.86940956,0.97719675,0.61470175,-3.1590793,4.2056055,-1.0647775,0.7844972,0.0318412,-3.8747134,-1.5775101,0.8942351,0.9834513,-0.61539125,2.5821788
C3N-01166,2.721471,-1.2896912,1.9992129,2.5600262,-3.7776244,1.4818577,0.6059432,-2.4033172,1.46141,0.23942152,-0.8461199,-0.5950144,0.3443599,1.764943,-0.56026757,3.7479408,0.6010782,1.3495122,-0.057553224,1.5573424,-2.2607,-0.49800178,-0.08366082,-0.35793644,1.3886065,-2.804944,-1.2910632,-1.0467095,1.8619438,-1.4768795,-1.604457,2.054,-0.6904465,-3.29731,-0.54242355,2.2014282,-0.82224876,2.596052,-2.6864605,-0.8110568,0.19423647,2.945028,-1.3987846,0.1351533,-1.4918147,3.0744843,-4.9496865,0.24118723,-0.84485835,-0.9620788,-1.3697163,1.9639028,-1.733138,-0.4505114,-2.2904108,2.4103913,-3.5107176,-1.7063676,-1.49177,1.700454,1.0016799,1.5020958,-0.17607488,0.04231507,0.63637894,-1.9448324,-1.3580997,0.34036896,-0.8492976,-3.084865,0.48154637,-0.7092617,0.8982817,-1.2489047,-1.7331854,-1.2310369,2.0004528,-0.73914856,0.18673635,-1.216145,2.8154523,-0.9674399,-2.4885783,-0.6809809,1.0522503,-1.1241835,-1.8359885,-0.48021966,-2.9214463,-0.24115363,2.946651,0.97915137,-0.4008082,1.5493219,-0.20404352,0.8317063,-0.48842162,2.184007,-1.1987746,-1.7886252,0.95822394,-3.4365952,1.9993271,1.0602546,0.72040945,1.5633287,-0.6334721,-0.6830337,-4.136997,-0.07608482,1.4309047,1.8693477,-4.412524,-3.9791965,2.5760872,-1.1601737,-3.1659245,-0.3303501,1.1087358,-2.534408,-1.5105393,-2.0584815,-2.9477944,1.099813,-1.0605531,2.461097,-3.790833,1.7575852,-4.0467353,-0.89351445,-0.9100766,0.85865563,1.4572642,1.3769175,-0.1286851,0.88875103,-0.22830106,-0.9554732,2.7473462,2.2902799,0.67448336,-0.8675329,0.23292927,2.1977484,-1.4177837,-2.9704328,1.8873043,1.906545,1.1479049,-0.5628346,-0.24130437,-0.010713066,-3.0178168,0.7367312,-0.8207554,2.3965976,4.9553285,0.297336,0.49706703,2.9541082,0.5700941,1.3128033,1.2631195,-0.21172903,-2.9929256,-0.2550005,-1.2316353,-3.896942,-1.9422143,-1.5161897,-2.9034338,0.6776469,-2.4247983,-2.464326,-1.1114738,-0.39016452,1.1816437,1.8181047,-2.79757,-1.3474581,1.1282057,0.32273817,-2.1053176,-1.5441685,-0.7736465,0.7873609,1.503662,-1.9600488,1.077545,-3.230193,-1.8471689,-0.44974896,1.378748,-2.9234722,-0.36264995,-0.70080155,-2.7005796,2.2059805,1.8397362,-1.42311,1.5006773,-1.4200475,0.17436191,2.067275,-0.4928987,3.0588257,0.3521455,2.4967532,-0.7786997,-4.0561976,-4.6162815,4.479719,-2.8909059,-1.2102406,0.40257743,1.3615531,-0.20052257,-0.79894453,1.5973759,-0.87393606,1.6294003,-2.1402712,0.9442464,0.25058064,0.0018677007,-1.1353683,0.4580469,1.9256717,2.1208928,0.67781603,1.4327743,-3.2532663,-1.1950892,-0.01643413,2.2036138,0.38252068,-1.0181348,0.5354977,-4.05132,-2.154195,-0.13813958,1.9793447,0.96462363,0.99172854,0.664139,-3.1319315,4.3493176,-0.7088011,1.0561948,0.19872662,-3.8089666,-1.6875437,0.7273436,1.11256,-0.47638404,2.7366908
C3N-01382,2.8255386,-1.0556697,1.7435491,2.7426994,-4.02756,1.2659589,0.5764245,-2.504697,1.1988895,0.1816272,-1.1201402,-0.59188855,0.019466296,2.0339174,-0.15368025,3.5190942,0.6183157,1.2767094,0.013107222,1.7072786,-2.599066,-0.2947399,-0.28641117,-0.3294434,1.4217131,-3.0173092,-1.181318,-0.8112865,1.7805312,-1.7115369,-1.4211291,1.9678066,-0.8327962,-3.335695,-1.029961,2.4555988,-0.6119986,2.677387,-2.507481,-0.9458339,0.035134293,2.9805577,-1.1605369,0.41214925,-1.7530695,3.1713471,-4.9351053,0.18271798,-0.643168,-1.0460973,-1.4767112,2.2175272,-1.534348,-0.3746452,-2.2147381,2.799273,-4.0018616,-1.6093665,-1.4201992,1.6163965,1.2301389,1.3649104,-0.22037564,0.040110372,0.14734739,-2.0234,-1.4497029,0.3179914,-0.57729393,-3.2660277,0.62372667,-0.43308008,0.7651072,-1.3223437,-1.6382016,-0.91347003,2.1566262,-0.83682656,0.12089515,-1.30399,2.710568,-0.7986249,-2.7942584,-1.0156171,0.96753496,-1.0373788,-1.8445773,-0.039249837,-2.7375836,-0.09875872,2.6031876,0.69975805,-0.50667626,1.8395101,0.2600832,0.42605612,-0.20210811,2.2023737,-1.3432893,-1.9642923,1.1529613,-3.2719722,1.6347533,0.81233937,0.89598966,1.6456203,-0.80362475,-0.8194369,-4.3092036,0.29222107,1.6497699,2.2568526,-4.276845,-3.9192872,2.8335512,-1.0966294,-3.1534216,-0.32687595,1.2580389,-2.3763225,-1.9466773,-1.9672619,-2.8117008,1.3179545,-0.8291916,2.2183514,-3.9230435,1.5911487,-3.6322436,-0.8753848,-0.8399982,0.9437468,1.0103426,1.6405716,-0.23579606,1.1549612,-0.16374142,-0.6514088,2.9553452,2.2497327,1.0627959,-0.78555125,0.27248532,1.8975118,-1.1294206,-3.1187527,1.99155,1.8093394,0.9219541,-0.9337667,-0.41025054,0.15016492,-3.399089,0.3524458,-0.6080016,2.556103,4.903039,0.5171599,0.5867487,3.2533877,0.56296766,1.0749459,1.246656,-0.26862705,-2.9518974,-0.43316072,-1.0903922,-4.094395,-2.1742578,-1.3672498,-2.926637,0.49569657,-2.4433668,-2.4896975,-0.9771623,-0.2832196,1.0093807,1.6493875,-2.9970953,-1.1512862,0.97115064,0.40024757,-2.472729,-1.486954,-0.40320843,0.99864644,1.6693552,-1.9837829,0.97492796,-3.159184,-1.8664331,-0.17764194,1.6507868,-2.7617774,-0.17689265,-0.8285816,-2.9527142,2.2831278,1.5864797,-1.4474906,1.7140391,-1.2669548,0.34594935,2.001245,-0.6295698,3.2250988,0.5806196,2.4064012,-0.7566551,-3.749072,-4.791021,4.772286,-2.65301,-1.2956389,0.41526687,1.3316686,-0.07291325,-0.3674527,1.604353,-0.828767,1.8043593,-1.8900862,0.96589404,-0.17783608,-0.3215128,-1.1343472,0.6732752,2.1579587,2.4471943,0.70724684,1.5627228,-3.2940154,-1.2286475,-0.16256177,1.8960123,0.55386424,-0.8408189,0.3151771,-4.010028,-2.283766,-0.56171346,2.1033518,0.95763445,0.83985317,0.3749221,-3.2261524,4.370796,-1.0231394,0.9680437,0.19094326,-3.7658052,-1.6313543,0.6253764,1.2486126,-0.2521318,2.5915887
C3N-01011,2.643618,-1.1146632,1.7580218,2.6094658,-4.118785,1.5910543,0.6220696,-2.244011,1.1657773,0.13022493,-0.6903673,-0.49419564,-0.002442762,1.8530256,-0.37427846,3.6264524,0.53255457,1.5856118,-0.14486817,1.5221002,-2.445911,-0.29627293,-0.08542203,-0.39546987,1.3679321,-3.066809,-0.98314047,-0.7810984,2.0125465,-1.5890366,-1.6473818,2.1502323,-1.0668397,-3.674716,-0.5146696,2.2915351,-0.9379183,2.440072,-2.5892093,-0.8509621,0.08568366,3.0232887,-1.2356169,0.6021826,-1.5575584,3.0082254,-5.07955,0.52315986,-0.80057544,-1.0061641,-1.0691957,2.0695522,-1.8461158,-0.5227112,-2.1204336,2.408724,-3.894717,-1.4612406,-1.4138676,1.6084915,1.1632601,1.0914671,-0.5312438,0.23222081,0.32452255,-1.8706537,-1.0560203,0.4780631,-0.8891987,-3.1201928,0.488891,-0.42182133,0.5503288,-1.3788669,-1.554941,-0.85638607,2.0165415,-1.0351804,0.11374809,-1.3542593,2.8605976,-0.90493506,-2.519474,-0.8671756,1.0325128,-1.0920027,-1.9196543,-0.4408791,-2.781753,0.010047859,2.7124503,0.78477526,-0.3267684,1.5924106,-0.008658492,0.75102365,-0.4505626,2.2845268,-1.3041582,-1.8321222,0.99996626,-3.4709835,1.5927316,0.67459285,0.71815276,1.5898705,-0.38063216,-0.6796286,-4.2086754,0.1012419,1.5364316,2.1541095,-4.403257,-4.2622805,2.8513813,-1.2333204,-2.9948642,-0.4118047,0.89619493,-2.5806127,-1.7748517,-1.9208266,-2.8654482,1.2232591,-0.95567113,2.5084321,-3.8279166,1.3774682,-3.9107335,-0.87451476,-1.0813683,0.9787094,1.1160778,1.518765,-0.22821735,0.5028279,-0.086808026,-0.52424157,3.1747215,2.1726062,1.0792055,-0.8898465,0.69366825,2.1237028,-1.496427,-2.924985,2.0646048,1.6242464,1.239271,-0.6866398,-0.2332607,0.2941921,-3.0515618,0.5376146,-0.58332664,2.555871,5.3596816,0.05522915,0.4169697,3.058165,0.92543036,0.88130623,1.2855585,-0.45439062,-3.1123774,-0.5802921,-0.9731479,-4.1086044,-1.8139149,-1.5737237,-2.8328598,0.7631021,-2.2777145,-2.6105468,-1.0902433,-0.6612297,1.2376091,1.9107633,-3.1392303,-1.3168994,0.86745375,0.44120613,-2.1880438,-1.4881483,-0.5681889,0.7157711,1.6540877,-2.0427308,1.0348558,-3.0106702,-1.8987609,-0.343277,1.7783487,-2.7924225,-0.46829724,-0.7685605,-2.7859983,2.1744444,1.5175593,-1.6401578,1.3995762,-1.3013186,0.28432468,2.1490974,-0.6332175,3.1918476,0.29113808,2.377174,-0.886736,-3.9072666,-4.4085674,4.51764,-2.7389443,-1.3508948,0.65894496,1.3586807,-0.33115423,-0.810686,1.591888,-1.0676324,1.7200949,-1.9154546,1.0709716,0.17962804,0.024170239,-1.0698088,0.7969388,1.9935367,2.1552334,0.73256385,1.5300338,-3.1368825,-1.0925221,-0.06587941,1.7644116,0.53895587,-1.22781,0.39345446,-3.8248003,-2.0481405,-0.19046472,1.8212465,0.98126775,0.89922446,0.4667472,-3.4725423,4.4239883,-1.022011,1.0096004,-0.021540502,-3.7878528,-1.6117862,0.68640244,1.0928485,-0.7821469,2.5121925
C3L-04473,2.5794148,-1.3394363,1.5991132,2.3388827,-3.820845,1.5731673,0.70309883,-2.5947945,1.4371972,0.2343787,-0.8155891,-0.75675046,-0.14692542,1.9315647,-0.35966778,3.70209,0.5556484,1.4902077,-0.27012017,1.4408524,-2.472346,-0.42580193,-0.07741941,-0.24579625,1.2179126,-3.096491,-1.1163876,-0.7392106,1.5708809,-1.6322173,-1.6031044,1.9636835,-0.9655871,-3.555708,-0.68168396,2.3336718,-0.78193325,2.9381526,-2.5793765,-0.6895548,0.12911816,3.0720305,-1.3617935,0.4419868,-1.4933176,2.9491565,-4.944979,0.38972047,-0.5139812,-0.9503454,-1.3423594,2.3192954,-1.8971492,-0.6147611,-2.0703955,2.5110893,-3.8383498,-1.6500335,-1.3622905,1.9947432,0.95235485,1.1020614,-0.5447429,-0.10250866,0.41279298,-2.0563443,-1.1416101,0.49707437,-0.6670306,-3.3850842,0.45769066,-0.51608926,0.5460302,-1.2791535,-1.8052224,-1.1749704,1.4943192,-0.9757884,0.08333697,-1.5210966,2.4243503,-0.8539441,-2.525851,-0.72735554,0.99326074,-1.0203241,-1.6549687,-0.5999232,-2.756803,-0.0014365059,2.677408,0.6750858,-0.54035735,1.5947883,0.06725033,0.55314416,-0.37570417,1.9371206,-1.6008629,-2.1995926,1.061672,-3.4287932,2.0884778,0.93519723,0.8184364,1.5357215,-0.63971704,-0.5357584,-4.246568,0.17926404,1.5992378,2.0483968,-4.1430225,-3.8341835,2.545581,-1.3113717,-2.6469905,-0.36502832,1.0940431,-2.2560318,-1.8789911,-2.2587092,-2.7159686,0.87763983,-1.0721601,2.5166073,-3.697064,1.6834252,-4.159602,-0.8847508,-1.1476035,1.0627865,1.444893,1.4344919,-0.28859517,1.0284853,-0.19469479,-0.5397972,2.8980043,2.0358012,1.0084296,-0.9752377,0.6930186,2.1767771,-1.3329132,-2.8474371,2.2763357,1.6326058,1.1791652,-0.8757847,-0.07830426,-0.09193503,-3.0424595,0.7432276,-0.7891596,2.416299,5.099649,0.43973616,0.4358759,3.0418994,0.7089302,0.8364449,1.0604934,-0.4281802,-3.1339848,-0.26982453,-0.88087153,-3.8009362,-1.8763251,-1.4522543,-2.8841348,0.509136,-2.0887024,-2.5916078,-0.7406027,-0.40505284,0.9313405,1.8428193,-3.040376,-1.2069255,1.0488217,0.157929,-2.1045902,-1.3086733,-0.6134004,0.8244684,1.6597847,-1.7249261,1.0917875,-3.1258824,-1.8852122,-0.16657223,1.5481101,-2.727144,-0.38996017,-0.7503342,-2.7092478,2.2501483,1.5560281,-1.3274806,1.506574,-1.3932488,0.28005433,2.0444586,-0.4321403,3.3143752,0.52039146,2.338289,-0.5987301,-3.826125,-4.5215774,4.5263124,-2.8244421,-1.5031079,0.5341642,1.463268,-0.22182597,-0.9278054,1.7358902,-0.80728835,1.6752702,-2.2035508,1.0336933,-0.0041951844,-0.16113533,-1.0877794,0.5809519,2.0165017,2.2650406,0.56719613,1.462064,-3.2534428,-1.1787186,-0.009388966,1.9094899,0.2687202,-1.0665932,0.415172,-3.836053,-2.0979035,-0.2858184,1.7256954,0.8639419,0.8309582,0.4065971,-3.201626,4.3138247,-0.5638012,1.0097432,-0.054301843,-3.7525196,-1.387614,0.6694661,1.1310627,-0.5680272,2.644737
C3N-01997,2.6390407,-1.1196649,1.9180875,2.3350613,-4.0618467,1.326216,0.40883604,-2.4767308,1.3618969,0.19314471,-1.197828,-0.15154223,0.15282667,2.0170178,-0.6869528,3.6076922,0.79862416,1.5486414,-0.30413517,1.7348624,-2.6116474,-0.122313865,-0.45286945,-0.50606596,1.4690158,-2.8829257,-1.0592363,-0.7029792,1.7770244,-1.6078764,-1.6380767,1.9509207,-1.1000559,-3.6677577,-0.54237455,2.4548228,-0.7346989,2.6600626,-2.6459467,-0.7493566,0.35723925,2.8300166,-1.5263956,0.3991641,-1.5818648,3.0232913,-4.927728,0.5238597,-0.6945769,-1.1905332,-1.5896679,2.3196087,-1.8768941,-0.4508776,-2.0471427,2.1646063,-3.4313822,-1.1336341,-1.6086342,1.483569,0.90489006,1.3255339,-0.45630202,-0.3626439,0.31299433,-2.2630818,-1.1245581,0.7509509,-0.61921275,-3.2987561,0.42719764,-0.42215034,0.87975806,-1.0967579,-1.4827319,-1.2972189,2.099423,-0.90301234,0.13965811,-1.3276175,2.5909584,-1.0224873,-2.3315964,-0.90241826,0.8393084,-0.96751666,-1.8509082,-0.5961705,-2.815433,-0.08242328,2.9725606,0.7762352,-0.4122418,1.818489,-0.044339273,0.637211,-0.46241698,2.2215502,-1.2306557,-1.8881078,1.0183357,-3.4312341,1.846496,0.7289182,0.9419794,1.5374671,-0.79834914,-0.83664817,-4.0544066,0.1788352,1.5560721,2.2706149,-4.41459,-3.9331784,2.77321,-1.5241866,-2.9180472,0.024634201,1.3423202,-2.5669565,-2.0416174,-2.1353393,-2.9790132,1.2741007,-1.0463585,2.6168897,-3.8247886,1.4783416,-4.0309944,-0.6135672,-1.015073,0.952748,0.96665066,1.6792759,-0.22597617,0.73997194,-0.10612835,-0.71235526,2.6405737,2.38708,1.1401908,-0.73394686,0.020847848,2.2297542,-1.2527609,-2.6180458,2.2338603,1.8774613,1.0524342,-0.64758736,0.019030495,-0.053515323,-2.9176736,0.9936744,-0.5443782,2.479228,4.98985,0.18283664,0.38031524,2.946599,1.1233692,0.8285659,1.3895819,-0.4364614,-2.842852,-0.25500435,-1.1945794,-3.8841617,-1.8160174,-1.5830748,-3.1003308,0.6633855,-2.1534853,-2.4572425,-0.88798153,-0.10108235,1.118833,1.8730793,-2.9921014,-1.3911158,1.1196975,0.63737094,-2.2578206,-1.2136596,-0.8872756,1.0177599,1.7195678,-1.977555,0.8300409,-3.060068,-1.7529233,-0.22568044,1.6700203,-3.013945,-0.1802462,-0.7264331,-2.9210787,2.269506,1.606434,-1.4782838,1.5924687,-1.2584921,0.15020129,2.153904,-0.44166043,2.9689815,0.47446653,2.406302,-0.78863937,-3.777996,-4.569032,4.514908,-2.6359298,-0.89369696,0.5642041,1.4791421,-0.18726353,-0.36518425,1.5750103,-0.6941559,1.8309577,-2.0151007,1.175741,-0.034189712,0.1010798,-1.0446935,0.69410956,1.8490325,2.2744386,0.42731518,1.9054841,-3.23023,-0.8333454,-0.17867196,1.5672671,0.2647122,-1.3215083,0.38743725,-3.9776163,-2.359038,-0.26611206,2.3450775,1.1257386,0.9940324,0.7267837,-3.1020806,4.377309,-0.8562269,0.8454651,0.16794285,-3.5994003,-1.6481426,0.8033158,1.3549097,-0.8724545,2.8657627
C3L-00640,2.8557022,-1.2248833,1.801337,2.4098144,-4.1497207,1.449634,0.51054543,-2.6623943,1.4173359,0.18932718,-0.88915753,-0.56872106,0.05233753,1.6981809,-0.29192775,3.9369037,0.8962063,1.3747832,0.14008176,1.9299641,-2.5604985,-0.5427533,0.2326363,-0.49232772,1.4879237,-2.6377833,-1.5901767,-0.48128235,1.868907,-1.6825861,-1.7842535,1.3714386,-0.8123591,-3.5286655,-0.60433507,2.236555,-0.7349821,2.6063612,-2.5723631,-0.73794043,0.057889074,2.9542308,-1.4491262,0.3689972,-1.4677448,3.023693,-4.7991877,0.7563097,-0.68849593,-0.82383305,-0.7619266,2.153286,-1.8974459,-0.96688694,-2.1208093,2.2328541,-3.6714923,-1.4159787,-1.5007815,1.4526709,1.3924311,1.3193246,-0.11065747,0.123499095,0.4576244,-1.9532545,-1.0312994,0.35476357,-0.81489795,-3.6195526,0.41791365,-0.6607259,0.3506172,-1.1636267,-1.4822476,-0.7609913,2.2458715,-0.8226789,0.03621702,-1.3068322,2.8024678,-0.9593701,-2.2920072,-0.85286874,1.4201814,-1.1296351,-2.031762,-0.17494255,-2.706487,-0.010125158,2.5149374,0.6518738,-0.6321266,1.7631587,-0.016388705,0.6790138,-0.64308304,2.3060093,-0.8228516,-1.5549372,1.1094534,-3.229001,1.8202392,1.0250657,0.5944988,1.4861735,-0.38462862,-0.6681728,-4.3643637,0.24963573,1.4119699,1.7364883,-4.3831835,-3.8538656,2.636862,-0.9095279,-3.1725707,0.11203252,1.1641047,-2.54904,-1.7893611,-2.133752,-2.7534614,1.1593124,-1.3639088,2.5431378,-3.6546214,1.438643,-4.22945,-0.69040275,-1.0874103,0.7365832,1.5584412,1.044252,0.015741233,0.75722116,-0.051952936,-0.92683065,2.9942024,2.4291112,0.9119011,-0.9523498,0.29687962,1.7214211,-1.2969573,-3.3415897,2.1387475,1.8463037,0.9455469,-0.45726374,-0.14893185,0.38675332,-3.3640935,0.51267666,-0.73387176,2.523737,4.83548,-0.14850198,0.4328121,2.9958093,0.83397,1.6475102,1.4203893,-0.31036273,-3.0087507,-0.23555015,-1.4041659,-3.5501423,-1.860742,-1.5106521,-3.158021,0.48926446,-2.1221132,-3.2263029,-0.8946434,-0.35626516,0.9705617,1.9264244,-2.727541,-1.2512405,1.3234541,0.45298624,-2.0591557,-1.1214181,-0.48274386,0.833825,2.1327665,-1.9589014,1.2530749,-3.3568478,-1.9979722,-0.23942497,1.730415,-2.9170904,0.044746116,-0.86000735,-2.7829373,2.3774605,1.7279017,-1.3080907,1.6795347,-0.8872308,0.3129136,1.9727752,-0.568663,2.9855573,0.7058486,2.4283643,-0.6741012,-3.5508623,-5.1130605,4.7375546,-3.0433657,-1.4259324,0.51187044,1.4011289,-0.2563367,-1.0254929,1.9339098,-0.89658624,2.0870528,-1.9630562,0.6375474,-0.26663575,-0.034648284,-1.0491632,0.82194763,1.7937831,2.5809906,0.9270778,1.6386616,-3.2499943,-1.0000039,-0.38416597,1.7676392,0.67435837,-0.9784502,0.33309495,-3.9110389,-2.1989017,-0.011511995,2.5925782,1.6220809,1.2132112,0.40329352,-3.070272,4.2545857,-1.1710314,1.2240962,-0.20363119,-3.8738987,-1.5218362,0.74629134,1.4749589,-0.33434564,2.8024814
C3L-00189,2.4395268,-1.3377804,2.0967045,2.2531476,-3.8560424,1.6027238,0.545348,-2.4857364,0.91172075,0.16718777,-0.96055365,-0.90851974,0.14907801,1.8590226,-0.41417098,3.3605263,0.94381076,1.2115456,-0.0948789,1.7424637,-2.4380653,-0.41854203,-0.05769672,-0.5126998,1.3570116,-2.9255116,-1.1352365,-0.80970055,1.7790543,-1.4845918,-1.5361558,1.9612324,-0.70628655,-3.556943,-0.7299715,2.2439609,-0.92495644,2.7561579,-2.6559815,-0.591171,-0.22707647,3.0973413,-1.3257409,0.42472085,-1.6744344,2.9082046,-5.048786,0.30915138,-0.8130247,-0.5044582,-1.2851133,2.4929981,-1.520056,-0.9082997,-1.9598184,2.3629827,-3.6975317,-1.3729795,-1.5826063,1.6705984,0.87373734,0.9664963,-0.11603685,0.13448483,0.5703298,-1.9322891,-1.5236269,0.37860394,-0.5369035,-3.5939908,0.7291865,-0.6042494,0.6473664,-0.9000093,-1.5935351,-0.8257837,2.1705015,-0.670817,0.3086316,-1.406834,2.866964,-0.82836527,-2.388923,-0.9430615,1.2675672,-0.9586954,-2.1169505,-0.32167846,-2.6066992,0.15778749,2.846093,0.7769726,-0.7642875,1.5660849,0.2795071,0.41275024,-0.47328454,2.1851704,-1.2714709,-2.0457726,1.2865545,-3.338698,2.071234,1.1876153,0.9573975,1.8191735,-0.5406363,-0.7027948,-4.273922,-0.020424232,1.4972922,1.911075,-4.4471755,-4.268067,2.651123,-0.8209275,-3.088851,-0.16811433,0.97313035,-2.404765,-1.9054579,-2.1307065,-2.9511557,1.2607684,-1.2391813,2.3647885,-3.9117138,1.6447365,-4.0660067,-0.9313279,-1.1523798,0.9116139,1.4399261,1.3550533,-0.1263234,1.3083978,-0.35829127,-0.76879525,3.089278,2.1751325,1.1390042,-0.9949148,0.3721843,2.2428935,-1.5102546,-3.1928596,1.908101,1.6787158,1.1639689,-0.63361084,-0.32907075,0.16878663,-3.322903,0.79910374,-0.6078756,2.2694166,5.106133,0.19367515,0.37480155,3.06455,0.64968395,1.2972857,1.5366657,0.10643799,-2.7326226,-0.5442318,-1.3924212,-3.76158,-1.9089803,-1.1661434,-2.7837262,0.93892664,-2.112177,-2.7847033,-0.8799815,-0.64854985,1.005804,1.9786162,-2.9498727,-1.3691921,1.0298299,0.21525453,-2.1378136,-1.1007661,-0.69362503,0.66602963,1.947155,-2.19848,1.049931,-3.3382683,-2.0478947,-0.36636198,1.3230772,-2.8994358,0.16860887,-1.1005787,-2.7911818,2.3273242,1.5563611,-1.347681,1.7178019,-1.2580861,0.43894684,2.1279247,-0.81965804,2.9228973,0.4638203,2.317943,-1.050311,-3.6945426,-4.72855,4.597258,-2.6141086,-1.347071,0.5513564,1.2599303,-0.06809591,-1.0497143,1.8435401,-0.87626475,1.5163915,-1.7586205,1.183279,0.13719344,-0.4323692,-0.9217137,0.65322965,2.0879586,2.2574117,0.9370995,1.6855766,-3.4738894,-1.1409203,0.1464671,1.9191632,0.6985338,-0.95083386,0.15168197,-3.8970654,-1.9804735,0.092250876,2.0942192,1.0934552,1.0075843,0.2974491,-3.0103753,4.2940955,-0.8867295,0.962815,0.07705624,-3.4947789,-1.6058058,0.6558964,1.220842,-0.19775496,2.8174808
C3N-01998,2.9140995,-1.1339566,2.0084126,2.3467505,-3.6437063,1.3436394,0.730532,-2.5393906,1.114096,0.12398279,-0.8082829,-0.44958144,0.049874213,2.1993265,-0.24247982,3.5002987,0.24608187,1.3516061,-0.06913531,1.585713,-2.43816,-0.37975356,-0.057609826,-0.50514144,1.3809756,-3.0874093,-1.1382099,-0.887925,2.1066637,-1.4073106,-1.605859,1.845768,-0.65426195,-3.5591476,-0.7551716,2.4812598,-0.8746079,2.5598457,-2.627829,-0.6892316,0.4347378,2.9165454,-1.2854087,0.34358412,-1.3733025,3.1799448,-5.028423,0.371861,-0.5854133,-1.1850559,-1.3031844,2.290591,-1.5840089,-0.4459104,-2.1199646,2.475186,-3.6760116,-1.5137411,-1.1879445,1.614448,1.3053255,1.2702818,-0.22366333,0.035960585,0.45425963,-2.0751603,-1.0953606,0.65304106,-0.83359754,-3.1035535,0.67112577,-0.3114155,0.74489623,-1.0908751,-1.6999146,-1.3663992,1.749338,-1.1190815,-0.08465424,-1.2622758,2.5569196,-0.6822835,-2.425402,-0.78848094,0.81971437,-1.1472102,-1.9762541,-0.32863328,-2.8788674,-0.11984112,2.698968,0.5993418,-0.40071216,1.7406925,0.05227619,0.68095756,-0.44172135,2.1516986,-1.2875973,-1.9359244,1.1428617,-3.6301692,1.9478745,0.91392493,0.9468758,1.8987945,-0.58827573,-0.90550876,-4.3269296,0.038608395,1.6879302,2.0817068,-4.2835546,-4.061257,3.0012443,-1.153615,-3.0535672,-0.29740974,1.1385102,-2.590016,-1.589085,-2.0959337,-2.8702285,1.1682085,-1.0447127,2.3234174,-3.7284758,1.2473255,-3.8232179,-0.9150569,-0.95316243,0.982424,1.1626155,1.493162,-0.1259755,0.7724795,-0.2633072,-0.6811026,2.800421,2.047678,1.0410513,-0.7909948,0.2210562,1.8575696,-1.2871994,-2.900642,2.1313725,1.6417302,0.92601913,-0.55480117,-0.21071498,0.041099284,-2.9784465,0.8089825,-0.7671096,2.369689,5.070544,0.36866888,0.45675004,3.048542,0.5255825,0.89339167,0.9137264,-0.2667017,-2.816135,-0.3774117,-1.0902143,-4.188117,-1.9891503,-1.3555219,-2.7121384,0.4254021,-2.232552,-2.4774458,-1.0358526,-0.59408194,1.1113642,1.8826836,-3.0031338,-1.1426206,1.0149463,0.39601487,-2.2973142,-1.2705727,-0.60188335,0.93935615,1.6047382,-2.0031438,1.0121855,-2.8842294,-1.7664685,-0.3693742,1.7002704,-2.672351,-0.25452432,-0.71348464,-2.968913,2.1551228,1.5137825,-1.5615962,1.6468394,-1.2895921,0.0075257192,2.2528045,-0.4194791,2.9402654,0.24486881,2.1063826,-0.4146186,-3.860912,-4.6214533,4.8594804,-2.8292706,-1.209971,0.58141124,1.1388485,-0.20889226,-0.49253947,1.7364633,-0.7756209,1.9438529,-1.670131,1.0974256,-0.039133202,-0.049538925,-0.90491945,0.60362095,1.6217256,2.2612817,0.54302555,1.3435768,-3.0685737,-0.9758803,-0.024216067,1.9061161,0.08749493,-1.1018116,0.4509806,-3.8462584,-2.033989,-0.42781466,2.0528104,0.98199236,0.9929064,0.43742618,-3.1274345,4.3096886,-1.0081395,1.0292202,0.13565698,-3.8099692,-1.4057323,0.9126656,1.3281704,-0.7247302,3.0794978
C3L-01036,2.8105016,-1.4603599,1.4489866,2.2065325,-3.825077,1.3968906,0.67345923,-2.556981,1.1644393,0.3588391,-0.88721615,-0.4581194,0.33436364,1.8020226,-0.46375203,3.579266,0.652056,1.5268563,0.2081976,1.5677572,-2.5144446,-0.47907418,-0.34968925,-0.42369652,1.4430877,-2.8135421,-1.2173455,-0.91731614,1.9747789,-1.7186625,-1.7078117,1.9228925,-0.840476,-3.3433044,-0.42025185,2.4588473,-0.61031187,2.578312,-2.5619273,-0.73564696,0.16383202,2.9371405,-1.3744065,0.66667724,-1.5468837,3.1738474,-5.072288,0.2546761,-0.5188037,-1.3121461,-1.0764188,1.8231467,-1.4581593,-0.46583414,-2.0810122,2.1299481,-3.5954316,-1.617148,-1.5132388,1.7624494,1.2033869,1.1377192,-0.42246747,0.055733483,0.57427907,-2.0714412,-1.2252617,0.6875948,-1.0305537,-3.3695414,0.63841283,-0.8587653,0.6471554,-0.99023557,-1.8029797,-0.8621277,2.129537,-0.6346662,0.020796016,-1.0836942,2.8162632,-0.8180461,-2.5168083,-0.9162586,0.6761151,-1.0224631,-2.0523138,-0.47957823,-2.700004,-0.04541878,3.097656,1.0694226,-0.53873026,1.86427,-0.25988233,1.2405558,-0.4888627,2.3434126,-0.9152321,-1.8252715,1.2919989,-3.4141726,1.7060751,0.533352,0.6810046,1.7660477,-0.28905344,-0.8790139,-4.464997,0.21898362,1.6565721,2.175542,-4.5554,-4.1184053,2.8417635,-1.1294415,-3.4913206,-0.18517762,0.8843291,-2.4877534,-1.807036,-2.0649805,-3.0643954,1.1980973,-1.3287638,2.6879632,-3.8725095,1.6658146,-3.7744668,-0.72399026,-1.2128421,1.0247138,1.381652,1.6454936,-0.09555915,0.85432005,-0.1188915,-1.064039,3.035869,2.2039332,1.0311484,-1.2737676,0.20936988,1.7063655,-1.4409773,-3.090713,2.0729904,2.1432543,1.0338931,-0.3994262,-0.84565514,-0.10765861,-2.782684,0.83447033,-0.65478754,2.6706197,5.098872,0.4613064,0.522,3.1157298,0.68315357,1.0716687,1.3088263,-0.43149385,-3.0866654,-0.37047672,-0.96122354,-3.7558591,-2.089209,-1.370533,-3.005206,0.86776745,-2.3180034,-2.5107224,-0.90872973,-0.54528815,1.4174781,1.8924103,-3.059556,-1.3552337,1.1422545,0.27963528,-2.2781665,-1.0541453,-0.6301046,0.7483096,1.6413196,-2.075992,1.0507082,-3.2286508,-1.6480222,-0.591556,1.6858989,-2.7991204,-0.39543638,-0.8474865,-2.8444142,2.0799751,1.9614646,-1.5164064,1.7844477,-1.0789509,0.048486188,2.1748435,-0.66636664,3.057282,0.38814366,2.2844234,-1.0433143,-3.9606826,-4.7729645,4.6053767,-2.8593576,-1.3634355,0.6242114,1.3054022,-0.22795348,-0.6688509,1.5075921,-0.7355673,1.7239932,-2.1089447,0.99577427,-0.1616307,-0.47908336,-1.1441127,0.6542277,1.9499159,2.3696036,0.99525917,1.5411294,-3.1398983,-1.2180713,-0.120944604,1.996113,0.8248047,-1.2755076,0.3820274,-3.7976596,-1.9918725,-0.2161092,1.8880478,0.9510493,1.0418845,0.5435752,-3.2342093,4.2931037,-0.77067244,0.93976825,4.8969152e-05,-3.5981147,-1.4357066,0.9488267,1.2023158,-0.45399842,2.9087694
C3N-03069,2.4343877,-0.71565723,2.1040955,2.5464656,-3.2861326,1.5628366,0.73707205,-2.5992405,1.4130529,0.23839255,-0.94403374,-0.6074045,0.06345663,1.9337112,-0.098366566,3.7606382,0.45779482,1.2312016,0.031384625,1.5152706,-2.6692293,-0.8376189,0.21135491,-0.20804282,1.38132,-2.8971086,-1.1143012,-0.7425268,1.7484587,-1.4728553,-1.9178965,1.4307342,-0.5397464,-3.4371092,-1.1361833,2.4191482,-0.9722291,2.6319847,-2.4440842,-1.054486,0.025545897,2.845363,-1.4977055,0.1431293,-1.2962092,3.1297915,-4.864203,0.4654274,-0.61165094,-1.1251239,-1.2818053,2.1218286,-1.3792143,-0.7454168,-1.9959049,2.0062883,-3.8957036,-1.5663978,-1.2213053,1.6365837,1.2653672,1.4528319,0.110833466,-0.3585622,0.9334099,-2.0026758,-1.2419342,0.14257717,-0.65759426,-3.4496844,0.4508856,-0.5888385,0.8463889,-1.1578436,-1.2276565,-0.90506023,2.4111936,-0.66276157,0.22504781,-1.3264904,2.2812662,-0.9108559,-2.6308613,-0.8136135,1.3757955,-1.4497198,-1.8051963,-0.33249685,-2.8065119,-0.043221947,2.6255918,0.85473746,-0.4824352,1.6139823,0.347164,0.66528296,-0.65185624,2.3135228,-1.0542415,-1.806646,1.0996662,-3.7709644,1.7742258,1.1939204,0.8712931,1.7048109,-0.72787327,-0.60234636,-4.395937,-0.13474815,1.651535,1.8044455,-4.2778115,-3.8760974,2.7135577,-1.3091888,-3.049257,0.013517234,1.1817236,-2.6592708,-1.5743299,-2.1547487,-2.800616,0.93780863,-1.0755842,2.3603177,-3.552255,1.6745944,-3.929718,-0.97858995,-1.1019574,0.99383277,1.5256974,0.92642075,0.066776186,0.78203464,-0.5144689,-0.84883106,2.9526608,2.668511,0.6958043,-0.76017576,0.31792367,1.9809197,-1.1016942,-3.111307,1.6752704,1.8015469,0.99890333,-0.7931193,0.20893036,0.25752962,-3.3489754,0.74342966,-0.7084224,2.2751818,5.1152534,-0.080096886,0.19585137,2.95116,0.7445066,1.2724829,1.37332,0.032111764,-2.912356,-0.57457435,-1.5099748,-3.3973496,-2.149842,-1.5988415,-2.8798096,0.75125104,-2.4533908,-2.3707945,-0.6679808,-0.3160134,1.2697109,1.9012423,-2.7241125,-1.2921957,0.9886065,0.36907056,-2.0296087,-0.8885588,-0.6526948,0.8080338,2.1354237,-1.4805307,1.3187268,-2.9423287,-2.1812747,-0.5014846,1.5103772,-2.8491373,0.16124567,-0.5646961,-2.7914617,2.2045898,1.1026967,-1.2293634,1.7140983,-1.2451929,0.20562762,2.1269586,-0.5488972,3.3253343,0.66031003,2.2612762,-0.86484766,-3.4434044,-4.624056,4.3673177,-2.754661,-1.5512482,0.95295626,1.6076409,-0.2925911,-1.0401905,1.9876997,-0.827218,1.9219929,-2.0586343,0.51797014,0.2388729,0.16816181,-1.2769356,0.92608917,1.5914115,2.5190892,0.45477927,1.6114547,-3.2466736,-1.442364,0.19219692,2.1036124,0.20799764,-0.8761509,0.71583843,-3.7085502,-2.3019059,0.1901,2.7296047,1.303097,1.1495097,0.41199982,-3.0856745,4.2336597,-1.0768572,1.0796484,0.062395908,-3.9503443,-1.717467,0.7307739,1.2136765,-0.44101834,2.7062662
C3L-00881,2.7019382,-1.3324825,1.8279818,2.5946171,-3.8928094,1.4054391,0.6113877,-2.7559788,1.2173973,0.32879665,-0.95949554,-0.18742923,0.19051287,2.0043013,-0.36488518,3.718175,0.8118989,1.5221672,-0.4724008,1.4656861,-2.3429048,-0.6286248,-0.11621516,-0.428938,1.7135445,-3.1072938,-1.2271239,-0.49613085,1.9190261,-1.8059977,-1.6223694,2.073011,-0.92149425,-3.6716864,-0.39377317,2.4499438,-1.0086361,2.9366622,-2.6115742,-0.6627604,0.24820572,3.0127056,-1.5545576,0.33124045,-1.2375215,2.9335535,-4.8500457,0.54250306,-0.8263343,-1.1789361,-1.4788059,2.0419614,-1.7797503,-0.6019886,-2.4461627,2.5409925,-3.7421103,-1.3059428,-1.3850752,1.6574112,1.203656,1.0852029,-0.36379173,0.15174119,0.28932583,-2.066198,-1.5169184,0.5286028,-0.6190308,-3.2817533,0.4594605,-0.43297267,0.6491261,-1.2929674,-1.4528915,-1.4501011,1.899651,-1.0939134,-0.0784467,-1.0786468,2.5558681,-0.96910655,-2.380233,-0.56506675,0.92695624,-1.2057863,-1.780873,-0.41721877,-2.9391272,-0.27271372,2.731355,0.8038703,-0.3479612,1.6004251,-0.081395805,0.5523079,-0.61038923,2.1645029,-1.2148427,-1.9744971,1.1386886,-3.6578069,2.055788,0.8082163,0.9484034,1.7191294,-0.50998354,-0.85794544,-4.5397096,0.052957162,1.5367419,2.0074503,-4.1484065,-3.777251,2.766596,-1.3043659,-2.9140809,-0.2910482,1.0066248,-2.6044095,-1.7592303,-2.136641,-3.0239148,1.2460159,-1.2302567,2.628178,-3.775134,1.3591331,-4.1548524,-0.73142403,-1.0017823,0.75707436,1.3221225,1.4194887,-0.27768263,0.68094814,-0.28969106,-0.7399094,3.041219,2.3923736,0.9526973,-0.6056916,0.6894744,2.2418668,-1.6087072,-3.0156662,1.9287467,1.8903493,1.1086708,-0.6418743,-0.28458735,-0.014227701,-2.979432,0.5372632,-0.64742225,2.541741,5.280797,0.22090492,0.4460494,2.9790995,1.028098,0.9953476,1.3294436,-0.44403252,-2.7405992,-0.29219517,-1.1143268,-4.216596,-1.8824612,-1.3546386,-2.8050897,0.5587683,-2.4241161,-2.3975332,-0.83864075,-0.536262,1.1056445,2.145476,-2.7827702,-1.1291002,0.9237472,0.4381371,-2.1308982,-1.2399821,-0.6193599,0.81408316,1.453515,-1.9946365,0.9851198,-3.055173,-1.8094573,-0.39487958,1.6537578,-2.8545582,-0.09014623,-1.0754138,-2.948556,2.0843894,1.8262577,-1.6052538,1.7125982,-1.4200017,0.16446301,2.0944674,-0.38312325,3.2334013,0.44110686,2.2560925,-0.60189706,-3.806754,-4.5777564,4.933837,-2.8706455,-1.553018,0.69773465,1.4495236,-0.4998613,-0.8928107,1.599676,-0.7894428,1.5163618,-1.8099991,0.9261671,0.06378955,-0.18417552,-1.2181119,0.5557938,1.8882688,2.3798883,0.5576843,1.2411848,-3.4569066,-1.2340724,-0.008148015,1.5484438,0.3368922,-1.0484128,0.46971983,-4.1324716,-2.1142163,-0.24883346,2.052439,1.1146628,1.0024971,0.46788347,-3.2285142,4.259108,-0.6712193,0.9877889,0.06940938,-3.9328604,-1.5844928,0.7717264,1.3420873,-0.6293364,2.9569943
