patient_id,emb_0,emb_1,emb_2,emb_3,emb_4,emb_5,emb_6,emb_7,emb_8,emb_9,emb_10,emb_11,emb_12,emb_13,emb_14,emb_15,emb_16,emb_17,emb_18,emb_19,emb_20,emb_21,emb_22,emb_23,emb_24,emb_25,emb_26,emb_27,emb_28,emb_29,emb_30,emb_31,emb_32,emb_33,emb_34,emb_35,emb_36,emb_37,emb_38,emb_39,emb_40,emb_41,emb_42,emb_43,emb_44,emb_45,emb_46,emb_47,emb_48,emb_49,emb_50,emb_51,emb_52,emb_53,emb_54,emb_55,emb_56,emb_57,emb_58,emb_59,emb_60,emb_61,emb_62,emb_63,emb_64,emb_65,emb_66,emb_67,emb_68,emb_69,emb_70,emb_71,emb_72,emb_73,emb_74,emb_75,emb_76,emb_77,emb_78,emb_79,emb_80,emb_81,emb_82,emb_83,emb_84,emb_85,emb_86,emb_87,emb_88,emb_89,emb_90,emb_91,emb_92,emb_93,emb_94,emb_95,emb_96,emb_97,emb_98,emb_99,emb_100,emb_101,emb_102,emb_103,emb_104,emb_105,emb_106,emb_107,emb_108,emb_109,emb_110,emb_111,emb_112,emb_113,emb_114,emb_115,emb_116,emb_117,emb_118,emb_119,emb_120,emb_121,emb_122,emb_123,emb_124,emb_125,emb_126,emb_127,emb_128,emb_129,emb_130,emb_131,emb_132,emb_133,emb_134,emb_135,emb_136,emb_137,emb_138,emb_139,emb_140,emb_141,emb_142,emb_143,emb_144,emb_145,emb_146,emb_147,emb_148,emb_149,emb_150,emb_151,emb_152,emb_153,emb_154,emb_155,emb_156,emb_157,emb_158,emb_159,emb_160,emb_161,emb_162,emb_163,emb_164,emb_165,emb_166,emb_167,emb_168,emb_169,emb_170,emb_171,emb_172,emb_173,emb_174,emb_175,emb_176,emb_177,emb_178,emb_179,emb_180,emb_181,emb_182,emb_183,emb_184,emb_185,emb_186,emb_187,emb_188,emb_189,emb_190,emb_191,emb_192,emb_193,emb_194,emb_195,emb_196,emb_197,emb_198,emb_199,emb_200,emb_201,emb_202,emb_203,emb_204,emb_205,emb_206,emb_207,emb_208,emb_209,emb_210,emb_211,emb_212,emb_213,emb_214,emb_215,emb_216,emb_217,emb_218,emb_219,emb_220,emb_221,emb_222,emb_223,emb_224,emb_225,emb_226,emb_227,emb_228,emb_229,emb_230,emb_231,emb_232,emb_233,emb_234,emb_235,emb_236,emb_237,emb_238,emb_239,emb_240,emb_241,emb_242,emb_243,emb_244,emb_245,emb_246,emb_247,emb_248,emb_249,emb_250,emb_251,emb_252,emb_253,emb_254,emb_255
C3L-03394,1.1239581,-0.8733783,1.8306724,-1.9366506,-0.6420282,-1.4014757,-3.433677,0.46809053,3.2483962,0.030209487,2.8391254,3.189331,-0.7989354,4.1112056,-1.1847988,2.7520967,-1.0528262,0.60105073,1.3371197,-1.0448157,1.072015,-0.37247628,-1.4108406,-1.79259,1.3577323,0.13852356,-0.99743855,-0.81277347,0.44609737,0.81380415,-1.6952616,-0.4115613,2.2985432,-1.85791,0.75474477,4.1525083,-1.2087151,0.38325906,-0.044705767,1.4626404,-2.8660824,-0.91660744,-0.4992078,1.5911037,0.95166653,0.44315228,0.025293613,-0.48877296,-0.5873125,2.624496,1.4453646,1.3356831,1.1377532,-2.1608832,-1.1828696,-0.5107534,-1.3129908,-1.6667771,-0.41577595,-1.7352332,2.8415787,-2.476098,2.129326,1.3654754,0.77251625,-0.651478,3.770834,-1.6991322,-1.1086184,-1.1847988,3.0140805,-0.6353588,2.4068503,0.2925673,1.9975454,-2.7923894,-1.1387283,-1.8850787,0.27171272,2.489926,2.6902027,-3.425211,-1.9142356,-1.8045951,1.1569561,4.460731,0.21456257,-0.5804275,-0.45526317,0.637943,4.1145496,-1.3888035,-0.5877258,0.17356661,-5.6349,-0.11065961,1.6014029,1.3547877,-0.27390662,-0.66684204,2.428446,1.1862072,-0.20266479,0.22728397,1.8010613,-1.1435738,1.5600117,-0.3946581,1.9438351,-1.6668497,-0.5449846,-3.8888702,-0.8687493,0.0063420776,2.1131196,1.7786142,0.32082534,-3.942267,-0.3408434,-1.5622748,-0.37938723,2.870731,0.056099065,-2.7470953,2.045097,2.0632617,1.329703,-0.8238934,-1.2064348,-1.445592,-2.6058853,4.6132865,-2.6014528,0.21565153,-1.1571101,-1.5254403,-0.7125247,-0.8098211,-0.22272007,0.69681334,-1.0484642,-0.93121463,-2.958271,0.6843814,-0.6039232,-0.3711172,2.570508,-1.6522748,1.736821,0.19311462,0.14966176,-1.6670251,1.5104985,2.3230731,-1.43282,1.0147586,-2.3486574,-0.90879154,-2.254705,2.2966838,-3.4982786,4.9758883,-0.20255749,3.829811,0.4249864,1.1782146,0.68263113,-1.2645255,0.42702428,-0.92522746,-4.649647,1.752542,-2.4341066,-2.3898723,-1.9792126,-0.5867214,-0.36420223,-3.7946503,-0.18608914,0.4455656,-0.41229397,-2.0808864,-4.7795267,-0.43072477,-0.59921485,-1.211762,-1.5244973,1.4473485,1.2127664,0.36817795,0.107677594,-1.0324123,0.93809915,-2.7155118,0.9894786,-1.2012354,-3.2191703,3.807666,2.3845851,-0.80512714,-4.2142887,3.729689,2.1483061,2.3847816,0.86831754,0.595324,2.9200795,-1.0752659,0.34747058,-2.9965253,1.3720437,0.3431477,-1.4443061,3.2042658,-0.86735916,-0.94336045,-1.7868528,-0.9685669,-0.45773837,-0.3130466,1.7851491,-0.06328273,0.66501004,-0.37316304,-3.0496442,4.0517487e-05,2.9907873,0.5228168,2.8005848,-1.0433637,-0.2139233,2.3231037,-2.210874,1.3396842,1.7516342,0.8468305,0.7541206,-1.3675693,-0.4136081,-0.2375789,1.7429469,-0.7424155,2.953644,-2.0611234,0.24266188,2.9957018,-2.250583,-2.1938362,0.09196779,2.665628,-1.8351719,-1.8793205,0.6796872,0.7427404,-1.007418,-1.2564358
C3N-03428,1.3097453,-0.55413777,1.3210173,-2.1373954,-0.22441304,-1.3444219,-3.34245,0.7242,3.090968,-0.19701986,3.23696,2.8696768,-0.24379875,4.3699517,-1.3859845,2.6656756,-1.3423175,0.49517587,1.4941278,-1.4687309,0.79813343,-0.20114815,-1.2701855,-1.7869345,1.5091835,0.018800005,-1.095229,-1.1585233,0.48173586,0.7302339,-1.7478688,-0.15808348,2.1702359,-1.8669525,0.87054807,3.7960563,-0.91862905,-0.026825823,-0.5016583,1.2891288,-2.6676953,-1.2337648,-0.7525673,1.2298144,1.3438592,0.85610557,0.15847673,-0.55349356,-0.6374184,3.0263648,1.6828895,1.0106151,0.93390507,-2.293331,-1.5292937,-0.42596647,-1.2903941,-1.4549599,-0.27713504,-2.035607,3.0581596,-2.2224588,2.0447822,1.1359359,0.84554225,-0.45081967,3.9102507,-1.2306288,-0.75387865,-1.3900683,3.1324348,-1.0638708,2.7206535,0.9133035,1.7796575,-2.6392899,-0.991482,-1.9265504,0.3420909,2.2297237,2.5168846,-3.465726,-1.4404147,-1.958236,1.3394741,4.4716806,0.22689492,-0.4865111,-1.2164128,1.2199376,3.6882448,-1.5031554,-0.8842121,-0.048263595,-5.293823,-0.2164769,1.6706399,1.2320418,-0.56483287,-0.2247448,2.8303072,1.1698716,-0.37019575,0.20204425,1.782745,-1.2217087,1.1342626,-0.15076746,1.457231,-1.5802172,0.07201313,-4.065419,-1.1195991,-0.1841887,1.8538063,1.5041281,-0.6140466,-3.9432597,-0.31114295,-1.4057592,-0.5672139,2.9827716,0.26357758,-2.9983099,1.7686619,1.6785405,1.7321224,-0.6871092,-1.6015548,-1.3921582,-2.566165,4.3484864,-2.4848635,-0.19971171,-0.7936234,-1.6512009,-1.0724488,-0.7875558,-0.068377435,0.60749173,-1.6013153,-0.89907825,-3.0405126,0.87469447,-0.40068418,-0.07904429,2.4439461,-2.0523257,1.779718,0.21123582,-0.049809072,-1.7061298,1.8439436,2.3666222,-1.2989197,0.44969112,-2.1583195,-1.3150431,-1.7506028,2.0571876,-3.2096539,4.237753,0.12849659,3.6565187,-0.022764567,0.71963555,0.98164487,-1.1912785,0.8468813,-0.8914141,-4.451292,2.062569,-2.3839953,-2.3508036,-2.224224,-0.4254022,0.020830773,-3.9078524,-0.6688224,0.49121854,-0.64847755,-1.4799073,-4.576023,-0.20623744,-0.89175326,-1.2933804,-1.4494879,1.2062917,1.0023435,-0.16140524,0.16990273,-0.4975127,0.8982856,-3.218182,0.9707197,-1.1235887,-3.3707383,3.859019,2.6801996,-0.5405417,-4.049168,3.254564,1.6962332,1.8106145,0.6879587,1.1045699,3.0533373,-0.9749534,-0.29280525,-3.0802016,1.6319861,0.5699714,-1.7039033,3.0907958,-0.60532475,-0.99686,-1.6364249,-0.782844,-0.7134748,-0.40100312,1.4876637,-0.09239033,0.60228145,-0.49925864,-2.8264165,0.26017216,2.9155774,1.0049833,2.9037137,-1.2845497,-0.3792689,1.9293773,-2.395983,0.85419333,1.6470284,0.6466497,0.2975326,-0.9195461,-0.6316573,-0.15940626,2.4267235,-0.2809312,2.4956226,-2.0040777,0.26776323,2.7513356,-1.9866893,-2.3250728,0.090473,2.35631,-1.7928348,-1.9067684,1.043906,1.0856856,-1.0268514,-1.5910211
C3L-02112,1.4329884,-0.9038174,1.6247766,-1.6571193,-0.75870997,-1.6640657,-3.5095603,0.7594755,3.305357,-0.227682,2.9334602,3.0544815,-0.8003365,4.157844,-1.1965401,2.5598109,-1.124809,0.43573436,1.3036257,-1.173638,0.8640872,-0.3947766,-1.1457278,-1.5838557,1.6262733,0.21630438,-1.0828546,-0.73442715,0.53807145,0.36313075,-1.5165478,0.084050745,2.080775,-1.9563782,0.7469754,3.9434576,-1.2654471,0.21810482,-0.24000795,1.3578119,-3.0104494,-1.1479445,-0.854076,1.2627144,0.8680994,0.5093002,0.40124315,-0.66615427,-0.52583796,2.9499404,1.5753446,1.3343836,0.770524,-2.6182568,-1.1898992,-0.4067426,-1.1861378,-1.270471,-0.09321217,-1.8264421,2.7397285,-2.4467492,2.1116643,1.3806707,1.0171747,-0.366782,3.462972,-1.4432151,-0.9011011,-1.4061002,2.8173008,-0.8482073,2.5215058,0.6233984,1.6336926,-2.8506231,-0.9777342,-2.2207053,0.15312475,2.6708214,2.3800628,-3.272621,-1.2552358,-1.820517,1.4215463,4.2267437,-0.006993614,-0.328376,-0.52632,1.0136292,3.8129578,-1.623817,-0.49486768,-0.118172795,-5.3801827,0.1733859,1.351992,1.65782,-0.32202116,-0.3940829,2.692225,0.6824989,-0.99460363,0.29728934,1.4019346,-1.2222431,1.3531506,-0.30985817,1.7645328,-1.0752599,0.24040861,-3.6471548,-0.929507,-0.138929,1.918732,1.6891465,-0.09559521,-3.6975033,-0.71615237,-1.7311821,-0.34305033,3.3177433,0.12777825,-2.5167532,1.8633631,1.9607632,1.5956098,-0.5330242,-0.7837129,-1.2946918,-2.6854331,4.540261,-2.3156145,0.24494241,-0.96280485,-1.8379021,-0.7713502,-0.6283093,-0.4074763,0.44545946,-1.2700344,-0.9867969,-2.509518,0.92010427,-0.5845317,-0.29249483,2.3816605,-1.7930541,1.6334369,0.15122776,0.49475756,-1.6319642,1.6070648,2.6694589,-1.2929589,0.8204412,-2.4984803,-0.95634997,-2.2978902,2.4022944,-2.9538612,4.5749874,-0.062302288,3.7325358,0.08308055,1.2274668,0.5588871,-1.3180647,0.6910819,-0.7854864,-4.954884,2.05794,-2.021202,-2.6524806,-1.7258338,-0.58625734,-0.13801768,-3.7412388,-0.34547958,0.7068414,-0.5544717,-1.9230154,-4.6174436,-0.26618966,-0.93881965,-1.1072384,-1.3384331,1.1617644,1.6201767,0.45497096,-0.0450559,-0.65616965,1.0918312,-2.8754652,0.69231015,-1.2677643,-3.3907845,3.7652636,2.38443,-1.0851382,-4.350828,3.328146,1.9636259,2.4282763,0.23175529,0.7969843,3.361777,-0.99265784,0.1361043,-3.401223,1.5353633,0.809312,-1.8749229,3.5286744,-1.0928314,-0.9546007,-1.9286393,-1.1912535,-0.5524579,-0.35912976,1.3713696,0.3481291,0.68254566,0.2338251,-3.027147,0.008320167,2.9302685,0.792626,2.8035522,-1.146801,-0.21570319,2.5934916,-2.2915907,0.99661344,1.6510814,1.0046545,0.89383644,-1.3076966,-0.6303638,-0.374372,1.796997,-0.6519123,3.1219893,-2.2776678,-0.31686556,2.7862937,-2.070776,-2.4642012,-0.31178078,2.8579443,-1.7105082,-1.7360511,0.5795665,0.75123525,-1.0203177,-1.6254169
C3N-01719,1.1968981,-0.44012746,1.7764592,-2.0047624,0.00587079,-1.5150423,-3.638258,0.63633317,3.3854523,0.10864797,3.1375859,3.083015,-0.73288655,3.9381614,-1.1741043,2.7300835,-1.3668443,0.31188154,1.1224686,-1.1366304,1.0952365,-0.11781175,-1.3541723,-1.9320908,1.5110117,-0.05794746,-1.2379038,-1.2148665,0.8748394,0.75401235,-1.6608763,-0.14527622,2.7195528,-1.7708101,1.0244743,4.2880626,-1.5551816,-0.15354468,-0.017810553,1.4608337,-2.6683884,-0.76511866,-1.1195983,1.4034138,1.0630518,0.9469172,0.34591925,-0.6812854,-0.9850188,3.017154,1.7036605,1.0556204,1.1853055,-2.0411177,-1.3270051,-0.22635524,-1.1493185,-1.5355505,0.032627862,-1.9995408,2.9215193,-2.3667474,2.1837983,1.0437803,0.869631,-0.20746958,4.1268196,-1.456448,-0.54562247,-1.612379,2.862286,-0.74340546,2.4124708,0.9117958,1.7308911,-2.7324314,-0.945181,-1.8258018,0.089181386,2.2880964,2.4850345,-3.1201856,-1.7044841,-1.8610488,0.5798896,4.475552,-0.048415396,-0.4989029,-1.0150484,1.3172001,3.4369037,-1.3988453,-0.52032334,-0.016703581,-5.0910163,-0.4560594,1.7241784,1.2624922,-0.4271982,-0.28944254,2.5152006,1.1980308,-0.17337891,-0.01912187,1.6553634,-1.0108252,1.4958066,-0.3337123,1.4582882,-1.6012471,-0.23986165,-4.0199018,-1.1366398,-0.48490107,1.7106142,1.6322904,-0.25582427,-4.0986805,-0.7886505,-1.7021557,-0.5989489,2.6802647,0.39608508,-3.0671833,1.6848736,1.871414,1.8291117,-0.78180885,-1.5269065,-1.2656453,-2.5589654,4.9092736,-2.3324058,-0.03778212,-0.800003,-1.800545,-0.88936704,-1.0416176,-0.20907617,0.5653332,-1.5449129,-1.2210394,-2.8122683,1.0403024,-0.52877223,-0.01167283,2.7887785,-1.9228133,1.6369576,0.12080938,0.3399397,-1.1130595,1.8163247,2.5546746,-1.4115688,0.5220541,-2.220296,-1.0866271,-1.9428561,2.130211,-3.2671974,4.306689,-0.04235631,4.0282154,0.23055407,0.808584,0.77614415,-1.0791755,0.9432623,-1.098179,-4.1133704,2.2176726,-2.266879,-2.5713894,-2.264053,-0.5228132,0.27226228,-3.8344038,-0.39767087,0.5439343,-0.75432074,-1.5450268,-4.72199,-0.4045211,-0.5020122,-1.247029,-1.6236563,0.88274044,0.6700418,-0.07566934,0.20551513,-0.88163865,1.0208915,-2.7018673,0.86345434,-1.1246285,-3.4707537,3.7876935,2.5443184,-0.72503245,-4.0057006,3.9833698,1.785315,2.1190295,0.75155497,1.1992792,3.3666089,-1.0836897,-0.097516425,-2.502647,1.6419076,0.4199145,-1.428697,3.4545245,-0.8250954,-1.2065986,-1.3513763,-0.9715464,-0.6926088,0.010249747,1.5242379,-0.15753332,0.7955835,-0.37916464,-2.8524058,0.5053733,2.6940348,1.126766,3.1205075,-1.1362438,0.21410991,1.938611,-2.159762,0.8922324,2.046042,0.8509772,0.22808233,-1.3493308,-0.43281826,-0.4188496,1.8846207,-0.77512974,2.4375048,-2.4626856,-0.09034714,2.9396064,-2.212242,-2.723732,-0.31503507,1.8177289,-1.7795681,-1.9810663,0.32772687,0.9349025,-0.8271269,-1.6930143
C3N-03670,1.3563242,-1.0810112,1.8707006,-1.7619168,-0.5434586,-1.2367774,-3.3055334,0.5644047,3.2774215,-0.2721259,2.8350852,3.0638473,-0.44022414,3.962586,-1.2949932,2.5580106,-1.0312645,0.6833121,1.2397842,-0.91974807,0.8551045,-0.22261827,-1.1499738,-1.8887178,1.7906528,0.25691155,-0.8928836,-1.074806,0.5216726,0.3418276,-1.5351069,-0.009267081,2.5214212,-1.7896861,0.4366294,3.694583,-1.1501166,0.30832478,-0.42150974,1.6087769,-2.9915702,-0.95648056,-0.9465362,1.508297,1.0254215,0.607566,0.32894155,-0.881736,-0.6136287,2.6550148,1.5766503,1.3687683,0.8063947,-2.4620757,-1.1404575,-0.244387,-1.347275,-1.3560823,-0.23574243,-1.7480065,2.7290492,-2.4855614,2.2126331,1.2900109,0.8469219,-0.5643059,3.5607564,-1.7252743,-0.62614757,-1.0719423,2.8759415,-0.6854868,2.4933794,0.73275256,1.7203861,-2.901772,-0.9928301,-2.0870879,0.25726914,2.7013462,2.7271035,-3.3043082,-1.3455782,-2.000958,1.0335302,4.329596,0.078006715,-0.44004017,-0.6579283,0.78251487,3.9311273,-1.5284398,-0.6329266,-0.11267996,-5.402347,-0.0729057,1.3896937,1.4359647,-0.64009035,-0.27070892,2.3799634,0.9749862,-0.46847853,0.32626867,1.2484206,-1.2013252,1.2409348,-0.18921603,1.7754357,-1.41945,-0.1722538,-3.643914,-1.1756533,-0.10754651,1.9691509,1.8060075,0.36102462,-3.6846642,-0.5171088,-1.8559785,-0.46300715,2.984028,0.052913167,-2.6470544,1.8376158,1.811758,1.5625454,-0.8558235,-1.1459156,-1.2735431,-2.4652822,4.4166126,-2.233206,0.72321653,-1.098256,-1.6205403,-0.97666025,-0.6708708,-0.49389893,0.15940093,-1.5123845,-1.0393234,-2.6504817,0.74714124,-0.37665197,-0.230973,2.5561228,-1.4041545,1.7321969,0.4491765,0.2125878,-1.759483,1.5458821,2.5592766,-1.5359943,0.99854416,-2.1668286,-1.0701777,-2.1532295,2.349327,-3.3895094,4.7113037,-0.038065147,3.9256709,0.23684369,1.2469194,0.3047621,-1.5553043,0.5449031,-1.2012465,-4.5531607,2.1878479,-2.2861981,-2.3596625,-1.9055325,-0.5350824,-0.16519356,-3.8124616,-0.48619285,0.27422312,-0.40470538,-1.8770287,-4.398103,-0.18029264,-0.7224689,-0.9971246,-1.4578353,1.4610629,1.0682616,0.44063953,0.033752896,-0.96200526,1.3097676,-3.0533812,0.8540687,-1.0931427,-3.498571,3.9549932,2.3579142,-0.78716165,-4.5344324,3.7736351,2.0673249,2.2192295,0.7162891,0.716186,3.4140277,-0.9894995,0.3303784,-3.0934029,1.6656566,0.6333249,-1.7832947,3.506813,-0.97286564,-1.0462412,-1.7286764,-1.304654,-0.69590753,-0.5699505,1.5141133,0.061849684,0.71396047,-0.06534873,-3.0677538,0.10036944,2.8218365,0.767612,2.8174326,-1.2571217,-0.09317012,2.2881756,-2.315397,1.0590569,1.7830905,1.1639875,0.9514314,-1.2486461,-0.51238847,-0.32324353,2.0037532,-0.53728604,2.8883314,-2.1809669,0.12512083,3.0733566,-2.2144306,-2.16466,0.10157723,2.7958214,-1.6342013,-1.7001266,0.6212574,0.67619383,-0.8312999,-1.4395577
C3N-02998,1.3303547,-0.6098214,1.2450544,-1.9800545,-0.5275813,-1.2512238,-3.6959758,0.6061015,3.4466429,-0.14357208,2.9601364,3.0148358,-0.5764428,3.9601662,-1.2498796,2.875312,-1.5560193,0.39778274,1.0757302,-1.2545552,0.8997354,-0.15864222,-1.3826869,-1.6763312,1.2114011,0.0521768,-0.9979323,-1.2086716,0.36840004,0.8212256,-1.5511541,-0.051697657,2.05912,-1.7139627,0.7790287,3.7595742,-1.2521162,-0.21847658,-0.15520965,1.3055377,-2.7937198,-1.0444052,-1.1275967,1.5339079,1.1665453,0.67349184,0.04569037,-0.78797495,-0.6829024,2.923271,1.4867628,1.2634549,1.2925175,-2.4633064,-1.3433785,-0.65367085,-1.3719047,-1.5692037,0.063662656,-2.0797987,3.2588556,-2.24403,2.1249046,0.89247584,1.0607045,-0.5149928,4.178765,-1.4441386,-0.5873221,-1.3609672,3.2316387,-0.4697811,2.2687666,0.7877777,1.8995316,-3.0218697,-0.68842894,-1.6149668,0.25726843,2.334122,2.5024073,-3.3920088,-1.457438,-1.8439319,1.2091533,4.4847918,0.1017289,-0.3198109,-0.89050865,1.4730431,3.6545336,-1.390851,-0.7605191,-0.0945995,-5.33608,-0.42819983,1.555608,1.2842408,-0.3540656,-0.5059212,2.747525,1.1158202,-0.20959501,0.25438315,1.787211,-1.032903,1.2186401,-0.2637354,1.4679098,-1.6490039,-0.17290913,-3.70644,-0.9406572,-0.38017544,1.9465936,1.3366961,-0.5173999,-4.1382895,-0.7311216,-1.7326103,-0.40593067,2.990213,0.28802177,-3.1294248,1.6013895,1.6361226,1.5399994,-0.80751073,-1.1791224,-1.1916925,-2.389062,4.624608,-2.3223283,0.11237143,-0.93976086,-1.5510402,-1.0209957,-0.83826584,-0.10990765,0.5305053,-1.5538996,-1.1734638,-2.6544724,0.7249158,-0.53940636,-0.2597741,2.5924463,-1.9859533,2.0079362,0.26653677,0.06139426,-1.3927468,1.5943868,2.6980462,-1.3010119,0.60449666,-1.8845404,-1.4096144,-2.0850894,2.2227566,-3.432571,4.4933662,-0.3778566,3.8502553,0.25292298,0.66274893,0.8534311,-1.2732484,0.7422394,-1.2364637,-4.1734657,2.1657078,-2.495218,-2.1525242,-2.4435189,-0.42768437,0.0054387343,-3.5209117,-0.71493816,0.25732824,-0.33691803,-1.5980241,-4.6084423,-0.33286333,-1.0320756,-1.2420958,-1.1018375,1.3414006,1.097836,0.053563606,0.1409311,-0.88890547,0.9237904,-3.0574455,0.98382896,-0.8828657,-3.2282054,3.6040633,2.6803553,-0.64005256,-3.9566886,3.4938753,1.9992223,2.2185447,0.8546987,0.64583343,3.2537065,-1.0550299,0.10032433,-2.923704,1.68015,0.31241113,-1.6147969,3.542895,-0.66714114,-1.0614264,-1.3635749,-0.7968884,-1.1059401,-0.5612721,1.748917,-0.14631324,0.7738461,-0.05824951,-3.1817317,-0.06975616,2.7091892,0.9366031,2.4594893,-1.4251969,0.30219606,2.0213542,-2.388093,1.0229846,1.9262968,0.82588774,0.07457574,-1.2342098,-0.6516865,-0.2814038,2.3601367,-0.71497196,2.6183126,-2.126283,-0.28296477,3.0068412,-2.310062,-2.4575748,-0.29351425,1.9848024,-1.6295596,-2.065042,0.60372335,1.2019888,-0.86546016,-1.7260859
C3N-03211,1.354063,-0.7336166,1.6111342,-1.58544,-0.6219343,-1.7510282,-3.672928,0.72171944,3.3648303,-0.35761258,3.206362,3.0976858,-0.6247336,4.13571,-1.1565009,2.614644,-1.1545172,0.4871144,1.1440715,-1.1005162,0.95938855,-0.10564489,-1.1326932,-1.6512413,1.5827016,0.43958363,-0.9964642,-0.824104,0.26677853,0.39012238,-1.4007199,-0.060814634,2.1699955,-2.2209575,0.5002232,4.2803597,-1.0182941,0.1830769,-0.2132919,1.3966253,-2.8112898,-1.3382372,-0.81824684,1.8427647,0.6218229,0.5767275,0.12124712,-0.45194295,-0.67125916,3.001741,1.260647,1.1698142,0.87528676,-2.103298,-1.0576769,-0.6193676,-1.3382825,-1.4049048,-0.31147423,-1.9134845,2.7437582,-2.4084392,1.988845,0.9282819,1.0204995,-0.40551826,3.4406354,-1.7292622,-0.90756774,-1.1807964,3.0769696,-0.88078475,2.2587748,0.49624997,1.8625885,-2.9124184,-0.68576247,-1.9399258,0.3709593,2.7791157,2.3293867,-3.3311963,-1.641703,-1.77265,1.3048546,4.605015,-0.13289969,-0.38130188,-0.5381359,0.89817804,3.8066745,-1.5598941,-0.4475763,0.015796501,-5.3305135,-0.11628108,1.8153174,1.1476924,-0.18857415,-0.15151362,2.6349614,1.3024875,-0.25054288,0.2215521,1.0982257,-1.4244148,1.1879996,-0.4843905,2.0205345,-1.4353739,-0.35853451,-3.7314298,-1.1884929,0.07112025,1.868599,1.4141508,0.032202795,-3.9416635,-0.62782043,-1.8150351,-0.4002379,3.244602,-0.088504784,-2.423784,1.8547988,2.037411,1.3893329,-0.67895335,-1.0651577,-0.9891626,-2.567904,4.577796,-2.4044914,0.51400447,-0.9587972,-1.4448323,-1.1718384,-0.76758343,-0.13298544,0.16874872,-1.5492699,-1.0540344,-2.9649863,0.57206815,-0.7461907,-0.31984922,2.650818,-1.8015691,1.5727273,0.106115356,0.28533578,-1.9264256,1.5929148,2.2418141,-1.3134854,0.72288334,-2.7334929,-0.8711331,-2.1591222,2.3679135,-3.2615666,4.247929,-0.257718,3.716185,0.03793682,0.98300517,0.5399091,-1.5172454,0.48260644,-0.9218482,-4.7334456,2.0985513,-2.268173,-2.3832276,-1.9672532,-0.6058384,-0.33030504,-3.6974275,-0.49386495,0.54811704,-0.39286974,-2.1445231,-4.3001046,0.0009185863,-1.0073034,-0.9435012,-1.4098122,1.3543594,1.1326435,0.19293427,0.14631939,-1.0675261,0.9519246,-2.5546112,0.8488507,-0.9709742,-3.3314612,3.8600292,2.3898969,-0.9195553,-4.200871,3.573541,2.0535238,2.4154584,0.701817,0.7761697,3.527091,-1.069453,0.104046226,-3.3241494,1.4928424,0.35229212,-1.4755372,3.4777524,-0.89168495,-1.010789,-1.729812,-1.0997142,-0.61233026,-0.32818902,1.9014616,-0.003835133,0.90823793,-0.17313567,-3.1882439,0.3317423,3.2457702,0.7964844,2.8597581,-1.1554599,0.067612566,2.3084896,-2.0446155,1.3350021,1.6046546,0.88779217,0.22333956,-1.2442354,-0.7136493,-0.44637117,1.7788323,-0.5141644,3.0495718,-2.0663326,-0.035636492,2.9491928,-2.2655237,-2.2766533,-0.09527188,2.6134102,-1.4973279,-1.9876907,0.65704215,1.0111289,-1.1996698,-1.4840013
C3L-01052,1.4724519,-0.92809683,1.6400989,-1.8776132,-0.61141115,-1.2809184,-3.3841896,0.98798037,3.1310866,-0.29368067,2.8529973,3.0361905,-0.5240894,3.8448405,-1.2527815,2.7130876,-0.67529094,0.22708857,1.3770328,-1.1968147,1.0629488,-0.30209574,-1.1739651,-1.4219625,1.4748025,0.359515,-1.015882,-0.97941524,0.7257276,0.37538996,-1.6063492,-0.2715226,2.001225,-2.1258893,0.40110907,3.9651375,-1.1362967,-0.07558955,-0.4232061,1.4461125,-2.862993,-1.4069908,-0.7207033,1.4147159,0.904491,0.28711164,-0.020531358,-0.45749396,-0.31106022,3.0641103,1.5636667,1.3987418,0.82184184,-2.2097826,-0.93330115,-0.39234722,-1.2446448,-1.3794355,-0.18684556,-1.8038428,3.2432318,-2.325557,2.430932,1.242182,0.99582213,-0.44930837,3.4874957,-1.789147,-0.8220602,-1.475475,2.8915682,-1.0837431,2.3745263,0.495638,1.7714438,-2.882197,-1.0089642,-2.0030568,0.4294268,2.2851474,2.6071877,-3.1217346,-1.1385988,-1.9491838,1.124001,3.9014404,-0.04017668,-0.5269572,-0.5512557,1.0618974,3.9013495,-1.4528834,-0.57835627,-0.09564432,-5.1453633,0.18416746,1.4814912,1.7426629,-0.38380685,-0.42378333,2.5629091,0.8753943,-0.8282439,0.5914707,1.5766455,-1.00871,1.5002424,-0.23967107,1.9642038,-1.5523401,-0.10613203,-3.5799358,-0.8442611,-0.4111915,1.963886,1.7181002,0.07403085,-3.8011284,-0.85247016,-1.614319,-0.09149588,3.0427809,0.3993913,-2.6114445,1.7205187,1.8999815,1.5441097,-0.74145573,-0.8874859,-1.1785564,-2.7018487,4.8600287,-2.4196017,0.3176219,-1.0665213,-2.0764754,-0.48325709,-0.6342871,-0.23969333,0.29465708,-1.4385608,-0.94990075,-2.6073418,0.92324847,-0.57079554,-0.36464489,2.2517629,-1.6452818,1.8638396,0.25961205,0.50483555,-1.6290822,1.572843,2.8253765,-1.4690138,1.1588817,-2.3022208,-0.9052254,-2.110863,1.9369425,-3.364915,4.77595,-0.28929165,3.871789,0.18291217,1.2100607,0.5919226,-1.5759064,0.7435011,-0.8706672,-5.066756,2.2255154,-2.4937127,-2.9552763,-1.8263662,-0.7804605,-0.3072004,-3.7862349,-0.37382427,0.65495765,-0.48938414,-1.6387429,-4.534201,-0.24152258,-0.8585398,-1.1371365,-1.0439429,1.0768155,1.4740113,0.4546153,-0.051247865,-0.7514973,1.1702539,-2.8635223,1.0038627,-1.0100541,-3.2202847,3.6599147,2.4600909,-1.0878496,-4.8434653,3.3017087,2.0088148,2.36221,0.40392947,0.80885625,3.1431055,-1.1062624,0.21217982,-3.2143004,1.6529044,0.6840454,-1.5912151,3.4399688,-0.98095536,-1.0733037,-1.9982284,-1.7852081,-0.638148,-0.308371,1.3457618,0.23955075,0.84527534,0.27064413,-2.971753,-0.04305843,2.688363,1.0131943,2.5489676,-1.4051014,0.10845067,2.3607862,-2.092519,1.1851991,1.5619755,1.0640191,0.734501,-1.3953849,-0.71894985,-0.18823396,1.7983539,-0.7002,2.9481487,-2.2175164,0.16545928,2.8182712,-2.1908393,-2.2629738,0.083386295,2.5879533,-2.0284274,-1.664289,0.53394294,0.74382406,-1.1125258,-1.5673188
C3N-00512,1.2876813,-0.7912219,1.5556822,-2.0019236,-0.6976804,-1.524827,-3.0269861,0.5928088,3.302799,-0.10255241,3.0257275,3.0647206,-0.3761009,4.1732883,-1.0145582,2.8624618,-1.380188,0.39553952,1.2164127,-1.3222554,0.8873354,-0.24095474,-1.2069441,-1.5681535,1.8580372,0.27299273,-0.9707103,-0.9335961,0.35591015,0.70349133,-1.5693042,-0.14172442,2.342542,-1.8208861,0.3998202,3.8401113,-1.3461875,0.3130414,-0.047711283,1.3954039,-2.892366,-0.9625007,-0.92384404,1.2018403,1.0819317,0.5293703,0.20249826,-0.6692346,-0.34025237,2.8326488,1.5465734,1.289016,0.8442624,-2.1100225,-1.074807,-0.704538,-1.3402323,-1.3706641,-0.21968386,-1.8470764,2.89184,-2.4142575,2.2328398,1.1857179,1.0563387,-0.67226017,3.4486003,-1.7530205,-0.7974549,-1.463001,3.1405504,-0.9595498,2.579416,0.6967563,1.9728146,-3.1823492,-0.76555306,-1.7991037,0.21994165,2.2653565,2.6695385,-3.1359415,-1.2307053,-1.6830397,1.241946,4.243329,-0.007624394,-0.49520418,-0.67161924,0.85517865,3.852552,-1.1282338,-0.5156857,-0.10328674,-5.5192094,0.045406036,1.5870537,1.6396555,-0.35656977,-0.16856425,2.6114686,0.78050816,-0.4963557,0.36714566,1.5625827,-0.9104493,1.388567,-0.1752843,1.8109275,-1.4010766,-0.0782077,-3.7032835,-1.1281736,-0.350479,1.9721799,1.4826992,-0.046307232,-3.961671,-0.4480992,-1.6285282,-0.5564603,2.7952337,0.19063684,-2.5206468,1.9349264,1.6217911,1.3426226,-0.46435574,-1.1187757,-1.4498835,-2.8605912,4.535635,-2.1047485,0.4805663,-0.919619,-1.610796,-0.73982775,-0.8614826,-0.6014305,0.5660257,-1.3944257,-0.9178266,-2.6733181,0.8867696,-0.4479857,-0.18097882,2.502212,-1.7935116,1.6698691,0.27802548,0.37362438,-1.5448797,1.608527,2.4872155,-1.3396297,0.68346643,-2.4175687,-0.9271606,-2.2776098,2.2839336,-3.2194488,4.6356497,-0.11268873,3.8054807,0.061638482,1.2174467,0.43513954,-1.6343204,0.7349648,-0.8988566,-4.7074265,2.1856205,-2.4106712,-2.6101532,-1.9676178,-0.8050102,-0.21148703,-3.860199,-0.27156255,0.62907887,-0.4559932,-1.6559408,-4.425715,-0.2116694,-0.94227046,-1.2368779,-1.2781006,1.2167526,1.2766832,0.18012056,0.16784735,-0.6634391,0.9340493,-3.0161889,1.2777907,-1.2097276,-3.3095932,3.3004112,2.2614841,-0.77430284,-4.5525813,3.3526077,1.9361904,2.498208,0.49578178,0.8723304,3.279001,-1.0576062,-0.011509906,-3.291165,1.5889481,0.53110486,-2.0294826,3.2697814,-1.271758,-0.82619333,-1.9810888,-1.5342977,-0.79234594,-0.62693965,1.2453507,0.14031607,0.59316546,-0.12942758,-2.8679507,-0.12328347,3.042218,0.8124352,2.8725612,-1.4022163,-0.12248406,2.209788,-2.1517599,0.9814519,1.78776,1.3209388,0.7187112,-1.2897308,-0.6387243,-0.34137008,1.9828475,-0.8025864,3.0816944,-2.357689,0.18678498,2.9785817,-1.9577296,-2.2575424,-0.12757502,2.6112206,-2.0441058,-1.6602695,0.6876663,0.73783135,-0.8179305,-1.5638549
C3N-02295,0.7824723,-0.7116367,1.6677508,-1.9638716,-0.7961129,-1.5623271,-3.7141232,0.6941389,3.2630937,-0.16344713,2.7355814,3.166349,-0.5724974,4.0481896,-1.0790296,2.9262671,-1.3120878,0.502268,1.0918169,-1.352933,1.0823159,-0.15241991,-1.4574546,-1.6236811,1.6508967,0.12066907,-1.0694388,-0.7344387,0.5898694,0.56285703,-1.8152801,-0.18670622,2.561585,-1.9525639,0.5960509,3.8468022,-1.3949109,-0.13012506,-0.30639935,1.4485167,-3.0157604,-1.3913355,-0.9752576,1.5110445,1.2190351,0.45682797,0.025145529,-0.65703565,-0.75598556,2.7896411,1.5916388,1.253455,0.7571489,-2.2648873,-1.1478254,-0.59040487,-1.5837073,-1.2784004,-0.27335003,-1.6536161,2.8091543,-2.3826797,2.1663444,1.299068,0.82216215,-0.33650538,3.577153,-1.6736867,-1.04613,-1.1863436,2.622268,-1.0685799,2.29621,0.6027558,1.6852914,-2.8122532,-0.7791564,-1.9809659,0.26921335,2.2939963,2.7800932,-3.4201508,-1.296058,-2.019485,1.2255057,4.3326354,-0.06677501,-0.48205543,-0.45857057,1.0949742,3.941007,-1.0364385,-0.31536564,0.07317732,-5.338967,-0.23547584,1.4842921,1.5402642,-0.36479154,-0.3567682,2.456497,0.98601043,-0.49186394,0.09522323,1.3369321,-1.079735,1.7187258,-0.3795432,1.9614234,-1.565771,-0.14460833,-3.7990808,-1.0084155,-0.22143252,1.9253715,1.8325,-0.038103517,-3.8655398,-0.4466447,-1.7124668,-0.529566,2.9514885,0.212841,-2.5602863,1.6888343,2.0419924,1.4711009,-0.6534803,-1.3365883,-1.159927,-2.6074579,4.6376743,-2.1958456,0.46404564,-1.2027665,-1.6584632,-0.68807864,-0.69529957,-0.29708984,0.3660319,-1.5047542,-1.0510645,-2.7743402,0.80947775,-0.5307465,-0.30410904,2.4861295,-1.8880892,1.8151069,0.11846954,0.4694088,-1.6588926,1.7388085,2.7619727,-1.4206347,1.0804579,-2.082083,-0.8283319,-2.2075052,2.4506965,-3.5489376,4.5214267,-0.021557292,3.5904214,0.21470666,1.2321503,0.70488113,-1.731756,0.61997753,-1.0651959,-4.7145314,1.8516235,-2.5780122,-2.6171865,-2.1775856,-0.38139078,-0.34136507,-3.878775,-0.5507232,0.360843,-0.55427563,-1.8327783,-4.5313177,-0.16757405,-0.9059253,-1.1490849,-1.2822808,1.497491,1.1381017,0.0131255835,-0.029454587,-1.1810693,1.3127509,-2.7674665,1.0048138,-0.9571505,-3.6519363,3.5863788,2.1587832,-0.7971916,-4.2438655,3.5142987,2.1750245,2.2013543,0.7227122,0.85925233,3.372656,-1.2501972,0.09123167,-2.9135537,1.6570218,0.45428947,-2.023603,3.24997,-0.89382315,-0.98925275,-1.7538171,-1.1642946,-0.603825,-0.38801214,1.7304384,0.13965888,0.5753773,0.00233328,-3.1655855,-0.07397254,2.6707234,0.55290014,2.5654523,-1.2683935,-0.05046865,2.110512,-1.9717122,0.80561405,1.9153597,0.8529962,0.60032743,-1.3866177,-0.71969414,-0.0822799,1.913884,-0.68020296,3.004241,-2.1445074,-0.03254003,2.8801665,-2.1210113,-2.333321,0.12001796,2.4893498,-1.9217492,-1.7723012,0.7456093,0.9416436,-0.73701215,-1.733296
C3N-01012,1.345537,-1.0722986,1.5992099,-1.5632184,-0.44913435,-1.3269371,-3.4859257,1.0281214,3.44523,-0.036858644,2.7080128,3.1673648,-0.47450143,4.0848126,-1.3111353,2.7230742,-1.0624377,0.23155183,1.357692,-0.9909077,0.76963556,-0.13180065,-1.0475793,-1.4601872,1.6014435,0.18209152,-1.2023816,-0.9967999,0.45968843,0.15135084,-1.6244556,0.11230905,2.0950527,-2.0401068,0.32749337,3.9577534,-1.1602736,-0.003701103,-0.7219448,1.6378787,-2.6708543,-1.4548941,-1.5044428,1.349307,0.72201526,0.7559571,0.22655013,-0.9730395,-0.7192571,2.4637303,1.4439079,1.3898264,0.6726083,-2.397322,-1.259894,-0.36043206,-1.2634904,-1.394375,-0.011861239,-1.479377,3.1318054,-2.3867967,2.34115,0.89558417,0.994708,-0.5216693,3.7626348,-1.7840749,-0.82908183,-1.3765297,3.0121746,-0.9076106,2.6316054,0.63020843,1.5572166,-2.726586,-0.80745846,-2.0735168,0.40529191,2.3029506,2.4497354,-3.4139445,-1.2423403,-2.212967,1.2925599,4.2724066,-0.13500777,-0.19427785,-0.5231618,1.2327026,3.759315,-1.3356844,-0.4404882,-0.03282119,-5.260912,-0.08175988,1.4261777,1.6510594,-0.277291,-0.350289,2.6914558,0.9152762,-0.61355937,0.24304314,1.2774019,-1.2097323,1.1622698,-0.19640675,1.7212347,-1.4672269,0.17993982,-3.7035367,-0.9209814,-0.42753035,1.7220765,1.6857315,-0.1245545,-3.3106995,-1.2661781,-1.6184069,-0.33633643,2.9420602,0.18309395,-2.8210104,1.7673016,1.7923685,1.4640598,-0.58858925,-0.8616343,-1.1001041,-2.505617,4.5855184,-2.2841387,0.414072,-0.9955016,-1.9779997,-1.1007811,-0.7047358,-0.46807477,0.25831732,-1.5204967,-0.83291215,-2.935792,0.85954154,-0.37550142,-0.25275832,2.688094,-1.4606042,1.5378171,0.014177603,0.41011992,-1.7432308,1.5200583,2.489644,-1.1961849,1.1058024,-2.4303987,-1.2007337,-2.4229255,2.2081473,-3.0570238,4.2567916,-0.023479221,3.6782706,0.03616693,0.99871856,0.3550495,-1.3895065,0.7145563,-0.80915934,-4.7102838,2.3950868,-2.5004356,-2.5024981,-1.7407225,-0.6459012,-0.3141638,-3.4904597,-0.29267597,0.55899125,-0.5641846,-2.1361036,-4.425394,-0.09465421,-0.8052334,-1.2594137,-0.8443997,1.2831094,1.4797839,0.40948167,-0.2571855,-0.8443832,1.1510377,-3.0865664,1.1018165,-0.77642196,-3.3434408,3.748509,1.9721023,-0.9070243,-4.4594893,3.7345564,1.960739,2.171266,0.52622324,0.7068964,3.0777187,-1.0782292,0.15037662,-3.4027128,1.49004,0.7958746,-1.799497,3.6144164,-0.62987053,-1.3178082,-1.8617265,-1.0782177,-0.886503,-0.49820068,1.6578895,0.13701008,0.74928284,-0.13378143,-3.0921025,0.1751429,2.9178152,0.88475823,2.6292415,-1.2190363,-0.0115766525,1.9527216,-2.1027684,0.8727723,2.0428588,1.1743646,0.7376716,-1.1593932,-0.9648187,-0.43326265,1.9441879,-0.5537498,3.1573195,-2.2424297,-0.2155289,3.0086725,-2.350787,-2.2942514,0.09404765,2.7730985,-2.309965,-1.4628046,0.6764182,0.67039996,-1.014426,-1.9693866
C3N-01502,1.2222322,-0.5988773,1.7384852,-1.7990866,-0.43762255,-1.4350246,-3.4212532,0.7999377,3.489592,-0.21213825,3.072918,3.4193084,-0.5986498,3.980187,-0.86424947,2.4341404,-1.1780814,0.12935168,1.2907063,-1.4166933,1.3274214,-0.3592161,-1.4841561,-1.7482878,1.7158916,0.21318763,-1.0188007,-1.2856226,0.5570623,0.67159855,-1.7188126,-0.28136498,2.1417687,-2.012193,0.5371526,4.1532555,-1.5152916,-0.16378768,-0.056758247,1.5188541,-2.7223172,-1.3003161,-0.94865155,1.6069417,1.1323584,0.33635208,0.40646747,-0.4283039,-0.38038248,3.0517,1.5370106,0.8940783,0.7675954,-2.2943304,-1.3894285,-0.3610057,-1.1543239,-1.8294591,-0.31024632,-1.9430568,3.2661037,-2.29922,2.0039892,1.3064559,1.1158093,-0.6134172,4.007346,-1.6639534,-0.9867895,-1.7914996,2.619655,-1.0250885,2.2616122,0.91964656,1.7668915,-2.5856774,-1.2839955,-1.6391888,0.26332724,2.394293,2.6927016,-3.2584178,-1.6132059,-2.08779,1.2027678,4.5717783,-0.07478949,-0.5506474,-0.5459924,1.2418436,3.7603831,-1.0553406,-0.50442535,0.19365963,-5.420107,-0.13772908,1.3378134,1.2716093,-0.5249586,-0.3566668,2.3483295,0.98884547,-0.43139333,0.35135895,1.6766528,-0.7240817,1.6123903,-0.39658928,1.5701407,-1.3823782,0.0054281955,-3.3700757,-0.8505735,-0.20732097,1.8384341,1.574914,0.088463165,-3.907537,-0.35349542,-1.6059892,-0.6849314,2.8386588,0.1949468,-2.932062,1.7921846,1.7698773,1.3565638,-0.74052775,-1.2386208,-1.2690353,-2.3288138,4.736664,-2.2746203,0.18548071,-1.1017026,-1.6274687,-0.80360466,-0.7386082,-0.7734162,0.12765364,-1.2396834,-0.85965145,-2.6036215,0.70425683,-0.68112284,-0.31931254,2.647115,-1.5862966,1.6901153,0.123845495,0.37762764,-1.1086152,1.8554813,2.9755654,-1.4056009,0.45755795,-2.555937,-0.74428535,-2.1950002,2.6506047,-3.1273034,4.444128,-0.00085221895,3.7216496,-0.101228744,0.79270834,0.92381865,-1.3380523,0.7859536,-1.28606,-4.8764796,2.2958357,-2.2179883,-2.5103931,-2.4151669,-0.45979145,0.00022463668,-4.171073,-0.43611005,0.52345717,-0.5278331,-1.6980747,-4.6642327,-0.29506174,-0.4794285,-0.99715036,-1.1267246,1.0922916,1.1848594,0.043166157,-0.045680236,-1.0544664,1.0008689,-2.8685987,1.0540298,-1.1437291,-3.6729894,3.7328303,2.463146,-0.50480175,-4.2171264,3.5613751,2.2106595,2.3533127,0.39721867,1.1287802,3.1926086,-1.1420246,0.02122845,-3.1346965,1.4328066,0.62881976,-1.5162473,3.4680703,-0.54284924,-0.8387023,-1.5315602,-0.9407603,-0.6742003,-0.57185566,1.5413734,0.23532645,0.9087231,-0.21590117,-2.9543145,0.27460942,2.86386,0.797827,2.7513819,-1.0483148,0.20542389,1.9994818,-2.6097982,0.9458097,1.7596177,0.89756566,0.6618361,-1.1683279,-0.3776673,-0.32076925,1.9259421,-0.8016974,2.675397,-2.1659818,-0.08416567,2.7575605,-2.2323766,-2.6934683,-0.051846158,2.552774,-1.7660581,-1.754509,0.5116557,0.9598099,-0.82512826,-1.587372
C3L-01053,1.2291932,-0.7216851,1.7622107,-1.7231078,-0.44549775,-1.4942042,-3.5004034,0.8229485,3.0138807,0.09146659,2.8014631,3.0065098,-0.6444723,4.0796013,-1.4854013,2.6717534,-1.1157154,0.36201233,1.1739542,-1.0982223,0.8857337,-0.3515048,-1.1474358,-1.7877597,1.7192132,0.55989504,-1.042994,-1.0129051,0.62908804,0.3089562,-1.58502,-0.16336048,2.2268634,-1.7811183,0.5299944,4.0412526,-1.1995039,0.18845524,-0.4184028,1.5751911,-2.7946875,-1.4301826,-0.6396899,1.2593111,0.94610137,0.37378538,0.50573635,-0.82945466,-0.14557275,2.7776926,1.5571803,1.3190197,0.73583794,-2.145908,-1.0947773,-0.42767444,-1.2286286,-1.0881612,-0.16793786,-1.9548303,2.763785,-2.3428705,2.2917163,0.983878,1.0295905,-0.686569,3.4133422,-1.5058595,-0.8453578,-1.5495272,2.9874294,-0.87145466,2.4886518,0.66344804,1.7108526,-2.8407226,-0.8669939,-2.074916,0.4693894,2.1669288,2.3049865,-3.325957,-1.3378156,-1.743344,1.0784441,4.1752253,-0.14328575,-0.6305307,-0.6212394,0.7423153,3.9194667,-1.5499682,-0.6009356,-0.09391947,-5.1085887,-0.1512766,1.4516813,1.634428,-0.22299457,-0.29218385,2.5385685,0.8708525,-0.70881575,0.4249684,1.3563397,-1.0866542,1.1671373,-0.30676293,1.9730724,-1.078984,0.025611289,-3.4515328,-0.6926862,-0.038564634,1.6546713,1.5702775,0.32860917,-3.684542,-0.7400866,-1.6852959,-0.5126738,3.1214151,0.16704908,-2.8499432,1.9586382,1.8569206,1.4605771,-0.6758995,-0.84605014,-1.3845373,-2.4959056,5.0401697,-2.205096,-0.023346154,-0.9870094,-1.7392046,-0.67496973,-0.56609964,-0.48891017,0.29561722,-1.3798192,-0.61632675,-2.4570253,0.74646544,-0.56616914,-0.20142417,2.319645,-1.3683244,1.4126399,0.26413903,0.3995478,-1.5359166,1.5333645,2.526343,-1.3613601,0.9625243,-2.3097274,-1.032111,-2.212507,2.18479,-3.2486906,4.6796374,0.10804463,3.894254,0.06480196,1.0075173,0.25761682,-1.6990882,0.78720635,-1.1385777,-4.7242765,2.1117074,-2.3855124,-2.5694342,-2.0794926,-0.5071158,-0.18583885,-3.845037,-0.32930306,0.47245625,-0.54271597,-1.7585142,-4.6894183,-0.26955223,-0.57175267,-1.3775231,-1.232908,1.4822819,1.4524405,0.57055646,-0.01859688,-0.96655935,1.2455341,-2.4484973,1.2062681,-1.1210016,-3.0357504,3.7081153,2.2379293,-0.9646166,-4.773034,3.5801828,1.968102,2.311677,0.35129887,0.7688983,3.256228,-1.1658764,0.173564,-3.508088,1.5949986,0.5706674,-1.5382016,3.3507285,-0.82762843,-1.1015667,-1.8817315,-1.3856391,-0.533026,-0.59818846,1.4315574,0.3747717,0.70077467,0.0018251645,-3.0307245,0.2970813,2.8590245,0.7328517,2.8760924,-1.1098913,0.14294149,2.5279503,-2.023828,1.1817025,1.6744632,1.0609604,0.6829013,-1.3412579,-0.6256891,-0.3917907,1.7971112,-0.7141546,3.177476,-2.2291055,-0.02502594,3.070905,-2.3221028,-2.236773,-0.1128308,2.587581,-1.667941,-1.626795,0.56172436,0.8353086,-0.9418071,-1.593624
C3L-03632,1.320623,-1.0314442,1.7086896,-1.7702414,-0.6521031,-1.6439404,-3.4257889,0.9359945,3.372047,-0.33558482,2.9052114,3.0962076,-0.69555485,4.315896,-1.1897686,2.7979872,-1.1564221,0.48818126,0.89180887,-1.0027426,0.64848804,-0.1534903,-0.9628911,-1.8040963,1.5589203,0.26593775,-1.1586782,-0.4750257,0.6561615,0.52802247,-1.3562852,-0.020071633,2.134076,-1.7762954,0.6694698,4.0545497,-1.171592,0.6190778,-0.5813371,1.2727097,-2.773713,-1.2634029,-0.93849814,1.4631127,0.82003725,0.47825712,0.30681434,-0.7864812,-0.7202321,2.9011924,1.5303254,1.3316057,0.6096413,-2.2899065,-0.9267924,-0.3389264,-1.6586568,-1.2772834,-0.1737766,-1.5800115,2.8535752,-2.3172872,2.1246414,0.91526055,1.1463631,-0.22844991,3.5327694,-1.4731249,-0.9654781,-1.1141888,2.8138535,-0.95810616,2.4100296,0.5541042,1.7143062,-2.8332508,-0.6755647,-1.9210992,0.41840607,2.4607902,2.5928025,-3.295897,-1.4417408,-2.2136502,1.454152,4.2487226,0.18946187,-0.35037145,-0.5318324,0.8715709,3.794241,-1.4703792,-0.5002508,0.13283148,-5.1622877,-0.24847865,1.4267204,1.5467622,-0.31479427,0.037810035,2.3838146,0.9589327,-0.5304567,0.4921877,1.2644488,-1.267965,1.3217376,-0.42675224,1.8392875,-1.4263813,-0.20373982,-3.5327926,-0.95611274,-0.10601951,1.8991337,1.674896,0.033959843,-3.7423015,-1.0856259,-1.7309207,-0.3262762,3.198392,-0.052218508,-2.8139935,1.5319724,2.0438194,1.4872735,-0.54057044,-1.0229123,-1.2173768,-2.8464272,4.753418,-2.2463586,0.27595744,-1.2518401,-1.4219351,-0.8862726,-0.80596083,-0.19081877,0.32546878,-1.5716171,-0.99871093,-2.9029133,0.65457946,-0.41130915,-0.2597825,2.286572,-1.7133474,1.4955504,0.23001578,0.5143572,-1.9563105,1.4815195,2.700628,-0.980717,0.9155916,-2.284075,-0.83534086,-2.4165778,2.1334167,-3.1557853,4.3762956,0.13244455,3.6410103,0.04490167,1.1290289,0.44407177,-1.4199859,0.51509684,-0.7522401,-4.8428683,1.8482239,-2.3651721,-2.6234722,-1.6084948,-0.76406175,-0.46619776,-3.318471,-0.18023252,0.7642293,-0.75377786,-2.0165246,-4.35168,-0.23956706,-0.81324184,-1.670256,-1.1681832,1.4320878,1.4090321,0.53756416,-0.11231957,-0.9550172,1.3335791,-2.7195528,0.71279067,-1.0950099,-3.3845036,3.7892444,1.9290106,-1.0598202,-4.45723,3.486941,1.8129305,2.31308,0.45430368,0.925495,3.1942537,-1.0231919,0.44250146,-3.2149553,1.4358021,0.68391645,-1.8092412,3.4447534,-1.0992243,-0.9234812,-2.1186996,-1.3037884,-0.62937707,-0.40469262,1.6964146,0.36861065,0.7265185,-0.0012727474,-3.1182065,0.27106762,2.8856287,0.7316274,2.8934612,-1.3607712,-0.2594324,2.3163764,-2.1136458,0.7613492,1.8394176,1.0664281,0.816562,-1.5372127,-0.775942,-0.35971668,1.8884504,-0.516364,3.014052,-2.5150988,-0.1960436,3.2412524,-2.2010272,-2.2637594,-0.112014845,2.6072412,-2.1268668,-1.8440208,0.595247,0.9906865,-0.906807,-1.5762048
C3L-00401,1.110193,-0.99017733,1.7576255,-1.3548493,-0.80795676,-1.1979313,-3.5686347,0.36128545,3.4534655,0.12872584,2.9857562,3.001202,-0.52611524,4.0674815,-1.0045182,2.7437403,-1.0886062,0.578649,1.5636532,-0.88304055,0.9629242,-0.018773666,-0.72394574,-1.4149286,2.082268,0.14314432,-1.2420181,-1.1315248,0.5528399,0.22174916,-1.4384309,-0.35951403,2.4056056,-2.193708,0.45722184,4.0005655,-1.3924878,0.056223806,-0.13383655,1.6509427,-2.7859726,-1.3276706,-0.8599228,1.5125226,0.86442447,0.5078039,0.35689223,-0.75707895,-0.35218784,2.9991536,1.2304089,0.8766013,0.946381,-2.3282464,-1.1515801,-0.1265747,-1.3212045,-1.5777544,-0.50089127,-1.5026565,2.628235,-2.3462784,1.8679837,0.81221426,1.0612065,-0.3186039,3.5671825,-1.6388105,-1.1470045,-1.3108985,3.0980165,-1.2428223,2.4324777,0.5771352,2.1119668,-3.2946837,-1.147541,-1.9723305,0.32048294,2.4376752,2.6131763,-3.3875258,-1.3824438,-1.9274145,1.2583369,4.2611003,-0.15419605,-0.32698062,-0.7310046,1.1658386,3.5474527,-0.8821954,-0.5269115,0.09632565,-5.3888717,-0.2999933,1.1298248,1.5409921,-0.19467747,-0.52960277,2.6992812,1.054548,-0.6723001,0.022480683,1.5717801,-1.2320645,1.3197182,-0.037157267,1.8550404,-1.4092243,0.046387523,-3.8377848,-0.9244316,-0.78344166,2.047139,1.5397717,-0.49620473,-3.9763117,-0.40701053,-1.6948606,-0.3337551,2.6023133,0.20842865,-2.6050448,1.8785822,2.0189493,1.641463,-0.68839306,-1.2175355,-1.1709628,-2.4819937,4.393912,-2.3155873,0.09729649,-0.9379959,-1.6880207,-1.0794785,-0.98354477,0.015579172,0.11048944,-1.195317,-1.1309582,-2.9301298,0.9951863,-0.71881545,0.034929324,2.3444483,-1.5716121,1.523242,-0.016244669,0.545782,-1.8552598,1.4673114,2.3425748,-1.6197749,0.6720576,-2.3244216,-0.93136865,-1.9185556,1.9012613,-3.305889,4.278083,0.047615927,3.9033203,0.31545138,0.71662784,0.53068703,-1.3967104,0.93807125,-1.0151949,-4.659537,2.2679439,-2.077151,-2.5742695,-1.9308046,-0.77438504,-0.35442337,-3.5087075,-0.3579991,0.8427201,-0.74090165,-1.9605048,-4.1360173,-0.16779898,-0.77612656,-1.2518319,-1.510595,0.9582744,1.1392494,0.0021661047,-0.2721736,-0.66819936,1.1411523,-2.4488695,1.2767515,-1.3635887,-3.275262,3.4304078,1.9460341,-0.90566725,-4.3310213,3.6101682,1.930666,1.9561828,0.38346618,0.95247203,3.1581433,-1.5265806,0.3218987,-3.1082761,1.7461287,0.6562503,-1.7329619,3.5829642,-0.4409075,-1.2654592,-1.7632847,-1.6370842,-0.7223092,-0.40851942,1.5497472,0.0020814964,0.7268602,-0.20346664,-3.3470876,0.11134222,3.1425896,0.9024334,2.7438183,-1.1063634,0.018913234,2.4654694,-1.9493008,0.92478144,1.6975342,0.91326547,0.71078694,-1.035577,-0.5742014,-0.46112195,1.5739373,-0.71195865,3.017666,-2.043961,0.4532689,2.7763255,-2.0764296,-2.006533,0.09567074,2.830388,-1.784696,-1.6244382,0.54283154,0.7416685,-1.1687613,-1.2455764
C3L-01054,1.4032606,-1.038608,1.6617563,-1.5514158,-0.72448564,-1.1551992,-3.5555236,0.69105554,2.9602559,-0.053136896,2.7261155,3.1618094,-0.40308106,4.007528,-1.1849256,2.5880356,-1.0213933,0.413865,1.2631522,-1.0795493,0.96356076,-0.19691049,-1.1305755,-1.4858844,1.45225,0.4312953,-0.98700297,-1.011885,0.420711,0.34935546,-1.5221967,-0.38761914,2.1631668,-1.9809592,0.66825527,3.994249,-1.1422582,0.27679437,-0.3047022,1.4013696,-2.9414723,-1.19506,-0.8740944,1.4925859,1.0566369,0.49798518,0.17833948,-0.6093686,-0.38744068,2.887334,1.3793062,1.288204,0.86871547,-2.3726792,-1.1690551,-0.17601301,-0.98789126,-1.4291791,-0.23890848,-1.8431734,2.7746623,-2.5880241,2.2688904,0.8595832,1.2762811,-0.6293979,3.272254,-1.7230291,-0.9402404,-1.5545125,2.617363,-1.1418808,2.551346,0.68406713,1.9716467,-2.8072143,-0.8504534,-2.105159,0.49726263,2.3353179,2.6285138,-3.2244995,-1.4232279,-1.9875093,1.1369658,4.473489,0.1069887,-0.47033012,-0.7790599,1.2217865,3.857674,-1.1949075,-0.7880295,0.09402649,-5.133365,-0.1868093,1.8025315,1.448722,-0.44033745,-0.3878671,2.524626,0.8947257,-0.92186576,0.49760976,1.4829835,-1.1220919,1.3129356,-0.38658732,1.8299426,-1.2704626,0.04371968,-3.5096815,-0.6759812,-0.4220943,1.893039,1.7451868,0.021846648,-3.680182,-0.669745,-1.8477966,-0.18357456,2.9110477,-0.059384577,-2.8362176,1.950634,1.9232157,1.4522913,-0.75750583,-0.97733665,-1.0690916,-2.5803995,4.891748,-2.26837,0.36561564,-1.2158327,-1.7873099,-0.83754814,-0.5631365,-0.206294,0.31107295,-1.2626573,-1.0151305,-2.5387022,0.7048572,-0.6249839,-0.4767802,2.3871846,-1.6705521,1.5248358,0.39291123,0.55093175,-1.5360879,1.4600602,2.677015,-1.4004159,0.98259556,-2.3419771,-0.840667,-2.3073738,2.079892,-3.491613,4.5649786,0.0056584906,4.0422397,-0.058980867,1.1491542,0.25000566,-1.5975544,0.6440308,-1.0633521,-4.864085,1.913802,-2.0607877,-2.5554752,-2.019734,-0.68020403,-0.11518249,-3.6009512,-0.3054514,0.58954453,-0.7714246,-1.7322454,-4.587417,-0.3422304,-0.89338595,-1.5026671,-1.3667915,1.4113873,1.478043,0.47320235,0.08825092,-0.6778059,1.2777056,-2.668946,0.89152014,-1.1313907,-3.2754312,3.7524643,2.4312053,-1.0544803,-4.4177785,3.3938153,2.1924565,2.4691334,0.5116914,0.57971233,3.1975024,-1.1871964,0.39581203,-3.3476026,1.4819657,0.7073941,-1.573417,3.4710326,-0.85236794,-1.0284173,-2.0030677,-1.303232,-0.5752894,-0.61256707,1.5078601,0.3595103,0.79942983,0.06091824,-2.9239285,-0.12488578,2.951022,1.0000734,2.8581016,-1.1865113,0.40162697,2.233553,-2.1271772,1.3242748,1.889844,0.9685594,0.65908235,-1.2368205,-0.39486125,-0.3446529,1.6482484,-0.5973345,3.015994,-2.2054524,0.005813253,2.8643267,-1.9210563,-2.3374617,0.07376133,2.6304054,-1.906342,-1.8054831,0.5947123,0.90166754,-1.0231454,-1.5941887
C3N-00517,1.2274978,-1.0065377,1.501687,-1.7403898,-0.5423527,-1.417591,-3.347647,1.0923795,3.2876961,-0.06389171,2.591574,2.8410048,-0.61937445,3.8752112,-1.3555037,2.6757948,-0.7097997,0.39055288,1.2139403,-1.0477548,1.080312,-0.24746728,-0.956511,-1.5165298,1.6833386,0.42430013,-0.7802561,-1.0035084,0.5207485,0.5942117,-1.3000438,-0.013413959,2.1072462,-1.601518,0.7632433,3.842777,-1.0627106,0.18636921,-0.4581776,1.6558609,-2.568329,-1.255433,-0.9596792,1.255109,0.9773976,0.75133175,0.18159616,-0.6886915,-0.5151977,2.7761772,1.4027815,1.3957534,0.5814645,-2.4794278,-1.1263131,-0.45418772,-1.329032,-1.2574908,0.18335694,-1.7837856,3.025891,-2.3793075,2.1608398,1.0022966,1.1127273,-0.6475476,3.639206,-1.499168,-0.5905084,-1.366664,2.826964,-0.9318407,2.893399,0.6178264,1.6050013,-2.899704,-0.8374201,-2.2089214,0.38147727,2.428429,2.3591893,-3.0959842,-1.2467445,-1.740059,1.0653104,4.1041903,0.12711647,-0.5310557,-0.7071277,0.8251416,3.9886215,-1.3971868,-0.57082695,-0.06549097,-4.8954015,-0.08554758,1.3782088,1.8000689,-0.65187216,-0.35729876,2.4645643,0.84074545,-0.8210734,0.41726544,1.487409,-1.3108554,1.4299588,-0.21042721,1.8354528,-1.5478734,0.0600517,-3.3121178,-0.6488367,-0.094574064,1.7057679,1.8276055,-0.039969895,-3.6669686,-0.7746209,-1.8237013,-0.2381763,3.1834805,0.22806463,-2.818641,1.8704544,2.0894687,1.5459619,-0.604995,-0.8140504,-1.3735948,-2.6043289,4.6189656,-2.1834898,0.21128234,-0.83314,-1.916155,-0.7821748,-0.50243145,0.009208909,0.23675053,-1.4834342,-0.9589835,-2.5462868,0.9919955,-0.5327983,-0.40104118,2.1919866,-1.5378828,1.713536,0.080713995,0.15403838,-1.8116388,1.3732967,2.766492,-1.380124,1.3224218,-2.6235595,-0.9382954,-2.3587348,2.3301735,-3.3831608,4.7303066,0.35575277,3.9528854,-0.14034966,1.4785397,0.30899397,-1.4844309,0.7710884,-0.72227126,-4.813972,1.8770096,-2.261804,-2.796109,-1.5536695,-0.8973061,-0.53096616,-3.7787602,-0.55865204,0.6341625,-0.5150369,-1.7802325,-4.4126587,-0.17504188,-0.8729958,-1.2350805,-1.2361839,1.4870363,1.3008281,0.415779,-0.24331744,-0.7754713,1.1124334,-2.8555987,1.1345476,-0.8094305,-3.0172856,3.6052432,2.244446,-0.8639788,-4.9703197,3.3381672,1.9146801,2.5691915,0.27134073,0.53887635,3.3308766,-0.95031345,0.29890323,-3.1246204,1.3473557,0.6911094,-1.2415907,3.2445889,-1.1181692,-1.0106769,-1.651937,-1.4033933,-0.7814818,-0.2644829,1.4303457,0.12456917,0.5724671,0.30917472,-2.9454048,0.13310875,2.6871705,0.94092596,2.7132,-1.174791,-0.059422392,2.5404522,-2.1547587,1.0357906,1.5909125,1.3162056,0.6420171,-1.2677611,-0.87239516,-0.38504335,1.9740634,-1.0402162,3.205617,-2.3049183,-0.06257763,3.009371,-2.2349272,-2.385922,0.28023738,2.5631921,-2.2658443,-1.6223028,0.72496605,0.8134654,-0.83275104,-1.5574805
C3N-03440,1.2006345,-1.022017,1.7480797,-1.8778874,-0.38901374,-1.2771484,-3.318672,0.84852034,3.517056,0.02585139,2.9232,3.1790893,-0.7895114,4.148774,-1.2745409,2.7999637,-1.1766788,0.3211713,1.2660408,-0.9744652,0.8951276,-0.15050536,-1.1341755,-1.7768005,1.4952344,0.2233619,-1.0609334,-0.9580053,0.6051984,0.43440923,-1.3848277,-0.091434635,2.206263,-2.1425574,0.5997274,3.9517155,-1.0995498,-0.16503075,-0.47614968,1.5380174,-2.833743,-1.4558626,-1.0163107,1.4068484,0.998184,0.49916983,0.18403898,-0.7628545,-0.56916463,2.9911199,1.4249985,1.1535571,0.74751675,-2.3625264,-1.196332,-0.55626374,-1.4396566,-1.3245683,0.032509655,-1.8334731,3.0989351,-2.485664,2.1426501,0.85297865,1.0671129,-0.24969286,3.6337154,-1.4470112,-0.5754832,-1.1416543,3.2356555,-0.7159482,2.5339,0.80696243,1.8158474,-2.778994,-0.9160653,-2.077329,0.4367189,2.2310634,2.422713,-3.4704075,-1.39258,-1.9682949,1.056611,4.234761,-0.08684511,-0.36616668,-0.54135334,1.0358634,3.8819716,-1.2483766,-0.26023495,0.09444829,-5.3506575,-0.31295446,1.0279315,1.4109713,-0.36550948,-0.54511964,2.8283422,1.0144187,-0.72758484,0.31434807,1.582751,-1.2244927,1.1663153,-0.26733777,1.7344062,-1.6783621,-0.17626242,-3.771565,-0.80845255,-0.63936496,1.7812256,1.8301281,-0.11129544,-3.7779427,-0.7063361,-1.7086362,-0.46380943,3.0746129,0.389325,-2.6931684,1.622533,2.1396692,1.5549675,-0.6817177,-0.932854,-1.1400183,-2.686815,4.665756,-2.2043753,0.16267179,-0.89989036,-1.6860029,-0.7044893,-0.73822105,-0.29140487,0.18742429,-1.5084478,-0.8638885,-2.855995,0.8846697,-0.5779661,-0.41247788,2.2809331,-1.6540788,1.7182274,0.011942307,0.31824642,-1.7420567,1.6015264,2.526025,-1.3733255,0.9683911,-2.4042335,-0.89855,-2.353032,2.0688887,-3.448885,4.6886063,-0.04373104,3.8200452,0.12356417,0.874477,0.3829526,-1.4615076,0.8227081,-0.9116052,-4.7318587,2.1560717,-2.3637953,-2.7363591,-1.8490572,-0.5964407,-0.20022865,-3.8406541,-0.4916336,0.70606536,-0.59080577,-1.8008845,-4.243934,-0.0830438,-0.64605385,-1.2980903,-1.3242432,1.1109194,1.0850885,0.29600114,-0.33741784,-1.068355,1.1776475,-2.6282635,1.0090048,-0.8180894,-3.336753,3.3955262,2.0066247,-0.717397,-4.6014466,3.4110014,2.1260028,2.3357272,0.6830513,0.9039254,3.2297096,-1.0545492,0.33468053,-2.8460934,1.5444323,0.6286176,-1.561564,3.4643545,-0.76971996,-1.110751,-1.8336854,-1.2631588,-0.8656072,-0.30926663,1.3104697,0.19602992,0.7671853,0.14939979,-2.931527,0.07871451,2.7795105,0.8079179,2.5371964,-1.0277399,-0.08358294,2.4574618,-2.0204442,0.8535692,1.6608742,1.2125318,0.37074295,-1.3023869,-0.76524836,-0.40647888,1.7975577,-0.5693955,2.9321852,-2.431969,0.04276999,2.9632032,-2.2534506,-2.2861733,0.12550911,2.6341658,-2.063149,-1.4575531,0.5276688,0.7679407,-0.8963209,-1.771843
C3L-04495,1.0280718,-0.927971,1.5498626,-1.6518314,-0.5230865,-1.5917954,-3.6339097,0.86308193,3.2770193,0.14800884,2.860089,3.1110253,-0.6664933,4.1452947,-1.0216231,2.8115,-1.3037449,0.24445865,1.3161602,-0.8276705,0.8157354,-0.2662337,-1.0618281,-1.6083179,1.5202196,0.3730252,-1.2430754,-0.94385266,0.5768514,0.47433156,-1.5875348,-0.25025436,2.3161252,-1.9664217,0.74268556,3.9884527,-0.81617546,0.014856503,-0.5306589,1.5738571,-2.7354932,-1.306619,-1.0184053,1.5863882,0.9845346,0.63862765,0.13394494,-0.7942018,-0.61743826,2.766889,1.5448898,0.9992016,0.6229551,-2.0226028,-1.0143986,-0.49184713,-1.3908633,-1.4104326,-0.29332486,-1.825109,2.9043407,-2.5666714,2.1369212,1.166491,1.1779429,-0.31387287,3.8272703,-1.6494474,-0.7576155,-1.0465348,2.995504,-0.86525357,2.8218055,0.5039571,1.9738933,-2.950671,-0.7009117,-1.893222,0.1345494,2.5058444,2.2461603,-3.669475,-1.5264689,-2.1925278,1.292423,4.5146422,0.17435618,-0.15948479,-0.7280177,1.175398,3.816142,-1.190353,-0.7067022,-0.028712105,-5.1503577,-0.20688513,1.4129745,1.5187228,-0.16856763,-0.3284865,2.7852397,1.0218326,-0.7004538,-0.1005741,1.4252923,-1.2409396,1.3919753,-0.23887989,1.9073416,-1.1932639,0.016885752,-3.7601213,-0.4994322,-0.28023067,1.9912744,1.5904012,0.13515048,-3.740003,-0.6173086,-1.9050863,-0.1278601,3.0738158,0.19775124,-2.854023,2.0315602,2.155333,1.3707393,-0.787009,-1.1898693,-1.2485216,-2.6547208,4.710758,-2.4046588,0.15752283,-0.9889399,-1.5368675,-1.0040689,-0.7623596,-0.1397165,0.25173667,-1.4434716,-0.9218887,-3.0465791,0.87481296,-0.41093233,-0.062204793,2.4925785,-1.7411959,1.2233484,-0.1171503,0.37800646,-1.9065251,1.4312199,2.6790187,-1.2883818,0.92265207,-2.3300714,-0.8114003,-2.4777899,2.1506703,-3.483503,4.359927,0.05398861,3.768342,0.08270196,0.98916554,0.55829203,-1.2771338,0.59156245,-0.9475385,-4.8007383,2.0200953,-2.3106136,-2.7220993,-1.9073696,-0.56486315,-0.510907,-3.7641237,-0.27406704,0.82336247,-0.5955833,-1.810153,-4.3607187,-0.23095244,-0.8781103,-1.4062903,-1.3715402,1.4692459,1.2676874,0.29442844,-0.10242023,-0.97929096,0.9179549,-2.5248277,1.0443177,-1.1376013,-3.4473662,3.714973,2.1365156,-0.6689472,-4.5272403,3.7203383,1.6879486,2.2545867,0.6470044,0.753248,3.2247822,-1.1944362,0.5864663,-3.1099102,1.6202416,0.6498194,-1.4805307,3.6006198,-0.627138,-0.9796429,-1.7250204,-1.151887,-0.7942216,-0.13064784,1.5294892,0.27393275,0.7381637,-0.05074689,-3.098572,0.36716455,3.1991682,0.77545977,2.8443785,-0.95913994,0.0061655943,2.3334363,-2.1127691,0.82608616,1.7179115,0.83308023,0.8952396,-0.99114174,-0.505029,-0.4335214,2.1232831,-0.6358672,3.155691,-2.2967026,-0.27825934,3.2700963,-2.1951756,-2.1968935,0.08505081,2.756886,-1.9472221,-1.3755836,0.63247806,0.9290456,-1.0645715,-1.6349894
C3N-04284,1.4994491,-1.1120152,2.0428874,-1.9917396,-0.5619419,-1.3402709,-3.051236,0.81472915,3.3071458,0.004585073,2.8674488,2.8278925,-0.8972525,4.0437856,-1.3873503,2.7601337,-0.9902046,0.24364647,1.1671475,-0.8148868,0.9949689,-0.021668423,-1.1011906,-1.7239511,1.6327567,0.494444,-1.2081479,-1.1642512,0.9924637,0.34368643,-1.457325,0.029893883,2.2129586,-1.4009072,0.68726015,3.8454733,-0.7046182,0.2108817,-0.69332135,1.240237,-2.6005492,-1.421586,-0.65531385,1.5736103,0.93511873,0.36857337,0.34694046,-0.5398989,-0.37046894,2.8541996,1.7478546,0.80348086,0.53899604,-1.9456677,-0.86137646,-0.685941,-1.607683,-1.1383826,-0.021775551,-1.7834439,2.8500175,-2.6470501,2.4560378,0.96974415,1.1288933,-0.5722797,3.9159257,-1.39873,-0.7205212,-1.4256005,2.696283,-0.7996629,3.017812,0.5987393,1.4939775,-3.0757594,-0.60667634,-1.7913806,0.33276516,2.4325101,2.4064963,-2.9599874,-1.5164105,-2.3854268,0.9025056,4.2012787,0.28900766,-0.7074214,-0.7791603,0.92345273,4.0395355,-1.6406561,-0.64421296,0.17377649,-5.0781517,-0.4762865,1.1658405,1.3965129,-0.4355221,-0.15113229,2.5751865,1.0391897,-0.78178847,0.6116033,1.7116405,-1.0224526,1.2444819,-0.33078727,1.7801294,-1.62625,-0.088635646,-3.1052344,-1.1363974,-0.79708564,2.0525281,1.7276969,0.12765658,-3.8730383,-0.59618014,-1.5859689,0.043592438,3.560041,0.084628046,-3.1256697,1.9500445,2.3020735,1.7943971,-0.45103672,-0.9482508,-1.0260062,-2.8057985,4.656774,-2.158872,0.16548546,-0.9924262,-1.8684136,-0.59173393,-0.395838,-0.02999517,0.110234536,-1.5843743,-0.965809,-2.6562655,0.86822885,-0.40130994,-0.1469437,2.1563303,-1.3840592,1.3475288,0.1092515,0.2722226,-2.0985067,1.1348212,2.6631498,-1.1497601,1.4647124,-2.3657131,-1.0594685,-2.4670715,1.642645,-3.6185882,4.943737,0.5732612,3.591735,0.067138344,1.5086715,0.06433253,-1.6130297,0.80176723,-0.7493014,-4.8957357,1.9820218,-2.6322818,-2.8381982,-1.54582,-0.8047218,-0.5383608,-3.558961,-0.0742754,0.669042,-0.40612084,-1.9503946,-4.5298276,-0.45303175,-1.1415488,-1.1720419,-1.3449128,1.5225025,1.4355012,0.17846896,-0.6220323,-0.92688906,0.9266401,-2.8957782,1.0483797,-0.98448604,-2.9306197,3.6977813,2.3293054,-0.9041666,-4.6641655,3.3704536,1.6899968,2.1345887,0.42888314,0.8956033,3.439112,-1.0392536,0.13264531,-3.1627464,1.8443593,0.27486366,-1.278922,3.3678522,-0.6695505,-1.0076486,-1.747936,-1.7197869,-0.5278184,-0.2363989,1.573996,0.54021853,0.8323233,0.13022824,-2.909275,0.0074080504,2.801765,0.99694276,2.4107044,-1.1639487,0.11626894,2.2206028,-2.0397866,1.1013644,1.6362909,1.2894816,0.2698385,-1.5903653,-0.8491272,-0.4910804,2.1661594,-0.33773783,3.285567,-2.169981,-0.2898453,3.1416705,-2.0990195,-2.2592967,0.07665962,2.5022595,-2.1343644,-1.8237641,0.36624527,0.50641257,-1.2342383,-1.3894933
C3N-00957,1.1954502,-0.7873355,1.4588218,-1.6853784,-0.2683444,-1.4407636,-3.5711334,0.65739554,3.4650567,-0.19904988,3.2748144,3.3697753,-0.5154622,3.8798807,-1.038092,2.4162745,-1.511296,0.40327024,1.2287227,-1.0452222,0.97419757,-0.21662772,-1.347204,-1.4952863,1.7755762,0.05777376,-0.97140115,-1.7497087,0.47362152,0.5100352,-1.3244816,-0.05652749,2.387177,-2.2460349,0.7137531,4.068769,-1.2820734,-0.1555611,0.008172188,1.5513939,-2.988945,-0.9972102,-0.89704716,1.4601282,0.9842415,0.51778674,0.25610092,-0.39541844,-0.5831114,2.7418492,1.5658475,1.0847237,1.2575538,-2.3324127,-1.3093619,-0.5447556,-1.409367,-1.3104954,-0.45316115,-1.9736351,3.0291994,-2.6712668,1.9989926,1.3334936,0.910725,-0.26957563,3.938213,-1.6919382,-0.63980794,-1.7006183,3.08616,-1.0950435,2.2296202,1.0271004,1.6533165,-2.8136346,-1.0164732,-1.870517,0.14342584,2.6640685,2.7399545,-3.3110132,-1.4404306,-1.7651514,1.0835271,4.2990146,-0.09714046,-0.44896218,-0.96840215,1.287446,3.5737176,-1.4669782,-0.5593175,-0.32727095,-5.4176598,-0.26156753,1.700506,1.0286692,-0.6473158,-0.3095317,2.4648001,1.1489811,-0.489326,0.05542385,1.7720199,-1.1455694,1.4480333,-0.37404478,1.3738273,-1.6621659,-0.25582895,-4.021125,-1.2858701,-0.17691699,1.944361,1.6331373,-0.23651065,-3.9878314,-0.80265814,-1.778698,-0.6371081,2.9252672,0.4837108,-3.0247006,1.7410979,1.6573778,1.9224288,-0.7088362,-0.8782704,-1.8099687,-2.3861816,4.686633,-2.365008,0.14648625,-1.0248898,-1.8315033,-0.88306856,-0.66379195,-0.43568558,0.3993096,-1.3122638,-0.9800603,-2.6083305,0.6622101,-0.64083165,0.15633759,2.68459,-1.6323195,1.6652366,0.26027906,0.12756717,-1.1029552,1.7848532,2.4699457,-1.4711288,0.54669374,-2.4252563,-1.1974671,-2.043325,2.4676006,-3.3223832,4.2661743,0.0023914597,3.7790108,-0.039117936,0.82665575,1.0189512,-1.1072055,0.8511607,-1.1531307,-4.4324093,2.1179018,-2.5394757,-2.2791717,-2.239928,-0.6997421,0.10898371,-3.9563465,-0.49201357,0.34226647,-0.2610183,-1.9446605,-4.2700043,-0.189596,-0.85859615,-1.3777096,-1.0965718,1.2337519,1.1243023,0.14664772,0.2475476,-0.6821986,1.0411596,-3.2264721,0.8753275,-0.9168702,-3.218258,4.02062,2.3196917,-0.7882565,-4.09076,3.5060365,1.8915473,2.2565587,0.6160364,0.9440012,3.2251844,-0.84797984,0.23464303,-2.933212,1.7487429,0.47267467,-1.6189959,3.5154006,-0.7463213,-0.9924859,-1.398604,-0.9548014,-0.769345,-0.8508089,1.3785483,-0.23460332,0.85741746,-0.6096741,-3.0400128,0.4745767,2.7241995,1.1519132,2.9127429,-1.1343392,0.13798314,1.9771082,-2.8261561,1.0122687,1.6298007,0.9591181,0.61253,-1.0056392,-0.23417957,-0.27109778,2.0505283,-0.46178254,2.5701911,-2.2931354,0.0103923,3.0896163,-2.05686,-2.3944907,-0.12834214,2.40816,-1.4377117,-1.5519998,0.6481886,1.1067282,-0.7861087,-1.4269578
C3L-03395,0.93230486,-0.7790365,1.8517323,-1.8424232,-0.44426852,-1.372489,-3.4652529,0.6812385,3.4333737,-0.046897236,2.9892213,3.0528042,-0.7565099,4.3688536,-1.2532915,2.8926053,-0.77137953,0.14835064,1.108095,-1.1967511,0.8581117,-0.3059449,-0.9705463,-1.6095023,1.6128274,0.15173209,-1.3617593,-0.92129993,0.51666623,0.5028639,-1.6142567,-0.18533136,2.4300401,-2.0059943,0.53629124,4.0481606,-0.9264056,0.17159776,-0.32055417,1.7139949,-2.877739,-1.1136237,-0.7199275,1.7389212,0.82511663,0.5152818,0.39190814,-0.5780229,-0.5912527,3.1023626,1.6711888,1.2204518,0.72255456,-2.350892,-1.0910265,-0.19523422,-1.2905544,-1.2360282,-0.23069865,-1.614684,2.706294,-2.282075,2.2316995,1.1918126,1.349446,-0.2971542,3.5396886,-1.5651872,-1.0560731,-1.4486703,2.739177,-1.0678304,2.6733124,0.7646606,1.8172541,-2.8245313,-0.8410064,-1.9787405,0.39572132,2.3520217,2.5101821,-3.2166016,-1.3708757,-1.9370676,1.0810409,4.3401084,-0.022409244,-0.44551516,-0.6121305,1.1611904,3.7452235,-1.4520152,-0.7764595,0.012723811,-5.3680854,-0.14885625,1.4329019,1.4640864,-0.22167571,-0.63225657,2.7743976,0.92398065,-0.7804756,0.35889265,1.4070181,-1.1121114,1.5098001,-0.3233034,1.8377516,-1.6549907,-0.11817267,-3.77483,-0.90075266,-0.13335682,1.7273753,1.9598038,0.09553367,-3.780917,-0.77710414,-1.7705601,-0.43869078,2.7986329,0.13514546,-2.6682286,1.8735666,1.6905898,1.7131945,-0.67217183,-1.1661773,-1.1553894,-2.8167946,4.7085657,-2.108915,-0.03577469,-1.1267849,-1.5353054,-1.0228919,-0.8205116,-0.18990386,0.1361333,-1.3092386,-0.89316005,-2.784956,0.9751625,-0.67423517,-0.2071272,2.659774,-1.7149749,1.4912814,-0.007332101,0.5543065,-1.762125,1.6253443,2.5370848,-1.4521261,0.78399396,-2.5227842,-0.82381606,-2.5715945,2.1762848,-3.3874764,4.174036,0.0060965084,3.7760718,0.15355177,0.7824416,0.6986463,-1.5041041,0.7907102,-1.0504142,-4.89402,2.2078397,-2.4581444,-2.8527033,-1.8186411,-0.64594674,-0.32948697,-3.6689854,-0.22930385,0.76102304,-0.862859,-1.9424672,-4.114586,-0.34303072,-0.8209371,-1.337958,-1.4264787,1.1796651,1.05215,0.23605072,-0.079808295,-0.90857244,1.3252429,-2.7512124,0.9124856,-0.95366,-3.5464234,3.8226519,2.1374524,-1.2018232,-4.370966,3.5434487,2.1479158,2.3031275,0.4576173,0.9331215,3.293707,-0.94330233,0.33152792,-3.202761,1.4831667,0.6346237,-1.6558175,3.2991846,-1.0272429,-0.979076,-1.6512371,-1.2762601,-0.45333105,-0.47392812,1.3604801,0.29924637,0.77102923,-0.103916354,-2.9650471,0.28911972,3.0519593,0.6774193,2.88539,-1.0772966,-0.1839212,2.4843903,-2.1614518,0.98491716,1.8336006,1.0772103,0.7143724,-1.3581289,-0.73431134,-0.30002177,1.7686673,-0.63960147,3.0316339,-2.177556,-0.052970186,2.96471,-2.2661479,-2.056323,-0.004937166,2.6316683,-1.9547266,-1.7139896,0.5764908,0.70134103,-1.2368789,-1.4703773
C3N-00303,0.9477954,-0.5282788,1.502048,-2.1852815,-0.26968485,-1.5552076,-3.331532,1.0009053,3.3833673,-0.21446301,3.086154,2.9321752,-0.78905964,4.3368826,-0.99888045,2.431374,-1.5738072,0.8415827,1.1863307,-1.3064096,0.99674,-0.02968317,-1.6475402,-1.91505,1.5411564,0.07886436,-0.81330794,-1.3441776,0.55226684,0.6460294,-1.6929485,0.00041956894,2.6213675,-1.9961032,0.4305148,4.0201244,-1.3972995,-0.16411105,-0.21862228,1.1049931,-2.6156032,-1.0978396,-1.0068647,1.2575203,1.1279445,0.8399205,-0.0015827321,-1.0479684,-0.24063972,3.0430872,1.7090987,1.6083364,1.197682,-2.1908581,-1.1282489,-0.21119297,-1.1002282,-1.7937948,-0.3515319,-2.091922,3.1171305,-2.2073557,2.00013,1.4701045,0.5980075,-0.43753332,3.9350188,-1.5441731,-0.8334925,-1.1972378,3.1680603,-0.67012477,2.509004,1.2182345,1.682489,-2.5336478,-1.1044133,-1.8387878,0.27526972,2.0704653,2.7637727,-3.3854427,-1.4123416,-1.6250463,0.8116558,4.4922037,0.19954988,-0.6437181,-1.1085942,1.322266,3.7913606,-1.6271327,-0.47945017,-0.17051615,-5.533252,-0.08907329,1.8210323,1.1882957,-0.33670455,-0.33923244,2.774478,1.2051947,-0.24967171,-0.05503386,1.9480529,-0.98060626,1.0742439,0.007639044,1.2835394,-1.9015602,-0.34272584,-3.9818985,-0.8668772,-0.10106815,1.9089661,1.8093592,-0.08258391,-3.637635,-0.40438983,-1.786908,-0.8083137,2.9978285,0.4305674,-2.8096602,2.0335248,1.9029354,1.596126,-0.7004799,-1.4137013,-1.9196249,-2.3519602,4.6227527,-2.473776,0.29582316,-1.064716,-1.3324255,-1.3644476,-0.83265865,-0.47033045,0.48277953,-1.3858337,-0.68810797,-2.5326746,0.9051563,-0.5079806,0.083066925,2.6876736,-1.9930661,1.6088,0.049216703,0.29228592,-1.2112861,1.8942664,2.5410793,-1.4810324,0.7212889,-2.0153668,-0.829435,-1.6503577,2.341467,-3.8518891,4.2198105,-0.38127762,3.7844415,0.2563189,0.6813783,1.012135,-1.3499283,0.95790803,-0.9828538,-4.4270086,2.2502465,-2.1472337,-2.4400234,-2.7036939,-0.25714213,0.030311402,-4.1794553,-0.5538843,0.2788013,-0.64459723,-1.3637271,-4.7309074,-0.3061962,-0.6466667,-1.0915169,-1.4219825,1.3116598,1.1422232,-0.3148214,0.1961232,-0.9884368,0.850613,-2.7420712,1.0388646,-1.3224691,-3.347816,3.5272908,2.7731705,-0.28807896,-4.3414803,3.8806665,2.221334,2.2667701,0.46817186,0.6845497,3.1815126,-1.1373987,-0.26198778,-3.2046778,1.5466001,-0.16983922,-1.9104322,3.180119,-0.57386386,-0.7595811,-1.4576212,-0.95836663,-0.66612333,-0.5250845,1.1558801,0.05453954,0.5479147,-0.5652118,-2.9372737,0.16477072,2.3475335,0.9230971,2.50668,-1.0316907,-0.32916227,2.0915122,-2.447605,1.2487657,1.3774608,0.5748714,0.3799512,-1.1874729,-0.42419466,-0.09475172,2.1003056,-0.7480955,2.4270267,-1.7394234,0.14603035,3.0832307,-2.4813368,-2.3753443,-0.23777191,1.9129804,-1.8158904,-1.7072115,0.8886412,0.86878544,-0.7640287,-1.3757477
C3N-00513,1.4346827,-0.81331736,1.7810572,-1.6428403,-0.63964295,-1.603428,-3.3884764,1.0305616,3.3345428,-0.027564483,2.9849472,3.2088168,-0.6776054,4.2350545,-1.2331085,2.7660782,-0.9816065,0.38307557,1.1546462,-1.2953495,0.72634023,-0.30382657,-0.9530742,-1.5179528,1.533988,0.15121046,-1.1720417,-0.84050274,0.49681687,0.23252408,-1.6871817,0.021349888,2.2319937,-2.11668,0.52508414,3.8263168,-0.9587516,0.0671029,-0.4084312,1.608827,-2.9695594,-1.2375033,-0.920554,1.3234782,0.92700595,0.6674765,0.12873802,-0.6540172,-0.4240788,2.8950832,1.4832441,1.0274915,0.7746983,-2.3453288,-1.0526127,-0.54767597,-1.4610575,-1.2890276,-0.17306855,-1.5702882,2.868538,-2.4694872,2.1847003,0.8605698,1.0043494,-0.2011695,3.8113496,-1.81307,-1.0737739,-1.4109437,2.884204,-0.91288745,2.4233437,0.7457391,1.7382843,-2.9124153,-0.95678544,-2.0342336,0.67381877,2.3406227,2.262643,-3.5784373,-1.1691697,-2.0430794,1.2136806,4.442408,0.1320236,-0.39520398,-0.4695783,1.2501758,3.8053517,-1.5834596,-0.43462092,-0.13056017,-5.3959455,0.11759369,1.2143897,1.4067926,-0.3067686,-0.20911716,2.634898,1.0482961,-1.0070134,0.16414872,1.4922335,-1.2960299,1.2674854,-0.45675957,1.7193077,-1.2360847,0.03352912,-3.5800517,-0.90612906,-0.2784322,1.7049158,1.9450731,-0.057156257,-3.5115986,-0.8108159,-1.6078316,-0.6429581,3.1159456,0.31198078,-2.6775718,1.7998066,1.826238,1.306691,-0.5512931,-0.97325766,-1.3669693,-2.6383386,4.5222225,-2.3165495,0.32575935,-0.93398553,-1.7114987,-0.7866894,-0.87978625,-0.3246491,0.41237637,-1.568643,-0.49349582,-2.9292114,0.8790038,-0.3701345,-0.43325204,2.261714,-1.9363583,1.6914248,0.0029199354,0.6329357,-1.800263,1.6286273,2.6822157,-1.2661717,0.735851,-2.6717088,-0.9344775,-2.3761353,2.094924,-3.2288291,4.24579,0.22464354,3.530688,-0.07681936,1.087251,0.55869526,-1.2024552,0.80053115,-0.99937046,-4.7034264,1.9041028,-2.1843314,-2.745939,-2.0794659,-0.7838425,-0.19547899,-3.679763,-0.40701094,0.70107996,-0.5165674,-1.6429955,-4.2258344,-0.00087517075,-1.037457,-1.211751,-1.3516341,1.0071067,1.39855,0.2545937,-0.15791455,-0.9596918,1.1676632,-2.6889272,0.9103163,-0.83681214,-3.3766,3.4688017,2.0905302,-0.89993185,-4.645621,3.3987687,1.9446267,2.255068,0.53732836,0.7393548,3.1642666,-0.91477585,0.21100003,-3.149653,1.2609167,0.68412125,-1.7359897,3.5909202,-0.99707675,-1.0991396,-1.8231102,-1.3642908,-0.75071305,-0.29282552,1.6008987,0.33692637,0.6800257,-0.11574608,-3.025961,0.13998933,3.0845277,0.7263959,2.476186,-1.1461236,-0.10742821,2.363582,-2.235854,1.1140748,1.6550498,1.1746583,0.50175995,-1.1300253,-1.0983169,-0.40769666,1.8049644,-0.6309773,2.9786642,-2.1455495,-0.261455,2.7495592,-2.0442996,-2.2121453,0.01726254,2.3938086,-2.0648754,-1.6206747,0.9242208,0.74082416,-0.9168846,-1.7791755
C3N-01166,1.405103,-1.0339195,1.3185185,-1.7846116,-0.496102,-1.1907128,-3.4481854,0.5178948,3.0912056,-0.15451227,2.8652017,3.0928113,-0.73039967,4.0795803,-1.085631,2.743629,-1.1105636,0.2950893,1.2960895,-1.103436,0.7604308,-0.15092464,-1.2610635,-1.7148262,1.4390005,0.21039595,-1.1125555,-0.94494927,0.17329687,0.49625453,-1.5850012,-0.1421006,2.2642293,-1.8228927,0.72569776,3.8761966,-1.2585816,0.10376063,-0.22263306,1.37607,-2.7858598,-1.1673837,-0.8819391,1.3422549,0.82101715,0.33112556,0.28970495,-0.6658368,-0.61883867,2.7267787,1.3991747,1.3581793,0.7822793,-2.3857818,-1.1933346,-0.4585543,-1.0178268,-1.4853866,-0.4051457,-1.81645,3.012996,-2.1646173,2.059906,0.9379769,1.1307075,-0.6040694,3.6587358,-1.3172938,-0.8336094,-1.3119557,2.9253037,-0.9678212,2.515714,0.5410892,1.8753278,-3.0275223,-0.6659726,-1.8639467,0.15427099,2.6943498,2.4283285,-3.344998,-1.3450087,-1.8060199,1.1268996,4.118298,-0.04138414,-0.43735263,-0.7267509,1.1889685,3.85434,-1.7228333,-0.47500834,-0.045671888,-5.240383,-0.26794884,1.7380409,1.3617202,-0.39675775,-0.38211823,2.4953125,0.98155695,-0.6179756,0.37748623,1.6551939,-1.1650151,1.0886128,-0.14550123,1.8590605,-1.4369495,-0.08066032,-3.5868886,-1.142014,-0.40529215,1.5813148,1.6667104,0.0483687,-3.9841523,-1.0550205,-1.6810201,-0.13780108,3.201993,0.18341066,-2.8746464,1.9303383,1.8944123,1.4800798,-0.734019,-1.1789877,-1.2972668,-2.5691907,4.6334834,-2.4096336,0.16913617,-0.96425796,-1.7744058,-0.6654745,-0.6669699,-0.09086421,0.1730385,-1.0695584,-0.87592936,-2.5624037,0.79855657,-0.4977264,-0.36037463,2.2791626,-1.5883971,1.6623967,0.39723417,0.17221251,-1.3967223,1.5978997,2.7242665,-1.4758216,0.77125674,-2.3270175,-0.99445516,-2.3371255,2.0814877,-3.3593752,4.3850775,0.07864893,4.027852,0.021881012,1.0511138,0.4850292,-1.566223,0.79423213,-0.9608629,-4.6693864,2.1841075,-2.2106786,-2.6173735,-2.0277035,-0.5887541,-0.18356493,-3.5983686,-0.27086687,0.47604448,-0.5495159,-1.8126998,-4.5799165,-0.27037278,-0.9380264,-0.9913308,-1.068883,1.3095441,1.6066569,0.25402603,0.07076982,-0.9679455,1.0017588,-3.0069556,0.9768477,-1.059469,-3.3945277,3.6361382,2.3847623,-1.1805261,-4.3108873,3.9000354,1.9261738,2.4555888,0.565644,0.8896978,3.3088968,-1.1653514,0.15350665,-3.2899337,1.6119955,0.8032912,-1.5686917,3.4464128,-0.9486054,-1.2285978,-1.9107618,-1.3050094,-0.8119724,-0.62392443,1.4472812,0.28436145,0.91395783,0.12915938,-2.8661854,0.21877599,2.8201609,1.0389526,2.7299216,-1.2247107,0.16778512,2.0877483,-2.386801,1.2519803,1.8424876,1.016751,0.537269,-1.1416717,-0.5382975,-0.2816482,1.9658186,-0.5055866,3.1885264,-2.3708053,0.035244886,2.9142694,-2.1625905,-2.2780209,-0.057734367,2.6756425,-1.9319583,-1.6386106,0.666412,0.85477036,-1.2876241,-1.5939112
C3N-01382,1.2064059,-0.8073017,1.5876157,-1.5823779,-0.72563016,-1.7652699,-3.2636154,0.6680497,3.3400848,-0.15926224,2.8319516,3.1357307,-0.6870903,4.0280213,-1.4734913,2.9250383,-0.9547594,0.2649451,1.2163762,-1.1416936,0.97779405,-0.19198266,-0.90905106,-1.7766153,1.5496755,0.40248856,-1.0681351,-0.99689,0.50575846,0.53685045,-1.582247,-0.110196054,2.1424885,-1.8986748,0.7242554,3.661005,-0.9957708,0.10662956,-0.17349079,1.6034987,-2.812542,-1.3863791,-0.7911479,1.3069915,1.0813212,0.4105394,0.29391173,-0.91442806,-0.382408,2.6199296,1.5843098,1.4089404,0.69742966,-2.259678,-1.1995082,-0.6022933,-1.1586603,-1.1862909,-0.4580847,-1.6590219,2.8892405,-2.5836234,2.2221632,1.0760927,1.1015584,-0.43012077,3.686303,-1.6136476,-1.0129771,-1.4976702,2.9458542,-0.8439326,2.5137968,0.57765996,2.1694305,-3.2066402,-0.86594415,-2.2508075,0.32566094,2.5124693,2.4472506,-3.4410472,-1.2049475,-2.0392127,1.3614128,4.4976645,0.057683446,-0.13379905,-0.63692397,1.2427597,3.7785537,-1.2363162,-0.25699654,0.09668956,-5.0468845,-0.24835938,1.424567,1.6653286,-0.5307336,-0.38484302,2.8191082,0.80072904,-0.98424435,-0.03779094,1.5071064,-1.245734,1.3628017,-0.31398606,1.8364729,-1.224155,0.22966526,-3.4923182,-0.80536383,-0.42075005,1.7299852,1.6589708,0.1259025,-3.885258,-0.71127194,-1.9085726,-0.39699742,3.2715938,0.13874438,-2.716915,1.928591,1.8293726,1.506582,-0.9224507,-0.79149777,-1.560591,-2.5921888,4.741378,-2.611503,-0.0166842,-1.2300597,-1.9164207,-0.92950785,-0.44690207,-0.38252595,0.28586587,-1.1832991,-1.0642195,-2.792469,0.8443756,-0.4553143,-0.2200062,2.2899303,-2.0184388,1.527693,0.04244673,0.3649798,-1.6294466,1.5871555,2.716241,-1.3665147,0.87271416,-2.3588543,-0.8833525,-2.4468336,2.365023,-3.1030316,4.6936717,0.19802733,4.0184393,0.016019467,1.1311967,0.37861198,-1.0174134,0.85244304,-0.7264334,-4.835002,1.9692384,-1.962271,-2.7495203,-1.7976992,-0.5839248,-0.34270725,-3.9652343,-0.4937004,0.56703013,-0.2856874,-1.8136615,-4.721611,-0.06370062,-0.5138339,-1.2974309,-1.2445221,1.4617195,1.2813687,0.49215028,-0.047631133,-0.79659516,1.0015364,-2.7494745,1.1951967,-1.1488756,-2.9550145,3.7009711,2.2367237,-0.7650369,-4.5170393,3.6387546,1.7695731,2.5234253,0.5304685,0.8682634,3.079893,-0.9542641,0.088182546,-2.8220952,1.827202,0.95149714,-1.3040658,3.7406824,-0.7548224,-1.2821333,-1.8974241,-1.2660656,-0.56866896,-0.25948095,1.6277204,-0.006004425,0.774099,-0.09150425,-2.9825718,0.36202803,2.9664958,0.995646,2.7827044,-1.0984719,-0.054575976,2.3364289,-2.1369088,0.9331907,1.8678426,1.1314667,0.74193925,-1.1650257,-0.6391575,-0.58560336,1.7840133,-0.83020395,2.8943963,-2.3835814,-0.23629172,3.2816002,-2.1848521,-2.234338,-0.19294758,2.4916365,-2.0201128,-1.7115483,0.5995976,0.96646106,-1.1151407,-1.6902913
C3N-01011,0.98990434,-0.76876295,1.43927,-1.5772618,-0.6222857,-1.4555823,-3.4119642,0.834066,3.4436715,-0.17775854,2.8814576,3.1172311,-0.5961539,4.3931093,-1.240089,2.7523575,-1.0701631,0.34888324,1.3740513,-1.2228388,0.9035858,-0.2525727,-1.3961207,-1.7293649,1.380204,0.27750623,-0.9971599,-0.5615969,0.3303347,0.55330515,-1.418946,-0.060864314,2.0209966,-1.9693542,0.5790682,4.070968,-1.0741563,0.1444203,-0.27888957,1.646298,-2.8702621,-1.2800703,-0.9417526,1.3224843,0.911871,0.45655897,0.31840107,-0.9672167,-0.4630042,2.8020818,1.4286387,1.4040463,0.7877554,-2.1672459,-1.0955245,-0.52946657,-1.1634895,-1.6239696,-0.31565264,-1.8283734,3.0719311,-2.4946215,2.2995818,1.0147227,1.1746252,-0.5406136,3.5918856,-1.5961932,-0.6668771,-1.5319719,3.1045222,-1.0590379,2.4498951,0.74142754,1.6793921,-2.7733786,-0.64901716,-1.7658433,0.15604791,2.2587492,2.438913,-3.2243207,-1.3914878,-1.7648358,1.1666802,4.180638,-0.015144867,-0.51035166,-0.76201683,0.9659179,3.8083704,-1.2257612,-0.50622773,0.044975344,-5.2371755,-0.22994812,1.2598641,1.8346682,-0.16370218,-0.3911758,2.5481808,0.71026415,-0.4932923,0.20834905,1.4669726,-1.0962383,1.2463428,-0.2888852,1.6863589,-1.51286,0.094737515,-3.680098,-0.776233,-0.095101796,1.8724209,1.7760364,0.26876286,-3.6631362,-0.85262805,-1.7262768,-0.3937546,3.1115808,0.19650213,-2.8490503,1.997425,1.6752709,1.4371164,-0.46529213,-1.165896,-1.2252933,-2.53577,4.786225,-2.1513224,0.34572744,-1.296413,-1.53528,-0.8853728,-0.8128548,-0.3403939,0.14508267,-1.4846475,-0.79468334,-2.5244586,0.87203175,-0.48171106,-0.18940751,2.4911551,-1.6341243,1.5893366,0.17049558,0.4082501,-1.6716719,1.363088,2.7197943,-1.4907478,1.0345546,-2.1984272,-1.2807802,-2.2819548,2.2272077,-3.2752438,4.497815,-0.28621936,3.9823618,0.060997855,1.1469091,0.4236804,-1.5804352,0.6259235,-1.0518799,-4.761848,1.9679034,-2.5283494,-2.669569,-2.1436112,-0.606189,-0.20159554,-3.7614095,-0.31900334,0.6356175,-0.5032713,-1.8920074,-4.5548053,-0.1626922,-0.77292997,-1.3197882,-1.110919,1.2225616,1.6932693,0.57283825,0.010073444,-0.9920678,1.1325104,-2.7720618,1.0571003,-1.0399255,-3.3632205,3.7226017,2.4069707,-0.9627783,-4.419031,3.588431,2.2521496,2.393031,0.42982203,0.78823525,3.4290953,-1.3986999,0.223234,-3.3255765,1.6128002,0.6094835,-1.7235429,3.5327435,-1.0112576,-1.0676917,-1.8107612,-1.1632739,-0.6349944,-0.5350779,1.494249,0.044880174,0.743246,0.033434734,-3.1641133,0.3666552,2.7836258,1.0451653,2.7955503,-1.2260238,-0.17109674,2.611772,-2.2393177,0.88642216,1.6544318,0.88562185,0.8455737,-1.207452,-0.6660653,-0.30882484,1.8359123,-0.7580839,2.9466825,-2.3736165,-0.11971358,2.9865155,-2.124916,-2.2847,0.10263675,2.7721577,-1.929832,-1.7461087,0.6211481,0.79262066,-0.9671153,-1.9169638
C3L-04473,0.8408381,-0.93134034,1.4930134,-1.6491035,-0.27200294,-1.5096596,-3.728984,0.79136986,3.220861,-0.06459578,2.8001199,2.9760222,-0.8287497,4.040382,-1.7361745,2.9717152,-1.3431311,0.32289445,1.1712855,-1.2922535,1.0349852,-0.363541,-1.5598177,-1.7672633,1.4908235,0.21745554,-1.4578573,-0.93813074,0.7042858,0.14729081,-1.5485502,-0.10900943,2.2060423,-2.125347,0.71373993,4.1229277,-1.1076857,0.1573037,-0.44388187,1.6815045,-2.9170115,-1.2810822,-0.9922287,1.2174697,0.7857545,0.5555868,0.26129475,-0.7127738,-0.39867258,2.7705092,1.4996159,1.1478381,0.96569467,-2.0852554,-1.106029,-0.4552025,-1.1295341,-1.3534621,-0.44965428,-1.8660914,2.8561075,-2.3643465,2.3274035,0.80440754,1.0330982,-0.422653,3.8751588,-1.5238256,-0.67524016,-1.5244914,2.9906385,-0.8103073,2.5168667,0.7673707,1.7479975,-2.7686892,-0.82664293,-1.8643442,0.6290908,2.2151523,2.3088982,-3.346129,-1.4025558,-2.0605683,1.2373135,4.3202033,0.2589835,-0.5870995,-0.46514267,1.022827,4.0038366,-1.3377018,-0.82893926,0.106180675,-5.2056246,-0.11949446,1.6212577,1.5034705,-0.19272645,-0.29818988,2.459054,0.97697115,-0.6441185,0.25502783,1.4550567,-0.9883245,1.3057054,-0.4196631,1.6130488,-1.5629117,-0.22648928,-3.5961933,-0.72313535,-0.35930872,2.0168366,1.6023544,0.096669845,-3.5757592,-0.47574484,-1.6725805,-0.45628393,3.1185293,0.04622943,-2.7289913,1.8030728,1.7371011,1.3387862,-0.6443921,-1.2275468,-1.2428033,-2.774477,4.9086814,-2.2423415,0.07339149,-0.90547675,-1.7456214,-0.92477065,-0.815654,-0.19325556,0.2967365,-1.5484728,-0.5292169,-2.8323429,0.7381283,-0.3191582,-0.32109946,2.5009294,-1.7279072,1.6128151,0.41788474,0.45254177,-1.7873772,1.4684854,2.418066,-1.6024683,1.190664,-2.100993,-1.1415213,-2.2427928,2.020672,-3.2829177,4.2001367,0.07355398,3.5180411,0.049827274,0.8947124,0.5119032,-1.4038469,0.83807087,-0.93076944,-4.8036757,2.2204864,-2.5461183,-2.7518742,-2.0971684,-0.36517048,-0.2483112,-3.5657768,-0.56518835,0.51805604,-0.64512885,-1.8268926,-4.6464496,-0.24284534,-0.48280218,-1.2573313,-1.0921206,0.982447,1.07721,0.18569748,-0.19058822,-0.9293116,1.285414,-2.4888952,0.9467106,-0.77691805,-3.454203,3.664568,2.0756788,-0.8536831,-4.38743,3.5664923,2.0959082,1.9711194,0.81303555,1.0871989,3.5697455,-1.1239932,0.2086434,-3.438657,1.5462012,0.68576676,-1.7767955,3.6040242,-0.83624154,-1.0361215,-1.6629342,-1.0629294,-0.5864146,-0.27463332,1.7709814,-0.020889033,0.46101898,0.19594017,-3.2193139,0.34554306,3.0818377,0.93667346,2.8652606,-1.0462502,-0.20792945,2.3398626,-2.3869274,0.9126377,1.709021,0.95344526,0.45402318,-1.0584182,-0.93185806,-0.25502768,1.9321208,-0.51918656,2.9597151,-1.9758723,0.014938153,3.0283117,-2.134133,-2.5156727,0.034021787,2.4644318,-1.7018305,-1.7259376,0.6946776,0.87927705,-0.7517255,-1.7898595
C3N-01997,1.369591,-0.9730922,1.5771482,-1.3551599,-0.484284,-1.583262,-3.5118752,0.74178386,3.3505104,-0.0067807403,2.8801403,3.1016734,-0.60741246,4.219436,-1.345946,2.3831217,-0.8491191,0.37407154,1.554007,-1.0332528,0.9816343,-0.52166575,-1.0773441,-1.3404505,1.7377228,0.39788723,-1.2366854,-1.1440531,0.4506655,0.507834,-1.6518202,-0.0041123484,2.3045928,-2.1817853,0.70423675,3.8153493,-1.130553,0.15541929,-0.38502574,1.3105091,-2.7548735,-1.4098916,-0.8238735,1.530787,1.2455343,0.59384286,0.39791366,-0.47935703,-0.30640203,2.8556814,1.6205703,0.92929953,0.9657399,-2.5461843,-1.0603528,-0.32518148,-1.2478352,-1.2088058,-0.17429903,-1.5911193,2.9340186,-2.3266876,2.2410593,1.0945987,1.0542085,-0.5223782,3.571433,-1.4538455,-0.95873225,-1.6669747,2.9519453,-0.9158383,2.703382,1.0955422,1.5024663,-3.0210752,-1.0596355,-1.9126561,0.21835017,2.3135598,2.497446,-3.115594,-1.5163099,-1.8790368,1.0771458,4.3612585,-0.15386292,-0.5680247,-0.6390977,0.9708756,3.7736948,-1.5242774,-0.5620589,0.11784441,-5.126923,-0.12982704,1.3169554,1.5721868,-0.5736425,-0.62382233,2.7105134,0.9302906,-0.8114636,0.63515353,1.3909596,-1.0457046,1.4534701,-0.43168,1.6647196,-1.2710797,0.3062869,-3.6187127,-0.9487166,-0.09673192,1.6427242,1.7446473,-0.27617845,-3.6851184,-0.45501134,-1.5265718,-0.232585,3.133931,0.41139418,-2.6460497,1.9491793,1.7508874,1.7039376,-0.49788997,-0.69598013,-1.233403,-2.5552554,4.457487,-2.1486156,0.31474444,-1.165269,-1.7890083,-0.5659058,-0.35546547,-0.27523354,0.07263603,-1.4075599,-1.066861,-2.7142873,0.8668042,-0.7263164,-0.46945325,2.210677,-1.9946839,1.7014292,0.100928195,0.60048866,-1.6620729,1.6996108,2.5734408,-1.4514854,0.95794684,-2.4014702,-1.2160984,-2.5322258,2.0955377,-2.8912184,4.4055595,-0.011413136,3.9062274,-0.17522433,1.3878233,0.6450133,-1.365284,0.5707738,-1.1513405,-4.948479,2.2260656,-2.1324034,-2.5804589,-1.854379,-0.78534937,-0.19780844,-3.7341952,-0.24386556,0.586677,-0.4090963,-1.9795091,-4.622293,0.004043632,-1.046164,-1.2741957,-1.1252483,0.7729903,1.2778455,0.33887422,-0.09021379,-0.6020598,1.1285172,-2.9640398,0.7315918,-1.0220462,-3.4117444,3.5157118,2.3957512,-0.8980222,-4.61143,3.2284281,2.2751205,2.1973896,0.39809015,0.8970113,3.4951665,-1.2558405,0.085309975,-3.1464531,1.4400605,0.9530291,-1.482626,3.6801345,-0.6856719,-1.2259994,-1.7588484,-1.2547662,-0.7911851,-0.6186864,1.4515268,0.2595643,0.5923705,0.11561693,-3.0627704,0.09454594,2.7372832,0.8191176,2.7352867,-1.1562091,-0.122744225,2.2359664,-2.4166794,1.0036608,1.7619853,1.0279635,0.9056959,-0.98616904,-0.8515468,-0.28527427,1.9836977,-0.45709503,2.8036118,-2.4310362,-0.09273261,2.8369484,-1.9843932,-2.3154316,0.20345385,2.8585818,-1.8342376,-1.608347,0.8543339,0.7796649,-1.1889395,-1.7675514
C3L-00640,0.9934211,-0.66399324,1.0046806,-1.8879937,-0.07259071,-1.2439698,-3.4701285,0.6252191,3.1770298,-0.0056169587,2.8863404,3.3729355,-0.5115154,3.9438508,-1.1400505,2.375625,-1.0146403,0.3425959,0.9126888,-0.8476021,1.1649379,0.055098634,-1.1965373,-1.5133415,1.7120281,0.047817953,-0.766003,-1.3130233,0.42986256,0.47356117,-1.5844396,-0.12916622,2.3570936,-2.1095169,0.8232432,4.0965943,-1.3268939,-0.20428601,-0.387265,1.4402307,-2.3844767,-1.1175098,-0.9794558,1.7176486,0.6073495,0.5599441,0.5565223,-0.81053287,-0.57860327,2.7965894,1.788372,1.2340024,1.1362317,-2.0682034,-1.5024748,-0.26662132,-0.99634624,-1.4777504,-0.06592363,-1.981677,2.7816927,-2.7430947,1.9623717,1.3088542,1.1712989,-0.5377153,3.7828767,-1.3066053,-0.2919517,-1.603321,2.6954732,-0.6703962,2.719032,0.68276536,1.6828319,-2.8038936,-1.0772573,-2.0441601,0.3752041,2.3275108,2.2487564,-3.533613,-1.8858215,-1.7516218,1.0423309,4.4377317,-0.2584078,-0.29010922,-1.1174462,1.241065,3.7872972,-1.1108167,-0.5648122,-0.17183906,-5.365173,-0.50068486,1.7852699,0.9652856,-0.30149487,-0.34159434,2.7745798,1.0267584,-0.33741376,-0.010001652,1.6941826,-1.1659541,1.5084231,-0.36542735,1.3949594,-1.521091,0.005599861,-3.9801216,-0.7866631,-0.08081482,1.8112882,1.3578758,-0.46960297,-3.8094468,-0.89877313,-1.9257755,-0.36340094,2.5712914,0.24451225,-3.0738888,1.9200757,1.8507448,1.5401962,-0.7539155,-1.1283696,-1.1640408,-2.2529256,4.483734,-2.1192977,0.19996203,-0.68976855,-2.0024464,-1.1285989,-0.83836776,-0.33057833,0.59168285,-1.4220139,-0.9780215,-2.7262084,0.8039762,-0.8902988,0.12346471,2.389269,-1.7122337,1.3453817,0.3193028,0.27518636,-1.36266,1.8185651,2.6190188,-1.2760721,0.6252405,-2.096086,-1.0945354,-1.774051,2.3976443,-3.42232,4.177012,0.08296089,3.8032293,0.031872083,0.6679957,0.7106588,-1.041668,1.0888264,-0.9605729,-4.568635,1.9820424,-1.9678805,-2.7221951,-2.2996237,-0.8484304,0.0715404,-4.033373,-0.55152994,0.37993452,-1.04619,-1.4664769,-4.609191,-0.29379064,-0.7596909,-1.3453908,-1.3532143,0.93996644,1.2212546,0.21369937,0.31349233,-0.48381656,0.7215666,-2.905382,1.1668614,-1.0607041,-3.5266402,3.37621,2.368593,-0.62617517,-4.245968,3.554337,1.8755935,2.4487946,0.4446086,1.0018631,3.011709,-0.79330236,0.2277887,-3.2101305,1.7678962,0.48290163,-1.6266013,3.3716254,-0.69463784,-1.2016994,-1.4988184,-0.92534435,-0.7709375,-0.66905546,1.4603673,-0.17896324,0.5275355,-0.28814274,-2.9138477,0.51207316,2.8737578,0.9044311,2.5706818,-0.9917691,0.06528811,2.0592954,-2.3652794,1.3436146,1.8855041,1.0888081,0.2196728,-1.1581608,-0.5102887,-0.11463488,1.9873129,-0.47221935,2.8489208,-2.189227,-0.07735761,2.897429,-1.9156018,-2.3922734,-0.164255,2.7116766,-1.6514667,-1.6470526,0.5655939,1.069037,-0.70365906,-1.5430293
C3L-00189,1.0702785,-0.75632906,1.5673329,-1.5778368,-0.637979,-1.4753281,-3.56167,0.5914384,3.423243,0.05334154,3.0342338,3.0923762,-0.40500608,4.053591,-0.8788471,2.5239568,-1.1973803,0.34146783,1.0138108,-1.0509403,1.0240332,0.0035372884,-1.4896395,-1.7297509,1.482663,0.17418723,-0.8682,-1.2580597,0.8124596,0.822025,-1.8569216,-0.16851875,2.375763,-2.270077,0.62618583,3.9585018,-1.3059027,-0.11977027,-0.25156,1.4339586,-2.9638371,-1.2218875,-0.39002663,1.7110322,1.150749,0.46665463,0.42793858,-0.8652376,-0.38123778,2.745886,1.5728638,1.1293625,0.95262134,-2.370174,-1.5038673,-0.192463,-0.9629185,-1.4085475,-0.4245069,-1.6074922,2.6011016,-2.5539134,2.0814106,1.212049,0.83757603,-0.25947028,3.787537,-1.4847682,-0.78427875,-1.551789,2.9495041,-0.86316997,2.594329,1.0027535,2.1057413,-2.7836473,-1.0526558,-1.8854344,0.45039883,2.4196482,2.601606,-3.4505847,-1.2669686,-1.8912262,1.1855634,4.608458,-0.030829499,-0.42648128,-1.0308304,1.1579045,3.75508,-1.0979875,-0.71850884,0.2679373,-5.6044564,-0.29237482,1.695961,1.4491888,-0.39403832,-0.38747934,2.5492551,1.0486919,-0.40654677,-0.014265281,1.6195662,-1.254052,1.375237,-0.62770176,1.4177969,-1.3576968,-0.026885211,-3.627796,-0.85701597,-0.31620058,1.781656,1.4539183,-0.06312032,-3.5423818,-0.66253304,-1.8073876,-0.2506761,2.9820597,0.31291115,-2.6555338,1.9235339,1.9839779,1.2511926,-1.0393548,-0.9772717,-1.3791646,-2.6362622,4.8187857,-2.601675,0.25964597,-1.1698014,-1.6730111,-0.90969235,-0.7705952,-0.48389572,0.5800913,-1.2658682,-0.9317987,-2.8652701,0.6497117,-0.69182134,0.05719557,2.33001,-1.9681184,1.481197,0.37684685,0.322567,-1.5042893,1.6370575,2.9093134,-1.4938697,0.3821521,-2.2366815,-0.83426213,-2.0587978,2.4445956,-3.3993518,4.5652504,-0.119612366,3.795221,0.24781421,0.89740896,1.0852787,-1.3352216,0.78556806,-1.0404211,-4.872624,2.1498232,-2.1010573,-2.7046149,-2.3042436,-0.43088198,-0.14745985,-3.9746594,-0.4614003,0.42083058,-0.66573167,-1.9001094,-4.592303,-0.13600457,-0.6878058,-1.428386,-1.4084655,1.4274325,1.0487119,0.2936034,0.37635028,-0.96464497,1.2593291,-2.43049,0.79516864,-1.3505539,-3.4004834,3.7270586,2.096009,-0.7715892,-4.1659365,3.7254212,2.161013,2.2149446,0.4505453,0.9605589,3.3132336,-1.0625442,0.22434387,-2.8516223,1.4383812,0.4365954,-1.4543704,3.716776,-0.64005214,-0.88046145,-1.8769792,-1.290825,-0.4069758,-0.6309331,1.6618892,0.13216028,0.6749508,-0.34034008,-3.0457213,0.3941224,2.983924,0.79323435,2.7024865,-1.2051941,-0.26903436,2.3821564,-2.1497486,1.4661968,1.784649,1.0920677,0.42615733,-1.1314796,-0.4659966,-0.33398798,1.7295772,-1.0918558,2.5400858,-2.1319532,-6.5471526e-05,3.00589,-2.1831305,-2.4001386,-0.15605293,2.6651764,-1.6621763,-1.9301546,0.6299681,0.81219155,-0.9270339,-1.8515774
C3N-01998,1.0061928,-0.76342595,1.9130553,-1.6831608,-0.45117134,-1.3926032,-3.1865547,0.7525279,3.3196936,0.13551027,2.9847388,2.9452906,-0.7624112,4.0179095,-1.3009009,2.8757892,-1.1098515,0.4117919,1.427018,-1.0089562,0.931377,-0.1762786,-1.2453924,-1.5652424,1.3821579,0.26085633,-1.146224,-1.0040108,0.630774,0.35448015,-1.5161775,0.14684318,2.2391694,-2.0196848,0.4939055,3.5390904,-1.0918659,-0.10650525,-0.33787867,1.4452083,-2.815816,-1.2230415,-0.9258547,1.3305417,1.1086601,0.6308773,0.22356312,-0.5585759,-0.2716005,2.750284,1.4674795,1.1208494,0.5524476,-2.0087569,-0.8769885,-0.33141476,-1.3500668,-1.1525815,-0.22732246,-1.8430978,2.6801982,-2.2910874,2.1023657,0.8377877,1.0947493,-0.3945752,3.4958997,-1.9181907,-0.76601475,-1.2142566,3.0438554,-0.93909335,2.3960967,0.6458628,1.8444923,-3.1060145,-1.0012743,-2.0928965,0.2170121,2.4960327,2.3166256,-3.6141226,-1.3692151,-1.7731352,1.4057589,4.4522343,0.003963524,-0.14099285,-0.58448553,1.2300897,3.711276,-1.2420579,-0.23998453,-0.05004993,-5.0142365,-0.19779691,1.339051,1.6884252,-0.3443141,-0.46449256,2.8829033,1.136517,-0.7885564,0.15845792,1.4097382,-1.2700533,1.3077772,-0.054361977,1.6984909,-1.1551087,0.2397882,-3.7288167,-1.0651115,-0.30793968,1.7447693,1.6645305,-0.24633512,-3.7205224,-0.5663642,-1.7723166,-0.26970798,2.9785318,0.20106684,-2.5983727,1.8485719,1.6189797,1.6715345,-0.7299818,-0.9015053,-1.3447214,-2.4770048,4.735595,-2.0733001,0.4848902,-1.0886033,-1.7920886,-1.1367899,-0.56394917,-0.36086303,0.28685647,-1.3453573,-0.9263303,-2.8732476,0.7537916,-0.6186631,-0.24954075,2.4525757,-1.7587695,1.7670346,0.19091317,0.38036823,-1.7154493,1.6662352,3.0049334,-1.4058574,1.1541464,-2.5370786,-1.0783131,-2.2273118,2.2865856,-3.0913544,4.484505,0.0846232,3.9284062,0.11654561,0.9414424,0.32116118,-1.4181085,0.72617686,-1.170529,-4.8560944,1.831949,-2.2539432,-2.4114273,-1.9023691,-0.5989607,-0.20376194,-3.879545,-0.41605887,0.45887798,-0.264817,-2.0749347,-4.5480947,-0.24776128,-0.9124726,-1.2658465,-1.4645945,1.2844509,1.1665909,0.3380055,0.13329439,-0.79267377,1.1394192,-2.9226747,0.8565339,-0.86017483,-3.1678972,3.57335,2.134689,-1.0661778,-4.370012,3.5349958,1.9375267,2.2667508,0.46127513,1.0208535,3.3262546,-1.0760924,0.0097258715,-2.710589,1.6608434,0.5866246,-1.5212759,3.4408689,-0.67188895,-1.0085565,-1.7428584,-1.3551044,-0.54877543,-0.4173007,1.5797149,-0.06494812,0.7378358,-0.006381063,-2.8282983,0.124577485,2.9900506,1.0923795,2.6936414,-1.1285162,-0.09241544,2.4271207,-1.9734814,0.94964844,1.7386142,1.127868,0.5971989,-1.1469578,-0.8378135,-0.018618591,1.8746489,-0.3571823,2.9961064,-2.091898,0.047140703,3.190486,-1.9315945,-2.3736773,-0.1273934,2.4735088,-1.8118867,-1.7685593,0.6505187,0.70454997,-1.2433169,-1.7331444
C3L-01036,1.180995,-0.9147008,1.728277,-1.7016481,-0.6305028,-1.2834834,-3.3065665,0.8029582,3.3133829,0.030140597,3.0504475,2.937763,-0.5925536,4.2009373,-1.0077629,2.5430768,-1.0675358,0.5388586,1.3801379,-0.87327665,0.95043236,0.098511025,-1.5085222,-1.2736425,1.4922042,0.1981881,-1.3597431,-0.5167737,0.24943052,0.6873504,-1.3617538,-0.2635315,2.0227962,-2.0609844,0.69799954,3.7533405,-1.4044594,-0.101678185,-0.33785334,1.3071786,-2.5095296,-1.236956,-1.0080708,1.2587875,1.0290289,0.39114457,0.32711136,-0.8186742,-0.22479516,2.6944127,1.6902393,1.089045,1.1093557,-1.9534305,-0.72654915,-0.09810423,-1.2364385,-1.5445659,-0.07374938,-1.7349105,3.016679,-2.154142,1.8287895,0.9013837,0.98457,-0.9122809,3.3296463,-1.6117599,-0.82978463,-1.4015138,2.8674884,-1.0210972,2.498975,0.64427507,1.9235636,-3.2270215,-0.69722116,-1.700339,0.04391244,2.0976238,2.4818058,-3.2717123,-1.3297904,-1.7566273,1.1981676,4.2900586,0.018132344,-0.3258314,-0.70536625,1.3467945,3.9633884,-1.1242801,-0.46094054,-0.12925549,-5.24405,-0.21905386,1.4878254,1.5747559,-0.44026783,-0.36589935,2.4950418,1.1064792,-0.4667007,0.08513154,1.5635399,-1.0802913,0.949909,-0.23173995,1.6575494,-1.4273022,-0.08810667,-4.012161,-1.1595895,-0.16570057,1.9327582,2.0475607,0.025334554,-3.8087451,-0.9255523,-2.0317976,-0.18469581,3.2060354,-0.16031405,-2.5820982,1.5308852,1.7797081,1.61449,-0.80870134,-1.0591964,-1.2523613,-2.3976047,4.4913564,-2.159364,0.4552121,-1.4178265,-1.557543,-0.9502739,-0.26318845,-0.18815506,0.27886406,-1.4481208,-0.9353807,-2.4276216,0.85480773,-0.5102618,-0.21532248,2.5572119,-1.5183985,1.6018159,0.21595462,0.23434755,-1.6779948,1.7885836,3.123312,-1.2438524,1.1661977,-2.4169989,-1.0360239,-2.13043,2.291234,-3.320263,4.291322,-0.24903196,3.9880073,0.080659434,1.1750124,0.3339751,-1.6927667,0.84041804,-0.7937183,-4.856787,1.9188886,-1.8236343,-2.421662,-2.2072954,-0.3979966,0.01225078,-3.8422809,0.05648712,0.28211772,-0.63699114,-1.8756557,-4.788014,-0.007121212,-1.1187509,-0.9936683,-1.274914,1.2505574,1.7510582,0.15320311,0.060292672,-0.91974795,1.2324866,-2.8564696,0.91590464,-1.2988079,-3.4378192,3.3838975,2.5214455,-0.9675011,-4.477292,3.4533472,1.7541789,2.7046819,0.63387394,0.69853747,3.5640817,-1.0910456,0.019393466,-3.27143,1.6754178,0.38065436,-1.5938405,3.4318361,-1.0614578,-1.0740865,-1.7534082,-1.3309934,-0.8864214,-0.19017275,1.1690835,-0.09182933,0.87160087,-0.20076603,-2.7492266,0.24640742,2.7545996,0.92193013,2.5691667,-1.1212922,0.10001622,1.9194269,-2.3068085,1.3778397,1.9656829,0.9741434,1.0207723,-0.917602,-0.5180943,-0.253446,1.6046568,-0.6307568,3.2914736,-2.0846066,0.04026753,3.0921452,-1.9302742,-2.440579,-0.14402385,2.3333428,-1.8946918,-1.6297303,0.60060245,1.0155778,-0.929108,-1.4773796
C3N-03069,0.6379001,-0.46814632,1.56026,-1.8604026,-0.094415136,-1.2591795,-3.541205,0.78576976,3.437172,0.3720147,3.4270456,3.283967,-0.23547232,3.9766722,-0.8663602,2.7781625,-0.9963959,0.35569322,1.1049451,-0.9180139,1.0093457,-0.35509473,-1.312764,-1.5703772,1.6627648,-0.123659134,-0.82891774,-1.5914079,0.9192121,0.6616794,-1.7472941,-0.03378238,2.5524173,-2.0418684,0.7164386,4.177454,-0.8637806,-0.37521023,-0.14492443,1.9255046,-2.9630456,-1.0097649,-0.81195897,1.6504415,1.1372453,0.67086375,0.5922899,-0.2724149,-0.38791218,3.0488176,1.8644692,0.4661884,1.010868,-2.1741424,-1.4159696,-0.27595767,-1.4858776,-1.2396936,-0.07525335,-1.8342096,2.7935882,-2.4990084,1.8102347,1.1575063,0.9800275,-0.21141644,4.1830387,-1.4820894,-0.45443013,-1.9401745,2.6162574,-1.1642869,2.5992658,0.8490485,1.74532,-3.1509583,-0.6533428,-1.7526011,0.23299417,2.2100534,2.2683344,-3.2419987,-1.4989879,-2.3108351,0.8422345,4.5281296,0.09926574,-0.23945343,-0.74974465,1.1294101,3.276126,-0.9563757,-0.69227284,-0.24619597,-5.8428826,-0.5088942,1.933043,1.1657729,-0.2692913,-0.03834124,2.7757094,1.2447637,-0.23158076,0.11014257,1.7143173,-0.89643204,1.4167534,-0.34821057,1.2356015,-1.8742094,-0.13378796,-4.0120044,-1.0170077,-0.55110556,1.6090616,1.6471889,-0.73601264,-4.103666,-0.99912727,-1.5948384,-0.2020133,2.6225498,0.5003486,-3.2816174,1.6988919,1.6733277,1.9020692,-0.8422019,-1.0167907,-1.50425,-2.554134,4.8157887,-2.2000616,-0.02338366,-1.0910031,-1.7425623,-0.99167097,-1.0194604,-0.37542725,0.23640044,-1.3379389,-1.263441,-3.3081932,0.62941575,-0.9378904,0.32675713,2.7581878,-1.8453066,1.815894,-0.16079664,0.43032092,-1.3695894,2.1466742,2.8387203,-1.303122,0.85781753,-2.3118389,-0.99561656,-1.7643381,2.0183418,-3.7181413,3.8597636,-0.25891456,3.9104729,0.03169683,0.58779603,0.94966924,-1.3975322,0.86681885,-1.0572523,-4.577226,2.3998792,-2.0923,-2.7842405,-2.3999028,-0.6299997,-0.2455249,-3.7355793,-0.12453189,0.5625511,-0.6838799,-2.2842317,-4.506737,-0.41286,-0.79374146,-1.1924673,-1.60016,0.91928357,0.6183233,0.28255323,-0.012223522,-0.588671,1.2090398,-2.5047746,0.6188243,-0.9215499,-3.5262508,3.7764258,2.3273072,-0.9925245,-3.8241255,3.8710983,2.2781253,1.9358088,0.52422404,1.5216721,3.056653,-0.85396975,0.29464337,-2.8807664,1.8963629,0.4171844,-1.570468,3.7777612,-0.45642817,-0.892665,-1.252551,-1.2923019,-0.47071475,-0.43985745,1.4322485,-0.24390903,0.82068604,-0.5525468,-2.5696952,0.22537014,2.6722674,0.9204468,2.8289237,-1.5006516,0.4679104,1.939204,-1.9162545,0.9166119,2.0287669,0.74036324,0.042112578,-1.1760014,-0.38841954,0.029675098,1.9757833,-0.5879708,2.614902,-2.2556448,-0.26100183,2.9477892,-2.1767447,-2.6545863,-0.4499024,2.3593392,-2.1008017,-1.9713674,0.45328358,1.2737257,-0.98438513,-1.8696971
C3L-00881,1.4940424,-0.8418583,1.4418992,-1.7049806,-0.81071377,-1.8389857,-3.2227528,0.38791156,3.5540786,-0.15844665,2.8046978,3.3425424,-0.56687045,4.369724,-1.2405082,2.6313612,-1.1484191,0.59210473,1.2564616,-1.3397334,0.781165,-0.34009817,-1.0864788,-2.085338,1.4748793,0.2170742,-1.1159468,-0.84786063,0.4450436,0.69090265,-1.723083,0.060286988,2.1797795,-2.0748465,0.58566856,3.865342,-1.34843,0.28694013,-0.50399584,1.852027,-2.7416382,-1.129517,-1.1469797,1.4646599,0.9826061,0.69096375,0.31995168,-0.88790655,-0.570058,2.7870421,1.3635464,1.4686575,0.9093111,-2.5258522,-1.0876687,-0.48551938,-1.2235949,-1.457027,-0.43882847,-1.3973316,2.75184,-2.5558693,2.2002828,1.1503779,0.97536504,-0.70479655,3.6001046,-1.6899267,-0.7582604,-1.3803518,2.6638582,-0.86567146,2.6424158,0.7416705,1.8292817,-2.8896503,-0.855809,-1.8740933,0.38555908,2.5470343,2.5174525,-3.1975613,-1.3113056,-1.783365,1.022378,4.292901,0.03930747,-0.44023922,-0.6200934,1.1182193,3.6924796,-1.1729251,-0.5126944,-0.042782836,-5.2194376,0.017008267,1.4302949,1.4453139,-0.3645115,-0.65188354,2.6109416,0.8860094,-0.4943827,0.09650953,1.7626793,-1.275282,1.2620872,-0.1883232,1.4927927,-1.452304,-0.18695338,-3.7021258,-1.1569017,-0.12969021,1.904926,1.5472275,0.016366018,-3.7833045,-0.57151484,-1.5899987,-0.30043983,3.0567744,0.09418636,-2.420806,2.0196195,1.7922655,1.220641,-0.64560956,-1.1701046,-1.412083,-2.9033685,4.7530413,-2.234782,0.19797318,-1.0276103,-1.5477127,-0.7891084,-0.6284341,-0.5893266,0.50006735,-1.440334,-0.76966906,-2.78665,0.7862865,-0.5675552,-0.23006761,2.518063,-1.8081832,1.4858198,0.26695007,0.31853074,-1.4986819,1.3149648,2.4514492,-1.6780047,0.85777587,-2.263591,-0.8564082,-2.5398824,2.4553478,-3.165361,4.3758454,-0.052122276,3.8342826,0.1576608,1.0882528,0.5801059,-1.4057922,0.4248219,-1.136919,-4.772975,2.271338,-2.4695427,-2.6147132,-2.1611423,-0.61646956,-0.42713785,-3.8253813,-0.20649506,0.65423006,-0.48675975,-1.9328266,-4.3189716,-0.220118,-0.5055737,-1.1306083,-1.2102978,1.2897676,1.416289,0.3414291,0.035182614,-0.83544856,1.1344062,-2.669893,0.9030513,-1.3354825,-3.5779624,3.89244,2.0467737,-0.87916213,-4.1501937,3.6390522,2.0802522,2.1880002,0.33303186,0.9602228,3.2807496,-0.90470684,0.051853087,-3.0630147,1.5551594,0.76306593,-1.9898139,3.4937944,-0.7964032,-0.6781287,-1.7010357,-1.2559559,-0.6366305,-0.45494053,1.391251,0.19393386,0.5289348,0.031711802,-2.8484247,0.1899398,3.1232738,0.85516953,2.9048536,-1.1423742,-0.13950264,2.5891805,-2.0171926,0.7602259,1.7230026,0.9472644,0.7879266,-1.195119,-0.66106904,-0.33700275,2.0245402,-0.73040813,2.8782773,-2.080628,0.1985511,2.9750142,-2.284136,-2.1921878,-0.080011204,2.5751646,-2.3943853,-1.8581818,0.53139174,1.0655924,-1.2339431,-1.5478547
